// Generated by python -m tools.ml.pipeline. Do not edit.
#pragma once

#include <cstddef>
#include <eml_net.h>

static const float growbox_environment_model_layer_0_biases[32] = { -0.019830f, 0.002360f, -0.000980f, 0.115550f, 0.039490f, -0.003310f, 0.000040f, 0.031800f, -0.000920f, 0.047870f, 0.000060f, 0.000000f, 0.000000f, 0.000240f, 0.009790f, 0.010800f, -0.004110f, 0.017660f, 0.000940f, 0.000000f, 0.092780f, 0.036110f, -0.003150f, 0.018230f, 0.038560f, 0.021670f, 0.000040f, 0.015710f, -0.000980f, 0.073000f, 0.007180f, 0.040950f };
static const float growbox_environment_model_layer_0_weights[4096] = { 0.179660f, -0.000770f, 0.032480f, -0.076110f, 0.210600f, -0.005090f, 0.013800f, -0.102640f, 0.098750f, -0.096120f, 0.020200f, -0.086430f, 0.046870f, 0.071280f, -0.141020f, -0.187270f, -0.123350f, 0.147510f, -0.105780f, 0.077970f, 0.142480f, 0.117520f, 0.080970f, -0.123690f, -0.074740f, 0.194000f, -0.143960f, -0.171510f, 0.027220f, 0.169400f, -0.064690f, -0.042000f, -0.143830f, -0.000560f, -0.126280f, -0.009670f, 0.049460f, 0.093270f, -0.155850f, -0.105270f, -0.190770f, 0.097310f, 0.002480f, -0.020620f, -0.185420f, 0.145850f, 0.113070f, -0.049610f, -0.040970f, -0.000000f, -0.054320f, -0.080050f, 0.251980f, -0.008660f, 0.177000f, 0.188620f, -0.094050f, -0.143710f, 0.055020f, -0.139310f, 0.177590f, 0.013760f, 0.093370f, 0.195910f, 0.003330f, 0.066150f, -0.070480f, 0.173770f, -0.183100f, -0.141290f, 0.034140f, -0.078060f, -0.071030f, -0.151240f, 0.007260f, -0.123300f, 0.135310f, -0.183330f, -0.177440f, -0.168580f, 0.171680f, -0.188850f, 0.031470f, -0.059040f, 0.137240f, -0.003570f, -0.058910f, 0.054200f, -0.149260f, 0.128140f, -0.172640f, 0.123320f, 0.140630f, 0.178910f, -0.077740f, 0.155360f, 0.106120f, -0.114180f, -0.123310f, 0.248370f, 0.137720f, -0.171590f, -0.059250f, -0.052360f, 0.142710f, -0.032770f, -0.135190f, -0.095630f, -0.072800f, 0.049780f, 0.018750f, 0.002750f, -0.146030f, -0.067090f, 0.006170f, -0.073290f, 0.237070f, 0.195970f, -0.148410f, 0.007860f, 0.215900f, 0.154990f, 0.063300f, -0.006880f, 0.126110f, 0.138230f, 0.120670f, 0.104010f, -0.105080f, 0.127890f, -0.013060f, 0.238350f, 0.008430f, -0.187650f, -0.175240f, 0.077200f, 0.183240f, -0.006680f, 0.033980f, -0.157950f, -0.120570f, -0.093200f, 0.174390f, 0.004540f, 0.073690f, -0.142800f, 0.062840f, 0.089880f, 0.252130f, 0.105070f, -0.138340f, -0.031940f, 0.105440f, -0.092760f, 0.024190f, 0.161310f, -0.171110f, 0.223910f, 0.085280f, 0.224320f, -0.046850f, 0.053610f, -0.046910f, 0.063250f, -0.120580f, -0.061270f, 0.166460f, 0.076060f, -0.032890f, 0.180020f, 0.147020f, -0.140350f, -0.060540f, -0.063000f, -0.110810f, 0.089190f, 0.047250f, 0.146520f, 0.135080f, -0.186450f, -0.073290f, 0.159340f, 0.143630f, 0.077700f, 0.198790f, 0.105620f, -0.148310f, 0.026980f, -0.131290f, 0.108110f, -0.039690f, 0.030200f, -0.098350f, 0.169640f, -0.015310f, 0.036660f, 0.185270f, -0.127000f, 0.115080f, 0.155380f, 0.050280f, -0.051220f, -0.042610f, -0.152520f, -0.060330f, -0.172330f, 0.037140f, 0.175210f, -0.157620f, 0.040000f, 0.148520f, 0.185600f, 0.100170f, 0.195700f, 0.169770f, 0.168230f, 0.094310f, 0.142490f, 0.160830f, 0.124290f, -0.093750f, 0.076010f, -0.000220f, 0.172330f, -0.119350f, 0.142090f, -0.057300f, -0.112860f, 0.156350f, -0.147690f, -0.124600f, -0.045750f, 0.117100f, 0.197400f, -0.190310f, 0.017720f, -0.000550f, -0.177300f, 0.145670f, 0.027170f, 0.031730f, 0.178550f, -0.080470f, -0.114480f, 0.043410f, 0.095600f, -0.116730f, -0.186490f, 0.092180f, -0.191390f, -0.137250f, 0.052010f, 0.173730f, -0.002620f, 0.031880f, 0.018450f, 0.097690f, -0.020220f, 0.058840f, -0.075110f, 0.148260f, 0.111430f, -0.120060f, -0.056410f, -0.162660f, 0.038970f, -0.052860f, -0.151240f, -0.184180f, -0.191650f, 0.144420f, -0.118840f, -0.008450f, -0.102490f, -0.070020f, -0.156420f, -0.004240f, 0.206280f, -0.029430f, -0.136250f, 0.079710f, 0.166320f, -0.048930f, 0.128830f, -0.059920f, -0.147270f, 0.038000f, 0.182290f, 0.105520f, 0.123970f, 0.089960f, -0.002020f, 0.025070f, -0.037870f, -0.027460f, 0.011220f, -0.173610f, -0.129960f, 0.103010f, 0.026580f, 0.108600f, -0.097220f, -0.052740f, -0.140980f, 0.170220f, 0.046150f, 0.046660f, -0.147450f, -0.125760f, -0.072290f, -0.040550f, -0.020360f, -0.000890f, 0.057740f, -0.059630f, 0.068130f, -0.042230f, 0.136420f, 0.124490f, 0.087100f, 0.131300f, -0.041600f, -0.031320f, 0.099270f, 0.156720f, 0.138730f, 0.130790f, 0.088210f, -0.045460f, -0.034500f, -0.193320f, -0.176280f, 0.148990f, 0.096690f, -0.139230f, -0.122380f, -0.134690f, 0.119610f, 0.018210f, 0.147440f, -0.089630f, 0.067250f, -0.021890f, -0.000070f, 0.010030f, 0.141820f, 0.078850f, 0.057430f, 0.090230f, 0.082530f, 0.126120f, -0.083660f, -0.017260f, -0.123030f, -0.014510f, 0.168810f, -0.073530f, -0.076560f, -0.109530f, -0.084640f, 0.022720f, -0.057820f, -0.147930f, -0.052670f, -0.149590f, -0.139840f, -0.040040f, 0.135080f, 0.043350f, 0.023810f, -0.013100f, -0.004200f, 0.001040f, -0.013370f, 0.077730f, 0.187810f, 0.228350f, -0.089780f, -0.138530f, 0.185560f, -0.015480f, -0.065780f, 0.099310f, 0.210160f, -0.017550f, 0.045670f, -0.188840f, 0.131580f, 0.019440f, 0.028550f, -0.037810f, -0.137000f, 0.053780f, -0.078470f, 0.021900f, -0.185660f, -0.174980f, 0.017340f, 0.048660f, 0.085040f, -0.100990f, 0.064420f, -0.050550f, 0.107500f, -0.047520f, 0.205250f, -0.143450f, -0.015650f, -0.057680f, -0.113800f, -0.176970f, 0.010540f, 0.100480f, 0.183250f, 0.082380f, -0.053280f, 0.080560f, -0.124950f, -0.039580f, 0.246050f, 0.177500f, -0.096720f, 0.052270f, 0.172330f, -0.181650f, -0.089910f, 0.106140f, 0.019820f, -0.130710f, 0.061660f, 0.115710f, -0.009030f, -0.138700f, -0.078340f, -0.001870f, -0.051910f, 0.191480f, 0.200390f, 0.079930f, 0.152730f, -0.036620f, -0.131200f, 0.131980f, -0.019640f, 0.083550f, -0.014030f, 0.103800f, -0.033320f, -0.099510f, 0.072610f, -0.174220f, -0.008580f, 0.149740f, 0.102790f, -0.178300f, -0.125890f, 0.066580f, -0.024130f, -0.050000f, 0.019910f, -0.111460f, -0.090180f, 0.075250f, -0.051310f, 0.086880f, -0.104150f, 0.103450f, -0.189330f, 0.060120f, 0.049460f, 0.020550f, 0.099810f, -0.107630f, 0.060670f, 0.105670f, 0.007140f, 0.098300f, 0.072960f, 0.039950f, 0.088860f, -0.054030f, -0.048660f, 0.039050f, 0.237180f, 0.167950f, 0.030900f, -0.000230f, 0.054870f, -0.085030f, -0.148930f, 0.192190f, -0.062880f, -0.050760f, 0.177570f, 0.026280f, -0.142510f, -0.177150f, -0.156870f, -0.138400f, -0.006670f, 0.161490f, -0.027590f, 0.103920f, -0.131630f, -0.061150f, 0.076650f, -0.160410f, -0.080850f, -0.150230f, 0.090650f, -0.095880f, -0.007590f, -0.144360f, -0.140560f, -0.177990f, 0.211360f, 0.034240f, -0.087180f, 0.115950f, 0.010360f, -0.082810f, 0.062350f, -0.022670f, 0.115390f, -0.125130f, -0.038900f, -0.135080f, 0.182520f, -0.012920f, -0.133750f, 0.164810f, 0.111940f, 0.078950f, -0.063370f, 0.147670f, -0.017580f, 0.137340f, 0.055630f, 0.175960f, 0.189330f, 0.043700f, -0.015440f, -0.170350f, 0.018290f, 0.169830f, 0.157790f, 0.023160f, 0.205310f, 0.195000f, -0.094350f, 0.182660f, 0.152110f, 0.192140f, 0.128760f, -0.087280f, 0.079850f, 0.031060f, -0.096090f, -0.020740f, 0.114610f, 0.066180f, 0.186880f, -0.150800f, -0.163050f, -0.045300f, -0.058080f, -0.095590f, 0.033040f, -0.048540f, 0.163980f, 0.008390f, 0.160510f, 0.155590f, 0.182930f, 0.149420f, -0.169260f, -0.080750f, -0.188620f, -0.120800f, -0.164080f, -0.066370f, 0.188770f, 0.107140f, 0.100690f, -0.074070f, 0.117030f, -0.131640f, -0.084180f, 0.155970f, 0.169170f, -0.035470f, -0.129180f, -0.174020f, -0.118820f, -0.054290f, 0.193130f, 0.011900f, -0.039850f, -0.026530f, -0.021180f, 0.186190f, 0.155590f, -0.091920f, -0.039030f, -0.171960f, -0.130120f, 0.138280f, 0.149690f, 0.123510f, 0.191730f, -0.075720f, -0.057500f, 0.193230f, -0.066560f, -0.155410f, 0.141290f, -0.114420f, -0.129710f, 0.122160f, 0.091160f, -0.040510f, -0.035190f, -0.061550f, 0.027480f, 0.066350f, -0.176270f, -0.069360f, -0.026640f, 0.215890f, -0.086750f, 0.156370f, 0.107400f, 0.155270f, 0.174290f, -0.051420f, 0.172770f, 0.192170f, 0.162580f, -0.046300f, 0.181300f, 0.047180f, 0.035200f, 0.075660f, 0.160590f, -0.168110f, 0.143900f, -0.131190f, 0.196610f, 0.017500f, 0.201200f, -0.130500f, -0.106160f, -0.167490f, -0.061690f, -0.117680f, -0.148110f, 0.046000f, 0.055470f, -0.167630f, 0.102150f, 0.119010f, 0.095830f, -0.018930f, 0.073460f, -0.158610f, 0.190180f, -0.054010f, 0.126580f, -0.092370f, 0.131070f, 0.128750f, 0.067940f, 0.036440f, -0.012410f, -0.013340f, -0.129270f, 0.131950f, -0.001300f, -0.153560f, 0.057370f, -0.044180f, -0.115060f, -0.053570f, 0.170550f, -0.037480f, 0.082980f, -0.031170f, -0.152870f, 0.152460f, 0.170870f, -0.046960f, 0.145610f, 0.155030f, 0.052890f, 0.187740f, 0.116090f, -0.001720f, 0.193450f, 0.004730f, 0.167040f, -0.188370f, 0.220010f, 0.069380f, -0.017290f, -0.125440f, -0.042690f, 0.020750f, 0.115310f, 0.043440f, 0.144360f, -0.061730f, 0.011730f, 0.143500f, 0.178690f, -0.178650f, -0.062940f, 0.070090f, -0.042290f, 0.161010f, 0.098510f, 0.090170f, 0.098240f, -0.184190f, -0.059980f, -0.002460f, 0.165380f, -0.151140f, 0.149130f, -0.140800f, -0.009700f, 0.055440f, -0.051880f, -0.097330f, 0.202140f, -0.085190f, -0.035920f, -0.091290f, 0.136370f, 0.117540f, 0.007010f, 0.142570f, 0.059170f, 0.158300f, 0.132260f, -0.063370f, -0.107510f, 0.120960f, 0.179460f, -0.109430f, -0.051290f, -0.174120f, 0.067020f, -0.143450f, -0.120260f, 0.191540f, -0.055340f, -0.029360f, 0.002490f, 0.094510f, 0.174290f, 0.079790f, 0.042300f, -0.159910f, -0.165160f, -0.004220f, 0.046850f, -0.092690f, 0.087380f, 0.104040f, 0.114850f, -0.095950f, 0.088160f, 0.149040f, -0.019370f, -0.062390f, 0.066000f, -0.040850f, 0.112820f, -0.075430f, -0.178030f, -0.032330f, 0.115880f, -0.149580f, -0.159760f, -0.103070f, 0.063850f, 0.113950f, -0.014520f, 0.170100f, 0.009810f, -0.132170f, -0.094780f, 0.189980f, 0.004930f, 0.085190f, -0.187940f, 0.004160f, 0.000440f, -0.123510f, -0.137160f, 0.097710f, -0.076210f, 0.167090f, 0.133270f, -0.064070f, 0.167050f, 0.087510f, 0.159160f, -0.008950f, 0.211500f, 0.012340f, -0.089590f, -0.157140f, 0.119100f, 0.097490f, -0.097200f, 0.131250f, 0.102880f, 0.046180f, -0.142600f, 0.115730f, 0.050590f, -0.024110f, -0.144500f, -0.091280f, -0.160570f, 0.013910f, 0.004790f, -0.013240f, 0.004530f, -0.146270f, 0.133960f, 0.041190f, 0.017920f, -0.023830f, 0.180290f, -0.118590f, 0.071550f, -0.071840f, 0.077720f, 0.076830f, -0.083320f, -0.191870f, 0.006570f, -0.064190f, -0.170240f, -0.048820f, 0.006670f, -0.082780f, -0.043690f, 0.003160f, -0.136400f, 0.113250f, -0.066480f, 0.167800f, 0.105590f, -0.048470f, 0.023950f, 0.074030f, 0.184010f, -0.018060f, 0.129180f, -0.119260f, 0.209010f, -0.027480f, 0.065620f, 0.007860f, 0.192090f, -0.097100f, 0.002300f, 0.049230f, 0.174040f, 0.036150f, 0.113470f, 0.167770f, -0.152280f, 0.022260f, 0.165730f, -0.096930f, -0.059920f, 0.027670f, -0.163890f, -0.168110f, -0.037900f, 0.105280f, 0.176770f, 0.124950f, -0.173070f, 0.209590f, 0.100710f, 0.051410f, 0.177470f, 0.038930f, -0.180690f, 0.053560f, -0.079450f, -0.171870f, -0.118470f, -0.018970f, 0.168620f, -0.195570f, 0.021460f, 0.061230f, -0.130300f, 0.164720f, 0.005370f, -0.053350f, -0.088020f, 0.179460f, -0.118990f, 0.171800f, 0.129910f, -0.077070f, 0.157680f, -0.106170f, -0.086150f, -0.068730f, 0.110690f, -0.118000f, -0.029320f, 0.053450f, 0.015760f, -0.078870f, -0.115980f, -0.111620f, 0.132490f, 0.190280f, -0.171140f, -0.038290f, 0.131620f, -0.080760f, 0.092250f, 0.011620f, 0.177490f, -0.184780f, -0.077760f, 0.030650f, 0.129880f, 0.192000f, -0.095170f, 0.117490f, 0.097410f, -0.112070f, 0.167400f, 0.092490f, 0.191520f, 0.014810f, 0.138650f, -0.006450f, -0.179600f, 0.097740f, -0.085100f, -0.103400f, -0.068780f, 0.171870f, 0.060500f, 0.147960f, -0.153990f, 0.157740f, -0.153010f, 0.162090f, 0.164040f, 0.021120f, 0.217090f, -0.140780f, 0.162020f, 0.184000f, 0.175060f, -0.062500f, 0.018870f, -0.037020f, 0.110090f, 0.126680f, 0.038390f, 0.186570f, 0.175230f, -0.037890f, 0.055110f, 0.020950f, -0.109370f, -0.136670f, 0.032140f, 0.082490f, -0.046320f, -0.117980f, -0.048920f, 0.047640f, -0.105640f, 0.001010f, 0.218460f, -0.159400f, 0.031930f, -0.151410f, -0.153950f, 0.146910f, 0.024300f, 0.043560f, 0.135650f, -0.129860f, -0.099570f, 0.013520f, -0.093630f, -0.045440f, 0.191990f, -0.188750f, -0.051200f, -0.048640f, 0.147840f, 0.062110f, 0.165860f, -0.135300f, -0.171150f, 0.079990f, -0.154940f, 0.175580f, -0.089640f, -0.160880f, -0.177030f, 0.075110f, 0.133160f, -0.115780f, -0.025670f, 0.128230f, 0.158390f, -0.135170f, -0.029870f, -0.067060f, 0.218030f, 0.174370f, -0.085530f, -0.115450f, -0.094840f, -0.139030f, -0.094710f, -0.108140f, 0.091410f, -0.079700f, -0.153930f, -0.152130f, 0.069970f, 0.113930f, 0.132750f, 0.086900f, 0.019370f, 0.093210f, 0.161810f, -0.025510f, 0.052320f, 0.079620f, 0.089980f, -0.116860f, -0.126190f, 0.168920f, 0.119670f, 0.105390f, -0.027170f, -0.055390f, 0.117620f, 0.127220f, -0.063920f, -0.176970f, 0.136880f, 0.169780f, -0.168670f, 0.151390f, 0.119570f, -0.024910f, 0.013000f, -0.169810f, 0.030460f, -0.190440f, -0.061230f, -0.119250f, 0.049760f, -0.126350f, -0.123480f, -0.063290f, 0.125710f, -0.138680f, -0.078540f, 0.089600f, 0.180240f, 0.140070f, 0.028830f, 0.156670f, 0.038350f, -0.031370f, 0.061010f, 0.110090f, 0.053040f, 0.067400f, 0.022460f, -0.157880f, -0.107710f, -0.056820f, -0.055870f, 0.120430f, 0.126280f, -0.113850f, -0.060600f, 0.085670f, -0.064580f, 0.048880f, 0.009810f, 0.119450f, -0.058310f, -0.156730f, 0.102140f, 0.113600f, -0.128970f, 0.206390f, -0.134630f, 0.145050f, -0.123940f, 0.040800f, 0.086530f, -0.045400f, -0.050020f, -0.070670f, 0.075350f, 0.028030f, 0.086430f, 0.051600f, -0.120050f, 0.109320f, 0.178030f, 0.099980f, 0.135410f, 0.160220f, -0.155700f, -0.157660f, -0.091150f, 0.144550f, -0.146770f, -0.088870f, 0.046790f, -0.041880f, 0.000680f, -0.172720f, -0.163800f, 0.150530f, 0.113330f, 0.085640f, -0.167950f, -0.075370f, 0.032010f, -0.081640f, 0.122510f, 0.010390f, -0.068680f, 0.028680f, 0.167040f, 0.005850f, 0.123660f, -0.060860f, -0.031430f, -0.019530f, -0.167270f, -0.052320f, 0.028370f, -0.124090f, -0.139930f, -0.092280f, -0.147090f, 0.187800f, 0.088960f, 0.054710f, -0.038200f, -0.104120f, -0.049080f, -0.178080f, 0.130690f, 0.003390f, -0.026220f, -0.025730f, 0.084590f, -0.167720f, -0.002420f, -0.007120f, 0.143440f, -0.132020f, 0.172850f, 0.019310f, 0.042710f, 0.148440f, -0.100450f, 0.105000f, -0.068170f, 0.012250f, -0.128950f, -0.084480f, -0.115050f, 0.066730f, 0.012760f, -0.186840f, 0.139210f, 0.165210f, -0.163690f, -0.190100f, 0.147110f, 0.174970f, -0.153140f, 0.041280f, -0.023740f, 0.177980f, -0.075600f, 0.180980f, 0.081420f, 0.169120f, -0.092140f, -0.002390f, 0.078500f, 0.099860f, -0.125540f, -0.038910f, 0.121140f, 0.171870f, 0.068720f, -0.166770f, -0.057360f, 0.001670f, 0.021970f, -0.122870f, -0.159400f, 0.132080f, 0.148230f, -0.163570f, -0.110500f, -0.073980f, -0.109810f, 0.138420f, 0.001780f, -0.071310f, 0.181950f, -0.064640f, 0.144890f, -0.118780f, -0.190420f, -0.191180f, 0.062530f, 0.024700f, 0.107220f, 0.131720f, -0.091760f, 0.117600f, -0.148600f, -0.193520f, 0.088070f, 0.046660f, -0.063660f, 0.117930f, 0.271800f, 0.155270f, -0.000470f, -0.024820f, 0.217530f, 0.185720f, 0.139000f, 0.108790f, -0.136620f, 0.091270f, 0.184900f, 0.109400f, 0.204370f, -0.070800f, 0.126700f, 0.041840f, 0.066880f, 0.155960f, -0.020760f, -0.158020f, 0.221420f, -0.094770f, -0.103160f, -0.023850f, 0.052010f, -0.134490f, 0.240200f, -0.052080f, -0.163220f, -0.041800f, 0.004360f, 0.146820f, 0.137710f, 0.082860f, 0.174160f, 0.089530f, 0.085430f, 0.026420f, -0.186060f, 0.192770f, -0.017700f, 0.003300f, -0.154430f, 0.174710f, 0.173580f, -0.133200f, 0.161220f, 0.110550f, 0.029720f, -0.189270f, 0.174920f, 0.135030f, -0.114540f, -0.083870f, -0.005000f, -0.073270f, 0.099820f, -0.133170f, 0.137900f, 0.037430f, -0.006080f, -0.119470f, 0.073650f, -0.155950f, 0.091370f, 0.187520f, -0.051910f, 0.116390f, -0.138810f, -0.103720f, -0.059880f, -0.154650f, 0.118880f, -0.140090f, 0.100760f, 0.100220f, 0.142160f, -0.046480f, 0.109830f, -0.164670f, -0.169470f, 0.235400f, -0.134110f, 0.114700f, 0.025890f, -0.123610f, -0.086320f, 0.070650f, 0.021500f, 0.183210f, -0.115110f, 0.032240f, -0.132650f, 0.116590f, -0.182090f, 0.020410f, 0.171270f, 0.095550f, 0.087370f, 0.011200f, 0.113350f, -0.128900f, 0.134830f, -0.116300f, -0.158390f, -0.004540f, 0.017040f, 0.100140f, -0.059530f, 0.050880f, -0.117430f, -0.181970f, -0.174210f, -0.130620f, -0.125200f, 0.198740f, 0.213840f, 0.086740f, 0.095860f, -0.182880f, 0.152120f, -0.183420f, 0.222630f, 0.157070f, 0.072090f, -0.189830f, -0.080060f, -0.079690f, 0.086520f, -0.088680f, -0.193210f, -0.077790f, 0.114530f, 0.064260f, 0.042630f, -0.134200f, -0.015940f, -0.051390f, -0.112220f, 0.128330f, 0.061810f, -0.023320f, -0.128950f, 0.172380f, 0.059410f, 0.091220f, 0.154430f, 0.094020f, -0.050200f, 0.099510f, 0.096420f, -0.181550f, 0.054510f, -0.063550f, 0.114550f, -0.098530f, 0.041680f, 0.130490f, 0.072430f, 0.155840f, -0.060470f, 0.077060f, 0.097900f, 0.043120f, -0.174570f, 0.091310f, -0.091670f, -0.161990f, -0.064460f, 0.030850f, 0.105910f, 0.017580f, -0.043810f, -0.149150f, -0.022380f, 0.045870f, 0.022830f, -0.116650f, 0.008860f, -0.097150f, -0.183530f, -0.155310f, -0.054030f, -0.193070f, 0.047790f, 0.054280f, 0.057870f, 0.007060f, 0.186510f, -0.171170f, 0.162010f, -0.148530f, -0.002730f, 0.070270f, 0.076140f, 0.046530f, 0.135050f, -0.125000f, 0.054620f, -0.019460f, 0.042910f, 0.108280f, 0.119380f, -0.089010f, -0.109630f, 0.178050f, 0.163800f, 0.007830f, -0.065180f, 0.283080f, 0.039710f, 0.097650f, 0.095620f, -0.111690f, 0.047710f, -0.063780f, 0.051510f, -0.168810f, 0.019010f, -0.105400f, 0.064980f, 0.173450f, 0.192280f, -0.032600f, -0.189370f, 0.022440f, -0.079480f, -0.055880f, 0.036530f, -0.187040f, -0.174120f, 0.136310f, -0.068610f, 0.155690f, 0.081970f, -0.026650f, 0.017210f, -0.095450f, 0.040870f, -0.005880f, 0.147580f, 0.133750f, 0.167640f, -0.096820f, 0.109800f, 0.091890f, -0.150180f, -0.110120f, 0.071770f, -0.059520f, 0.032800f, 0.135420f, -0.041250f, -0.125400f, -0.165880f, -0.159200f, 0.021140f, 0.226440f, -0.143520f, 0.180690f, 0.122990f, -0.091960f, -0.047890f, -0.180960f, 0.091070f, -0.149170f, 0.156400f, 0.181930f, 0.058760f, -0.136100f, -0.170150f, -0.032110f, 0.103610f, 0.075570f, 0.012210f, -0.042500f, 0.045720f, 0.184910f, -0.037290f, -0.131320f, 0.014590f, -0.175600f, -0.037820f, -0.055600f, -0.037690f, 0.055720f, -0.185530f, -0.090160f, -0.105450f, 0.132030f, 0.030590f, 0.104910f, 0.028610f, -0.166470f, -0.103500f, 0.095320f, -0.030400f, 0.047030f, 0.159990f, -0.004760f, -0.054710f, 0.135150f, 0.052790f, 0.049140f, -0.178710f, 0.053410f, -0.153770f, 0.109200f, -0.131190f, -0.095220f, -0.017340f, -0.102180f, -0.186990f, -0.189870f, 0.186280f, 0.148730f, 0.097390f, -0.043540f, -0.173400f, -0.049790f, 0.021140f, 0.041300f, -0.188190f, -0.193520f, 0.096710f, 0.097880f, 0.175700f, -0.134880f, -0.030870f, 0.181280f, 0.097100f, -0.176010f, -0.010210f, -0.100520f, -0.079080f, -0.097690f, -0.155580f, 0.171870f, 0.129690f, 0.060630f, 0.073710f, -0.124540f, 0.064000f, -0.010820f, 0.119490f, -0.093340f, 0.225420f, -0.109420f, -0.094990f, 0.129140f, -0.095360f, -0.134620f, -0.101990f, -0.134880f, -0.004900f, -0.113460f, -0.088110f, -0.118560f, 0.040730f, -0.141300f, 0.174730f, -0.191770f, 0.062670f, 0.121040f, -0.179280f, -0.124530f, 0.157460f, 0.047010f, -0.033610f, 0.135810f, 0.081920f, -0.173280f, -0.187080f, 0.122710f, -0.066710f, 0.012260f, 0.016100f, 0.033180f, 0.067780f, -0.049830f, 0.014570f, 0.161730f, 0.131980f, 0.066520f, 0.123190f, -0.078710f, -0.183070f, -0.181480f, -0.161960f, 0.149760f, 0.194570f, 0.097040f, -0.147310f, 0.091530f, 0.170890f, -0.033250f, 0.041520f, -0.128890f, 0.131670f, 0.036950f, -0.065260f, -0.108400f, -0.161440f, 0.134370f, -0.097240f, 0.003670f, 0.118090f, -0.168810f, 0.040820f, 0.122120f, -0.060550f, -0.127280f, 0.104070f, 0.163420f, 0.136710f, -0.082000f, 0.166380f, -0.146500f, 0.073490f, 0.124750f, -0.045790f, -0.033760f, -0.071990f, 0.116590f, -0.097550f, -0.190580f, -0.070810f, -0.041910f, 0.188180f, -0.006910f, 0.153400f, -0.143890f, 0.104010f, -0.017600f, -0.175900f, 0.121910f, -0.096250f, -0.149060f, 0.113080f, -0.110690f, 0.043310f, 0.159240f, 0.167910f, 0.076520f, 0.050720f, -0.048590f, -0.073750f, -0.035890f, -0.067190f, 0.074820f, 0.155680f, 0.017390f, 0.016620f, -0.140510f, 0.003760f, 0.126330f, -0.011900f, 0.059320f, -0.123310f, 0.111720f, 0.172590f, -0.062110f, -0.166080f, -0.094880f, 0.176540f, -0.166660f, 0.065540f, 0.064130f, 0.173880f, 0.106980f, 0.005740f, -0.110360f, -0.118440f, -0.150880f, 0.056800f, -0.017300f, 0.161060f, -0.126840f, 0.004120f, -0.151380f, 0.183930f, 0.049980f, 0.146210f, -0.099790f, -0.130220f, 0.058800f, 0.168310f, -0.187130f, -0.127100f, 0.067160f, -0.062840f, -0.129010f, 0.103970f, -0.072550f, 0.035410f, -0.081120f, -0.181390f, -0.178020f, 0.059960f, -0.076210f, 0.162030f, 0.043350f, -0.123750f, -0.093700f, 0.137920f, -0.105510f, -0.149990f, 0.013020f, -0.034700f, -0.094420f, 0.166970f, 0.122010f, -0.014270f, -0.056260f, 0.078870f, -0.057720f, 0.001290f, 0.016730f, 0.179220f, -0.129170f, 0.053150f, 0.035360f, 0.001070f, -0.048440f, 0.045990f, 0.186770f, 0.013690f, -0.185630f, 0.133610f, -0.121630f, 0.099830f, -0.120420f, -0.120150f, -0.010680f, 0.006850f, 0.160900f, -0.034400f, -0.081410f, -0.151980f, -0.002800f, -0.048460f, -0.158090f, -0.160100f, -0.048440f, 0.007860f, 0.184360f, -0.019710f, 0.191590f, 0.032100f, 0.001950f, -0.138270f, -0.067590f, 0.027940f, 0.081680f, -0.177920f, 0.088730f, -0.116990f, -0.145350f, -0.053080f, 0.108470f, -0.034520f, 0.147210f, -0.062300f, -0.083760f, 0.100940f, -0.140520f, -0.108670f, 0.153310f, -0.058590f, -0.186260f, 0.224760f, -0.177270f, 0.007420f, 0.084400f, -0.101490f, -0.098170f, -0.088040f, -0.008440f, 0.054880f, -0.188660f, -0.150750f, -0.001450f, -0.123410f, 0.097000f, -0.081830f, 0.132430f, -0.039840f, -0.185850f, 0.177590f, -0.138860f, -0.144490f, 0.009760f, -0.070300f, -0.007750f, 0.094430f, -0.004000f, 0.125270f, 0.021240f, -0.058180f, 0.094000f, -0.140420f, -0.126180f, 0.058050f, -0.077040f, -0.030570f, -0.128840f, -0.131040f, -0.195380f, -0.073520f, -0.027210f, 0.032050f, 0.160570f, -0.162290f, 0.097730f, -0.008350f, 0.095360f, 0.011540f, 0.152200f, -0.097650f, 0.171740f, 0.095750f, -0.156900f, 0.099830f, -0.187620f, -0.096970f, 0.022340f, -0.059620f, 0.081800f, -0.184370f, 0.139710f, 0.015370f, 0.193070f, -0.056820f, 0.134100f, 0.204460f, 0.179900f, 0.055490f, -0.180450f, -0.063110f, 0.077500f, -0.049520f, -0.011340f, 0.118400f, -0.139400f, -0.130790f, -0.192880f, 0.011600f, -0.082490f, 0.056650f, 0.028140f, -0.009480f, 0.061790f, -0.071250f, -0.155010f, -0.165770f, 0.096550f, 0.086040f, -0.025920f, 0.076140f, -0.153110f, -0.019040f, 0.046470f, -0.131650f, -0.039630f, 0.152100f, 0.128200f, 0.136490f, -0.038850f, -0.017290f, -0.038370f, 0.151590f, 0.032000f, -0.055010f, 0.204560f, -0.151970f, -0.152410f, -0.083450f, 0.098880f, 0.089790f, 0.025440f, 0.003380f, -0.088710f, -0.117350f, -0.100780f, -0.079430f, -0.147570f, -0.097620f, 0.119180f, 0.029440f, 0.015560f, 0.123590f, 0.017430f, 0.141250f, -0.043450f, -0.093440f, 0.101920f, -0.088080f, -0.092650f, -0.038200f, 0.113780f, -0.004130f, -0.000780f, 0.172240f, 0.025810f, -0.126660f, -0.011100f, 0.141610f, 0.036560f, 0.135280f, -0.107320f, 0.057000f, -0.166630f, 0.074070f, -0.132310f, 0.085470f, -0.173970f, -0.101670f, 0.059090f, -0.130220f, 0.044490f, 0.027010f, 0.214370f, -0.079240f, -0.019150f, 0.265080f, -0.279680f, -0.064710f, -0.045200f, 0.160470f, -0.128720f, -0.012450f, -0.185520f, -0.080020f, 0.137940f, 0.031000f, 0.102180f, 0.104580f, 0.050750f, -0.175290f, -0.074200f, -0.192630f, -0.041560f, 0.056160f, 0.045050f, -0.077050f, -0.052010f, 0.107820f, 0.131690f, -0.039090f, 0.163410f, 0.102630f, -0.036910f, 0.081380f, -0.164260f, -0.136700f, 0.049040f, 0.077620f, -0.064400f, -0.014650f, -0.171020f, -0.059190f, 0.118070f, 0.163030f, 0.205170f, 0.074860f, -0.030260f, -0.051120f, 0.179520f, -0.170390f, -0.186220f, -0.062460f, -0.027610f, 0.121850f, 0.175080f, -0.080280f, -0.053340f, 0.160570f, 0.013960f, -0.020460f, -0.166830f, -0.071750f, -0.068090f, 0.016800f, -0.051150f, -0.109980f, -0.174940f, -0.014340f, -0.064750f, -0.033040f, -0.148980f, 0.082670f, -0.138850f, 0.176180f, -0.053190f, -0.076410f, -0.013690f, 0.025270f, -0.001480f, 0.131090f, 0.037020f, 0.192920f, -0.127170f, 0.181980f, 0.162180f, -0.040770f, 0.089000f, -0.117860f, -0.174460f, 0.185870f, -0.038410f, -0.153350f, -0.121610f, 0.167970f, -0.136310f, -0.046190f, -0.015060f, -0.132610f, -0.080170f, 0.004310f, -0.054810f, 0.121740f, 0.067920f, 0.035640f, 0.186090f, 0.124140f, -0.189870f, -0.195870f, 0.126440f, -0.023060f, -0.119710f, -0.055930f, -0.166490f, 0.113130f, -0.142440f, 0.078590f, 0.171010f, -0.210370f, -0.075590f, 0.056570f, 0.069550f, -0.138220f, 0.150620f, -0.125000f, -0.041680f, -0.188040f, 0.146250f, 0.060720f, -0.193510f, 0.168370f, -0.201950f, -0.060370f, 0.205260f, -0.119830f, 0.216390f, -0.093840f, -0.121760f, -0.173020f, -0.006370f, 0.039630f, -0.079860f, -0.138750f, -0.051970f, -0.008630f, 0.103390f, -0.074360f, 0.052510f, -0.037480f, -0.092580f, 0.163230f, 0.126660f, -0.102760f, -0.079280f, -0.132580f, 0.110190f, -0.042150f, -0.093460f, 0.140090f, 0.061460f, 0.170010f, -0.067480f, 0.102170f, 0.047910f, 0.120710f, 0.123060f, 0.189440f, -0.071450f, 0.163280f, 0.047200f, 0.083690f, 0.104170f, 0.185200f, 0.076030f, 0.002200f, -0.092290f, -0.171630f, 0.057280f, -0.169240f, -0.124220f, -0.113700f, -0.118810f, 0.170850f, -0.011290f, 0.165800f, -0.055270f, 0.178860f, 0.031490f, 0.117520f, -0.010140f, 0.138300f, -0.104410f, -0.053180f, 0.009840f, 0.084770f, -0.045460f, -0.021900f, -0.127110f, -0.135920f, 0.086690f, -0.016860f, -0.097220f, -0.031240f, 0.187110f, 0.061440f, -0.183870f, -0.066780f, -0.031360f, 0.010180f, -0.102760f, -0.174070f, -0.165510f, -0.072960f, 0.091560f, 0.070280f, 0.068670f, -0.158130f, -0.034930f, 0.113890f, -0.036340f, -0.059130f, 0.179600f, -0.115650f, 0.001260f, -0.154480f, 0.115730f, 0.178650f, -0.033920f, 0.188350f, 0.050710f, -0.024480f, 0.110840f, -0.138440f, -0.088080f, 0.130950f, -0.048660f, -0.032990f, -0.080860f, -0.112460f, -0.111530f, -0.011270f, 0.113430f, -0.016330f, 0.131180f, 0.158770f, -0.065500f, -0.053140f, 0.061790f, -0.152010f, 0.119880f, -0.013320f, 0.169140f, 0.161580f, 0.043490f, 0.102390f, 0.170420f, -0.005050f, -0.051400f, -0.130970f, -0.016300f, 0.029420f, 0.049060f, 0.049150f, 0.136630f, -0.096250f, -0.039140f, -0.141050f, 0.137870f, -0.135570f, 0.191510f, 0.093580f, -0.072760f, 0.012930f, -0.118890f, 0.106440f, 0.120420f, 0.155920f, 0.117410f, 0.003170f, 0.067920f, -0.130830f, 0.179340f, -0.131760f, 0.001150f, -0.092670f, -0.183950f, 0.140540f, 0.154260f, -0.175510f, -0.123190f, 0.131380f, -0.010760f, -0.080890f, 0.166680f, -0.081930f, -0.133560f, -0.044950f, -0.146180f, -0.126750f, 0.154260f, 0.055910f, -0.034370f, -0.012180f, 0.017550f, -0.173130f, -0.119370f, 0.132200f, -0.027900f, -0.084180f, -0.124110f, 0.184540f, -0.080780f, 0.096730f, 0.122060f, -0.076010f, -0.132710f, 0.095090f, 0.060480f, -0.123730f, -0.042130f, 0.004810f, 0.159790f, 0.123220f, 0.198680f, -0.175650f, -0.030960f, 0.176660f, 0.197040f, 0.068770f, -0.075060f, 0.064180f, -0.143000f, -0.019780f, 0.103950f, 0.149380f, 0.052930f, -0.096750f, 0.028830f, 0.107620f, -0.009560f, -0.001730f, -0.070770f, 0.172210f, -0.170640f, 0.121370f, 0.036660f, 0.117180f, -0.166540f, 0.027140f, -0.037280f, 0.159910f, -0.045690f, 0.081860f, -0.112650f, -0.006570f, -0.028060f, 0.041250f, 0.033330f, -0.036360f, 0.090680f, 0.079650f, 0.087170f, 0.186120f, 0.123130f, 0.041010f, -0.003930f, 0.120310f, 0.112620f, 0.117910f, 0.100260f, 0.057220f, 0.135370f, -0.060130f, 0.106730f, 0.075730f, 0.003160f, -0.131130f, -0.088380f, -0.111370f, -0.143630f, 0.142340f, 0.005920f, 0.027330f, -0.185790f, 0.148920f, 0.017000f, -0.059450f, 0.157680f, 0.061580f, 0.011000f, 0.160160f, 0.053450f, 0.135280f, -0.077920f, 0.193420f, 0.153820f, 0.021790f, 0.016600f, 0.067240f, 0.053540f, -0.117980f, -0.074480f, -0.124530f, -0.108280f, 0.069380f, 0.047200f, 0.124480f, 0.151860f, 0.065690f, -0.064020f, -0.186730f, 0.099970f, -0.010460f, -0.028070f, 0.099240f, 0.080650f, -0.024000f, -0.040690f, -0.164940f, -0.142250f, 0.002030f, 0.145410f, 0.149090f, 0.007170f, 0.087790f, -0.050820f, -0.063130f, -0.170690f, 0.094190f, -0.055550f, -0.152120f, -0.091290f, 0.092770f, -0.101990f, -0.010180f, 0.005040f, 0.150390f, 0.042710f, -0.103840f, 0.120720f, 0.037600f, 0.121090f, 0.080480f, 0.166620f, 0.090050f, -0.058750f, -0.037480f, 0.192630f, 0.137570f, 0.015090f, -0.156060f, 0.057880f, -0.100360f, -0.093650f, 0.170980f, -0.086700f, 0.114830f, -0.128020f, 0.051920f, 0.066570f, 0.081660f, 0.107330f, 0.012150f, 0.123010f, 0.187580f, 0.124600f, -0.157830f, -0.028120f, -0.019490f, -0.191180f, 0.131900f, -0.046830f, -0.059160f, 0.010710f, -0.021540f, 0.106520f, 0.140890f, 0.028380f, -0.137360f, -0.122370f, -0.076800f, -0.004830f, 0.089530f, -0.100440f, -0.074760f, 0.024430f, -0.128130f, 0.046790f, -0.105750f, 0.137070f, -0.085680f, 0.007430f, -0.142470f, 0.134420f, 0.123240f, 0.131850f, -0.121510f, -0.031760f, -0.062320f, 0.203420f, -0.041470f, 0.002350f, 0.207410f, -0.006090f, 0.142970f, 0.157280f, -0.093760f, 0.143840f, -0.086420f, 0.014830f, 0.100460f, 0.012260f, -0.097460f, 0.012160f, 0.176420f, -0.042320f, -0.083830f, -0.083150f, 0.033190f, 0.226950f, 0.023060f, -0.137260f, -0.063950f, -0.073540f, 0.102080f, 0.172330f, 0.031440f, 0.077010f, 0.000560f, -0.080460f, 0.154610f, -0.048290f, 0.041350f, -0.076460f, 0.175120f, -0.051410f, -0.037410f, 0.069810f, -0.043220f, 0.015650f, -0.021290f, -0.159980f, -0.063790f, 0.025530f, 0.051750f, -0.164900f, 0.187750f, -0.127290f, -0.109170f, 0.113970f, 0.171000f, 0.139410f, -0.098320f, -0.129800f, -0.116400f, 0.158640f, 0.012460f, 0.078340f, -0.133000f, 0.150050f, -0.155540f, -0.120490f, 0.081280f, -0.008930f, 0.035730f, 0.058470f, -0.123270f, 0.159470f, 0.045190f, -0.042250f, 0.034030f, -0.004410f, -0.103640f, 0.167470f, -0.110630f, -0.011660f, -0.041290f, 0.088200f, -0.034430f, 0.173510f, -0.177110f, 0.175950f, 0.001050f, 0.037660f, -0.119960f, -0.047450f, 0.092570f, 0.120270f, -0.025460f, 0.167800f, -0.021130f, 0.011970f, 0.000700f, -0.183860f, 0.029260f, -0.032900f, 0.060030f, 0.074080f, -0.001290f, 0.146480f, 0.162350f, -0.064730f, -0.037370f, -0.051030f, -0.097550f, 0.055430f, 0.192430f, 0.070080f, 0.093630f, -0.165720f, -0.152510f, 0.170600f, 0.154390f, 0.040110f, -0.058100f, 0.122290f, 0.132300f, -0.160250f, 0.074980f, -0.137240f, 0.052700f, -0.079900f, 0.113940f, 0.035340f, 0.007680f, 0.169200f, -0.187750f, 0.148490f, 0.066870f, 0.152530f, 0.147430f, 0.024150f, 0.103810f, 0.002720f, 0.142600f, -0.152890f, -0.130180f, -0.129070f, 0.051270f, -0.176680f, -0.188130f, 0.049540f, -0.020740f, -0.062150f, 0.099360f, 0.130300f, 0.106870f, 0.000750f, -0.010220f, -0.157260f, 0.007320f, 0.098840f, 0.117020f, -0.155050f, 0.192740f, -0.025740f, 0.071940f, -0.132310f, 0.102360f, -0.193120f, -0.147210f, 0.008780f, -0.115930f, -0.030820f, -0.157060f, 0.064860f, 0.030020f, 0.127090f, -0.153240f, -0.096030f, -0.099320f, -0.179910f, -0.104330f, -0.054440f, -0.111760f, -0.013050f, -0.053950f, 0.141660f, -0.138530f, -0.012940f, -0.009430f, 0.012400f, -0.056040f, -0.004060f, 0.154850f, 0.097250f, 0.122540f, -0.111680f, -0.097610f, -0.015220f, 0.133330f, 0.076060f, 0.028780f, 0.123400f, 0.119050f, -0.165840f, -0.112190f, -0.062520f, -0.079070f, 0.113900f, 0.060180f, 0.048060f, -0.126310f, 0.154760f, 0.077710f, 0.180490f, -0.024860f, 0.103170f, 0.192130f, -0.161730f, -0.122850f, -0.007600f, 0.147840f, -0.145110f, 0.167400f, -0.188190f, 0.014700f, 0.157000f, -0.052420f, -0.182920f, 0.034770f, 0.129840f, -0.048900f, 0.002500f, -0.046740f, 0.070340f, 0.016390f, 0.171270f, 0.014060f, -0.064020f, 0.055540f, 0.111560f, -0.130000f, 0.191600f, 0.178020f, 0.066360f, 0.137080f, 0.104740f, 0.188170f, -0.074700f, -0.059900f, 0.014010f, 0.076220f, 0.167680f, 0.021250f, 0.026420f, 0.104050f, -0.084460f, -0.188350f, 0.183060f, -0.090800f, 0.032350f, -0.067010f, 0.153240f, -0.067350f, -0.033420f, 0.133810f, -0.097880f, 0.089820f, 0.174820f, 0.175960f, -0.147200f, 0.032480f, -0.067280f, -0.140370f, 0.091820f, 0.165110f, -0.176340f, -0.085750f, 0.103880f, -0.155570f, 0.195720f, 0.090940f, 0.075370f, 0.117110f, 0.092580f, 0.057420f, -0.039690f, -0.146450f, 0.101640f, 0.029050f, -0.044730f, 0.038930f, -0.012160f, -0.138160f, 0.102580f, -0.099770f, -0.067800f, -0.035690f, 0.180320f, 0.003710f, 0.146500f, -0.159040f, -0.009720f, -0.152830f, -0.119220f, 0.082980f, -0.169900f, -0.183410f, -0.126030f, 0.133790f, -0.024210f, -0.076240f, 0.036600f, 0.164450f, 0.068550f, -0.096960f, 0.038100f, -0.002420f, -0.189400f, -0.102220f, 0.010460f, 0.127410f, 0.135350f, 0.175250f, -0.080180f, -0.185220f, 0.101640f, 0.128230f, -0.155010f, -0.028080f, 0.040890f, 0.128690f, -0.031860f, 0.178760f, 0.058670f, -0.036000f, -0.094450f, -0.080920f, 0.119230f, -0.128590f, -0.123750f, 0.151720f, -0.148350f, -0.076780f, 0.026240f, 0.100960f, -0.134890f, -0.151790f, -0.102320f, -0.181940f, 0.170860f, 0.116520f, -0.097040f, 0.213070f, 0.184360f, -0.051450f, -0.121730f, 0.066310f, 0.184070f, 0.139740f, -0.101470f, -0.155240f, -0.083650f, -0.167680f, 0.086390f, 0.036660f, -0.155290f, 0.042280f, 0.149310f, 0.022080f, 0.141450f, 0.011370f, 0.104660f, 0.097080f, -0.039180f, -0.124520f, 0.135290f, -0.155520f, -0.083480f, -0.034240f, -0.006790f, 0.125270f, -0.060160f, 0.103320f, 0.188600f, -0.028820f, 0.124140f, 0.139520f, -0.114160f, -0.006490f, 0.141900f, -0.065930f, -0.091770f, -0.047810f, 0.086870f, -0.042620f, -0.161140f, 0.125280f, 0.014280f, 0.193530f, 0.071130f, -0.013330f, -0.111780f, -0.026460f, -0.192970f, 0.121230f, -0.136340f, -0.085080f, -0.035150f, -0.015920f, -0.102300f, -0.176900f, -0.050900f, 0.142630f, -0.182600f, -0.027420f, 0.156850f, 0.128540f, 0.002640f, -0.133950f, -0.126010f, 0.028940f, 0.052210f, 0.079450f, 0.134810f, -0.034620f, 0.042470f, -0.085210f, 0.185940f, 0.174500f, 0.106660f, 0.144570f, 0.072510f, -0.100790f, -0.047110f, 0.144200f, 0.048400f, 0.112920f, -0.101510f, 0.012820f, -0.172960f, 0.169110f, -0.021840f, 0.012300f, 0.074330f, -0.031990f, -0.031410f, -0.131830f, -0.148910f, -0.018960f, 0.101890f, 0.080470f, -0.176580f, 0.091940f, 0.156680f, 0.144940f, 0.030770f, -0.103830f, -0.115680f, 0.064390f, -0.094890f, -0.096480f, -0.081900f, -0.163100f, 0.143290f, 0.030770f, -0.170760f, -0.019930f, 0.093820f, -0.105140f, -0.038030f, 0.149390f, -0.021270f, 0.127600f, 0.058020f, -0.134020f, -0.108050f, 0.131830f, -0.094650f, 0.115910f, 0.015080f, 0.191590f, 0.098160f, 0.138010f, -0.161540f, -0.114080f, 0.069220f, 0.229420f, 0.225860f, -0.086940f, -0.130410f, 0.006740f, -0.006260f, 0.219540f, -0.004960f, 0.088770f, -0.092340f, -0.005590f, -0.171650f, -0.105130f, 0.099370f, 0.184570f, 0.165330f, 0.007520f, -0.080230f, 0.103900f, 0.127330f, -0.113770f, -0.129650f, 0.181410f, -0.067700f, -0.091800f, -0.023980f, -0.067820f, -0.021820f, 0.075110f, -0.075320f, -0.023590f, 0.030540f, 0.020320f, 0.039350f, 0.086230f, 0.068470f, -0.092180f, 0.176200f, 0.064360f, -0.151930f, 0.092550f, -0.046800f, -0.061290f, 0.039090f, -0.032370f, -0.170600f, 0.171600f, 0.065390f, 0.131700f, -0.094530f, 0.051140f, 0.186530f, 0.104730f, -0.139370f, -0.089690f, -0.052990f, -0.144950f, -0.112850f, 0.032770f, 0.005080f, 0.026310f, 0.121270f, 0.093570f, -0.003080f, 0.052670f, -0.071400f, 0.172810f, 0.159390f, -0.106480f, -0.131610f, 0.168310f, -0.004250f, 0.003770f, 0.092720f, -0.058620f, 0.071870f, 0.029560f, -0.078990f, -0.191140f, 0.054460f, 0.183300f, 0.024630f, 0.178980f, -0.011720f, 0.147030f, -0.048440f, -0.149810f, -0.145020f, -0.135130f, 0.177380f, 0.092200f, 0.060780f, -0.033370f, -0.093110f, 0.014940f, -0.162390f, -0.007460f, -0.118950f, 0.183740f, 0.044640f, 0.085120f, -0.117200f, 0.043250f, 0.003030f, -0.040950f, -0.051730f, 0.133910f, 0.014250f, 0.114370f, -0.058660f, 0.192440f, 0.043880f, 0.128120f, 0.153330f, -0.163880f, -0.119310f, 0.004620f, 0.018560f, 0.168250f, 0.167610f, -0.177060f, 0.119880f, 0.118980f, -0.189910f, 0.093250f, -0.081270f, 0.045410f, -0.036260f, -0.174240f, -0.092740f, 0.006360f, 0.132180f, 0.073710f, 0.015700f, -0.103440f, -0.127860f, 0.124750f, -0.013950f, -0.092070f, 0.127320f, -0.161930f, 0.088670f, -0.119660f, -0.112220f, 0.163140f, -0.125840f, 0.136940f, 0.112810f, -0.118200f, 0.126390f, -0.147710f, 0.116740f, -0.011150f, 0.191070f, 0.103280f, 0.043500f, 0.108730f, -0.137680f, 0.067000f, 0.036830f, -0.056170f, -0.070270f, -0.052890f, 0.109450f, -0.121340f, 0.063920f, 0.064250f, 0.019780f, -0.150930f, 0.115750f, 0.105450f, -0.105290f, 0.040720f, -0.043460f, 0.103890f, -0.083270f, -0.033690f, 0.038390f, 0.104850f, -0.135820f, 0.159880f, -0.035900f, 0.049850f, 0.123480f, 0.026940f, -0.088430f, -0.083400f, 0.142320f, -0.050780f, -0.131530f, -0.058480f, 0.099560f, 0.026810f, 0.002400f, -0.142510f, 0.079250f, 0.016290f, -0.155540f, 0.164610f, 0.020180f, 0.124940f, -0.093960f, 0.003190f, -0.084670f, -0.178620f, -0.190790f, 0.147500f, 0.051640f, 0.094080f, 0.143550f, -0.091570f, 0.073010f, -0.093650f, -0.038880f, 0.130890f, -0.156370f, -0.006230f, -0.130170f, 0.119290f, -0.007610f, -0.096850f, 0.095590f, -0.021600f, -0.071550f, -0.011530f, -0.066910f, 0.030330f, -0.114370f, 0.134460f, 0.054280f, -0.190000f, -0.159150f, 0.075150f, -0.040490f, -0.164460f, -0.179980f, 0.018860f, 0.028420f, -0.015100f, -0.069840f, 0.089020f, 0.033730f, -0.059890f, -0.095820f, 0.105560f, -0.027710f, 0.063240f, 0.088910f, 0.021120f, 0.169830f, -0.143390f, 0.184580f, 0.137770f, -0.037370f, -0.119740f, 0.073840f, 0.119980f, -0.046090f, -0.049780f, -0.160830f, 0.002930f, -0.072430f, -0.071790f, -0.028800f, -0.181000f, -0.162230f, -0.144370f, -0.089130f, 0.128230f, 0.122140f, 0.135940f, -0.188890f, -0.087010f, -0.109050f, 0.030720f, 0.149420f, -0.159360f, -0.083390f, 0.067660f, -0.013380f, 0.076730f, -0.031050f, -0.005520f, -0.044920f, -0.003420f, -0.061930f, -0.112690f, -0.004730f, 0.063100f, 0.086360f, -0.176340f, -0.129170f, 0.004020f, -0.001050f, 0.066180f, -0.081230f, -0.183480f, 0.027290f, -0.000300f, -0.138390f, 0.116850f, 0.155990f, 0.105460f, -0.157270f, -0.141170f, 0.230170f, 0.060460f, 0.022660f, -0.085500f, 0.165620f, 0.123230f, -0.118720f, -0.000940f, -0.059560f, 0.124150f, 0.140710f, 0.024150f, -0.060090f, 0.032530f, 0.007520f, 0.152510f, 0.105750f, 0.044850f, -0.171920f, -0.111740f, -0.175220f, 0.100040f, -0.043460f, 0.167340f, 0.041690f, -0.006120f, 0.130050f, -0.007410f, -0.175190f, -0.067470f, 0.008410f, -0.153310f, -0.078840f, -0.008510f, -0.044310f, 0.141220f, 0.032490f, -0.117890f, -0.041890f, 0.116070f, 0.141460f, 0.123390f, 0.122540f, 0.091020f, 0.117120f, 0.177750f, 0.132540f, 0.140680f, 0.026680f, 0.081580f, -0.027830f, -0.193450f, -0.058600f, 0.077510f, 0.118550f, -0.129140f, -0.066440f, -0.175370f, -0.032160f, -0.102880f, -0.191400f, -0.144090f, 0.066780f, -0.162770f, -0.072310f, 0.130600f, 0.030730f, 0.154780f, 0.127030f, -0.163340f, -0.044430f, -0.166370f, -0.032040f, 0.118600f, 0.029540f, -0.102510f, 0.002110f, -0.172220f, -0.005930f, -0.160600f, -0.018250f, 0.149070f, -0.040090f, -0.014900f, 0.172770f, 0.177490f, -0.157540f, 0.002270f, -0.072300f, 0.150510f, 0.014510f, -0.166920f, 0.185270f, -0.067650f, -0.024810f, -0.073190f, 0.017830f, 0.029460f, -0.033000f, -0.132320f, 0.172740f, -0.050700f, 0.192130f, 0.179150f, 0.170820f, -0.113370f, -0.012060f, -0.190180f, -0.159540f, -0.087010f, 0.114060f, 0.176580f, -0.004310f, 0.135530f, 0.065940f, 0.053920f, -0.130390f, 0.155900f, 0.060780f, -0.092550f, -0.114130f, 0.191160f, 0.135090f, 0.156580f, 0.081260f, 0.193520f, 0.188460f, 0.057090f, -0.178150f, 0.138440f, -0.042860f, -0.150690f, -0.187240f, -0.037050f, -0.013200f, -0.003650f, 0.183090f, 0.134640f, -0.109940f, -0.179810f, 0.050530f, -0.163010f, 0.063550f, -0.135820f, 0.116500f, 0.126780f, -0.017890f, 0.144660f, 0.131770f, 0.104600f, 0.109300f, 0.059250f, -0.180950f, 0.160160f, 0.028730f, 0.180570f, -0.178260f, -0.183510f, 0.021720f, -0.131560f, 0.142970f, 0.088090f, -0.098520f, -0.180350f, -0.175430f, -0.133990f, -0.152390f, 0.097210f, -0.021820f, 0.140110f, 0.153670f, 0.159550f, 0.076280f, -0.097890f, 0.123710f, 0.124250f, -0.149320f, 0.001460f, 0.107470f, 0.121640f, 0.007750f, 0.217200f, -0.059200f, -0.167380f, -0.044800f, -0.068140f, -0.158390f, 0.021740f, 0.189400f, 0.027880f, -0.100440f, 0.077590f, 0.285650f, 0.088430f, -0.066110f, 0.146190f, 0.015340f, -0.135230f, -0.106480f, 0.018690f, -0.050570f, -0.078010f, -0.125940f, 0.087710f, 0.011110f, 0.120190f, 0.054670f, -0.053690f, 0.099430f, -0.034820f, 0.140220f, 0.194280f, -0.165040f, -0.157430f, 0.076390f, -0.097760f, 0.026750f, 0.185630f, 0.056420f, -0.094200f, -0.171930f, 0.067430f, 0.134590f, 0.179030f, 0.035700f, -0.116900f, 0.173450f, -0.048540f, -0.117400f, 0.040340f, -0.099580f, -0.190320f, 0.024020f, -0.014310f, 0.121040f, -0.032950f, -0.189460f, 0.023060f, -0.089190f, 0.103060f, 0.112650f, 0.058800f, 0.062580f, 0.132680f, 0.022290f, 0.165530f, 0.193400f, -0.023410f, -0.090350f, 0.073840f, 0.147840f, -0.183580f, -0.086210f, -0.086720f, 0.006670f, -0.147720f, 0.192360f, 0.035640f, -0.168140f, -0.122990f, -0.180380f, -0.019170f, -0.164040f, 0.049740f, -0.027650f, -0.137420f, -0.186750f, 0.073720f, -0.107830f, 0.040310f, -0.143010f, 0.040570f, 0.122420f, -0.132210f, -0.071140f, 0.032340f, 0.132380f, 0.152090f, -0.126330f, -0.070940f, -0.025380f, 0.053160f, 0.090700f, 0.072430f, -0.150500f, -0.004070f, 0.025110f, 0.026690f, -0.073570f, -0.072740f, -0.025960f, -0.131470f, 0.092410f, -0.098210f, -0.153080f, -0.013700f, 0.040470f, 0.087990f, 0.026130f, -0.119530f, 0.168250f, -0.017090f, 0.120350f, -0.026210f, 0.017790f, -0.083140f, 0.001440f, 0.183420f, 0.139270f, 0.066460f, 0.119120f, 0.017180f, 0.119220f, -0.041640f, -0.172100f, -0.076430f, 0.181000f, -0.057460f, 0.108360f, -0.075770f, 0.117620f, -0.033240f, -0.190040f, 0.092940f, 0.075410f, -0.002360f, 0.133680f, 0.176250f, 0.031320f, 0.097760f, 0.188360f, -0.130800f, -0.067810f, -0.078500f, -0.086990f, -0.095240f, -0.023260f, -0.066510f, -0.022350f, 0.185840f, -0.160770f, 0.003670f, 0.016630f, -0.024560f, 0.056010f, -0.080870f, -0.127910f, -0.090520f, 0.147060f, -0.182430f, -0.161800f, -0.156690f, 0.083140f, -0.136480f, 0.080000f, -0.133160f, -0.115230f, 0.034460f, 0.099570f, 0.164140f, 0.058880f, 0.047580f, -0.070740f, 0.017410f, -0.009280f, 0.193810f, -0.075290f, 0.049510f, 0.153030f, -0.037970f, -0.056540f, 0.039390f, -0.183260f, -0.179360f, -0.188250f, -0.136070f, 0.061360f, 0.152860f, 0.173130f, -0.127830f, 0.078360f, -0.053570f, -0.189210f, 0.064780f, -0.081650f, -0.164370f, 0.162880f, -0.057490f, 0.115870f, 0.167290f, -0.084160f, 0.100250f, 0.168260f, -0.018300f, -0.113080f, 0.158730f, 0.168700f, 0.141540f, 0.026110f, 0.002130f, -0.044070f, 0.038880f, 0.000540f, -0.064810f, 0.001470f, 0.195310f, -0.164890f, 0.018780f, -0.073910f, -0.044190f, 0.140420f, 0.138430f, 0.043310f, -0.010890f, 0.074730f, -0.180000f, -0.181350f, -0.049040f, -0.159770f, -0.103990f, -0.069340f, 0.076400f, 0.162800f, 0.119160f, 0.003010f, -0.166270f, -0.130070f, -0.128080f, 0.158090f, -0.018040f, -0.104860f, -0.068910f, 0.075550f, -0.042750f, 0.079230f, -0.104000f, 0.031920f, 0.024470f, 0.064650f, -0.052720f, -0.037560f, 0.070930f, 0.190880f, 0.152460f, 0.029620f, -0.022870f, -0.017760f, -0.035060f, -0.165280f, 0.149520f, -0.105910f, 0.059150f, 0.192760f, 0.063610f, -0.138530f, 0.084390f, -0.042260f, 0.141660f, 0.060420f, 0.112850f, 0.130170f, 0.194670f, -0.135810f, -0.114800f, 0.147900f, -0.063960f, -0.009430f, 0.170800f, 0.100720f, -0.044390f, -0.054110f, 0.043790f, -0.017390f, -0.003310f, 0.171330f, 0.102640f, 0.152460f, 0.073540f, 0.028690f, 0.128710f, -0.073790f, -0.110280f, -0.156070f, -0.180320f, 0.204830f, 0.007530f, -0.086130f, -0.147020f, 0.180640f, -0.075130f, -0.112960f, 0.195940f, -0.137790f, 0.111940f, 0.078900f, 0.023170f, 0.026230f, -0.160370f, 0.126990f, 0.153980f, -0.076500f, -0.058980f, -0.148400f, 0.151020f, 0.190090f, 0.058820f, -0.124350f, 0.058130f, 0.081300f, -0.120710f, -0.100260f, -0.022920f, -0.005210f, 0.019610f, 0.075520f, -0.052930f, 0.121420f, 0.047310f, -0.023450f, 0.175230f, -0.193890f, 0.143670f, 0.123340f, 0.198380f, -0.065320f, 0.039920f, 0.032040f, 0.175240f, -0.177180f, 0.005780f, -0.020560f, -0.159910f, 0.096650f, -0.119790f, -0.178410f, 0.103810f, -0.045970f, 0.078660f, -0.143900f, -0.194990f, -0.078230f, -0.051490f, 0.108210f, -0.008260f, 0.118700f, 0.069280f, -0.115510f, -0.097060f, -0.100800f, -0.044080f, 0.143020f, 0.011370f, 0.080020f, 0.000530f, 0.157070f, -0.042190f, -0.108310f, 0.184350f, 0.084980f, -0.166460f, 0.161910f, 0.076840f, 0.147310f, 0.030970f, -0.124430f, -0.002960f, 0.115470f, -0.061460f, 0.091280f, 0.069840f, -0.042860f, -0.034170f, -0.170800f, 0.133930f, 0.046760f, -0.103370f, 0.067840f, 0.027170f, -0.055040f, -0.049720f, 0.152560f, -0.109750f, -0.022350f, 0.120380f, 0.064690f, 0.150210f, -0.164790f, 0.053520f, 0.169010f, 0.103810f, -0.106420f, 0.115500f, -0.050690f, 0.137980f, 0.089680f, -0.053320f, -0.108220f, 0.176490f, 0.074480f, -0.115790f, -0.093810f, 0.098940f, 0.035730f, 0.173130f, -0.165110f, 0.106050f, 0.145530f, -0.119340f, 0.172190f, -0.101100f, 0.067230f, 0.150900f, -0.021790f, -0.079790f, 0.096180f, -0.137350f, -0.158680f, 0.070680f, -0.018750f, -0.190930f, 0.191360f, -0.174850f, 0.178160f, -0.059260f, -0.075540f, 0.034050f, 0.068580f, 0.176230f, 0.130410f, 0.027060f, 0.169380f, -0.079510f, -0.103180f, 0.187470f, -0.053060f, -0.177600f, 0.039600f, 0.118970f, -0.036690f, -0.119980f, -0.192640f, 0.049320f, 0.143810f, -0.175140f, -0.184530f, -0.043810f, -0.040000f, 0.123180f, 0.160860f, -0.109470f, -0.093650f, -0.156360f, 0.095460f, -0.156530f, 0.077550f, -0.036820f, 0.125020f, -0.184440f, -0.099080f, 0.181800f, -0.090320f, 0.144980f, 0.180300f, -0.032510f, -0.024050f, -0.074660f, -0.039310f, 0.067380f, -0.130670f, 0.141620f, 0.180520f, -0.122070f, 0.170600f, 0.002310f, 0.008000f, -0.160760f, 0.180890f, -0.090810f, 0.177660f, -0.167410f, -0.090700f, -0.043420f, -0.010400f, 0.153600f, 0.050110f, -0.023900f, 0.156270f, -0.165760f, 0.147880f, -0.192210f, 0.125690f, 0.185400f, 0.097480f, -0.017750f, 0.016850f, 0.013750f, 0.109500f, 0.109020f, 0.157820f, -0.179800f, 0.076780f, 0.055500f, -0.049300f, 0.173210f, -0.062310f, 0.193980f, -0.147860f, 0.130910f, 0.068930f, 0.127370f, -0.183400f, 0.073190f, 0.144740f, -0.025650f, -0.019520f, 0.166470f, 0.181490f, 0.153500f, -0.130500f, -0.115460f, 0.009440f, -0.136780f, -0.006230f, 0.075780f, -0.156700f, -0.097110f, 0.178550f, 0.017290f, 0.029590f, 0.089010f, -0.079470f, 0.122090f, 0.160280f, 0.096650f, -0.104030f, 0.054140f, -0.137430f, 0.055120f, -0.056380f, -0.032200f, -0.149840f, -0.102390f, -0.151400f, -0.132770f, -0.132030f, -0.098820f, -0.079630f, 0.010990f, -0.043090f, 0.148730f, -0.004310f, 0.024540f, 0.099450f, -0.024880f, -0.171330f, -0.103820f, 0.171890f, 0.168810f, -0.000880f, -0.191350f, -0.104060f, -0.135150f, 0.113320f, 0.059290f, 0.020720f, -0.142780f, 0.094380f, 0.054290f, 0.133250f, -0.044180f, 0.108390f, 0.000030f, 0.121610f, -0.005440f, -0.083240f, -0.154950f, 0.095650f, -0.104090f, -0.077930f, -0.099640f, -0.028940f, 0.144580f, -0.051830f, -0.122390f, -0.158690f, 0.076420f, -0.145670f, 0.170980f, -0.001300f, 0.090950f, 0.099600f, -0.082260f, 0.041790f, 0.079700f, 0.033810f, 0.051640f, 0.038640f, 0.068810f, 0.130000f, -0.181580f, -0.183760f, -0.065080f, 0.128490f, 0.119060f, -0.184320f, 0.061230f, -0.102070f, -0.093910f, 0.033680f, 0.175660f, 0.114090f, 0.157020f, 0.190510f, -0.137010f, 0.076070f, 0.121390f, -0.091100f, 0.070190f, 0.014520f, -0.026590f, -0.122230f, 0.161230f, 0.070300f, 0.127460f, -0.041370f, 0.081450f, -0.036130f, -0.045380f, 0.098290f, 0.109760f, 0.169910f, 0.123690f, -0.025900f, -0.051740f, -0.091940f, -0.185820f, -0.025260f, 0.178620f, 0.166210f, 0.056040f, -0.184210f, 0.179910f, 0.034080f, 0.139970f };
static const float growbox_environment_model_layer_1_biases[32] = { 0.001190f, -0.000530f, 0.046550f, 0.022390f, 0.035260f, 0.000400f, 0.000420f, 0.000050f, 0.017260f, 0.000000f, 0.093870f, 0.022270f, 0.055310f, -0.007740f, 0.000260f, 0.005000f, 0.038110f, 0.028510f, -0.013070f, 0.000200f, 0.021410f, 0.042660f, 0.058540f, -0.000230f, -0.000010f, -0.006180f, -0.002460f, -0.009980f, 0.031010f, -0.012300f, 0.100130f, -0.000030f };
static const float growbox_environment_model_layer_1_weights[1024] = { -0.276170f, -0.219220f, -0.236250f, -0.224840f, -0.298980f, -0.290730f, -0.051110f, -0.071970f, -0.024680f, 0.175220f, -0.169750f, 0.021440f, -0.096630f, -0.140520f, -0.237250f, 0.115720f, 0.280570f, -0.170900f, 0.277510f, 0.128740f, -0.284490f, 0.176060f, -0.179050f, 0.091630f, -0.230940f, -0.021090f, 0.175260f, -0.159880f, -0.019380f, 0.123310f, -0.257690f, -0.203390f, 0.188620f, 0.203360f, -0.137650f, 0.068410f, 0.280160f, -0.190680f, 0.074370f, -0.012050f, -0.023510f, -0.145210f, 0.024260f, 0.069290f, 0.171190f, 0.192080f, -0.091480f, -0.041660f, 0.141730f, 0.001380f, 0.198510f, 0.189430f, -0.108430f, 0.035820f, 0.225200f, -0.174080f, 0.058570f, -0.180510f, 0.291860f, 0.050360f, -0.191940f, -0.036780f, 0.212250f, -0.157300f, 0.019350f, -0.058750f, -0.217850f, 0.233080f, 0.199170f, 0.123100f, -0.078980f, -0.143510f, 0.101420f, 0.283610f, -0.119830f, 0.219630f, 0.227850f, -0.214010f, -0.166970f, -0.155030f, 0.099000f, 0.016670f, -0.209390f, -0.200460f, 0.207020f, -0.229560f, 0.240000f, -0.020040f, 0.210340f, 0.303120f, -0.051320f, -0.190210f, 0.265560f, -0.178440f, 0.301650f, 0.137970f, -0.268210f, 0.204110f, 0.340540f, 0.251050f, 0.102660f, -0.100060f, -0.024230f, 0.181410f, -0.091500f, -0.241640f, 0.430800f, 0.233530f, 0.298640f, -0.251940f, -0.082840f, 0.050700f, -0.248000f, -0.007670f, 0.249440f, 0.031610f, 0.236820f, 0.323530f, 0.200780f, 0.274400f, 0.031210f, 0.285460f, 0.303610f, -0.124520f, 0.162620f, 0.007910f, 0.403660f, 0.146910f, 0.279830f, -0.174630f, -0.054100f, 0.081250f, 0.319020f, -0.114390f, 0.059660f, -0.105770f, -0.002650f, -0.071720f, 0.043820f, 0.160280f, 0.326890f, -0.012320f, -0.155280f, -0.166010f, 0.053180f, 0.274110f, 0.126780f, -0.080580f, 0.295590f, 0.134150f, -0.045380f, 0.153460f, -0.301270f, -0.022120f, 0.251890f, -0.299960f, 0.226050f, -0.207900f, 0.010230f, -0.220940f, -0.034310f, 0.023430f, 0.206920f, 0.201610f, -0.090980f, 0.155240f, 0.073380f, -0.202420f, 0.073330f, -0.134940f, -0.047170f, -0.005060f, 0.013400f, 0.183600f, -0.008000f, 0.286550f, 0.259470f, 0.022700f, -0.165230f, 0.130420f, -0.146700f, -0.168050f, 0.056080f, 0.095110f, -0.266410f, 0.151730f, 0.290350f, 0.155590f, 0.173080f, 0.204480f, -0.155690f, -0.179120f, -0.244330f, -0.137740f, 0.083090f, 0.242040f, -0.204220f, 0.039700f, 0.038090f, 0.179870f, -0.201840f, -0.027740f, 0.270770f, 0.014060f, 0.022640f, 0.097920f, -0.157230f, -0.221120f, 0.297370f, -0.293720f, 0.190420f, -0.089160f, 0.069190f, -0.196000f, 0.273170f, 0.278220f, 0.171760f, -0.252920f, 0.097940f, -0.027700f, -0.251570f, -0.247040f, -0.138690f, 0.208470f, -0.128040f, 0.227430f, -0.146430f, 0.108660f, 0.171090f, -0.191340f, -0.217420f, -0.044500f, 0.219300f, -0.179430f, 0.183180f, 0.233490f, 0.229240f, 0.300720f, 0.063610f, -0.251480f, 0.278600f, 0.040230f, 0.123180f, 0.232010f, 0.183660f, -0.143330f, -0.067360f, -0.191800f, -0.299460f, 0.115070f, -0.201490f, -0.258370f, -0.074640f, 0.132580f, 0.123170f, 0.158140f, 0.135620f, 0.118690f, 0.037640f, 0.216770f, -0.261220f, -0.220250f, -0.130530f, -0.139810f, -0.055630f, 0.270630f, -0.013080f, -0.184030f, 0.078870f, 0.280360f, 0.151520f, 0.203870f, -0.245900f, 0.163440f, 0.261260f, -0.262200f, -0.106440f, 0.101500f, 0.256470f, 0.000480f, 0.043340f, 0.074710f, -0.267630f, -0.162300f, -0.040360f, -0.051420f, -0.195950f, -0.194220f, 0.302970f, 0.263050f, 0.318540f, -0.204490f, 0.182750f, 0.297520f, -0.262090f, -0.040380f, 0.187470f, 0.041620f, 0.150080f, -0.063590f, -0.153330f, -0.216350f, -0.231510f, -0.216440f, 0.039460f, 0.179320f, 0.283360f, -0.033460f, 0.032560f, 0.320900f, 0.046930f, -0.193250f, -0.258180f, 0.095150f, 0.234610f, 0.097640f, 0.055660f, 0.113380f, 0.205310f, -0.046780f, 0.197330f, 0.181920f, -0.080150f, -0.152880f, 0.124770f, -0.180840f, 0.134590f, 0.078710f, 0.234840f, 0.046710f, 0.113960f, -0.048800f, -0.205470f, -0.207010f, -0.283560f, -0.033160f, 0.080780f, 0.061330f, 0.136010f, 0.000750f, -0.207240f, 0.165880f, -0.209400f, 0.093430f, -0.006870f, 0.054580f, 0.291140f, 0.045530f, -0.204400f, 0.219160f, -0.002920f, -0.212160f, -0.248890f, 0.266490f, -0.130890f, -0.252080f, 0.117540f, 0.085670f, 0.057830f, -0.068430f, 0.205320f, -0.238170f, 0.267680f, 0.236130f, -0.015840f, 0.269870f, -0.027140f, -0.123050f, -0.000240f, 0.087710f, -0.008300f, 0.037370f, 0.102610f, -0.140070f, 0.136860f, -0.098900f, -0.058900f, -0.220810f, -0.138980f, -0.109160f, -0.009700f, 0.223990f, -0.302950f, 0.118970f, 0.127050f, -0.004280f, -0.044420f, -0.221970f, -0.063480f, -0.187690f, -0.092750f, -0.247250f, 0.028250f, 0.074720f, 0.107520f, 0.191070f, 0.004870f, -0.220290f, -0.031870f, 0.040510f, 0.236060f, 0.298100f, -0.234520f, 0.255670f, -0.085340f, -0.171120f, -0.273620f, -0.063830f, -0.114810f, -0.264740f, 0.217230f, -0.287580f, 0.123440f, -0.280870f, 0.015270f, -0.218000f, -0.261130f, 0.290980f, -0.027990f, -0.065460f, -0.159100f, -0.039520f, -0.028150f, 0.246020f, -0.025230f, -0.120610f, -0.004130f, 0.313800f, -0.208720f, -0.069370f, -0.304830f, -0.250060f, 0.210680f, -0.125810f, -0.265970f, -0.226170f, -0.036940f, 0.109890f, -0.074560f, -0.188000f, 0.127510f, 0.036850f, 0.081080f, 0.141080f, 0.127000f, -0.171820f, -0.107780f, 0.243690f, 0.255650f, 0.073980f, 0.218000f, 0.058040f, 0.239840f, -0.125090f, -0.059520f, 0.080370f, -0.082610f, 0.272100f, -0.019610f, -0.095240f, 0.258920f, -0.226300f, -0.252000f, -0.243760f, 0.154050f, -0.280700f, 0.290730f, 0.042570f, 0.106440f, -0.158360f, -0.208120f, 0.084180f, 0.095900f, -0.066150f, 0.321360f, -0.005040f, -0.227090f, 0.019920f, 0.031860f, -0.252350f, 0.194150f, -0.221960f, -0.162240f, 0.159940f, 0.172060f, 0.227320f, -0.191600f, 0.173650f, -0.137240f, 0.280790f, -0.279280f, 0.171430f, 0.001840f, 0.131860f, 0.097800f, -0.282150f, 0.276080f, 0.180360f, -0.197720f, -0.035440f, 0.096590f, -0.001430f, 0.308980f, -0.258610f, 0.206960f, -0.302060f, -0.071560f, -0.216930f, 0.089880f, -0.137060f, -0.257010f, 0.043090f, 0.291660f, -0.224540f, 0.114380f, 0.180550f, 0.055000f, 0.075540f, 0.267680f, 0.203150f, 0.118990f, -0.155620f, 0.113490f, 0.193980f, -0.182390f, 0.130910f, -0.026570f, -0.014220f, 0.253050f, 0.171290f, 0.196500f, 0.239710f, -0.277740f, -0.110400f, -0.022730f, 0.108000f, 0.173050f, 0.179620f, 0.147520f, 0.288570f, 0.157060f, -0.179110f, -0.147100f, -0.221990f, -0.223560f, 0.104570f, 0.130800f, -0.018840f, -0.128240f, -0.228580f, -0.152420f, 0.202350f, 0.045570f, -0.145340f, 0.136930f, -0.204140f, 0.094900f, 0.068320f, -0.159480f, 0.303000f, -0.066740f, 0.262420f, -0.099080f, 0.167260f, 0.206890f, -0.227680f, 0.183250f, -0.033580f, 0.141310f, 0.046960f, -0.199550f, -0.115290f, 0.011240f, 0.059270f, -0.003960f, -0.137710f, -0.117790f, 0.085090f, -0.104980f, -0.294500f, -0.237480f, -0.018730f, -0.248870f, -0.192020f, -0.257060f, -0.271800f, 0.134370f, 0.187670f, -0.002280f, 0.120880f, 0.069490f, 0.175730f, -0.016080f, -0.025120f, -0.047960f, -0.174850f, -0.118220f, 0.010460f, -0.268610f, 0.121200f, -0.123230f, -0.023020f, -0.047760f, -0.190900f, -0.099760f, -0.234580f, -0.282550f, 0.169140f, -0.169300f, -0.004930f, 0.040500f, 0.281700f, 0.156290f, 0.063210f, -0.136170f, -0.075780f, 0.229810f, 0.220180f, 0.198040f, -0.239830f, -0.155530f, -0.046140f, 0.137240f, -0.200630f, -0.255320f, 0.182100f, 0.230470f, -0.266810f, 0.159720f, 0.157760f, 0.104250f, 0.290910f, -0.128850f, -0.017800f, 0.214450f, 0.135110f, -0.078830f, 0.123270f, 0.073880f, -0.013850f, -0.128060f, -0.179400f, 0.331030f, 0.296070f, -0.044250f, -0.129800f, -0.112690f, -0.017210f, 0.173070f, 0.079810f, 0.022800f, 0.217970f, 0.135010f, -0.107900f, -0.238020f, 0.146650f, 0.380800f, 0.138620f, -0.283730f, 0.042940f, 0.319770f, -0.197090f, 0.303000f, -0.028150f, -0.303990f, -0.306970f, -0.314620f, 0.134670f, 0.380800f, -0.243700f, 0.329400f, -0.243270f, -0.047840f, 0.260380f, -0.190480f, 0.261760f, 0.259350f, 0.214810f, 0.151260f, -0.214580f, 0.244260f, -0.281610f, 0.038490f, 0.038730f, 0.255660f, 0.092500f, 0.134390f, -0.091590f, -0.153680f, -0.268610f, -0.320660f, -0.305380f, -0.041880f, 0.334230f, -0.105510f, 0.119800f, -0.043400f, 0.179730f, -0.093480f, -0.188790f, 0.319840f, -0.110590f, 0.120560f, -0.222100f, -0.199090f, 0.225320f, 0.021280f, 0.089960f, -0.262320f, -0.152820f, 0.177390f, 0.074610f, 0.164480f, 0.133900f, 0.303600f, -0.091500f, -0.228940f, 0.073900f, 0.207600f, 0.126300f, -0.214950f, -0.062640f, -0.057560f, 0.038540f, -0.248160f, 0.006880f, 0.172770f, 0.003350f, 0.242520f, -0.099160f, 0.128180f, 0.126300f, -0.230550f, 0.289280f, 0.038290f, 0.189630f, 0.269470f, 0.042000f, -0.062270f, -0.225430f, -0.285230f, 0.195530f, 0.022260f, -0.029830f, -0.281340f, -0.127550f, 0.108720f, 0.267240f, 0.307960f, -0.221120f, 0.214010f, 0.162960f, 0.113360f, -0.249840f, 0.143540f, -0.238240f, -0.262030f, -0.098490f, 0.121560f, 0.201380f, 0.041530f, 0.017250f, 0.041190f, 0.100580f, 0.263450f, -0.243160f, 0.021430f, -0.054280f, 0.019360f, 0.047080f, 0.309810f, 0.302060f, 0.181670f, 0.091220f, 0.168390f, -0.259050f, -0.164990f, 0.152480f, -0.155630f, -0.173770f, -0.074670f, -0.046550f, 0.117970f, 0.224310f, 0.011030f, 0.178120f, 0.255710f, -0.267060f, 0.206910f, -0.142160f, 0.331230f, 0.202470f, -0.273210f, 0.185850f, 0.298590f, -0.155260f, 0.061360f, 0.277340f, 0.320460f, 0.194550f, -0.054150f, 0.169670f, -0.030000f, 0.299260f, -0.027890f, 0.217190f, -0.140050f, 0.013020f, -0.140960f, 0.170730f, -0.124100f, -0.175070f, 0.256380f, 0.032800f, 0.105440f, 0.153400f, 0.093090f, 0.058750f, 0.150110f, -0.198810f, -0.188930f, -0.146710f, 0.164690f, -0.114840f, 0.118560f, -0.218330f, 0.023170f, 0.236640f, 0.023730f, -0.114270f, 0.220620f, -0.254070f, -0.100970f, 0.040540f, -0.081660f, -0.166220f, -0.251230f, 0.255330f, 0.254790f, -0.072060f, 0.252820f, -0.210030f, -0.102220f, -0.006420f, -0.133860f, -0.199880f, -0.090880f, 0.299770f, -0.011700f, -0.106470f, 0.153770f, 0.075250f, -0.296790f, -0.180630f, -0.298880f, 0.113880f, -0.111670f, -0.297050f, 0.063210f, -0.236620f, 0.275280f, 0.274800f, 0.101370f, 0.156850f, -0.187950f, -0.185480f, -0.208000f, 0.172500f, -0.195030f, 0.162320f, 0.228590f, -0.079550f, -0.130440f, 0.047950f, 0.298960f, -0.076080f, -0.118780f, 0.209390f, 0.188770f, -0.124370f, 0.145710f, -0.037120f, -0.093580f, -0.301550f, 0.024950f, -0.077300f, -0.106340f, -0.178250f, -0.089840f, -0.015160f, -0.283000f, 0.200510f, -0.196230f, -0.216690f, 0.333430f, -0.065470f, -0.304750f, 0.242680f, -0.297690f, -0.244920f, -0.229680f, -0.101250f, -0.036050f, -0.132030f, 0.027030f, 0.004470f, 0.173750f, 0.070080f, -0.116490f, 0.046600f, -0.145680f, -0.300990f, 0.206200f, 0.292690f, -0.017490f, 0.280410f, 0.236140f, -0.127160f, -0.289560f, 0.176610f, 0.250740f, 0.246910f, 0.230380f, -0.171580f, 0.301720f, -0.138990f, 0.001670f, -0.042690f, 0.061780f, -0.157820f, -0.050860f, -0.103870f, 0.053040f, -0.085940f, -0.042750f, -0.086350f, 0.048490f, -0.214250f, 0.329270f, 0.205280f, 0.003600f, 0.175770f, -0.192080f, 0.033940f, 0.006500f, -0.032400f, -0.201480f, -0.127080f, -0.162800f, 0.302810f, 0.251280f, -0.303600f, 0.267420f, 0.062060f, 0.174640f, 0.051840f, 0.329970f, 0.213420f, 0.396650f, -0.093100f, -0.206680f, -0.091380f, -0.132500f, 0.064230f, -0.228450f, -0.130880f, -0.143890f, 0.074120f, 0.312260f, -0.237790f, 0.029650f, -0.068940f, 0.252850f, 0.092200f, 0.070660f, 0.100010f, -0.148730f, 0.168900f, 0.233480f, -0.256480f, -0.144300f, -0.194920f, 0.127940f, -0.249060f, -0.041870f, -0.065490f, 0.280500f, -0.008060f, 0.166900f, 0.070240f, 0.079140f, 0.123690f, -0.107670f, -0.239400f, 0.312420f, -0.024590f, 0.174240f, 0.086870f, -0.200520f, -0.046950f, 0.313830f, -0.009980f, 0.044940f, -0.017420f, -0.187240f, -0.082730f, -0.040390f, -0.215440f, 0.117030f, 0.073540f, 0.100630f, 0.193950f, 0.060440f, 0.224030f, 0.290510f, -0.284770f, -0.178380f, -0.110100f, -0.191770f, 0.175970f, -0.191650f, -0.249540f, 0.203760f, 0.044190f };
static const float growbox_environment_model_layer_2_biases[15] = { -0.026120f, -0.024430f, -0.050360f, -0.022510f, 0.018800f, -0.077590f, -0.043220f, -0.094610f, -0.084370f, -0.138650f, -0.111310f, -0.089180f, -0.077900f, -0.056740f, -0.048900f };
static const float growbox_environment_model_layer_2_weights[480] = { -0.003690f, -0.289260f, 0.168310f, -0.098650f, 0.126700f, -0.347540f, 0.021640f, 0.319650f, 0.140500f, 0.348580f, -0.288290f, -0.248470f, -0.191540f, -0.334020f, 0.231540f, -0.246390f, -0.272120f, 0.077550f, 0.204240f, -0.109000f, -0.070560f, -0.163860f, 0.001950f, 0.001310f, -0.230120f, 0.120130f, -0.057100f, -0.181070f, 0.304660f, -0.011750f, -0.297050f, 0.085600f, 0.079660f, -0.291530f, 0.273110f, -0.189910f, -0.287850f, -0.151750f, -0.157770f, 0.094720f, 0.204310f, -0.419210f, -0.161950f, -0.284780f, -0.072450f, 0.111010f, 0.091910f, 0.194620f, 0.126620f, 0.051410f, 0.037940f, 0.129000f, -0.120020f, -0.074350f, -0.134460f, -0.036340f, -0.335510f, -0.145880f, 0.110330f, -0.202390f, -0.326370f, -0.114310f, -0.195230f, 0.221230f, -0.218450f, -0.284160f, -0.135130f, 0.297790f, -0.228850f, -0.311240f, -0.018740f, 0.184190f, -0.196410f, -0.118430f, 0.188450f, -0.178990f, -0.299260f, 0.290780f, 0.156580f, 0.280710f, -0.190680f, -0.169890f, 0.264070f, 0.296170f, 0.302720f, -0.345310f, -0.343610f, -0.342990f, 0.092810f, 0.128490f, -0.020350f, -0.072260f, 0.241880f, -0.013930f, 0.047230f, -0.155320f, -0.336650f, -0.037050f, 0.315620f, -0.246450f, -0.208470f, -0.163060f, -0.090390f, 0.224270f, -0.208800f, -0.272880f, -0.072620f, 0.289110f, -0.206170f, -0.303570f, 0.112850f, -0.243400f, -0.282660f, 0.181400f, 0.223080f, 0.100160f, -0.311080f, 0.280210f, 0.067740f, 0.230750f, -0.238520f, 0.167810f, -0.143070f, -0.285840f, 0.241710f, 0.201050f, -0.136670f, 0.227140f, -0.283440f, 0.231900f, -0.433230f, -0.297560f, -0.223510f, 0.057100f, 0.296380f, -0.264880f, 0.044720f, -0.328780f, 0.113370f, -0.321090f, -0.212390f, 0.193410f, 0.015100f, 0.303040f, 0.217340f, 0.322600f, -0.096470f, 0.102530f, -0.338100f, 0.036970f, 0.338740f, 0.138930f, 0.312790f, 0.072570f, -0.113120f, -0.264310f, -0.336980f, -0.139150f, -0.079590f, 0.004670f, -0.438660f, -0.194280f, -0.363810f, -0.406650f, -0.232650f, 0.295380f, -0.368700f, -0.025470f, -0.193370f, -0.343770f, -0.290860f, -0.206080f, -0.023480f, 0.235920f, -0.372870f, 0.115750f, 0.050020f, 0.023430f, -0.126130f, -0.286020f, -0.150090f, -0.125500f, -0.277250f, 0.139330f, -0.332210f, 0.160860f, -0.360640f, -0.008430f, -0.334290f, -0.274920f, -0.382770f, -0.138040f, 0.166120f, 0.234150f, 0.250730f, 0.160930f, -0.309120f, 0.320750f, 0.170800f, -0.276200f, -0.012930f, -0.167010f, -0.203460f, -0.331050f, 0.340430f, 0.341150f, -0.236460f, -0.143190f, 0.289210f, -0.033180f, -0.118830f, -0.030170f, -0.192870f, -0.180430f, 0.043850f, 0.327850f, -0.021430f, 0.109080f, -0.142280f, -0.138900f, -0.182110f, -0.256210f, -0.341850f, -0.079330f, 0.336470f, 0.200140f, 0.114790f, -0.100010f, 0.053260f, 0.296200f, -0.071420f, 0.183830f, 0.309160f, -0.236900f, -0.141940f, 0.104870f, 0.328080f, 0.192510f, 0.054600f, 0.311450f, 0.357960f, -0.124280f, -0.343380f, -0.139260f, -0.137120f, -0.087110f, -0.263020f, -0.285310f, -0.182470f, -0.106660f, 0.284890f, 0.270790f, -0.234250f, -0.010580f, -0.191150f, -0.103610f, 0.037540f, -0.067360f, -0.295290f, 0.260150f, 0.182090f, -0.047120f, 0.013050f, 0.299140f, -0.385530f, 0.078350f, -0.073420f, -0.006790f, -0.139030f, -0.346760f, 0.200210f, 0.263900f, 0.071400f, 0.327340f, -0.248470f, 0.140260f, 0.177910f, -0.364490f, -0.206670f, 0.136910f, 0.266350f, -0.085060f, -0.036500f, -0.183930f, 0.193670f, -0.109240f, 0.311870f, -0.250300f, 0.271360f, -0.161690f, -0.058070f, -0.298670f, -0.079450f, 0.047680f, 0.210320f, -0.317740f, 0.074300f, -0.227810f, -0.304510f, 0.337590f, -0.018440f, -0.353800f, -0.321860f, 0.268630f, 0.004680f, 0.139630f, -0.318070f, 0.056780f, -0.247130f, -0.066290f, 0.143430f, -0.313210f, -0.132480f, 0.113290f, -0.080380f, -0.017610f, -0.186240f, -0.101870f, -0.012460f, 0.174930f, 0.080850f, -0.065170f, -0.206360f, -0.264410f, 0.248280f, -0.325600f, 0.115900f, -0.284430f, -0.313590f, 0.045710f, -0.295640f, 0.368750f, -0.120380f, -0.300180f, -0.225830f, 0.014220f, -0.169950f, 0.075320f, -0.224720f, -0.063740f, -0.384680f, 0.152170f, -0.423430f, -0.331150f, -0.315900f, 0.093950f, -0.130600f, 0.135420f, 0.279020f, -0.013190f, -0.001720f, 0.335270f, -0.080320f, 0.270760f, 0.190110f, 0.100400f, 0.356420f, 0.045550f, 0.064840f, -0.100820f, 0.215900f, -0.071430f, 0.143700f, 0.158240f, -0.352600f, 0.297200f, -0.086030f, 0.072920f, -0.111930f, 0.204080f, -0.050270f, 0.176330f, -0.104940f, 0.327850f, -0.083140f, -0.111780f, 0.234380f, -0.187170f, 0.182160f, 0.329770f, 0.247000f, 0.248100f, 0.177370f, 0.075370f, 0.034760f, -0.139220f, 0.177940f, -0.147580f, -0.188870f, -0.200480f, -0.354260f, 0.480110f, -0.297750f, 0.310530f, 0.302350f, -0.001930f, 0.329180f, -0.220840f, 0.314570f, -0.292360f, 0.123200f, 0.200670f, 0.159900f, -0.257300f, 0.314800f, 0.324100f, -0.082460f, 0.203160f, -0.140960f, -0.216380f, 0.204750f, 0.324860f, 0.031890f, -0.232520f, 0.251850f, -0.061060f, 0.169290f, -0.230490f, -0.264280f, 0.314040f, 0.352730f, -0.135600f, 0.053770f, -0.153290f, -0.156290f, -0.333310f, 0.181300f, -0.332080f, -0.252760f, -0.041520f, 0.014220f, -0.172220f, 0.182060f, -0.347960f, -0.043400f, 0.354520f, -0.352280f, -0.345740f, 0.186570f, -0.334590f, 0.078470f, -0.006770f, -0.120390f, -0.294600f, -0.305040f, 0.129350f, -0.234760f, 0.277140f, -0.061270f, 0.177850f, -0.136260f, -0.189500f, -0.222520f, -0.182900f, -0.005450f, -0.415740f, -0.110030f, -0.448630f, -0.006350f, -0.311210f, -0.124090f, -0.243500f, -0.000860f, 0.042530f, -0.416140f, 0.122580f, -0.207920f, -0.109970f, 0.104970f, 0.334120f, 0.348510f, 0.223630f, 0.296470f, -0.079530f, -0.036520f, 0.228300f, -0.088580f, -0.091340f, -0.187680f, 0.277470f };
static float growbox_environment_model_buf1[128];
static float growbox_environment_model_buf2[128];
static const EmlNetLayer growbox_environment_model_layers[3] = {
{ 32, 128, growbox_environment_model_layer_0_weights, growbox_environment_model_layer_0_biases, EmlNetActivationRelu },
{ 32, 32, growbox_environment_model_layer_1_weights, growbox_environment_model_layer_1_biases, EmlNetActivationRelu },
{ 15, 32, growbox_environment_model_layer_2_weights, growbox_environment_model_layer_2_biases, EmlNetActivationLogistic } };
static EmlNet growbox_environment_model = { 3, growbox_environment_model_layers, growbox_environment_model_buf1, growbox_environment_model_buf2, 128 };

    int32_t
    growbox_environment_model_predict(const float *features, int32_t n_features)
    {
        return eml_net_predict(&growbox_environment_model, features, n_features);
    }


    int32_t
    growbox_environment_model_regress(const float *features, int32_t n_features, float *out, int32_t out_length)
    {
        return eml_net_regress(&growbox_environment_model, features, n_features, out, out_length);
    }


    float
    growbox_environment_model_regress1(const float *features, int32_t n_features)
    {
        return eml_net_regress1(&growbox_environment_model, features, n_features);
    }

namespace generated_model {

inline constexpr std::size_t kInputCount = 128U;
inline constexpr std::size_t kOutputCount = 15U;
inline constexpr char kSchemaHash[] = "5768273a73ac";
inline constexpr char kModelVersion[] = "environment-mlp-v1-full-facf571bcb2f";
inline constexpr char kWeightHash[] = "facf571bcb2f";

inline bool infer(const float* features, float* outputs) {
    if (features == nullptr || outputs == nullptr) {
        return false;
    }
    return growbox_environment_model_regress(
        features,
        static_cast<int32_t>(kInputCount),
        outputs,
        static_cast<int32_t>(kOutputCount)) == EmlOk;
}

}  // namespace generated_model
