// Generated by python -m tools.ml.pipeline. Do not edit.
#pragma once

#include <cstddef>
#include <eml_net.h>

static const float growbox_environment_model_layer_0_biases[32] = { -0.010000f, 0.015910f, 0.000000f, 0.004980f, -0.007630f, 0.002530f, 0.000270f, -0.005790f, -0.002200f, 0.000000f, 0.000200f, 0.000000f, -0.000360f, -0.000290f, -0.000590f, -0.006960f, 0.000710f, -0.014670f, -0.000180f, 0.000310f, -0.002810f, 0.011750f, 0.018390f, -0.003220f, 0.010990f, 0.017260f, -0.002150f, 0.031590f, -0.011110f, 0.009010f, 0.001180f, 0.014440f };
static const float growbox_environment_model_layer_0_weights[1376] = { 0.271840f, 0.004440f, 0.048940f, -0.198970f, 0.276010f, -0.003110f, 0.020290f, -0.169070f, 0.141160f, -0.189270f, 0.029530f, -0.126230f, 0.068300f, 0.107050f, -0.213340f, -0.280730f, -0.175930f, 0.189330f, -0.155270f, 0.114010f, 0.142920f, 0.152590f, 0.123220f, -0.184930f, -0.142000f, 0.276240f, -0.211530f, -0.237440f, 0.035560f, 0.198380f, -0.103790f, -0.094310f, -0.198520f, 0.005940f, -0.182010f, -0.118490f, 0.028370f, 0.139930f, -0.227570f, -0.188450f, -0.276440f, 0.093820f, 0.003680f, -0.030120f, -0.271240f, 0.210960f, 0.156220f, -0.088340f, -0.055040f, -0.025680f, -0.080370f, -0.116670f, 0.279440f, -0.041120f, 0.277100f, 0.262970f, -0.166690f, -0.218400f, 0.079040f, -0.197280f, 0.254130f, -0.038720f, 0.133740f, 0.257030f, 0.007530f, 0.098880f, -0.102570f, 0.220640f, -0.281980f, -0.205250f, 0.049880f, -0.125380f, -0.102770f, -0.236230f, 0.010640f, -0.180090f, 0.197540f, -0.268170f, -0.261770f, -0.251390f, 0.252780f, -0.282660f, 0.045630f, -0.086180f, 0.174110f, -0.016600f, -0.078400f, 0.075700f, -0.224410f, 0.185600f, -0.252490f, 0.181430f, 0.203920f, 0.242650f, -0.110450f, 0.219350f, 0.179840f, -0.162880f, -0.178540f, 0.201860f, 0.142330f, -0.244820f, -0.086400f, -0.126000f, 0.208830f, -0.115080f, -0.197470f, -0.139670f, -0.106510f, 0.072450f, 0.013000f, -0.015290f, -0.207250f, -0.129520f, 0.007570f, -0.106920f, 0.211710f, 0.240660f, -0.204570f, -0.016530f, 0.265440f, 0.202480f, 0.091520f, -0.018460f, 0.181140f, 0.102760f, 0.165630f, 0.100760f, -0.130760f, 0.193210f, -0.017590f, 0.187820f, -0.046790f, -0.267840f, -0.255770f, 0.066090f, 0.267680f, -0.079850f, 0.049660f, -0.230700f, -0.176220f, -0.134570f, 0.239830f, -0.011100f, 0.113780f, -0.243180f, 0.090300f, 0.131410f, 0.239010f, 0.110570f, -0.190920f, -0.071610f, 0.102080f, -0.157350f, 0.033950f, 0.234850f, -0.253300f, 0.231560f, 0.112100f, 0.276440f, -0.039690f, 0.077830f, -0.075070f, -0.066790f, -0.248690f, -0.088510f, 0.243200f, 0.050110f, -0.039770f, 0.190350f, 0.214860f, -0.205000f, -0.088750f, -0.097600f, -0.175090f, 0.109800f, 0.075170f, 0.186220f, 0.195770f, -0.272100f, -0.230820f, 0.175600f, 0.247620f, 0.098040f, 0.241040f, 0.135610f, -0.217810f, 0.051020f, -0.184610f, 0.075600f, -0.054690f, 0.003310f, -0.141320f, 0.263650f, -0.021130f, -0.003480f, 0.241030f, -0.181350f, 0.168330f, 0.197690f, 0.072000f, -0.091680f, -0.062070f, -0.222780f, -0.088150f, -0.253060f, 0.048280f, 0.241950f, -0.228880f, 0.036910f, 0.216190f, 0.271400f, 0.086840f, 0.276390f, 0.271050f, 0.224530f, 0.133820f, 0.213220f, 0.232740f, 0.196470f, -0.147770f, 0.078090f, -0.001750f, 0.250550f, -0.168700f, 0.209340f, -0.088970f, -0.225610f, 0.206480f, -0.213160f, -0.181720f, -0.045540f, 0.173280f, 0.191930f, -0.277960f, 0.025880f, -0.001150f, -0.251700f, 0.208240f, 0.042520f, 0.053180f, 0.216140f, -0.117690f, -0.166900f, 0.052750f, 0.130340f, -0.179910f, -0.210660f, 0.082790f, -0.265490f, -0.202230f, 0.145200f, 0.249290f, -0.015110f, 0.039170f, -0.033680f, 0.146220f, -0.015460f, 0.088430f, -0.196240f, 0.184130f, 0.167350f, -0.175080f, -0.097990f, -0.243340f, -0.000370f, -0.077060f, -0.220910f, -0.269090f, -0.274690f, 0.202810f, -0.178420f, -0.007300f, -0.185180f, -0.102930f, -0.228460f, -0.063780f, 0.292760f, -0.040890f, -0.198750f, 0.077490f, 0.240880f, -0.073650f, 0.222520f, -0.097820f, -0.257710f, 0.039300f, 0.233500f, 0.166180f, 0.192910f, 0.132560f, -0.096330f, -0.001390f, -0.051010f, -0.039820f, -0.001800f, -0.258920f, -0.254030f, 0.150590f, 0.038820f, 0.158260f, -0.132000f, -0.084750f, -0.208370f, 0.252780f, 0.031240f, 0.067390f, -0.215050f, -0.236350f, -0.116900f, -0.055420f, -0.025130f, -0.052170f, 0.077630f, -0.089100f, 0.146290f, -0.068980f, 0.158080f, 0.161880f, 0.089340f, 0.184090f, -0.045680f, -0.045540f, 0.134820f, 0.216480f, 0.205810f, 0.191290f, 0.119040f, -0.068530f, -0.056020f, -0.282370f, -0.257470f, 0.217260f, 0.140520f, -0.205090f, -0.186750f, -0.195120f, 0.158410f, 0.026290f, 0.215660f, -0.145540f, 0.104510f, -0.013690f, -0.006120f, 0.021680f, 0.221350f, 0.113310f, 0.111670f, 0.120790f, 0.118960f, 0.184700f, -0.113200f, -0.006830f, -0.170570f, -0.019790f, 0.087270f, -0.170200f, -0.106110f, -0.160120f, -0.173420f, 0.032690f, -0.151910f, -0.215900f, -0.076940f, -0.219110f, -0.204150f, -0.072490f, 0.174880f, 0.069640f, -0.000650f, -0.020680f, -0.005820f, -0.133080f, -0.060600f, 0.133670f, 0.246190f, 0.288420f, -0.146670f, -0.203180f, 0.274290f, -0.031850f, -0.193990f, 0.137120f, 0.260760f, -0.002790f, 0.061260f, -0.269690f, 0.053730f, -0.031100f, 0.046460f, -0.055280f, -0.263350f, 0.074070f, -0.143350f, 0.031930f, -0.271170f, -0.255580f, 0.006360f, 0.058360f, 0.097930f, -0.142120f, 0.084710f, -0.074950f, 0.157020f, -0.204460f, 0.257320f, -0.180860f, -0.074830f, -0.111800f, -0.190990f, -0.258520f, -0.024520f, 0.151600f, 0.171810f, 0.117080f, -0.105870f, 0.132260f, -0.171480f, -0.054390f, 0.251740f, 0.242610f, -0.141230f, 0.076290f, 0.254780f, -0.271280f, -0.204530f, 0.154940f, 0.028950f, -0.190910f, 0.093680f, 0.159250f, -0.012770f, -0.196860f, -0.145510f, -0.003850f, -0.075820f, 0.212200f, 0.276910f, 0.092190f, 0.237170f, -0.110340f, -0.210360f, 0.192680f, -0.034340f, 0.115890f, -0.086920f, 0.126930f, -0.111870f, -0.134660f, 0.099850f, -0.254790f, -0.063090f, 0.197460f, 0.154990f, -0.260620f, -0.204110f, 0.099460f, -0.033180f, -0.073030f, 0.029080f, -0.162800f, -0.143850f, 0.103350f, -0.080880f, 0.126890f, -0.154280f, 0.150210f, -0.276530f, 0.043220f, 0.075660f, 0.024350f, 0.114570f, -0.175040f, 0.076730f, 0.154280f, -0.020340f, 0.144820f, 0.064810f, 0.036530f, 0.121880f, -0.067220f, -0.071630f, 0.057700f, 0.258520f, 0.211140f, 0.047510f, -0.000310f, 0.050610f, -0.120300f, -0.248290f, 0.280670f, -0.091840f, -0.074130f, 0.258070f, 0.031230f, -0.215340f, -0.255730f, -0.240130f, -0.202890f, -0.009730f, 0.164770f, -0.071250f, 0.159820f, -0.209910f, -0.112170f, 0.097520f, -0.234480f, -0.132060f, -0.221090f, 0.079030f, -0.139740f, -0.034200f, -0.196880f, -0.204070f, -0.259230f, 0.223440f, 0.019310f, -0.124200f, 0.169390f, -0.009600f, -0.121320f, 0.055660f, -0.033110f, 0.168530f, -0.182820f, -0.055970f, -0.204540f, 0.256500f, -0.015800f, -0.211440f, 0.240030f, 0.163560f, 0.045130f, -0.117050f, 0.221570f, -0.039220f, 0.173230f, 0.067990f, 0.256440f, 0.269240f, 0.061390f, -0.075700f, -0.255040f, -0.001810f, 0.258360f, 0.224800f, 0.033500f, 0.252040f, 0.263160f, -0.133020f, 0.266610f, 0.199100f, 0.280170f, 0.197660f, -0.127470f, 0.116630f, 0.045340f, -0.152180f, -0.036740f, 0.159470f, 0.096680f, 0.273480f, -0.220520f, -0.238120f, -0.108420f, -0.073830f, -0.146380f, 0.004080f, -0.089920f, 0.221940f, 0.012070f, 0.204080f, 0.232380f, 0.226970f, 0.188840f, -0.252060f, -0.115250f, -0.267980f, -0.176750f, -0.272610f, -0.111690f, 0.280880f, 0.156330f, 0.129890f, -0.111170f, 0.191000f, -0.192260f, -0.122950f, 0.227800f, 0.234180f, -0.057680f, -0.196990f, -0.254120f, -0.172020f, -0.080210f, 0.282110f, -0.017650f, -0.041860f, -0.045370f, -0.072670f, 0.267100f, 0.220670f, -0.134570f, -0.098450f, -0.255630f, -0.224160f, 0.178340f, 0.226360f, 0.174640f, 0.284140f, -0.110710f, -0.171600f, 0.242680f, -0.093490f, -0.226860f, 0.177690f, -0.170790f, -0.222490f, 0.178540f, 0.133150f, -0.059780f, -0.048890f, -0.101750f, 0.020760f, 0.103620f, -0.274830f, -0.102650f, -0.038590f, 0.256680f, -0.145880f, 0.240330f, 0.147230f, 0.196850f, 0.248920f, -0.075480f, 0.261190f, 0.271790f, 0.188610f, -0.071750f, 0.241720f, 0.081170f, 0.051570f, 0.111220f, 0.154840f, -0.271690f, 0.212760f, -0.191670f, 0.266170f, 0.025000f, 0.263950f, -0.190650f, -0.155060f, -0.244660f, -0.091740f, -0.179370f, -0.223940f, 0.071640f, 0.069620f, -0.245530f, 0.149210f, 0.109200f, 0.121700f, -0.028550f, 0.088970f, -0.258090f, 0.262890f, -0.078930f, 0.168130f, -0.137520f, 0.138500f, 0.178570f, 0.072000f, 0.060150f, -0.005590f, -0.019240f, -0.273310f, 0.156330f, 0.002800f, -0.224060f, 0.052890f, -0.065220f, -0.205910f, -0.078160f, 0.249110f, -0.054910f, 0.122640f, -0.053560f, -0.237040f, 0.226190f, 0.222460f, -0.069440f, 0.212880f, 0.153220f, 0.055480f, 0.293070f, 0.155910f, -0.020620f, 0.280550f, 0.004810f, 0.261660f, -0.282200f, 0.276060f, 0.099260f, -0.044040f, -0.167120f, -0.058360f, 0.026240f, 0.085670f, 0.025550f, 0.216560f, -0.090020f, -0.008990f, 0.199380f, 0.228800f, -0.260940f, -0.091920f, 0.102370f, -0.058580f, 0.217330f, 0.133440f, 0.137480f, 0.128790f, -0.269590f, -0.087600f, -0.057250f, 0.214420f, -0.215020f, 0.216970f, -0.237930f, -0.027210f, 0.080460f, -0.072950f, -0.145280f, 0.253830f, -0.130250f, -0.080420f, -0.123470f, 0.199380f, 0.167450f, -0.067400f, 0.165990f, 0.091220f, 0.231400f, 0.149180f, -0.095120f, -0.170100f, 0.176850f, 0.262120f, -0.160450f, -0.063500f, -0.266990f, 0.080970f, -0.209200f, -0.186300f, 0.278410f, -0.080520f, -0.108270f, -0.031370f, 0.168510f, 0.236430f, 0.106660f, 0.055270f, -0.233870f, -0.234270f, -0.007630f, 0.033270f, -0.123450f, 0.124220f, 0.170620f, 0.159240f, -0.135930f, 0.079210f, 0.224210f, -0.023460f, -0.091180f, 0.098840f, -0.074040f, 0.133500f, -0.110250f, -0.260020f, -0.047230f, 0.172210f, -0.220990f, -0.230700f, -0.150540f, 0.070630f, 0.166430f, -0.021210f, 0.216450f, 0.018070f, -0.243790f, -0.144620f, 0.240320f, -0.008640f, 0.124370f, -0.280110f, 0.006210f, -0.033030f, -0.211580f, -0.243160f, 0.157700f, -0.112600f, 0.245020f, 0.110020f, -0.128670f, 0.246960f, 0.127870f, 0.198310f, -0.011520f, 0.281910f, 0.018050f, -0.130850f, -0.229620f, 0.169890f, 0.135090f, -0.154010f, 0.194850f, 0.138340f, 0.066740f, -0.208200f, 0.088670f, 0.040900f, -0.015690f, -0.230030f, -0.146430f, -0.244630f, 0.019860f, -0.004940f, -0.023050f, -0.047830f, -0.206710f, 0.175760f, 0.065910f, 0.043470f, -0.033590f, 0.183630f, -0.205970f, 0.110540f, -0.104660f, 0.087590f, 0.110650f, -0.156930f, -0.280300f, 0.009590f, -0.093500f, -0.247760f, -0.079820f, 0.001790f, -0.117430f, -0.091670f, 0.003730f, -0.199230f, 0.098170f, -0.114760f, 0.258210f, 0.140830f, -0.084830f, 0.037730f, 0.105950f, 0.285140f, -0.036000f, 0.142970f, -0.178350f, 0.287670f, -0.048780f, 0.094390f, 0.015600f, 0.253160f, -0.134390f, 0.010320f, 0.072300f, 0.272620f, 0.040850f, 0.125260f, 0.245150f, -0.222420f, 0.032150f, 0.253860f, -0.141840f, -0.089250f, 0.041120f, -0.274120f, -0.245540f, -0.055050f, 0.156470f, 0.282370f, 0.144100f, -0.242910f, 0.269960f, 0.149370f, 0.072880f, 0.297830f, 0.046020f, -0.275900f, 0.041790f, -0.147500f, -0.261200f, -0.182440f, -0.023570f, 0.219840f, -0.274780f, 0.031450f, 0.089380f, -0.180680f, 0.229510f, -0.015550f, -0.078010f, -0.128570f, 0.262120f, -0.178840f, 0.254300f, 0.194070f, -0.112550f, 0.215210f, -0.155160f, -0.125830f, -0.101960f, 0.171100f, -0.214880f, -0.034470f, 0.052530f, 0.017060f, -0.115270f, -0.173700f, -0.156100f, 0.181880f, 0.256160f, -0.272880f, -0.034610f, 0.190940f, -0.120080f, 0.072480f, -0.001340f, 0.263080f, -0.269890f, -0.129390f, 0.039850f, 0.166650f, 0.280610f, -0.139000f, 0.171000f, 0.166590f, -0.161050f, 0.241240f, 0.135410f, 0.265980f, 0.020910f, 0.202820f, -0.038440f, -0.270470f, 0.125200f, -0.140140f, -0.184910f, -0.118670f, 0.250660f, 0.092010f, 0.214660f, -0.246600f, 0.213820f, -0.244350f, 0.242840f, 0.251380f, 0.033570f, 0.243400f, -0.234390f, 0.241520f, 0.268990f, 0.239470f, -0.099120f, -0.012250f, -0.053920f, 0.160790f, 0.184670f, 0.061130f, 0.265290f, 0.244380f, -0.051640f, 0.049660f, 0.029700f, -0.159430f, -0.255070f, 0.047630f, 0.126030f, -0.080950f, -0.202980f, -0.073010f, 0.067410f, -0.128370f, -0.003490f, 0.279240f, -0.252890f, 0.023700f, -0.207000f, -0.226240f, 0.214070f, -0.053600f, 0.031830f, 0.200650f, -0.189690f, -0.171410f, 0.021590f, -0.174340f, -0.066400f, 0.280430f, -0.275700f, -0.074810f, -0.077700f, 0.205840f, 0.093750f, 0.228510f, -0.198340f, -0.249970f, 0.045730f, -0.258360f, 0.264640f, -0.141610f, -0.261140f, -0.272860f, 0.109620f, 0.184490f, -0.167510f, -0.091470f, 0.187220f, 0.201860f, -0.177440f, -0.047030f, -0.099700f, 0.261940f, 0.239300f, -0.120140f, -0.168630f, -0.152930f, -0.203980f, -0.153100f, -0.157970f, 0.133520f, -0.116410f, -0.210730f, -0.219390f, 0.101410f, 0.166410f, 0.185500f, 0.126210f, 0.028290f, 0.105940f, 0.221000f, -0.052020f, 0.060050f, 0.098440f, 0.119940f, -0.170720f, -0.196010f, 0.247390f, 0.146580f, 0.147320f, -0.057130f, -0.062370f, 0.171090f, 0.183620f, -0.143730f, -0.268400f, 0.199950f, 0.247970f, -0.248460f, 0.214950f, 0.156060f, -0.036410f, 0.018980f, -0.248030f, 0.057690f, -0.275290f, -0.084510f, -0.174160f, 0.062220f, -0.185180f, -0.180350f, -0.105270f, 0.176150f, -0.220820f, -0.123100f, 0.105040f, 0.253810f, 0.204500f, 0.038140f, 0.221830f, 0.034940f, -0.059030f, 0.071510f, 0.176970f, 0.060750f, 0.102620f, -0.031670f, -0.228250f, -0.157330f, -0.082860f, -0.017040f, 0.162320f, 0.036940f, -0.166340f, -0.088510f, 0.125120f, -0.076520f, 0.068580f, 0.045710f, 0.180460f, -0.135440f, -0.228920f, 0.149190f, 0.198620f, -0.180100f, 0.240290f, -0.086110f, 0.088680f, -0.191590f, 0.059590f, 0.210310f, -0.054560f, -0.082060f, -0.154930f, -0.004020f, 0.036400f, 0.134850f, 0.075330f, -0.175880f, 0.154700f, 0.261540f, 0.146160f, 0.193890f, 0.232470f, -0.228420f, -0.230170f, -0.133130f, 0.210930f, -0.214310f, -0.130480f, 0.064410f, -0.060740f, -0.007530f, -0.252380f, -0.239080f, 0.215290f, 0.171020f, 0.134610f, -0.248210f, -0.104740f, 0.055460f, -0.120390f, 0.195210f, 0.008740f, -0.098230f, 0.042080f, 0.250500f, 0.000960f, 0.190230f, -0.088860f, -0.044120f, -0.034750f, -0.242940f, -0.076280f, 0.037830f, -0.182850f, -0.204660f, -0.134640f, -0.214830f, 0.273960f, 0.129470f, 0.079600f, -0.060980f, -0.151480f, -0.080850f, -0.260220f, 0.191120f, 0.002380f, -0.031650f, -0.024400f, 0.120680f, -0.237030f, 0.008780f, -0.011590f, 0.229650f, -0.201130f, 0.254880f, 0.030670f, 0.072060f, 0.215210f, -0.144160f, 0.153380f, -0.099090f, 0.016360f, -0.188090f, -0.123360f, -0.169150f, 0.096900f, 0.018380f, -0.272840f, 0.203320f, 0.241190f, -0.239190f, -0.277970f, 0.213390f, 0.255690f, -0.226320f, 0.060260f, -0.034610f, 0.259030f, -0.108310f, 0.267440f, 0.118310f, 0.248430f, -0.131880f, -0.003800f, 0.120110f, 0.143900f, -0.181860f, -0.056900f, 0.179230f, 0.246050f, 0.108240f, -0.243510f, -0.091470f, -0.005800f, 0.033550f, -0.179320f, -0.238990f, 0.191900f, 0.211140f, -0.238790f, -0.161400f, -0.108300f, -0.160280f, 0.201410f, -0.001810f, -0.103210f, 0.256840f, -0.094590f, 0.211810f, -0.181100f, -0.275540f, -0.268020f, 0.089390f, 0.037960f, 0.164410f, 0.191330f, -0.117100f, 0.165510f, -0.217530f, -0.281800f, 0.133110f, 0.075350f, -0.097930f, 0.173710f, 0.272550f, 0.189040f, 0.002570f, -0.036440f, 0.277360f, 0.273210f, 0.176010f, 0.159010f, -0.199540f, 0.132700f, 0.259510f, 0.151550f, 0.275140f, -0.104160f, 0.169420f, 0.059660f, 0.097990f, 0.092010f, -0.061860f, -0.230720f, 0.270230f, -0.161460f, -0.170620f, -0.034890f, 0.019330f, -0.196060f, 0.251080f, -0.087790f, -0.271210f, -0.061430f, 0.006340f, 0.214740f, 0.196050f, 0.119710f, 0.254110f, 0.130780f, 0.123330f, 0.038230f, -0.273430f, 0.281550f, -0.025860f, 0.004820f, -0.225610f, 0.255100f, 0.253480f, -0.194560f, 0.234530f, 0.161440f, 0.043400f, -0.280940f, 0.253260f, 0.196700f, -0.168580f, -0.121890f, -0.007210f, -0.107020f, 0.145090f, -0.195730f, 0.196490f, 0.055000f, -0.010550f, -0.163280f, 0.108840f, -0.226120f, -0.012980f, 0.218370f, -0.071690f, 0.170260f, -0.243100f, -0.148200f, -0.146690f, -0.225960f, 0.173640f, -0.204610f, 0.149850f, 0.135200f, 0.193600f, -0.062600f, 0.136450f, -0.241690f, -0.247520f, 0.238000f, -0.241490f, 0.179010f, 0.010230f, -0.223750f, -0.141660f, 0.102890f, 0.031180f, 0.256710f, -0.270050f, 0.044780f, -0.236500f, 0.197860f, -0.274550f, 0.032990f, 0.136790f, 0.119510f, 0.132590f, 0.016260f, 0.155100f, -0.211040f, 0.152240f, -0.169960f, -0.231350f, -0.006630f, 0.054780f, 0.130450f, -0.095070f, 0.074280f, -0.201770f, -0.265810f, -0.254450f, -0.265730f, -0.171450f, 0.239900f, 0.271370f, 0.036590f, 0.092950f, -0.267120f, 0.226650f, -0.257320f, 0.247610f, 0.155580f, 0.037810f };
static const float growbox_environment_model_layer_1_biases[32] = { 0.000000f, -0.005760f, 0.000000f, 0.029810f, -0.001050f, 0.003180f, 0.015640f, 0.000000f, 0.008230f, -0.000970f, 0.016910f, -0.004640f, -0.005590f, 0.005460f, 0.020040f, 0.000000f, 0.014370f, -0.000180f, 0.013140f, -0.000360f, 0.000000f, 0.029280f, -0.004410f, 0.000000f, 0.000000f, 0.000000f, 0.008020f, 0.032680f, 0.000000f, 0.000000f, 0.023220f, 0.000000f };
static const float growbox_environment_model_layer_1_weights[1024] = { -0.276160f, -0.221480f, -0.237030f, -0.207560f, -0.298420f, -0.288850f, -0.040900f, -0.071930f, -0.020140f, 0.174690f, -0.167490f, 0.017840f, -0.100710f, -0.136010f, -0.224270f, 0.115460f, 0.284980f, -0.171580f, 0.283480f, 0.128440f, -0.281670f, 0.196470f, -0.189440f, 0.091650f, -0.230940f, -0.021240f, 0.181490f, -0.137050f, -0.021960f, 0.123130f, -0.244630f, -0.203390f, 0.188630f, 0.196450f, -0.135720f, 0.108130f, 0.277880f, -0.187290f, 0.093630f, -0.012050f, -0.008940f, -0.146800f, 0.043780f, 0.062050f, 0.163770f, 0.198320f, -0.064820f, -0.041490f, 0.155760f, 0.002720f, 0.215170f, 0.188920f, -0.108880f, 0.071550f, 0.218980f, -0.174080f, 0.058570f, -0.180190f, 0.301640f, 0.093490f, -0.192940f, -0.036700f, 0.240720f, -0.157300f, 0.019360f, -0.057400f, -0.217250f, 0.231130f, 0.200240f, 0.123080f, -0.078980f, -0.143540f, 0.101390f, 0.283610f, -0.123800f, 0.220490f, 0.228510f, -0.214010f, -0.166970f, -0.155090f, 0.098010f, 0.017290f, -0.212360f, -0.200460f, 0.209540f, -0.227890f, 0.237230f, -0.020040f, 0.210340f, 0.302910f, -0.052020f, -0.190180f, 0.264570f, -0.178420f, 0.303090f, 0.137970f, -0.268590f, 0.240790f, 0.260440f, 0.186790f, 0.059050f, -0.100830f, -0.024010f, 0.181140f, -0.163800f, -0.241670f, 0.297160f, 0.286800f, 0.239930f, -0.247180f, -0.082620f, 0.028530f, -0.263440f, -0.055790f, 0.240500f, 0.031600f, 0.247030f, 0.291560f, 0.077880f, 0.274670f, 0.031220f, 0.242640f, 0.214230f, -0.120300f, 0.157100f, 0.043580f, 0.304130f, 0.146930f, 0.278140f, -0.162100f, -0.098830f, 0.069160f, 0.267830f, -0.113220f, 0.069260f, -0.105980f, -0.011420f, -0.072650f, -0.074690f, 0.119110f, 0.241030f, -0.001990f, -0.140350f, -0.175160f, 0.001980f, 0.248880f, 0.142060f, -0.081090f, 0.269270f, 0.104720f, -0.136150f, 0.153660f, -0.301260f, -0.005840f, 0.265000f, -0.267410f, 0.176340f, -0.188630f, -0.100110f, -0.220920f, -0.034340f, 0.023040f, 0.207360f, 0.202310f, -0.090860f, 0.155460f, 0.074720f, -0.202420f, 0.073680f, -0.134950f, -0.046030f, -0.006150f, 0.012980f, 0.184170f, -0.007410f, 0.286550f, 0.260150f, 0.022670f, -0.165620f, 0.130340f, -0.146930f, -0.164360f, 0.056530f, 0.095110f, -0.266410f, 0.152130f, 0.291990f, 0.157280f, 0.172330f, 0.204480f, -0.153450f, -0.179120f, -0.244330f, -0.137790f, 0.083110f, 0.242260f, -0.204130f, 0.039700f, 0.038160f, 0.179870f, -0.201730f, -0.027740f, 0.270770f, 0.014060f, 0.022620f, 0.097930f, -0.157070f, -0.221120f, 0.297380f, -0.293710f, 0.190560f, -0.089160f, 0.069160f, -0.196050f, 0.273170f, 0.278220f, 0.171760f, -0.252920f, 0.097970f, -0.027500f, -0.251570f, -0.247050f, -0.138620f, 0.208470f, -0.128960f, 0.227180f, -0.142650f, 0.095050f, 0.153010f, -0.189780f, -0.209230f, -0.044600f, 0.257980f, -0.179830f, 0.091290f, 0.141540f, 0.174100f, 0.305670f, 0.072460f, -0.254020f, 0.223350f, 0.038830f, 0.121050f, 0.231690f, 0.144530f, -0.162500f, -0.071720f, -0.191740f, -0.299450f, 0.165520f, -0.120130f, -0.238760f, -0.155260f, 0.138950f, 0.050570f, 0.158150f, 0.135600f, 0.116560f, 0.032600f, 0.215940f, -0.266150f, -0.220040f, -0.130000f, -0.139850f, -0.059560f, 0.270630f, -0.015540f, -0.177860f, 0.075460f, 0.281290f, 0.151850f, 0.202380f, -0.241590f, 0.162260f, 0.263130f, -0.262200f, -0.105460f, 0.102050f, 0.250090f, 0.000480f, 0.043340f, 0.071260f, -0.275010f, -0.161680f, -0.035480f, -0.048770f, -0.197920f, -0.194220f, 0.302550f, 0.300160f, 0.288770f, -0.246550f, 0.191370f, 0.297330f, -0.262130f, -0.040480f, 0.163810f, 0.041620f, 0.054650f, -0.063630f, -0.165080f, -0.214120f, -0.231520f, -0.229490f, -0.001380f, 0.148720f, 0.275640f, -0.033520f, 0.037300f, 0.297680f, 0.006080f, -0.193180f, -0.258180f, 0.080270f, 0.217770f, 0.098870f, 0.019140f, 0.132720f, 0.151260f, -0.046770f, 0.197330f, 0.181960f, -0.080160f, -0.152960f, 0.124570f, -0.180840f, 0.134530f, 0.078710f, 0.234890f, 0.046640f, 0.114230f, -0.048910f, -0.205470f, -0.207030f, -0.283690f, -0.033160f, 0.080680f, 0.061320f, 0.135900f, 0.000750f, -0.207230f, 0.166280f, -0.209370f, 0.093430f, -0.006870f, 0.054580f, 0.291050f, 0.045490f, -0.204390f, 0.219160f, -0.002960f, -0.212160f, -0.248890f, 0.266490f, -0.130890f, -0.252080f, 0.117540f, 0.085670f, 0.057830f, -0.068430f, 0.205320f, -0.238170f, 0.267680f, 0.236130f, -0.015840f, 0.269870f, -0.027140f, -0.123050f, -0.000240f, 0.087710f, -0.008300f, 0.037370f, 0.102610f, -0.140070f, 0.136860f, -0.098900f, -0.058900f, -0.220810f, -0.138980f, -0.109160f, -0.009700f, 0.223990f, -0.302950f, 0.118970f, 0.127050f, -0.004260f, -0.044420f, -0.221980f, -0.063470f, -0.187690f, -0.092790f, -0.247250f, 0.028310f, 0.074720f, 0.107690f, 0.190980f, 0.004860f, -0.220300f, -0.031930f, 0.040510f, 0.235990f, 0.298030f, -0.234560f, 0.255650f, -0.085340f, -0.170990f, -0.273590f, -0.063830f, -0.114810f, -0.264740f, 0.217180f, -0.287590f, 0.123440f, -0.280870f, 0.015250f, -0.218000f, -0.261130f, 0.296380f, -0.021930f, -0.072040f, -0.154130f, -0.039520f, -0.028160f, 0.245930f, -0.017800f, -0.120610f, -0.023650f, 0.304140f, -0.208910f, -0.069320f, -0.304830f, -0.249910f, 0.200660f, -0.121830f, -0.275160f, -0.226180f, -0.032490f, 0.112690f, -0.078320f, -0.188000f, 0.127510f, 0.043380f, 0.090720f, 0.141570f, 0.114470f, -0.171550f, -0.107570f, 0.243700f, 0.255630f, 0.076510f, 0.202270f, 0.062750f, 0.234660f, -0.124600f, -0.057660f, 0.080370f, -0.099300f, 0.272090f, -0.010610f, -0.076080f, 0.257160f, -0.225090f, -0.249700f, -0.244380f, 0.166790f, -0.289590f, 0.298900f, 0.042570f, 0.113280f, -0.155430f, -0.226190f, 0.084180f, 0.095900f, -0.077610f, 0.299000f, -0.001160f, -0.212870f, 0.020660f, 0.030870f, -0.252350f, 0.193900f, -0.229680f, -0.158100f, 0.161940f, 0.151450f, 0.227050f, -0.191460f, 0.173700f, -0.129200f, 0.280480f, -0.285670f, 0.160090f, -0.021270f, 0.132510f, 0.097910f, -0.280090f, 0.270630f, 0.188240f, -0.199200f, -0.035540f, 0.084820f, -0.002370f, 0.299610f, -0.258570f, 0.206960f, -0.294130f, -0.067630f, -0.215270f, 0.087000f, -0.137040f, -0.270510f, 0.043100f, 0.291660f, -0.224490f, 0.112660f, 0.181270f, 0.054740f, 0.075540f, 0.267650f, 0.203150f, 0.117860f, -0.155650f, 0.114990f, 0.194790f, -0.182210f, 0.131190f, -0.026520f, -0.014220f, 0.253720f, 0.169820f, 0.196800f, 0.239710f, -0.278770f, -0.111930f, -0.021750f, 0.108000f, 0.173050f, 0.178690f, 0.146710f, 0.289420f, 0.158060f, -0.179110f, -0.148630f, -0.221990f, -0.223950f, 0.108870f, 0.096990f, -0.030950f, -0.147670f, -0.228270f, -0.150710f, 0.202240f, 0.025690f, -0.145470f, 0.096500f, -0.199030f, 0.068890f, 0.071970f, -0.157960f, 0.299450f, -0.072720f, 0.242160f, -0.092340f, 0.167080f, 0.204760f, -0.241360f, 0.142510f, -0.033530f, 0.141320f, 0.040640f, -0.218180f, -0.108060f, 0.005800f, 0.068970f, -0.049130f, -0.137710f, -0.117790f, 0.085100f, -0.104900f, -0.294520f, -0.237440f, -0.018730f, -0.248860f, -0.192020f, -0.256980f, -0.271800f, 0.134300f, 0.187560f, -0.002280f, 0.120880f, 0.069500f, 0.175720f, -0.016150f, -0.025080f, -0.048000f, -0.174850f, -0.118260f, 0.010480f, -0.268550f, 0.121200f, -0.123230f, -0.022990f, -0.047660f, -0.190890f, -0.099850f, -0.234580f, -0.282530f, 0.169140f, -0.169300f, -0.004930f, 0.040500f, 0.281690f, 0.156290f, 0.063210f, -0.136170f, -0.075780f, 0.229820f, 0.220180f, 0.198090f, -0.239850f, -0.155530f, -0.046140f, 0.137220f, -0.200630f, -0.255340f, 0.182080f, 0.230460f, -0.266820f, 0.159720f, 0.157800f, 0.104260f, 0.290910f, -0.128850f, -0.017800f, 0.214430f, 0.135110f, -0.078830f, 0.123270f, 0.073880f, -0.013850f, -0.129290f, -0.166400f, 0.289360f, 0.258290f, -0.075360f, -0.129600f, -0.108700f, -0.017490f, 0.176670f, 0.079440f, -0.134700f, 0.141260f, 0.055780f, -0.100560f, -0.229140f, 0.130420f, 0.295370f, 0.097820f, -0.265980f, 0.042650f, 0.257770f, -0.277740f, 0.275010f, -0.027890f, -0.303980f, -0.284200f, -0.268600f, 0.156480f, 0.290240f, -0.217970f, 0.177360f, -0.243260f, -0.048430f, 0.251050f, -0.219570f, 0.266080f, 0.235930f, 0.218080f, 0.164770f, -0.214740f, 0.237460f, -0.281990f, 0.002130f, 0.017000f, 0.216560f, 0.101180f, 0.148710f, -0.098680f, -0.156480f, -0.290560f, -0.296870f, -0.305460f, -0.072000f, 0.321180f, -0.117990f, 0.119940f, -0.043400f, 0.185550f, -0.074580f, -0.161900f, 0.299740f, -0.098590f, 0.073410f, -0.222100f, -0.199540f, 0.220520f, -0.023160f, 0.120790f, -0.275050f, -0.149770f, 0.195100f, 0.074680f, 0.146040f, 0.132600f, 0.296850f, -0.086350f, -0.250990f, 0.083940f, 0.232310f, 0.121440f, -0.209040f, -0.095110f, -0.016500f, 0.038030f, -0.256620f, 0.010060f, 0.137530f, 0.003440f, 0.242530f, -0.115390f, 0.112350f, 0.171150f, -0.230360f, 0.295290f, 0.009760f, 0.189640f, 0.268670f, 0.061770f, -0.023000f, -0.248580f, -0.284200f, 0.196190f, 0.026220f, -0.029780f, -0.234690f, -0.127740f, 0.019970f, 0.198830f, 0.275260f, -0.218390f, 0.217980f, 0.160700f, 0.050090f, -0.227560f, 0.107620f, -0.238360f, -0.280690f, -0.092440f, 0.117470f, 0.201460f, 0.041540f, 0.052140f, 0.100440f, 0.110490f, 0.194630f, -0.240700f, 0.000160f, -0.054270f, 0.019170f, 0.035040f, 0.231890f, 0.310170f, 0.136230f, 0.091710f, 0.173370f, -0.259140f, -0.235240f, 0.152130f, -0.136860f, -0.108810f, -0.103930f, -0.041230f, 0.123200f, 0.210610f, 0.054410f, 0.131720f, 0.303780f, -0.267150f, 0.194500f, -0.165810f, 0.279960f, 0.202670f, -0.273210f, 0.138030f, 0.221160f, -0.144080f, 0.114120f, 0.292640f, 0.267990f, 0.194570f, -0.054200f, 0.177980f, -0.013160f, 0.311380f, -0.029060f, 0.220020f, -0.125640f, 0.012980f, -0.122120f, 0.170000f, -0.142240f, -0.184890f, 0.243890f, 0.038310f, 0.123190f, 0.152170f, 0.092830f, 0.072390f, 0.135200f, -0.199000f, -0.184850f, -0.111260f, 0.149230f, -0.114840f, 0.118560f, -0.214910f, 0.032660f, 0.265900f, 0.010360f, -0.112530f, 0.247880f, -0.254070f, -0.100970f, 0.040410f, -0.081650f, -0.165750f, -0.251190f, 0.255410f, 0.255220f, -0.072060f, 0.252810f, -0.210030f, -0.101870f, -0.006440f, -0.134260f, -0.199690f, -0.090530f, 0.299770f, -0.011120f, -0.106470f, 0.153880f, 0.075250f, -0.296790f, -0.179710f, -0.298980f, 0.113880f, -0.111670f, -0.297050f, 0.063610f, -0.235970f, 0.275270f, 0.274800f, 0.102040f, 0.156850f, -0.188410f, -0.184710f, -0.218570f, 0.200520f, -0.214580f, 0.167230f, 0.254430f, -0.079490f, -0.109800f, 0.046280f, 0.241750f, -0.109470f, -0.165230f, 0.223000f, 0.224430f, -0.127560f, 0.132040f, -0.041590f, -0.083810f, -0.302110f, 0.012980f, -0.053470f, -0.148170f, -0.178160f, -0.089840f, -0.003400f, -0.259170f, 0.263500f, -0.232000f, -0.208020f, 0.316220f, -0.065450f, -0.304760f, 0.241280f, -0.299110f, -0.233850f, -0.230540f, -0.101250f, -0.034170f, -0.132010f, 0.031310f, 0.003880f, 0.176520f, 0.068770f, -0.117750f, 0.046770f, -0.139800f, -0.300770f, 0.204140f, 0.291660f, -0.008010f, 0.280160f, 0.235290f, -0.128620f, -0.291240f, 0.176620f, 0.250740f, 0.246790f, 0.230510f, -0.162840f, 0.301880f, -0.138630f, 0.001310f, -0.042690f, 0.060500f, -0.123510f, -0.127600f, -0.148420f, 0.016020f, -0.083830f, -0.033040f, -0.086520f, -0.000880f, -0.214310f, 0.182410f, 0.196990f, -0.069720f, 0.189310f, -0.182770f, 0.016190f, -0.038690f, -0.087430f, -0.197720f, -0.127340f, -0.171570f, 0.273730f, 0.139000f, -0.303420f, 0.267430f, 0.050160f, 0.149040f, 0.078150f, 0.282930f, 0.242320f, 0.274770f, -0.093080f, -0.206920f, -0.079310f, -0.166670f, 0.051050f, -0.259350f, -0.130910f, -0.142280f, 0.074060f, 0.275490f, -0.238080f, -0.004670f, -0.018690f, 0.226240f, 0.095980f, 0.072620f, 0.095170f, -0.133180f, 0.159700f, 0.218940f, -0.256570f, -0.118060f, -0.180760f, 0.040490f, -0.248980f, -0.041860f, -0.092010f, 0.215070f, -0.000300f, 0.193990f, 0.079500f, 0.064260f, 0.123710f, -0.108730f, -0.244800f, 0.261730f, -0.017880f, 0.113330f, 0.091300f, -0.177920f, -0.047090f, 0.311590f, -0.010920f, -0.051210f, -0.065860f, -0.281420f, -0.067660f, -0.013130f, -0.225320f, 0.093360f, 0.046570f, 0.120280f, 0.193540f, 0.022740f, 0.215900f, 0.208860f, -0.284640f, -0.178380f, -0.093410f, -0.175920f, 0.231990f, -0.240200f, -0.234410f, 0.102300f, 0.044210f };
static const float growbox_environment_model_layer_2_biases[4] = { -0.043730f, -0.039620f, -0.036040f, -0.041820f };
static const float growbox_environment_model_layer_2_weights[128] = { -0.004290f, -0.330240f, 0.192740f, -0.112400f, 0.141830f, -0.399920f, 0.020040f, 0.361930f, 0.161030f, 0.398930f, -0.328810f, -0.283340f, -0.259670f, -0.416280f, 0.230630f, -0.327020f, -0.345690f, 0.088650f, 0.232210f, -0.164200f, -0.073830f, -0.184840f, 0.009380f, 0.010670f, -0.259770f, 0.139790f, -0.062590f, -0.210820f, 0.352930f, -0.009020f, -0.293290f, 0.073900f, 0.111080f, -0.354100f, 0.165000f, -0.163800f, -0.297830f, -0.078590f, -0.095210f, 0.261770f, 0.331510f, -0.409470f, -0.121480f, -0.298460f, -0.043370f, 0.210960f, 0.130750f, 0.247540f, 0.121960f, -0.018170f, 0.098100f, 0.172560f, -0.100120f, -0.051390f, -0.070280f, 0.016520f, -0.332090f, -0.117400f, 0.145730f, -0.212340f, -0.329010f, -0.090550f, -0.199280f, 0.258640f, -0.329310f, -0.305070f, -0.150940f, 0.370780f, -0.210300f, -0.263080f, 0.053950f, 0.262370f, -0.193370f, -0.124050f, 0.224110f, -0.223250f, -0.341940f, 0.332260f, 0.179090f, 0.320580f, -0.217730f, -0.194010f, 0.301870f, 0.338550f, 0.328840f, -0.406400f, -0.416410f, -0.402220f, 0.083000f, 0.125480f, -0.049650f, -0.104740f, 0.276400f, -0.015920f, 0.053930f, -0.177440f, -0.384640f, -0.042310f, 0.360650f, -0.281560f, -0.238160f, -0.186290f, -0.103260f, 0.256280f, -0.244690f, -0.319890f, -0.089550f, 0.319760f, -0.267440f, -0.372110f, 0.106610f, -0.303010f, -0.322760f, 0.207480f, 0.255170f, 0.114670f, -0.355260f, 0.320350f, 0.077540f, 0.263770f, -0.330150f, 0.197510f, -0.178530f, -0.351140f, 0.242940f, 0.298590f, -0.123060f, 0.347140f };
static float growbox_environment_model_buf1[43];
static float growbox_environment_model_buf2[43];
static const EmlNetLayer growbox_environment_model_layers[3] = {
{ 32, 43, growbox_environment_model_layer_0_weights, growbox_environment_model_layer_0_biases, EmlNetActivationRelu },
{ 32, 32, growbox_environment_model_layer_1_weights, growbox_environment_model_layer_1_biases, EmlNetActivationRelu },
{ 4, 32, growbox_environment_model_layer_2_weights, growbox_environment_model_layer_2_biases, EmlNetActivationLogistic } };
static EmlNet growbox_environment_model = { 3, growbox_environment_model_layers, growbox_environment_model_buf1, growbox_environment_model_buf2, 43 };

    int32_t
    growbox_environment_model_predict(const float *features, int32_t n_features)
    {
        return eml_net_predict(&growbox_environment_model, features, n_features);
    }


    int32_t
    growbox_environment_model_regress(const float *features, int32_t n_features, float *out, int32_t out_length)
    {
        return eml_net_regress(&growbox_environment_model, features, n_features, out, out_length);
    }


    float
    growbox_environment_model_regress1(const float *features, int32_t n_features)
    {
        return eml_net_regress1(&growbox_environment_model, features, n_features);
    }

namespace generated_model {

inline constexpr std::size_t kInputCount = 43U;
inline constexpr std::size_t kOutputCount = 4U;
inline constexpr char kSchemaHash[] = "e12b0cc20edf";
inline constexpr char kModelVersion[] = "environment-mlp-v1-quick-fabd3736e51d";
inline constexpr char kWeightHash[] = "fabd3736e51d";

inline bool infer(const float* features, float* outputs) {
    if (features == nullptr || outputs == nullptr) {
        return false;
    }
    return growbox_environment_model_regress(
        features,
        static_cast<int32_t>(kInputCount),
        outputs,
        static_cast<int32_t>(kOutputCount)) == EmlOk;
}

}  // namespace generated_model
