// Generated by python -m tools.ml.pipeline. Do not edit.
#pragma once

#include <cstddef>
#include <eml_net.h>

static const float growbox_environment_model_layer_0_biases[32] = { -0.002530f, 0.022980f, 0.000000f, 0.002730f, -0.010560f, 0.000000f, 0.000000f, 0.016300f, 0.001560f, -0.000250f, 0.000000f, 0.000000f, 0.000000f, 0.026680f, 0.016060f, 0.000560f, 0.000000f, 0.003910f, 0.000000f, 0.000000f, -0.011040f, 0.016260f, 0.026590f, -0.016960f, -0.000020f, 0.002050f, 0.000000f, 0.029660f, 0.000000f, 0.018220f, -0.012430f, -0.015650f };
static const float growbox_environment_model_layer_0_weights[3296] = { 0.205480f, 0.008890f, 0.036480f, -0.148770f, 0.202920f, -0.003550f, 0.015010f, -0.115240f, 0.107110f, -0.141230f, 0.021950f, -0.094090f, 0.051020f, 0.094260f, -0.150080f, -0.206500f, -0.131460f, 0.149480f, -0.115660f, 0.084880f, 0.101740f, 0.117780f, 0.098900f, -0.145600f, -0.110590f, 0.199750f, -0.156750f, -0.173930f, 0.030750f, 0.154020f, -0.084300f, -0.084360f, -0.145060f, 0.012440f, -0.135660f, -0.089340f, 0.018090f, 0.103460f, -0.169710f, -0.126700f, -0.203910f, 0.069760f, 0.002650f, -0.022450f, -0.201860f, 0.174400f, 0.127840f, -0.061500f, -0.041260f, -0.010030f, -0.059800f, -0.087150f, 0.203320f, -0.026620f, 0.214250f, 0.186910f, -0.128180f, -0.168460f, 0.059860f, -0.142760f, 0.194190f, -0.023260f, 0.091780f, 0.174930f, 0.006570f, 0.076060f, -0.076450f, 0.164390f, -0.211090f, -0.153200f, 0.037160f, -0.089790f, -0.075890f, -0.176130f, 0.007890f, -0.134230f, 0.147310f, -0.194670f, -0.192160f, -0.186320f, 0.188250f, -0.207780f, 0.034030f, -0.064280f, 0.127770f, -0.010640f, -0.055800f, 0.053600f, -0.168870f, 0.136050f, -0.187960f, 0.136600f, 0.153810f, 0.183770f, -0.085220f, 0.158190f, 0.134760f, -0.104740f, -0.133080f, 0.151080f, 0.098260f, -0.183330f, -0.064480f, -0.075830f, 0.158090f, -0.085960f, -0.147250f, -0.104100f, -0.079250f, 0.079740f, 0.025640f, -0.008480f, -0.154650f, -0.088240f, 0.005700f, -0.079790f, 0.148190f, 0.190880f, -0.132500f, -0.027520f, 0.194420f, 0.147790f, 0.068870f, 0.004510f, 0.138390f, 0.089850f, 0.111690f, 0.055420f, -0.096250f, 0.159410f, -0.013110f, 0.140520f, -0.042240f, -0.200870f, -0.190760f, 0.068280f, 0.202220f, -0.059710f, 0.036920f, -0.171960f, -0.131260f, -0.073970f, 0.195060f, -0.005310f, 0.084600f, -0.170590f, 0.067390f, 0.097850f, 0.168640f, 0.093280f, -0.123200f, -0.068930f, 0.071550f, -0.122100f, 0.026300f, 0.190600f, -0.184760f, 0.185400f, 0.071970f, 0.184730f, -0.028540f, 0.067780f, -0.055950f, -0.049540f, -0.191680f, -0.066700f, 0.181170f, 0.052190f, -0.027240f, 0.141640f, 0.160040f, -0.152800f, -0.065910f, -0.048720f, -0.116880f, 0.086050f, 0.055810f, 0.148970f, 0.146030f, -0.202980f, -0.178870f, 0.137920f, 0.199210f, 0.059930f, 0.176610f, 0.095640f, -0.161460f, 0.048880f, -0.133750f, 0.065160f, -0.049870f, -0.016850f, -0.099710f, 0.193770f, -0.015750f, -0.005500f, 0.180600f, -0.136820f, 0.125260f, 0.158220f, 0.055990f, -0.068420f, -0.046420f, -0.166050f, -0.065680f, -0.177800f, 0.042740f, 0.185040f, -0.170350f, 0.040030f, 0.161280f, 0.202060f, 0.062420f, 0.204170f, 0.200270f, 0.162500f, 0.091950f, 0.147830f, 0.175070f, 0.136050f, -0.102630f, 0.058670f, -0.006600f, 0.170420f, -0.116220f, 0.154770f, -0.066310f, -0.170470f, 0.153250f, -0.160780f, -0.135650f, -0.024430f, 0.131440f, 0.142810f, -0.207180f, 0.019290f, -0.000590f, -0.174900f, 0.164060f, 0.038020f, 0.038860f, 0.173030f, -0.087590f, -0.124630f, 0.037020f, 0.094850f, -0.136810f, -0.161920f, 0.053250f, -0.210640f, -0.149420f, 0.099550f, 0.193960f, -0.009330f, 0.021200f, -0.041410f, 0.115300f, -0.011930f, 0.065910f, -0.148430f, 0.137300f, 0.122850f, -0.130700f, -0.060850f, -0.179000f, -0.000430f, -0.057590f, -0.164650f, -0.200510f, -0.191060f, 0.159690f, -0.127840f, -0.005970f, -0.125300f, -0.076720f, -0.170290f, -0.050920f, 0.217840f, -0.030490f, -0.154420f, 0.049460f, 0.167730f, -0.053290f, 0.157660f, -0.064910f, -0.189470f, 0.022000f, 0.155880f, 0.130240f, 0.146640f, 0.098810f, -0.073400f, -0.001570f, -0.039870f, -0.029880f, 0.011870f, -0.190620f, -0.189480f, 0.112090f, 0.028940f, 0.118220f, -0.082100f, -0.052840f, -0.149390f, 0.187880f, 0.035470f, 0.050370f, -0.160520f, -0.180900f, -0.086360f, -0.039810f, -0.025890f, -0.046840f, 0.046370f, -0.064940f, 0.103820f, -0.043270f, 0.122030f, 0.112260f, 0.046990f, 0.144350f, -0.043530f, -0.033940f, 0.097270f, 0.165880f, 0.151340f, 0.142380f, 0.094090f, -0.049300f, -0.041770f, -0.210460f, -0.191910f, 0.162200f, 0.107230f, -0.151130f, -0.134330f, -0.146210f, 0.129030f, 0.019730f, 0.160510f, -0.107660f, 0.071160f, -0.021040f, -0.003690f, 0.007620f, 0.152440f, 0.085840f, 0.063110f, 0.098320f, 0.084310f, 0.135680f, -0.095940f, -0.000450f, -0.113940f, -0.014750f, 0.064400f, -0.131990f, -0.079780f, -0.119380f, -0.110390f, 0.027390f, -0.113410f, -0.161070f, -0.057340f, -0.162860f, -0.126050f, -0.038130f, 0.136100f, 0.051640f, 0.010910f, -0.015280f, -0.004570f, -0.108290f, -0.037010f, 0.113530f, 0.169350f, 0.207890f, -0.118620f, -0.150860f, 0.213540f, -0.015910f, -0.131490f, 0.088720f, 0.170410f, -0.003890f, 0.062250f, -0.201010f, 0.042340f, -0.032440f, 0.034620f, -0.041200f, -0.185130f, 0.056770f, -0.107050f, 0.023800f, -0.202120f, -0.190500f, 0.028420f, 0.056410f, 0.073640f, -0.105940f, 0.066710f, -0.055870f, 0.117030f, -0.161780f, 0.204560f, -0.112790f, -0.070110f, -0.083510f, -0.142380f, -0.192670f, 0.005550f, 0.113150f, 0.143540f, 0.076920f, -0.092180f, 0.096050f, -0.122270f, -0.040540f, 0.185360f, 0.172830f, -0.105300f, 0.056860f, 0.197970f, -0.200790f, -0.152450f, 0.115480f, 0.021580f, -0.142300f, 0.083900f, 0.126250f, -0.010670f, -0.146740f, -0.104040f, -0.002870f, -0.056510f, 0.152760f, 0.214020f, 0.084360f, 0.164920f, -0.082340f, -0.156910f, 0.143630f, -0.011000f, 0.086440f, -0.056120f, 0.087810f, -0.090840f, -0.100340f, 0.074380f, -0.189910f, -0.047040f, 0.147200f, 0.115520f, -0.194250f, -0.152110f, 0.074150f, -0.024730f, -0.054440f, 0.021680f, -0.121340f, -0.107220f, 0.077040f, -0.060270f, 0.094580f, -0.114950f, 0.111960f, -0.206110f, 0.032220f, 0.056360f, 0.018100f, 0.085400f, -0.130500f, 0.057150f, 0.115000f, -0.015250f, 0.107970f, 0.048270f, 0.027230f, 0.090800f, -0.051060f, -0.042560f, 0.043010f, 0.193860f, 0.152310f, 0.035270f, -0.000240f, 0.046160f, -0.088850f, -0.185190f, 0.209200f, -0.068450f, -0.055260f, 0.205700f, 0.031340f, -0.159980f, -0.190620f, -0.176450f, -0.151220f, -0.007260f, 0.117450f, -0.045420f, 0.131800f, -0.164850f, -0.084010f, 0.073160f, -0.174650f, -0.084770f, -0.164450f, 0.067510f, -0.110290f, -0.033830f, -0.146900f, -0.142410f, -0.193220f, 0.167240f, 0.010160f, -0.092940f, 0.126210f, 0.001940f, -0.089290f, 0.041370f, -0.024710f, 0.125620f, -0.136220f, -0.028330f, -0.144090f, 0.192480f, -0.011830f, -0.153630f, 0.178910f, 0.121860f, 0.028580f, -0.080630f, 0.176210f, -0.037320f, 0.128080f, 0.049970f, 0.191530f, 0.211530f, 0.046950f, -0.048870f, -0.196020f, -0.011080f, 0.192820f, 0.167140f, 0.024970f, 0.187670f, 0.196450f, -0.099230f, 0.198710f, 0.148670f, 0.208940f, 0.147330f, -0.095020f, 0.086930f, 0.033820f, -0.113410f, -0.027280f, 0.119150f, 0.072040f, 0.204350f, -0.164360f, -0.177500f, -0.080670f, -0.055450f, -0.109680f, 0.003150f, -0.067200f, 0.165050f, 0.009090f, 0.151110f, 0.173490f, 0.168710f, 0.140850f, -0.188370f, -0.085350f, -0.201140f, -0.131740f, -0.203480f, -0.082760f, 0.209110f, 0.116500f, 0.097370f, -0.082670f, 0.142370f, -0.143310f, -0.091640f, 0.169800f, 0.174560f, -0.042880f, -0.146470f, -0.189450f, -0.126910f, -0.059760f, 0.210260f, -0.012860f, -0.032100f, -0.035050f, -0.053950f, 0.198240f, 0.163260f, -0.100110f, -0.075810f, -0.189910f, -0.168070f, 0.133070f, 0.167700f, 0.136150f, 0.206150f, -0.082520f, -0.128870f, 0.184410f, -0.068850f, -0.169100f, 0.133510f, -0.127300f, -0.165840f, 0.132920f, 0.099250f, -0.044100f, -0.036220f, -0.076980f, 0.020500f, 0.076700f, -0.200760f, -0.076380f, -0.029000f, 0.192090f, -0.113700f, 0.169590f, 0.111780f, 0.141910f, 0.176920f, -0.056020f, 0.182590f, 0.209760f, 0.140060f, -0.057190f, 0.174000f, 0.059460f, 0.049740f, 0.082900f, 0.116730f, -0.207620f, 0.158610f, -0.142860f, 0.206570f, 0.019410f, 0.196610f, -0.142110f, -0.115570f, -0.182330f, -0.055030f, -0.125730f, -0.166440f, 0.053370f, 0.053990f, -0.183000f, 0.111200f, 0.075910f, 0.098640f, -0.008400f, 0.057910f, -0.192530f, 0.196640f, -0.058820f, 0.139700f, -0.102230f, 0.112350f, 0.126680f, 0.045600f, 0.049370f, -0.003380f, -0.014340f, -0.205220f, 0.115750f, 0.000310f, -0.167190f, 0.051690f, -0.046270f, -0.153600f, -0.058360f, 0.185680f, -0.040810f, 0.104890f, -0.031130f, -0.172510f, 0.168210f, 0.177840f, -0.051620f, 0.158520f, 0.110640f, 0.042100f, 0.220740f, 0.109680f, -0.022530f, 0.199510f, 0.005130f, 0.189540f, -0.203990f, 0.208100f, 0.068110f, -0.049640f, -0.124200f, -0.045130f, 0.019560f, 0.062740f, 0.020320f, 0.160750f, -0.067100f, -0.005350f, 0.150170f, 0.170530f, -0.194490f, -0.068520f, 0.076300f, -0.043660f, 0.163410f, 0.099480f, 0.102470f, 0.098980f, -0.200940f, -0.065290f, -0.042410f, 0.158390f, -0.161350f, 0.162060f, -0.178140f, -0.021350f, 0.060310f, -0.058950f, -0.108290f, 0.186590f, -0.095150f, -0.061750f, -0.088030f, 0.141800f, 0.124810f, -0.052750f, 0.126290f, 0.068030f, 0.172440f, 0.114580f, -0.070890f, -0.126790f, 0.131670f, 0.195380f, -0.119130f, -0.047120f, -0.199340f, 0.065420f, -0.156170f, -0.134760f, 0.207650f, -0.060250f, -0.078190f, -0.029580f, 0.117950f, 0.177850f, 0.076200f, 0.035220f, -0.174080f, -0.187050f, -0.000260f, 0.018740f, -0.091900f, 0.086840f, 0.127290f, 0.118570f, -0.101310f, 0.058980f, 0.167180f, -0.017480f, -0.067960f, 0.073730f, -0.055190f, 0.099510f, -0.082180f, -0.193810f, -0.035190f, 0.128360f, -0.164730f, -0.171820f, -0.112210f, 0.052720f, 0.124050f, -0.015810f, 0.161370f, 0.013340f, -0.181890f, -0.107760f, 0.179050f, -0.006580f, 0.092700f, -0.209060f, 0.004770f, -0.024710f, -0.157720f, -0.181380f, 0.117860f, -0.074720f, 0.182620f, 0.082550f, -0.100000f, 0.183730f, 0.095260f, 0.156850f, -0.007550f, 0.210000f, 0.013420f, -0.097530f, -0.171070f, 0.140020f, 0.108770f, -0.113270f, 0.145120f, 0.107120f, 0.049760f, -0.155250f, 0.061030f, 0.036790f, -0.001270f, -0.179440f, -0.110690f, -0.183840f, 0.015120f, 0.006450f, -0.015400f, -0.027890f, -0.160520f, 0.120960f, 0.054250f, 0.031640f, -0.025030f, 0.135320f, -0.154990f, 0.079700f, -0.078210f, 0.076800f, 0.084890f, -0.117090f, -0.208920f, 0.007150f, -0.069880f, -0.171330f, -0.051030f, 0.003360f, -0.087880f, -0.055710f, 0.002920f, -0.148500f, 0.068530f, -0.083750f, 0.195480f, 0.098110f, -0.073400f, 0.016190f, 0.080570f, 0.206120f, -0.020330f, 0.110800f, -0.139380f, 0.197940f, -0.028580f, 0.061070f, 0.011630f, 0.184980f, -0.094510f, 0.005890f, 0.053690f, 0.206240f, 0.032090f, 0.093370f, 0.182570f, -0.165780f, 0.024230f, 0.189430f, -0.105290f, -0.061560f, 0.030120f, -0.194970f, -0.183010f, -0.041270f, 0.117560f, 0.203260f, 0.094650f, -0.178890f, 0.193690f, 0.099430f, 0.055920f, 0.201020f, 0.042470f, -0.209480f, 0.029430f, -0.120020f, -0.194490f, -0.136240f, -0.017570f, 0.163760f, -0.204660f, 0.023370f, 0.066610f, -0.134600f, 0.171100f, -0.011590f, -0.058150f, -0.095830f, 0.195370f, -0.133290f, 0.189560f, 0.144750f, -0.083900f, 0.160670f, -0.115650f, -0.093790f, -0.075980f, 0.127350f, -0.160500f, -0.025640f, 0.038930f, 0.012380f, -0.085860f, -0.130030f, -0.116150f, 0.135480f, 0.190870f, -0.203670f, -0.024950f, 0.140570f, -0.089500f, 0.052830f, 0.000770f, 0.196840f, -0.201160f, -0.093970f, 0.029700f, 0.124210f, 0.209000f, -0.103600f, 0.127910f, 0.124390f, -0.120040f, 0.184220f, 0.100690f, 0.199930f, 0.015590f, 0.150940f, -0.026260f, -0.205740f, 0.089090f, -0.103470f, -0.135660f, -0.088180f, 0.187060f, 0.063840f, 0.161770f, -0.189530f, 0.160350f, -0.185120f, 0.187190f, 0.186990f, 0.025020f, 0.179080f, -0.174300f, 0.178130f, 0.200290f, 0.190960f, -0.071470f, -0.009250f, -0.040340f, 0.119850f, 0.137910f, 0.059120f, 0.206200f, 0.187610f, -0.039020f, 0.049910f, 0.022270f, -0.119060f, -0.193540f, 0.034880f, 0.093520f, -0.066420f, -0.159490f, -0.066260f, 0.051850f, -0.104400f, 0.005690f, 0.210530f, -0.195590f, -0.000920f, -0.155320f, -0.157600f, 0.159560f, -0.038750f, 0.018640f, 0.149480f, -0.141390f, -0.119430f, 0.016940f, -0.130070f, -0.049500f, 0.209020f, -0.205490f, -0.042410f, -0.049880f, 0.153880f, 0.069850f, 0.172670f, -0.147830f, -0.186320f, 0.028660f, -0.184800f, 0.210070f, -0.113940f, -0.194930f, -0.202800f, 0.081750f, 0.151470f, -0.124580f, -0.059390f, 0.133320f, 0.142250f, -0.132160f, -0.035190f, -0.074310f, 0.195200f, 0.178440f, -0.089560f, -0.125690f, -0.113940f, -0.152020f, -0.114110f, -0.117750f, 0.099520f, -0.086770f, -0.157070f, -0.163530f, 0.075660f, 0.124030f, 0.138390f, 0.094070f, 0.021090f, 0.078990f, 0.164620f, -0.038950f, 0.044790f, 0.073270f, 0.089240f, -0.127220f, -0.146380f, 0.184510f, 0.109190f, 0.109780f, -0.042710f, -0.046400f, 0.127430f, 0.136860f, -0.107150f, -0.199990f, 0.149020f, 0.184830f, -0.185180f, 0.160230f, 0.116320f, -0.027140f, 0.014150f, -0.184870f, 0.043000f, -0.205190f, -0.062950f, -0.129820f, 0.046480f, -0.138030f, -0.134430f, -0.078470f, 0.131240f, -0.164720f, -0.091730f, 0.078190f, 0.189020f, 0.152440f, 0.028220f, 0.165440f, 0.026050f, -0.044050f, 0.053200f, 0.130190f, 0.058430f, 0.076490f, -0.020470f, -0.172520f, -0.117260f, -0.061760f, -0.006820f, 0.121250f, 0.027530f, -0.123990f, -0.065970f, 0.093260f, -0.043050f, 0.060360f, 0.036380f, 0.134510f, -0.101580f, -0.170630f, 0.111200f, 0.141510f, -0.127410f, 0.188160f, -0.070210f, 0.066080f, -0.142720f, 0.044420f, 0.168830f, -0.040670f, -0.052880f, -0.120860f, -0.011510f, 0.031300f, 0.094590f, 0.056150f, -0.133050f, 0.118190f, 0.193950f, 0.108840f, 0.147120f, 0.174240f, -0.170250f, -0.171640f, -0.099230f, 0.157360f, -0.158940f, -0.096580f, 0.050850f, -0.045560f, 0.000360f, -0.188040f, -0.178320f, 0.161190f, 0.123140f, 0.093480f, -0.184080f, -0.082710f, 0.034230f, -0.088880f, 0.133330f, 0.011120f, -0.076200f, 0.030510f, 0.180520f, 0.006430f, 0.134860f, -0.066230f, -0.035340f, -0.021810f, -0.182050f, -0.056960f, 0.030510f, -0.135040f, -0.152550f, -0.100470f, -0.160130f, 0.204450f, 0.096930f, 0.059690f, -0.041820f, -0.113300f, -0.053450f, -0.193880f, 0.142280f, 0.002410f, -0.028880f, -0.027430f, 0.091530f, -0.182560f, -0.002760f, -0.007750f, 0.155880f, -0.143630f, 0.187600f, 0.021130f, 0.046220f, 0.161660f, -0.109300f, 0.114320f, -0.074500f, 0.013270f, -0.140390f, -0.091970f, -0.125200f, 0.072600f, 0.013700f, -0.203400f, 0.151550f, 0.179860f, -0.178160f, -0.206950f, 0.160140f, 0.190490f, -0.166800f, 0.044940f, -0.025850f, 0.193480f, -0.082320f, 0.197010f, 0.088620f, 0.183970f, -0.100360f, -0.002610f, 0.085490f, 0.108700f, -0.136840f, -0.042450f, 0.131640f, 0.187550f, 0.075480f, -0.181500f, -0.069940f, -0.001860f, 0.024170f, -0.133760f, -0.175220f, 0.143920f, 0.157350f, -0.178070f, -0.120300f, -0.080540f, -0.117960f, 0.151080f, 0.001740f, -0.077220f, 0.197220f, -0.070430f, 0.157740f, -0.134400f, -0.209290f, -0.205920f, 0.067130f, 0.023830f, 0.115550f, 0.143400f, -0.098420f, 0.128080f, -0.164540f, -0.211290f, 0.092630f, 0.055170f, -0.057290f, 0.129470f, 0.204080f, 0.133860f, 0.003100f, -0.027160f, 0.217220f, 0.204840f, 0.130940f, 0.118370f, -0.148730f, 0.099370f, 0.213980f, 0.123660f, 0.207660f, -0.077100f, 0.129090f, 0.044470f, 0.072810f, 0.062150f, -0.037080f, -0.154940f, 0.190080f, -0.117690f, -0.125400f, -0.026000f, 0.036230f, -0.145860f, 0.198200f, -0.074440f, -0.213500f, -0.044960f, 0.005270f, 0.160060f, 0.146290f, 0.088880f, 0.189750f, 0.097460f, 0.092270f, 0.028550f, -0.203800f, 0.209860f, -0.019270f, 0.003590f, -0.167550f, 0.190400f, 0.188670f, -0.145020f, 0.175050f, 0.120330f, 0.032350f, -0.210150f, 0.189520f, 0.147610f, -0.126050f, -0.092000f, -0.005950f, -0.079770f, 0.108360f, -0.144930f, 0.147720f, 0.040340f, -0.008330f, -0.114780f, 0.096730f, -0.168540f, -0.007580f, 0.156940f, -0.053860f, 0.126700f, -0.170920f, -0.109440f, -0.109500f, -0.168420f, 0.129420f, -0.152510f, 0.133830f, 0.112710f, 0.146760f, -0.047480f, 0.106710f, -0.180150f, -0.184490f, 0.165180f, -0.167750f, 0.147340f, -0.004960f, -0.174800f, -0.114830f, 0.076870f, 0.039240f, 0.199380f, -0.177630f, 0.015050f, -0.193060f, 0.148330f, -0.185550f, 0.024590f, 0.102330f, 0.078690f, 0.098720f, 0.012060f, 0.130440f, -0.156180f, 0.113230f, -0.126680f, -0.172440f, -0.004940f, 0.063830f, 0.113230f, -0.069200f, 0.055360f, -0.147430f, -0.198130f, -0.189660f, -0.206290f, -0.114910f, 0.200390f, 0.186540f, 0.026790f, 0.070690f, -0.199100f, 0.194790f, -0.191630f, 0.199920f, 0.103130f, 0.015890f, -0.206270f, -0.086580f, -0.086720f, 0.092370f, -0.097490f, -0.210270f, -0.084690f, 0.124040f, 0.069750f, 0.046650f, -0.146100f, -0.017350f, -0.055950f, -0.121600f, 0.139950f, 0.066720f, -0.025390f, -0.140380f, 0.187660f, 0.064670f, 0.096910f, 0.168010f, 0.103160f, -0.056460f, 0.108150f, 0.104560f, -0.197650f, 0.059140f, -0.069120f, 0.123630f, -0.107760f, 0.044840f, 0.146580f, 0.082500f, 0.169130f, -0.088180f, 0.075760f, 0.107620f, 0.046920f, -0.193640f, 0.098970f, -0.108540f, -0.176360f, -0.070180f, 0.033580f, 0.116150f, 0.020510f, -0.048720f, -0.161840f, -0.028630f, 0.049770f, 0.024850f, -0.148880f, 0.003740f, -0.102340f, -0.204470f, -0.174650f, -0.062070f, -0.210190f, 0.049930f, 0.059450f, 0.049890f, 0.005770f, 0.193500f, -0.168450f, 0.197280f, -0.159620f, -0.109640f, 0.025580f, 0.086500f, 0.050610f, 0.123460f, -0.131750f, 0.027430f, -0.021210f, 0.046710f, 0.117880f, 0.145280f, -0.097110f, -0.134610f, 0.198300f, 0.170100f, 0.007450f, -0.070960f, 0.193310f, 0.020740f, 0.144950f, 0.060660f, -0.143520f, 0.036620f, -0.069480f, 0.052120f, -0.188550f, -0.041800f, -0.123710f, 0.025450f, 0.189010f, 0.210020f, -0.035430f, -0.208750f, 0.023130f, -0.086380f, -0.060840f, 0.039060f, -0.203300f, -0.189650f, 0.148400f, -0.074690f, 0.169500f, 0.089810f, -0.028790f, 0.018120f, -0.103860f, 0.044490f, -0.006420f, 0.160660f, 0.141830f, 0.182200f, -0.104130f, 0.117420f, 0.100190f, -0.163700f, -0.119880f, 0.077190f, -0.065220f, 0.033810f, 0.147240f, -0.045830f, -0.097480f, -0.164190f, -0.174580f, -0.092770f, 0.199560f, -0.156250f, 0.196670f, 0.127020f, -0.108010f, -0.117030f, -0.197000f, 0.099140f, -0.162390f, 0.199310f, 0.205450f, 0.068770f, -0.148190f, -0.205210f, -0.035390f, 0.112800f, 0.008850f, -0.023370f, -0.030370f, 0.039000f, 0.149700f, -0.064370f, -0.143000f, 0.059990f, -0.191790f, -0.081590f, -0.075150f, -0.104090f, 0.061560f, -0.201510f, -0.098230f, -0.117350f, 0.142680f, 0.033300f, 0.114210f, 0.031020f, -0.181410f, -0.113980f, 0.103780f, -0.033090f, 0.051200f, 0.175240f, -0.004980f, -0.059360f, 0.147130f, 0.057000f, 0.053490f, -0.194560f, 0.056680f, -0.167950f, 0.118950f, -0.143310f, -0.105020f, -0.019440f, -0.111240f, -0.202490f, -0.206890f, 0.201940f, 0.161180f, 0.104670f, -0.043380f, -0.173400f, -0.052870f, -0.068150f, -0.001620f, -0.201270f, -0.210720f, 0.089650f, 0.111220f, 0.155790f, -0.146890f, -0.033610f, 0.197350f, 0.112090f, -0.185960f, -0.027470f, -0.104930f, -0.091450f, -0.107280f, -0.169370f, 0.080830f, 0.121430f, 0.109180f, 0.051880f, -0.146970f, 0.061490f, -0.011820f, 0.115560f, -0.101140f, 0.193530f, -0.116600f, -0.145960f, 0.139960f, -0.103100f, -0.146370f, -0.115190f, -0.148440f, -0.005090f, -0.123510f, -0.095470f, -0.128670f, 0.041760f, -0.153830f, 0.190220f, -0.208770f, 0.069380f, 0.132180f, -0.195100f, -0.135400f, 0.170860f, 0.051120f, -0.036590f, 0.144040f, 0.089100f, -0.188050f, -0.204410f, 0.132190f, -0.073160f, 0.013340f, 0.017470f, 0.036140f, 0.071810f, -0.055020f, 0.013160f, 0.194160f, 0.165520f, 0.074210f, 0.051570f, -0.113790f, -0.199300f, -0.197710f, -0.190960f, 0.164790f, 0.194020f, 0.105600f, -0.160370f, 0.099640f, 0.208020f, -0.030250f, 0.042520f, -0.140350f, 0.133920f, 0.039270f, -0.071040f, -0.197390f, -0.176200f, 0.140270f, -0.161810f, -0.024450f, 0.100730f, -0.183830f, 0.038060f, 0.130130f, -0.114430f, -0.170560f, 0.079940f, 0.181010f, 0.152670f, -0.089380f, 0.169610f, -0.163750f, 0.080010f, 0.135790f, -0.050340f, -0.036030f, -0.082340f, 0.126920f, -0.106200f, -0.207480f, -0.073420f, -0.044690f, 0.204530f, -0.007530f, 0.165490f, -0.156780f, 0.113230f, -0.031650f, -0.190450f, 0.133300f, -0.112110f, -0.167110f, 0.119500f, -0.120510f, 0.047400f, 0.173080f, 0.175790f, 0.078240f, 0.048170f, -0.051950f, -0.078950f, -0.038990f, -0.078120f, 0.079660f, 0.169490f, 0.018920f, 0.017240f, -0.152970f, 0.002490f, 0.137520f, -0.012960f, 0.064580f, -0.132520f, 0.122470f, 0.188040f, -0.067620f, -0.181580f, -0.103340f, 0.192200f, -0.186160f, 0.071120f, 0.069410f, 0.186460f, 0.114580f, 0.004670f, -0.120150f, -0.129050f, -0.164760f, 0.058990f, -0.020760f, 0.173060f, -0.138560f, 0.017190f, -0.168820f, 0.189090f, 0.045480f, 0.159180f, -0.108630f, -0.129100f, 0.067410f, 0.168320f, -0.203720f, -0.138360f, 0.073110f, -0.048270f, -0.135100f, 0.110740f, -0.079010f, 0.035800f, -0.088300f, -0.197480f, -0.200420f, 0.066280f, -0.073110f, 0.174710f, 0.037160f, -0.134060f, -0.102010f, 0.175500f, -0.114820f, -0.155680f, 0.007230f, -0.059670f, -0.103810f, 0.195620f, 0.132680f, -0.014550f, -0.068080f, 0.085860f, -0.062830f, 0.011290f, 0.019230f, 0.194600f, -0.140620f, 0.057860f, 0.038500f, 0.017510f, -0.042930f, 0.050450f, 0.203330f, 0.017220f, -0.202080f, 0.145450f, -0.138870f, 0.118040f, -0.115010f, -0.141040f, -0.011790f, 0.008710f, 0.175160f, -0.018930f, -0.088630f, -0.154500f, -0.010710f, -0.062210f, -0.154210f, -0.171900f, -0.051580f, -0.102220f, 0.160370f, -0.018690f, 0.208530f, 0.007670f, 0.002980f, -0.198800f, -0.073640f, 0.030410f, 0.088920f, -0.190360f, 0.091330f, -0.137480f, -0.153940f, -0.074150f, 0.117210f, -0.037580f, 0.071690f, -0.101250f, -0.082030f, 0.093040f, -0.189740f, -0.138800f, 0.166870f, -0.072490f, -0.201090f, 0.179560f, -0.199830f, -0.033940f, 0.103040f, -0.111780f, -0.106400f, -0.164970f, -0.034320f, 0.061910f, -0.205410f, -0.186100f, -0.000410f, -0.158730f, 0.105570f, -0.089080f, 0.144170f, -0.045290f, -0.207730f, 0.185040f, -0.148540f, -0.166060f, 0.010030f, -0.076530f, -0.067600f, 0.080310f, 0.001140f, 0.121440f, 0.004910f, -0.075370f, 0.102310f, -0.167990f, -0.137220f, 0.018120f, -0.085630f, -0.054010f, -0.125490f, -0.140140f, -0.210730f, -0.155890f, -0.052700f, 0.036530f, 0.174760f, -0.195120f, 0.106780f, -0.042670f, 0.103770f, 0.012560f, 0.165690f, -0.105930f, 0.186530f, 0.098000f, -0.167980f, 0.092280f, -0.204870f, -0.105570f, -0.043920f, -0.090600f, 0.088920f, -0.210590f, 0.130430f, 0.004120f, 0.210160f, -0.073570f, 0.146310f, 0.171930f, 0.189940f, 0.031270f, -0.192140f, -0.068230f, 0.084650f, -0.076570f, -0.020220f, 0.129360f, -0.151770f, -0.148370f, -0.210650f, 0.002750f, -0.089820f, 0.061670f, 0.030630f, -0.009810f, 0.065030f, -0.079890f, -0.167700f, -0.183930f, 0.104900f, 0.093670f, -0.045530f, 0.076580f, -0.166410f, -0.023980f, 0.042270f, -0.147590f, -0.043160f, 0.162670f, 0.139380f, 0.134570f, -0.044550f, -0.027270f, -0.034070f, 0.164730f, 0.035840f, -0.113870f, 0.204350f, -0.163790f, -0.165950f, -0.105520f, 0.107250f, 0.075000f, 0.027660f, 0.003680f, -0.096570f, -0.126660f, -0.113720f, -0.090360f, -0.158780f, -0.114620f, 0.129330f, 0.032050f, -0.025480f, 0.118650f, 0.019310f, 0.144670f, -0.066240f, -0.112720f, 0.110940f, -0.102210f, -0.100360f, -0.074640f, 0.119700f, -0.024050f, -0.020230f, 0.204030f, 0.030860f, -0.127710f, -0.030340f, 0.157730f, 0.039660f, 0.076550f, -0.103890f, 0.192150f, -0.181410f, 0.080640f, -0.144040f, 0.043480f, -0.180400f, -0.159030f, 0.064330f, -0.099140f, 0.047290f, 0.029410f, 0.121840f, -0.083800f, 0.043000f, 0.155900f, -0.183670f, -0.050900f, -0.049250f, 0.014530f, -0.150470f, -0.067810f, -0.166010f, 0.009540f, 0.147680f, 0.026420f, 0.117650f, 0.101490f, 0.096720f, -0.190760f, -0.080780f, -0.133010f, -0.072120f, -0.006870f, 0.048980f, -0.083880f, -0.056620f, 0.162790f, 0.139230f, -0.006790f, 0.177870f, 0.072630f, -0.040250f, 0.088600f, -0.101460f, -0.064610f, -0.072920f, 0.112580f, -0.196020f, -0.050420f, -0.186180f, -0.002020f, 0.137320f, 0.179740f, 0.099210f, 0.005590f, -0.031840f, -0.053290f, 0.199810f, -0.191170f, -0.182750f, -0.068000f, -0.030060f, 0.146040f, 0.181560f, -0.085580f, -0.058060f, 0.174810f, 0.015200f, -0.016560f, -0.180340f, -0.073890f, -0.074120f, 0.012170f, -0.055690f, -0.119730f, -0.190530f, -0.011990f, -0.095850f, -0.045670f, -0.158040f, 0.082840f, -0.151160f, 0.188890f, -0.057720f, -0.084650f, -0.019150f, 0.023390f, 0.001360f, 0.145890f, 0.038130f, 0.182980f, -0.159960f, 0.198120f, 0.176510f, -0.060680f, 0.100680f, -0.126690f, -0.189930f, 0.202350f, -0.041820f, -0.163720f, -0.134610f, 0.194780f, -0.148400f, -0.038280f, -0.016880f, -0.144370f, -0.050230f, -0.010440f, -0.049610f, 0.128250f, 0.066610f, 0.037890f, 0.202590f, 0.137060f, -0.206670f, -0.199150f, 0.145470f, 0.003990f, -0.133280f, -0.058390f, -0.179680f, 0.121300f, -0.135800f, 0.085560f, 0.186270f, -0.160560f, -0.089930f, -0.021870f, 0.075720f, -0.150480f, 0.163970f, -0.127840f, -0.034520f, -0.174170f, 0.162830f, 0.037280f, -0.210660f, 0.183300f, -0.174010f, -0.047300f, 0.184730f, -0.039260f, 0.185050f, -0.088960f, -0.132550f, -0.150770f, -0.005950f, 0.060330f, -0.105530f, -0.211590f, -0.058150f, 0.002270f, 0.112850f, -0.080490f, 0.052280f, -0.040800f, -0.100790f, 0.187270f, 0.137450f, -0.114050f, -0.086300f, -0.144340f, 0.119960f, -0.031160f, -0.094300f, 0.154430f, 0.066910f, 0.185840f, -0.073460f, 0.111230f, 0.050600f, 0.141470f, 0.143820f, 0.199150f, -0.081850f, 0.177390f, 0.051390f, 0.108670f, 0.113450f, 0.212110f, 0.072920f, -0.006930f, -0.100480f, -0.186850f, 0.062360f, -0.184250f, -0.135240f, -0.123780f, -0.129340f, 0.186000f, -0.012300f, 0.180500f, -0.060170f, 0.194710f, 0.034280f, 0.127940f, -0.011040f, 0.150560f, -0.113670f, -0.057900f, 0.010710f, 0.092280f, -0.049490f, -0.023840f, -0.138380f, -0.147970f, 0.094380f, -0.018360f, -0.105840f, -0.034010f, 0.203700f, 0.066890f, -0.200180f, -0.072710f, -0.032210f, 0.013190f, -0.111770f, -0.205510f, -0.186120f, -0.079360f, 0.099650f, 0.070850f, 0.074740f, -0.175260f, -0.038030f, 0.123990f, -0.039570f, -0.063720f, 0.193900f, -0.127510f, 0.001910f, -0.169920f, 0.125860f, 0.194490f, -0.050800f, 0.200420f, 0.055710f, -0.031750f, 0.117650f, -0.153210f, -0.095900f, 0.136640f, -0.055340f, -0.046330f, -0.088420f, -0.125070f, -0.120970f, -0.011580f, 0.123520f, -0.021770f, 0.141250f, 0.172880f, -0.071310f, -0.059400f, 0.067380f, -0.166010f, 0.130510f, -0.014510f, 0.184130f, 0.175880f, 0.046910f, 0.111110f, 0.185660f, -0.005830f, -0.055990f, -0.142590f, -0.021420f, 0.030860f, 0.053580f, 0.052010f, 0.148230f, -0.105300f, -0.042610f, -0.155390f, 0.149330f, -0.150290f, 0.208500f, 0.101420f, -0.077980f, 0.013620f, -0.129320f, 0.103490f, 0.127430f, 0.170390f, 0.127810f, 0.000060f, 0.074090f, -0.147370f, 0.195230f, -0.143440f, 0.001260f, -0.101350f, -0.201710f, 0.151570f, 0.168390f, -0.193290f, -0.134180f, 0.143030f, -0.022990f, -0.091010f, 0.180230f, -0.092070f, -0.149820f, -0.051710f, -0.159150f, -0.140330f, 0.167470f, 0.051980f, -0.039330f, -0.018430f, 0.029850f, -0.191410f, -0.129480f, 0.077850f, -0.053130f, -0.089910f, -0.135140f, 0.182690f, -0.087270f, 0.078500f, 0.132840f, -0.082750f, -0.144470f, 0.104100f, 0.059870f, -0.141130f, -0.043630f, -0.004410f, 0.173390f, 0.134140f, 0.166560f, -0.210290f, -0.032750f, 0.179950f, 0.189770f, 0.060010f, -0.081740f, 0.063600f, -0.154840f, -0.062280f, 0.106250f, 0.139640f, 0.068270f, -0.105800f, 0.031950f, 0.054630f, -0.031470f, 0.000390f, -0.077060f, 0.170040f, -0.186240f, 0.107090f, 0.039880f, 0.127570f, -0.181310f, 0.029910f, -0.045850f, 0.168040f, -0.047510f, 0.079360f, -0.123130f, -0.007150f, -0.082780f, 0.025990f, 0.037030f, -0.050510f, 0.078550f, 0.075180f, 0.094870f, 0.192110f, 0.133900f, 0.004040f, -0.008530f, 0.108470f, 0.128450f, 0.130510f, 0.108890f, 0.034480f, 0.128470f, -0.061850f, 0.116050f, 0.060980f, 0.010680f, -0.127370f, -0.096220f, -0.121250f, -0.156360f, 0.140970f, 0.003710f, 0.024250f, -0.202270f, 0.167160f, 0.017850f, -0.064720f, 0.131340f, 0.060780f, 0.029270f, 0.145910f, 0.068720f, 0.147120f, -0.084870f, 0.178410f, 0.161610f, -0.001510f, 0.020430f, 0.082750f, 0.058460f, -0.127900f, -0.081060f, -0.138180f, -0.119280f, 0.075590f, 0.051380f, 0.135130f, 0.165640f, 0.070650f, -0.069700f, -0.203280f, 0.108840f, -0.010900f, -0.030320f, 0.107960f, 0.087880f, -0.026220f, -0.044340f, -0.179570f, -0.156940f, 0.001890f, 0.159330f, 0.161200f, 0.006980f, 0.095200f, -0.055320f, -0.068410f, -0.185860f, 0.101510f, -0.060990f, -0.166500f, -0.099510f, 0.103350f, -0.111030f, -0.011710f, 0.004050f, 0.163780f, 0.046500f, -0.111770f, 0.131650f, 0.040630f, 0.131820f, 0.087620f, 0.181390f, 0.100640f, -0.062490f, -0.040800f, 0.209730f, 0.150060f, 0.016420f, -0.169900f, 0.061020f, -0.108000f, -0.099150f, 0.184230f, -0.094550f, 0.125080f, -0.139370f, 0.059270f, 0.072370f, 0.090100f, 0.115670f, 0.011420f, 0.132710f, 0.215760f, 0.135650f, -0.171170f, -0.036280f, -0.021160f, -0.208130f, 0.151290f, -0.050110f, -0.064400f, 0.011660f, -0.023450f, 0.115960f, 0.166490f, 0.038890f, -0.149420f, -0.133200f, -0.081590f, -0.005280f, 0.097470f, -0.115610f, -0.073520f, 0.040280f, -0.148420f, 0.051040f, -0.114120f, 0.149230f, -0.079010f, 0.008050f, -0.146530f, 0.140250f, 0.126530f, 0.165130f, -0.134860f, -0.033510f, -0.193640f, 0.178470f, -0.041530f, 0.002520f, 0.191180f, -0.005630f, 0.103530f, 0.171150f, -0.102070f, 0.156600f, -0.094350f, 0.005480f, 0.097610f, 0.017820f, -0.125340f, 0.012220f, 0.192060f, -0.147080f, -0.130580f, -0.087100f, 0.016290f, 0.205090f, 0.001510f, -0.149470f, -0.086720f, -0.078990f, 0.031660f, 0.179790f, -0.010350f, 0.090550f, -0.001040f, -0.087580f, 0.155640f, -0.058970f, 0.045020f, -0.083240f, 0.183250f, -0.055880f, -0.045890f, 0.076000f, -0.047050f, 0.017040f, -0.015530f, -0.173690f, -0.074130f, 0.027790f, 0.053540f, -0.179520f, 0.204400f, -0.154270f, -0.130080f, 0.131920f, 0.189730f, 0.151690f, -0.107430f, -0.141310f, -0.128020f, 0.172600f, 0.005470f, 0.091830f, -0.149600f, 0.164230f, -0.169310f, -0.131100f, 0.083820f, -0.011240f, 0.038900f, 0.063660f, -0.135540f, 0.173570f, 0.046690f, -0.046000f, 0.037050f, -0.004800f, -0.112200f, 0.182030f, -0.121120f, -0.012470f, -0.045820f, 0.096000f, -0.037490f, 0.184800f, -0.195140f, 0.192240f, 0.001070f, 0.039850f, -0.131340f, -0.051660f, 0.100680f, 0.131020f, -0.030470f, 0.183300f, -0.024960f, 0.013030f, 0.000760f, -0.200160f, 0.031850f, -0.035810f, 0.065350f, 0.080650f, -0.001400f, 0.159470f, 0.176740f, -0.070470f, -0.040690f, -0.055550f, -0.106200f, 0.060340f, 0.209490f, 0.076300f, 0.101930f, -0.180420f, -0.166030f, 0.185730f, 0.168080f, 0.043670f, -0.063250f, 0.133130f, 0.144030f, -0.174460f, 0.081630f, -0.149410f, 0.057370f, -0.086990f, 0.124040f, 0.038570f, 0.008370f, 0.184200f, -0.204560f, 0.161650f, 0.072800f, 0.166050f, 0.160390f, 0.026220f, 0.113080f, 0.002960f, 0.155240f, -0.166440f, -0.141740f, -0.140650f, 0.055770f, -0.192340f, -0.204870f, 0.053930f, -0.022580f, -0.067760f, 0.108130f, 0.141770f, 0.116230f, 0.000810f, -0.011260f, -0.171200f, 0.007900f, 0.107540f, 0.127320f, -0.168870f, 0.209870f, -0.028020f, 0.078320f, -0.144040f, 0.111440f, -0.210240f, -0.160260f, 0.009560f, -0.126210f, -0.033560f, -0.170980f, 0.070610f, 0.032690f, 0.138360f, -0.166830f, -0.104550f, -0.108120f, -0.195860f, -0.113580f, -0.059260f, -0.121670f, -0.014200f, -0.058740f, 0.154210f, -0.150810f, -0.014090f, -0.010260f, 0.013500f, -0.061010f, -0.004420f, 0.168570f, 0.105880f, 0.133400f, -0.119560f, -0.105630f, -0.016350f, 0.126200f, 0.075320f, 0.032580f, 0.134360f, 0.126260f, -0.181090f, -0.130830f, -0.068070f, -0.086080f, 0.124000f, 0.068320f, 0.051060f, -0.138910f, 0.170020f, 0.082270f, 0.196360f, -0.027060f, 0.098260f, 0.206570f, -0.174420f, -0.137930f, -0.015990f, 0.157110f, -0.157970f, 0.183040f, -0.204380f, 0.007100f, 0.167270f, -0.066120f, -0.198600f, 0.038010f, 0.141370f, -0.058290f, 0.000530f, -0.050590f, 0.076580f, 0.017330f, 0.186410f, 0.012200f, -0.069700f, 0.060470f, 0.121450f, -0.140680f, 0.208380f, 0.193490f, 0.072820f, 0.148530f, 0.114010f, 0.204860f, -0.084650f, -0.065990f, 0.016110f, 0.082790f, 0.180170f, 0.022300f, 0.028770f, 0.114190f, -0.091780f, -0.206990f, 0.198530f, -0.101740f, 0.038120f, -0.070660f, 0.166810f, -0.086960f, -0.042380f, 0.145970f, -0.106550f, 0.095410f, 0.190600f, 0.185430f, -0.160260f, 0.035360f, -0.073240f, -0.149010f, 0.100280f, 0.178850f, -0.191820f, -0.095080f, 0.113010f, -0.169370f, 0.201810f, 0.094520f, 0.085820f, 0.125030f, 0.096590f, 0.060270f, -0.043210f, -0.156840f, 0.111060f, 0.025740f, -0.049190f, 0.036170f, -0.003970f, -0.140560f, 0.111840f, -0.173590f, -0.102800f, -0.037360f, 0.196280f, -0.005950f, 0.160950f, -0.201770f, -0.010620f, -0.166380f, -0.129790f, 0.103610f, -0.182040f, -0.205690f, -0.135020f, 0.137380f, -0.026920f, -0.083000f, -0.017610f, 0.164120f, 0.091980f, -0.121870f, 0.019420f, -0.013280f, -0.206210f, -0.103340f, 0.011790f, 0.107250f, 0.139090f, 0.160060f, -0.077240f, -0.203170f, 0.111310f, 0.075320f, -0.191680f, -0.028970f, 0.044490f, 0.121470f, -0.033690f, 0.168510f, 0.063840f, -0.039190f, -0.102830f, -0.087660f, 0.124900f, -0.147540f, -0.132130f, 0.155700f, -0.162030f, -0.083590f, -0.024970f, 0.089420f, -0.143900f, -0.175780f, -0.131660f, -0.209690f, 0.185980f, 0.116880f, -0.104290f, 0.190640f, 0.197480f, -0.078570f, -0.136460f, 0.076570f, 0.201930f, 0.103870f, -0.122880f, -0.169000f, -0.090970f, -0.188640f, 0.093430f, 0.010590f, -0.169130f, 0.046020f, 0.162550f, 0.030620f, 0.144140f, 0.005280f, 0.118410f, 0.092890f, -0.043040f, -0.135560f, 0.115900f, -0.179510f, -0.106720f, -0.031040f, -0.033500f, 0.127970f, -0.065540f, 0.113110f, 0.205710f, -0.059620f, 0.124670f, 0.123240f, -0.124120f, -0.007060f, 0.154510f, -0.074280f, -0.100460f, -0.052050f, 0.094570f, -0.046920f, -0.175350f, 0.135260f, 0.015550f, 0.210690f, 0.077440f, -0.014600f, -0.121950f, -0.029170f, -0.210040f, 0.131420f, -0.148440f, -0.092620f, -0.040460f, -0.018110f, -0.111750f, -0.192940f, -0.056190f, 0.154750f, -0.198790f, -0.030260f, 0.170840f, 0.138210f, 0.002590f, -0.146980f, -0.137120f, 0.031600f, 0.056890f, 0.085560f, 0.146520f, -0.037690f, 0.046240f, -0.092880f, 0.202420f, 0.189380f, 0.116120f, 0.157390f, 0.078930f, -0.109740f, -0.051390f, 0.156940f, 0.052780f, 0.122710f, -0.110510f, 0.013950f, -0.188940f, 0.183910f, -0.023980f, 0.013410f, 0.080470f, -0.035000f, -0.034200f, -0.143540f, -0.162110f, -0.021200f, 0.110760f, 0.087070f, -0.192140f, 0.100170f, 0.170510f, 0.157040f, 0.033190f, -0.113020f, -0.125940f, 0.069900f, -0.103330f, -0.105330f, -0.089160f, -0.177560f, 0.156000f, 0.033490f, -0.186000f, -0.021860f, 0.102200f, -0.114580f, -0.041410f, 0.162640f, -0.023870f, 0.138660f, 0.063270f, -0.145940f, -0.117800f, 0.143510f, -0.103050f, 0.125940f, 0.016340f, 0.208050f, 0.106870f, 0.149980f, -0.154270f, -0.126770f, 0.076420f, 0.123970f, 0.202890f, -0.091040f, -0.142020f, -0.027290f, -0.005810f, 0.186890f, -0.005470f, 0.096650f, -0.100520f, -0.006350f, -0.197530f, -0.126210f, 0.112650f, 0.181700f, 0.178970f, 0.008180f, -0.188350f, 0.073800f, 0.142050f, -0.143710f, -0.183130f, 0.173900f, -0.073750f, -0.117040f, -0.025040f, -0.153300f, -0.031560f, 0.037180f, -0.074310f, -0.030800f, 0.035100f, 0.004280f, 0.038200f, 0.097490f, 0.074540f, -0.103940f, 0.182560f, 0.069030f, -0.165400f, 0.100750f, -0.050950f, -0.061280f, 0.041440f, -0.037810f, -0.185730f, 0.182800f, 0.070860f, 0.143380f, -0.125210f, 0.054880f, 0.202820f, 0.102380f, -0.159280f, -0.106250f, -0.057690f, -0.159650f, -0.117970f, 0.022830f, -0.002000f, 0.020090f, 0.133450f, 0.102020f, -0.003150f, 0.053160f, -0.079200f, 0.188350f, 0.173510f, -0.116760f, -0.143570f, 0.181920f, -0.004620f, 0.004110f, 0.100940f, -0.062930f, 0.078530f, 0.031690f, -0.086000f, -0.208710f, 0.059260f, 0.199550f, 0.021860f, 0.194030f, -0.011800f, 0.157910f, -0.053780f, -0.164210f, -0.157870f, -0.147230f, 0.193500f, 0.097660f, 0.065440f, -0.038230f, -0.101620f, 0.018560f, -0.176790f, -0.007850f, -0.130550f, 0.200030f, 0.048600f, 0.094290f, -0.127430f, 0.047060f, 0.003300f, -0.044580f, -0.056320f, 0.148450f, 0.017120f, 0.124570f, -0.063870f, 0.209890f, 0.047770f, 0.139480f, 0.165820f, -0.176780f, -0.127230f, 0.003340f, 0.020210f, 0.183380f, 0.182470f, -0.189800f, 0.130510f, 0.131350f, -0.207990f, 0.099950f, -0.089720f, 0.060840f, -0.039470f, -0.189020f, -0.106500f, 0.006920f, 0.144000f, 0.088400f, 0.017830f, -0.113430f, -0.139190f, 0.135810f, -0.015190f, -0.086900f, 0.146440f, -0.175860f, 0.096530f, -0.128460f, -0.122170f, 0.177600f, -0.142220f, 0.156910f, 0.135960f, -0.136710f, 0.136980f, -0.159960f, 0.127090f, 0.003230f, 0.208150f, 0.121670f, 0.041140f, 0.110270f, -0.149890f, 0.072940f, 0.040100f, -0.061150f, -0.076500f, -0.057580f, 0.119160f, -0.132100f, 0.069590f, 0.069940f, 0.021530f, -0.164320f, 0.126010f, 0.114800f, -0.114620f, 0.044330f, -0.047310f, 0.113100f, -0.090650f, -0.036670f, 0.041790f, 0.114140f, -0.147860f, 0.174050f, -0.039080f, 0.054260f, 0.134430f, 0.029320f, -0.096280f, -0.090800f, 0.154940f, -0.055290f, -0.141330f, -0.063810f, 0.109990f, 0.011760f, -0.000880f, -0.154710f, 0.086290f, 0.015560f, -0.169520f, 0.169450f, 0.021950f, 0.136020f, -0.102290f, 0.005330f, -0.093810f, -0.194680f, -0.207180f, 0.155910f, 0.056100f, 0.102420f, 0.143490f, -0.102340f, 0.071970f, -0.104070f, -0.052090f, 0.137350f, -0.170240f, -0.007130f, -0.141180f, 0.118610f, -0.013450f, -0.115370f, 0.104340f, -0.023730f, -0.077440f, -0.016810f, -0.073650f, 0.033180f, -0.124510f, 0.145840f, 0.059050f, -0.209210f, -0.173270f, 0.081810f, -0.044080f, -0.178460f, -0.196220f, 0.020350f, 0.031070f, -0.017620f, -0.076060f, 0.096910f, 0.033320f, -0.065570f, -0.106130f, 0.114100f, -0.032640f, 0.067500f, 0.096790f, 0.022700f, 0.185100f, -0.159060f, 0.199400f, 0.147410f, -0.037080f, -0.131470f, 0.080620f, 0.116540f, -0.055140f, -0.053880f, -0.175100f, -0.001520f, -0.078880f, -0.083280f, -0.031360f, -0.197050f, -0.176620f, -0.157680f, -0.098210f, 0.137970f, 0.133420f, 0.145870f, -0.205740f, -0.094730f, -0.131520f, 0.029330f, 0.162660f, -0.176890f, -0.095570f, 0.070330f, -0.014570f, 0.081500f, -0.033540f, -0.015690f, -0.050370f, -0.009200f, -0.057560f, -0.124400f, -0.004070f, 0.004810f, 0.074030f, -0.190290f, -0.140640f, -0.009450f, -0.001880f, 0.041870f, -0.088470f, -0.199750f, 0.029710f, 0.000100f, -0.156520f, 0.122190f, 0.172060f, 0.103170f, -0.171720f, -0.153690f, 0.201530f, 0.046930f, 0.022090f, -0.098950f, 0.156260f, 0.122480f, -0.129280f, -0.007580f, -0.065420f, 0.095260f, 0.147600f, 0.000130f, -0.054630f, 0.033830f, 0.009300f, 0.100520f, 0.093690f, 0.050550f, -0.187200f, -0.139480f, -0.190640f, 0.081650f, -0.047360f, 0.182180f, 0.045380f, -0.007670f, 0.136160f, -0.013270f, -0.188490f, -0.083920f, 0.008640f, -0.166900f, -0.137600f, -0.029220f, -0.048840f, 0.143360f, 0.012570f, -0.141000f, -0.045630f, 0.118150f, 0.154400f, 0.093050f, 0.128220f, 0.075410f };
static const float growbox_environment_model_layer_1_biases[32] = { 0.000000f, 0.038610f, 0.000600f, 0.024770f, -0.000010f, 0.000180f, 0.031360f, -0.005980f, -0.001400f, -0.001430f, 0.034990f, -0.022570f, -0.006540f, 0.034460f, -0.019330f, -0.000430f, 0.066420f, 0.000000f, 0.007490f, 0.000000f, -0.000030f, 0.017920f, -0.009390f, 0.000000f, 0.043290f, 0.002020f, 0.002000f, -0.004230f, 0.000070f, -0.002450f, 0.006380f, 0.000410f };
static const float growbox_environment_model_layer_1_weights[1024] = { -0.276160f, -0.214740f, -0.237020f, -0.224940f, -0.297590f, -0.290720f, -0.048700f, -0.072400f, -0.026250f, 0.174990f, -0.176310f, 0.019560f, -0.097320f, -0.137040f, -0.239050f, 0.115380f, 0.281320f, -0.171550f, 0.275700f, 0.128720f, -0.281670f, 0.178800f, -0.187510f, 0.091650f, -0.226710f, -0.021130f, 0.175810f, -0.158930f, -0.021970f, 0.122730f, -0.259440f, -0.203360f, 0.188630f, 0.210000f, -0.135650f, 0.071800f, 0.279210f, -0.190690f, 0.079430f, -0.013580f, -0.023440f, -0.145750f, 0.026990f, 0.066750f, 0.169690f, 0.196930f, -0.093380f, -0.041660f, 0.152690f, 0.003080f, 0.197640f, 0.189430f, -0.108880f, 0.040210f, 0.222210f, -0.174080f, 0.067400f, -0.179880f, 0.292420f, 0.050350f, -0.192950f, -0.037850f, 0.213550f, -0.157240f, 0.019360f, -0.057400f, -0.217250f, 0.231130f, 0.200240f, 0.123080f, -0.078980f, -0.143540f, 0.101390f, 0.283610f, -0.123800f, 0.220490f, 0.228510f, -0.214010f, -0.166970f, -0.155090f, 0.098010f, 0.017290f, -0.212360f, -0.200460f, 0.209540f, -0.227890f, 0.237230f, -0.020040f, 0.210340f, 0.302910f, -0.052020f, -0.190180f, 0.264570f, -0.178420f, 0.303090f, 0.137970f, -0.268590f, 0.250840f, 0.260560f, 0.192180f, 0.059130f, -0.100940f, -0.016790f, 0.180340f, -0.162940f, -0.241690f, 0.305550f, 0.280530f, 0.237640f, -0.238360f, -0.088120f, 0.028420f, -0.248830f, -0.055720f, 0.241240f, 0.031610f, 0.247020f, 0.293810f, 0.076030f, 0.274670f, 0.040740f, 0.243220f, 0.214560f, -0.122120f, 0.157160f, 0.043600f, 0.304880f, 0.147020f, 0.278140f, -0.146550f, -0.098680f, 0.052530f, 0.268190f, -0.114700f, 0.068540f, -0.107380f, -0.019680f, -0.072090f, -0.075590f, 0.114850f, 0.240260f, 0.005860f, -0.161270f, -0.175160f, 0.015870f, 0.249140f, 0.132100f, -0.080740f, 0.269240f, 0.094250f, -0.135410f, 0.153660f, -0.290620f, -0.005080f, 0.262090f, -0.291740f, 0.176340f, -0.189370f, -0.112120f, -0.220830f, -0.034340f, 0.023640f, 0.207360f, 0.201390f, -0.090590f, 0.155240f, 0.073380f, -0.202420f, 0.073850f, -0.134940f, -0.047840f, -0.005810f, 0.013490f, 0.183590f, -0.008000f, 0.286550f, 0.258770f, 0.022820f, -0.165480f, 0.130420f, -0.146930f, -0.168200f, 0.056590f, 0.095110f, -0.266410f, 0.152130f, 0.291270f, 0.155590f, 0.172330f, 0.204480f, -0.155780f, -0.179120f, -0.244330f, -0.137750f, 0.083110f, 0.242030f, -0.204220f, 0.039700f, 0.038090f, 0.179870f, -0.201820f, -0.027740f, 0.270760f, 0.014060f, 0.022640f, 0.097920f, -0.157230f, -0.221120f, 0.297360f, -0.293710f, 0.190400f, -0.089160f, 0.069160f, -0.196020f, 0.273210f, 0.278220f, 0.171760f, -0.252920f, 0.097950f, -0.027700f, -0.251570f, -0.247050f, -0.138690f, 0.208470f, -0.128960f, 0.244030f, -0.142580f, 0.089660f, 0.154200f, -0.191330f, -0.207130f, -0.045330f, 0.256320f, -0.179420f, 0.092960f, 0.134710f, 0.172970f, 0.315350f, 0.056570f, -0.254040f, 0.237530f, 0.039560f, 0.116670f, 0.231890f, 0.144520f, -0.177220f, -0.072140f, -0.191740f, -0.286300f, 0.166670f, -0.124240f, -0.255800f, -0.155130f, 0.139380f, 0.039600f, 0.158250f, 0.135600f, 0.124670f, 0.032600f, 0.221120f, -0.266070f, -0.220260f, -0.123550f, -0.140790f, -0.060830f, 0.270050f, -0.008380f, -0.180730f, 0.075350f, 0.287440f, 0.148210f, 0.202090f, -0.229340f, 0.162260f, 0.265000f, -0.262200f, -0.105460f, 0.105490f, 0.247260f, 0.000480f, 0.054400f, 0.071650f, -0.274530f, -0.162580f, -0.035490f, -0.050040f, -0.197240f, -0.194230f, 0.302550f, 0.300250f, 0.288770f, -0.246510f, 0.191370f, 0.297330f, -0.262050f, -0.040490f, 0.163830f, 0.041620f, 0.054750f, -0.063670f, -0.165080f, -0.214030f, -0.231530f, -0.229490f, -0.001250f, 0.148720f, 0.275640f, -0.033520f, 0.037300f, 0.297710f, 0.006060f, -0.193180f, -0.258070f, 0.080280f, 0.217770f, 0.098870f, 0.019130f, 0.132740f, 0.151300f, -0.046770f, 0.197330f, 0.181920f, -0.080160f, -0.152890f, 0.124760f, -0.180840f, 0.134590f, 0.078710f, 0.234830f, 0.046710f, 0.113950f, -0.048780f, -0.205470f, -0.207010f, -0.283560f, -0.033160f, 0.080780f, 0.061320f, 0.136000f, 0.000750f, -0.207230f, 0.165890f, -0.209420f, 0.093430f, -0.006870f, 0.054580f, 0.291130f, 0.045530f, -0.204390f, 0.219160f, -0.002920f, -0.212160f, -0.248890f, 0.266490f, -0.130890f, -0.252080f, 0.117540f, 0.085670f, 0.057830f, -0.068430f, 0.205320f, -0.238170f, 0.267680f, 0.236130f, -0.015840f, 0.269870f, -0.027140f, -0.123050f, -0.000240f, 0.087710f, -0.008300f, 0.037370f, 0.102610f, -0.140070f, 0.136860f, -0.098900f, -0.058900f, -0.220810f, -0.138980f, -0.109160f, -0.009700f, 0.223990f, -0.302950f, 0.118970f, 0.127050f, -0.004280f, -0.044420f, -0.221970f, -0.063480f, -0.187690f, -0.092750f, -0.247250f, 0.028250f, 0.074720f, 0.107520f, 0.191070f, 0.004870f, -0.220290f, -0.031870f, 0.040510f, 0.236060f, 0.298100f, -0.234520f, 0.255670f, -0.085340f, -0.171120f, -0.273620f, -0.063830f, -0.114810f, -0.264740f, 0.217230f, -0.287580f, 0.123440f, -0.280870f, 0.015270f, -0.218000f, -0.261130f, 0.315060f, -0.021680f, -0.059590f, -0.154130f, -0.039440f, -0.013430f, 0.242800f, -0.018790f, -0.121410f, -0.006840f, 0.292770f, -0.211850f, -0.052690f, -0.313270f, -0.250050f, 0.235950f, -0.121830f, -0.272070f, -0.226180f, -0.032500f, 0.121640f, -0.082830f, -0.188000f, 0.149980f, 0.044690f, 0.091730f, 0.140140f, 0.114590f, -0.172890f, -0.104630f, 0.243900f, 0.255630f, 0.087170f, 0.202380f, 0.067940f, 0.234520f, -0.125070f, -0.051470f, 0.077420f, -0.103450f, 0.270810f, -0.002810f, -0.083430f, 0.255620f, -0.217210f, -0.256570f, -0.244380f, 0.190780f, -0.289650f, 0.301620f, 0.042560f, 0.113260f, -0.149860f, -0.228640f, 0.084180f, 0.110220f, -0.076780f, 0.299950f, -0.003640f, -0.212770f, 0.017730f, 0.029380f, -0.252280f, 0.193900f, -0.227440f, -0.158100f, 0.162480f, 0.152210f, 0.227050f, -0.190070f, 0.173240f, -0.131150f, 0.280520f, -0.286370f, 0.160010f, -0.021610f, 0.134110f, 0.096790f, -0.280130f, 0.276400f, 0.188920f, -0.198790f, -0.035460f, 0.084810f, -0.002880f, 0.298600f, -0.258570f, 0.209710f, -0.294010f, -0.066400f, -0.216010f, 0.087010f, -0.137710f, -0.270770f, 0.043100f, 0.291660f, -0.224550f, 0.112660f, 0.181140f, 0.054760f, 0.075540f, 0.267680f, 0.203150f, 0.117780f, -0.155620f, 0.114970f, 0.194820f, -0.182210f, 0.131190f, -0.026570f, -0.014220f, 0.253680f, 0.169750f, 0.196730f, 0.239710f, -0.278770f, -0.111900f, -0.021720f, 0.108000f, 0.173050f, 0.178690f, 0.146660f, 0.289330f, 0.158060f, -0.179110f, -0.148580f, -0.221990f, -0.223950f, 0.117460f, 0.097010f, -0.027360f, -0.147400f, -0.228670f, -0.145540f, 0.200460f, 0.022330f, -0.146280f, 0.101240f, -0.201390f, 0.069790f, 0.077520f, -0.162610f, 0.299230f, -0.057860f, 0.242560f, -0.090290f, 0.167190f, 0.204760f, -0.239700f, 0.139700f, -0.033530f, 0.153580f, 0.041110f, -0.217780f, -0.111090f, 0.005790f, 0.066890f, -0.050420f, -0.137700f, -0.117790f, 0.085100f, -0.104900f, -0.294530f, -0.237440f, -0.018730f, -0.248870f, -0.192020f, -0.256980f, -0.271800f, 0.134280f, 0.187580f, -0.002280f, 0.120880f, 0.069490f, 0.175720f, -0.016170f, -0.025080f, -0.047990f, -0.174850f, -0.118260f, 0.010450f, -0.268550f, 0.121200f, -0.123230f, -0.022990f, -0.047670f, -0.190910f, -0.099850f, -0.234580f, -0.282550f, 0.169140f, -0.169300f, -0.004930f, 0.040500f, 0.281700f, 0.156290f, 0.063210f, -0.136170f, -0.075780f, 0.229810f, 0.220180f, 0.198040f, -0.239830f, -0.155530f, -0.046140f, 0.137240f, -0.200630f, -0.255320f, 0.182100f, 0.230470f, -0.266810f, 0.159720f, 0.157760f, 0.104250f, 0.290910f, -0.128850f, -0.017800f, 0.214450f, 0.135110f, -0.078830f, 0.123270f, 0.073880f, -0.013850f, -0.129290f, -0.157330f, 0.289460f, 0.248280f, -0.075410f, -0.130220f, -0.107230f, -0.017950f, 0.171720f, 0.079820f, -0.132210f, 0.137840f, 0.055840f, -0.094760f, -0.242140f, 0.130280f, 0.303490f, 0.097400f, -0.273610f, 0.042780f, 0.257770f, -0.279520f, 0.275470f, -0.027890f, -0.297510f, -0.283860f, -0.269670f, 0.142170f, 0.290250f, -0.217870f, 0.172950f, -0.243200f, -0.048430f, 0.279020f, -0.219560f, 0.260570f, 0.236640f, 0.214720f, 0.169010f, -0.215530f, 0.236790f, -0.281860f, 0.010750f, 0.003900f, 0.216180f, 0.116470f, 0.122330f, -0.098870f, -0.137580f, -0.290440f, -0.302850f, -0.305400f, -0.072020f, 0.302010f, -0.119260f, 0.119940f, -0.019630f, 0.187270f, -0.080940f, -0.187180f, 0.299880f, -0.098530f, 0.055800f, -0.222030f, -0.199540f, 0.269890f, -0.022540f, 0.111500f, -0.274740f, -0.152700f, 0.210510f, 0.067960f, 0.133220f, 0.132320f, 0.316130f, -0.105370f, -0.251760f, 0.115360f, 0.186450f, 0.121020f, -0.149100f, -0.095370f, -0.026540f, 0.038360f, -0.256630f, -0.000300f, 0.132220f, 0.003440f, 0.291540f, -0.113110f, 0.105280f, 0.127790f, -0.230200f, 0.292920f, -0.009970f, 0.190110f, 0.268670f, 0.073040f, -0.022910f, -0.249200f, -0.283160f, 0.195440f, 0.030230f, -0.030130f, -0.234990f, -0.127550f, 0.022970f, 0.193590f, 0.272660f, -0.210410f, 0.207390f, 0.160670f, 0.060600f, -0.227130f, 0.106360f, -0.238260f, -0.280700f, -0.100230f, 0.116620f, 0.201460f, 0.049930f, 0.052760f, 0.098340f, 0.101350f, 0.194640f, -0.240550f, -0.004820f, -0.054190f, 0.019170f, 0.036830f, 0.231890f, 0.302730f, 0.136930f, 0.090700f, 0.168090f, -0.259140f, -0.236650f, 0.152480f, -0.143750f, -0.106910f, -0.103060f, -0.043460f, 0.117930f, 0.210610f, 0.048660f, 0.131900f, 0.301660f, -0.267090f, 0.194500f, -0.178920f, 0.280990f, 0.202670f, -0.273190f, 0.138030f, 0.217250f, -0.153530f, 0.114120f, 0.292630f, 0.259440f, 0.194570f, -0.054200f, 0.183740f, -0.013110f, 0.286310f, -0.028450f, 0.217210f, -0.139530f, 0.012660f, -0.128070f, 0.170730f, -0.155810f, -0.181510f, 0.248700f, 0.033590f, 0.105250f, 0.152170f, 0.079570f, 0.072150f, 0.124590f, -0.198820f, -0.184850f, -0.137620f, 0.153100f, -0.114840f, 0.119100f, -0.214910f, 0.024180f, 0.237160f, 0.010360f, -0.112520f, 0.226440f, -0.254040f, -0.100970f, 0.040550f, -0.081650f, -0.166220f, -0.251220f, 0.255330f, 0.254790f, -0.072060f, 0.252820f, -0.210030f, -0.102230f, -0.006430f, -0.133860f, -0.199880f, -0.090880f, 0.299770f, -0.011700f, -0.106470f, 0.153770f, 0.075250f, -0.296790f, -0.180630f, -0.298870f, 0.113880f, -0.111670f, -0.297050f, 0.063220f, -0.236620f, 0.275270f, 0.274800f, 0.101370f, 0.156850f, -0.188410f, -0.128750f, -0.218020f, 0.177940f, -0.213270f, 0.162170f, 0.265130f, -0.086240f, -0.127240f, 0.046110f, 0.257170f, -0.129880f, -0.164030f, 0.255030f, 0.166120f, -0.128000f, 0.190950f, -0.041700f, -0.100650f, -0.301650f, 0.012950f, -0.075450f, -0.151830f, -0.178160f, -0.036280f, -0.000630f, -0.268860f, 0.203600f, -0.231810f, -0.211090f, 0.285620f, -0.065020f, -0.304760f, 0.242470f, -0.299110f, -0.244410f, -0.230350f, -0.101250f, -0.036050f, -0.132010f, 0.025740f, 0.004470f, 0.173380f, 0.069840f, -0.117430f, 0.047000f, -0.145680f, -0.300770f, 0.205640f, 0.291490f, -0.014810f, 0.280410f, 0.235290f, -0.128830f, -0.290150f, 0.176620f, 0.250740f, 0.246790f, 0.230980f, -0.171600f, 0.301880f, -0.138630f, -0.000500f, -0.042690f, 0.060500f, -0.093480f, -0.127460f, -0.142920f, 0.016870f, -0.086060f, -0.021310f, -0.089990f, -0.004380f, -0.215690f, 0.196840f, 0.183450f, -0.071730f, 0.208580f, -0.205380f, 0.015910f, -0.001860f, -0.087080f, -0.196510f, -0.127210f, -0.171590f, 0.265530f, 0.134280f, -0.303420f, 0.299860f, 0.052020f, 0.144580f, 0.060660f, 0.283050f, 0.239540f, 0.263080f, -0.092980f, -0.206920f, -0.074660f, -0.166570f, 0.050360f, -0.258870f, -0.131160f, -0.140570f, 0.072990f, 0.273100f, -0.238190f, -0.003920f, -0.021160f, 0.225090f, 0.099080f, 0.068160f, 0.095170f, -0.125230f, 0.160010f, 0.219340f, -0.256480f, -0.118070f, -0.181990f, 0.039800f, -0.248980f, -0.037790f, -0.091860f, 0.215320f, -0.004110f, 0.193970f, 0.078560f, 0.062260f, 0.123740f, -0.108730f, -0.216030f, 0.262330f, -0.042960f, 0.114300f, 0.086650f, -0.183160f, -0.051920f, 0.301520f, -0.010930f, -0.054310f, -0.070620f, -0.276560f, -0.057550f, -0.051300f, -0.225600f, 0.106560f, 0.046130f, 0.110580f, 0.193770f, 0.022730f, 0.183680f, 0.209720f, -0.284640f, -0.154410f, -0.092780f, -0.188770f, 0.184200f, -0.240240f, -0.236250f, 0.071700f, 0.044570f };
static const float growbox_environment_model_layer_2_biases[10] = { -0.032200f, -0.017410f, -0.032060f, -0.058190f, -0.057570f, -0.030510f, -0.031100f, -0.054000f, -0.041350f, -0.041970f };
static const float growbox_environment_model_layer_2_weights[320] = { -0.003970f, -0.305740f, 0.178440f, -0.104060f, 0.134330f, -0.367180f, 0.023260f, 0.338670f, 0.149080f, 0.369330f, -0.315080f, -0.270090f, -0.212750f, -0.374720f, 0.223260f, -0.280930f, -0.328260f, 0.062340f, 0.203050f, -0.165260f, -0.066850f, -0.170190f, 0.012050f, 0.010410f, -0.226600f, 0.140810f, -0.051100f, -0.182730f, 0.326640f, -0.008490f, -0.284470f, 0.060310f, 0.112460f, -0.334070f, 0.147770f, -0.146590f, -0.288150f, -0.096080f, -0.105950f, 0.225220f, 0.326510f, -0.362520f, -0.100240f, -0.258440f, -0.040770f, 0.195930f, 0.121980f, 0.230040f, 0.113410f, -0.015630f, 0.092680f, 0.161040f, -0.060810f, -0.018760f, -0.037140f, 0.046670f, -0.294040f, -0.097560f, 0.151580f, -0.185210f, -0.313710f, -0.090050f, -0.193660f, 0.221460f, -0.298760f, -0.268740f, -0.134440f, 0.352600f, -0.206820f, -0.254170f, 0.047960f, 0.245890f, -0.164200f, -0.100190f, 0.220680f, -0.189030f, -0.317160f, 0.306730f, 0.164760f, 0.296180f, -0.210240f, -0.185680f, 0.270760f, 0.297710f, 0.304890f, -0.374740f, -0.371700f, -0.377330f, 0.087160f, 0.124590f, -0.021790f, -0.075930f, 0.255650f, -0.015190f, 0.049520f, -0.163910f, -0.356370f, -0.039530f, 0.333580f, -0.260990f, -0.244250f, -0.185430f, -0.119260f, 0.192260f, -0.265480f, -0.311610f, -0.099920f, 0.263870f, -0.249580f, -0.352210f, 0.115110f, -0.261710f, -0.303150f, 0.183780f, 0.227710f, 0.100130f, -0.332810f, 0.288090f, 0.065800f, 0.238090f, -0.255640f, 0.225290f, -0.123620f, -0.283030f, 0.221120f, 0.273700f, -0.115690f, 0.317650f, -0.231930f, 0.365760f, -0.382510f, -0.249290f, -0.190660f, 0.071430f, 0.316910f, -0.296960f, 0.030080f, -0.379460f, 0.096000f, -0.362920f, -0.226360f, 0.203100f, 0.014240f, 0.317670f, 0.227190f, 0.339090f, -0.103670f, 0.105810f, -0.359630f, 0.036900f, 0.335590f, 0.091170f, 0.366530f, 0.081930f, -0.190320f, -0.195370f, -0.318900f, -0.037940f, 0.015100f, 0.180440f, -0.336690f, -0.104430f, -0.301360f, -0.385420f, -0.209340f, 0.232220f, -0.379790f, 0.005470f, -0.203860f, -0.361510f, -0.232340f, -0.182870f, 0.072460f, 0.336600f, -0.242660f, 0.241080f, 0.145270f, 0.105510f, -0.082290f, -0.259240f, -0.199890f, -0.165610f, -0.267850f, 0.126000f, -0.336160f, 0.227300f, -0.356730f, 0.064810f, -0.286980f, -0.172790f, -0.311080f, -0.075540f, 0.241010f, 0.284660f, 0.297190f, 0.174210f, -0.323530f, 0.343380f, 0.184290f, -0.290170f, -0.007360f, -0.171970f, -0.208440f, -0.344040f, 0.368420f, 0.368090f, -0.243540f, -0.145820f, 0.311660f, -0.030160f, -0.134180f, -0.038100f, -0.212550f, -0.207160f, 0.029860f, 0.337000f, -0.030970f, 0.099880f, -0.162050f, -0.158330f, -0.198960f, -0.273720f, -0.367960f, -0.094950f, 0.344950f, 0.210560f, 0.113640f, -0.114620f, 0.047700f, 0.295460f, -0.075140f, 0.194790f, 0.327440f, -0.250220f, -0.149530f, 0.111540f, 0.347450f, 0.204120f, 0.058020f, 0.329730f, 0.275550f, -0.027680f, -0.353150f, -0.157180f, -0.122920f, -0.062700f, -0.271500f, -0.273110f, -0.166630f, -0.057560f, 0.350730f, 0.325440f, -0.216440f, 0.009670f, -0.186790f, -0.066240f, 0.023960f, -0.051680f, -0.316490f, 0.245330f, 0.232410f, -0.030430f, 0.063480f, 0.360390f, -0.330990f, 0.145990f, -0.031480f, 0.033500f, -0.121400f, -0.345170f, 0.261900f, 0.172250f, 0.077630f, 0.318430f, -0.287150f, 0.150440f, 0.185360f, -0.389800f, -0.218500f, 0.149730f, 0.295030f, -0.080990f, -0.029880f, -0.192460f, 0.207020f, -0.118370f, 0.328200f, -0.268700f, 0.284300f, -0.173960f, -0.061570f, -0.315790f, -0.084170f, 0.050090f, 0.222210f, -0.336070f, 0.078470f, -0.241290f, -0.322320f, 0.356930f, 0.009040f, -0.346300f, -0.326250f, 0.254230f, -0.089300f, 0.195140f, -0.324310f, 0.111860f, -0.211190f, 0.037110f, 0.255980f, -0.255640f, -0.071890f, 0.160970f, -0.050860f, -0.016940f, -0.253520f, -0.081200f, -0.007280f, 0.128330f };
static float growbox_environment_model_buf1[103];
static float growbox_environment_model_buf2[103];
static const EmlNetLayer growbox_environment_model_layers[3] = {
{ 32, 103, growbox_environment_model_layer_0_weights, growbox_environment_model_layer_0_biases, EmlNetActivationRelu },
{ 32, 32, growbox_environment_model_layer_1_weights, growbox_environment_model_layer_1_biases, EmlNetActivationRelu },
{ 10, 32, growbox_environment_model_layer_2_weights, growbox_environment_model_layer_2_biases, EmlNetActivationLogistic } };
static EmlNet growbox_environment_model = { 3, growbox_environment_model_layers, growbox_environment_model_buf1, growbox_environment_model_buf2, 103 };

    int32_t
    growbox_environment_model_predict(const float *features, int32_t n_features)
    {
        return eml_net_predict(&growbox_environment_model, features, n_features);
    }


    int32_t
    growbox_environment_model_regress(const float *features, int32_t n_features, float *out, int32_t out_length)
    {
        return eml_net_regress(&growbox_environment_model, features, n_features, out, out_length);
    }


    float
    growbox_environment_model_regress1(const float *features, int32_t n_features)
    {
        return eml_net_regress1(&growbox_environment_model, features, n_features);
    }

namespace generated_model {

inline constexpr std::size_t kInputCount = 103U;
inline constexpr std::size_t kOutputCount = 10U;
inline constexpr char kSchemaHash[] = "69fc6c5e7cf4";
inline constexpr char kModelVersion[] = "environment-mlp-v1-v2-quick-0a36720ddecb";
inline constexpr char kWeightHash[] = "0a36720ddecb";

inline bool infer(const float* features, float* outputs) {
    if (features == nullptr || outputs == nullptr) {
        return false;
    }
    return growbox_environment_model_regress(
        features,
        static_cast<int32_t>(kInputCount),
        outputs,
        static_cast<int32_t>(kOutputCount)) == EmlOk;
}

}  // namespace generated_model
