// Generated by python -m tools.ml.pipeline. Do not edit.
#pragma once

#include <cstddef>
#include <eml_net.h>

static const float growbox_environment_model_layer_0_biases[32] = { 0.001650f, 0.056220f, -0.000330f, 0.033230f, -0.019050f, -0.000780f, 0.000460f, 0.034240f, 0.003610f, -0.000570f, 0.000000f, 0.000000f, 0.000000f, 0.075720f, 0.032310f, -0.009630f, 0.000230f, 0.028720f, 0.000000f, -0.000000f, -0.018870f, 0.048430f, 0.107740f, -0.005890f, 0.000540f, 0.009140f, -0.000310f, 0.081820f, 0.000140f, 0.103810f, 0.002740f, -0.034120f };
static const float growbox_environment_model_layer_0_weights[3296] = { 0.208680f, 0.029870f, 0.036290f, -0.135460f, 0.199150f, -0.003340f, 0.015270f, -0.102400f, 0.110730f, -0.141400f, 0.021950f, -0.094090f, 0.051020f, 0.118100f, -0.141500f, -0.211970f, -0.131330f, 0.162490f, -0.115660f, 0.084880f, 0.098500f, 0.135840f, 0.141890f, -0.142590f, -0.110300f, 0.203930f, -0.156910f, -0.143470f, 0.030820f, 0.197250f, -0.077310f, -0.092320f, -0.143790f, 0.035300f, -0.135890f, -0.072270f, 0.011590f, 0.103470f, -0.169390f, -0.109130f, -0.196390f, 0.069500f, 0.002650f, -0.022450f, -0.201860f, 0.202840f, 0.135980f, -0.068180f, -0.041100f, 0.009690f, -0.059800f, -0.087150f, 0.198400f, -0.001870f, 0.268520f, 0.188450f, -0.127760f, -0.164160f, 0.059620f, -0.108070f, 0.194250f, 0.029330f, 0.100990f, 0.163490f, 0.007650f, 0.082040f, -0.076510f, 0.169790f, -0.212030f, -0.153470f, 0.037220f, -0.086930f, -0.076290f, -0.176190f, 0.007890f, -0.134230f, 0.147310f, -0.186760f, -0.189430f, -0.188170f, 0.188290f, -0.204490f, 0.034030f, -0.064280f, 0.126410f, -0.005740f, -0.041500f, 0.056190f, -0.168780f, 0.137610f, -0.187990f, 0.145770f, 0.153830f, 0.199300f, -0.081700f, 0.155570f, 0.137900f, -0.071470f, -0.133300f, 0.180650f, 0.089030f, -0.183860f, -0.064020f, -0.056380f, 0.159810f, -0.086350f, -0.147250f, -0.104100f, -0.079250f, 0.127620f, 0.041470f, -0.018260f, -0.154590f, -0.062780f, 0.005700f, -0.079790f, 0.140120f, 0.223450f, -0.051620f, -0.018030f, 0.194980f, 0.154860f, 0.068560f, 0.056640f, 0.138530f, 0.173350f, 0.125900f, 0.036950f, -0.091690f, 0.190500f, -0.013450f, 0.170630f, -0.050450f, -0.201490f, -0.190520f, 0.084470f, 0.203290f, -0.060140f, 0.036920f, -0.171960f, -0.131260f, -0.025790f, 0.211130f, -0.014760f, 0.084830f, -0.145580f, 0.067390f, 0.097850f, 0.160420f, 0.124030f, -0.045510f, -0.057000f, 0.072120f, -0.115710f, 0.025990f, 0.240100f, -0.184720f, 0.267790f, 0.086270f, 0.166400f, -0.029470f, 0.119330f, -0.056120f, -0.036300f, -0.196330f, -0.064410f, 0.181630f, 0.109610f, -0.014500f, 0.141320f, 0.160040f, -0.152800f, -0.065910f, -0.017160f, -0.107730f, 0.073940f, 0.056030f, 0.174450f, 0.146030f, -0.202980f, -0.181750f, 0.191690f, 0.283930f, 0.037750f, 0.177170f, 0.104020f, -0.161580f, 0.118280f, -0.133650f, 0.120130f, -0.045510f, -0.027760f, -0.096320f, 0.205290f, -0.015860f, 0.007410f, 0.177550f, -0.137130f, 0.125450f, 0.158540f, 0.053730f, -0.068520f, -0.046420f, -0.166050f, -0.065680f, -0.157550f, 0.050560f, 0.181470f, -0.170260f, 0.047270f, 0.161280f, 0.202060f, 0.058390f, 0.212290f, 0.229720f, 0.171020f, 0.092060f, 0.150680f, 0.174950f, 0.154840f, -0.102560f, 0.094230f, 0.000440f, 0.164040f, -0.107320f, 0.188490f, -0.066370f, -0.174860f, 0.153040f, -0.160780f, -0.135650f, -0.004140f, 0.111720f, 0.142450f, -0.207180f, 0.019290f, -0.000590f, -0.178250f, 0.167450f, 0.027600f, 0.038990f, 0.162670f, -0.087590f, -0.124630f, 0.027580f, 0.093610f, -0.097560f, -0.163080f, 0.053800f, -0.210690f, -0.149420f, 0.141020f, 0.194120f, 0.021210f, 0.033700f, -0.033770f, 0.121370f, 0.005800f, 0.065760f, -0.133120f, 0.134540f, 0.122090f, -0.130510f, -0.052460f, -0.176560f, -0.000660f, -0.057590f, -0.164650f, -0.200510f, -0.163790f, 0.170000f, -0.133010f, -0.005860f, -0.115090f, -0.076720f, -0.170290f, -0.053750f, 0.232670f, 0.004770f, -0.146050f, 0.049760f, 0.172710f, -0.053410f, 0.182800f, -0.064810f, -0.146640f, 0.026510f, 0.146810f, 0.132860f, 0.162710f, 0.098660f, -0.062380f, -0.001900f, -0.040340f, -0.029650f, 0.005460f, -0.210770f, -0.189630f, 0.112090f, 0.028940f, 0.118220f, -0.067500f, -0.044960f, -0.159170f, 0.188020f, 0.032650f, 0.050370f, -0.160520f, -0.187690f, -0.092610f, 0.004810f, -0.011790f, -0.046550f, 0.051400f, -0.065090f, 0.131940f, -0.043220f, 0.176590f, 0.136130f, 0.042800f, 0.144700f, -0.040800f, -0.033970f, 0.100200f, 0.164990f, 0.151260f, 0.142420f, 0.095080f, -0.049250f, -0.041800f, -0.210460f, -0.191910f, 0.162200f, 0.111790f, -0.149580f, -0.135130f, -0.146190f, 0.131170f, 0.019730f, 0.160510f, -0.108520f, 0.073730f, -0.013830f, -0.002330f, 0.007680f, 0.153040f, 0.085810f, 0.067520f, 0.098330f, 0.092240f, 0.137190f, -0.097790f, 0.003160f, -0.081970f, -0.015080f, 0.094390f, -0.139980f, -0.080430f, -0.118930f, -0.092100f, 0.028920f, -0.113730f, -0.161070f, -0.057340f, -0.162860f, -0.078040f, -0.022530f, 0.125940f, 0.051870f, 0.035410f, -0.015280f, -0.004570f, -0.115730f, -0.004820f, 0.193590f, 0.179260f, 0.208450f, -0.111920f, -0.151240f, 0.264450f, -0.015780f, -0.047330f, 0.103360f, 0.151510f, -0.010370f, 0.098800f, -0.201040f, 0.058790f, -0.037510f, 0.031170f, -0.041200f, -0.152700f, 0.061420f, -0.107490f, 0.023800f, -0.202120f, -0.190500f, 0.050160f, 0.059700f, 0.060290f, -0.105840f, 0.085220f, -0.055870f, 0.117030f, -0.164450f, 0.233460f, -0.030890f, -0.076230f, -0.083580f, -0.134760f, -0.192670f, 0.055090f, 0.113240f, 0.208470f, 0.097390f, -0.105770f, 0.100010f, -0.087440f, -0.040860f, 0.207450f, 0.163130f, -0.108380f, 0.057320f, 0.205620f, -0.200310f, -0.152430f, 0.115480f, 0.021580f, -0.142300f, 0.125510f, 0.147860f, -0.008590f, -0.146660f, -0.080970f, -0.002870f, -0.056510f, 0.147500f, 0.240910f, 0.145350f, 0.168690f, -0.081710f, -0.155250f, 0.143330f, 0.037090f, 0.086580f, 0.004370f, 0.090460f, -0.114470f, -0.100340f, 0.074380f, -0.189910f, -0.047040f, 0.147200f, 0.115520f, -0.194250f, -0.152110f, 0.074150f, -0.024730f, -0.054440f, 0.021680f, -0.121340f, -0.107220f, 0.077040f, -0.060270f, 0.094580f, -0.114950f, 0.111960f, -0.206110f, 0.032220f, 0.056360f, 0.018100f, 0.085400f, -0.130500f, 0.057150f, 0.115000f, -0.015250f, 0.107970f, 0.048270f, 0.027230f, 0.090800f, -0.048970f, -0.025940f, 0.042840f, 0.209110f, 0.148060f, 0.034880f, -0.000020f, 0.055130f, -0.087820f, -0.185350f, 0.209200f, -0.068450f, -0.055260f, 0.230220f, 0.039460f, -0.165070f, -0.190510f, -0.164050f, -0.151220f, -0.007260f, 0.113530f, -0.029340f, 0.172380f, -0.159310f, -0.083720f, 0.076700f, -0.174810f, -0.058680f, -0.164380f, 0.110310f, -0.102700f, -0.043070f, -0.144810f, -0.125790f, -0.193390f, 0.182490f, 0.005920f, -0.093330f, 0.126440f, 0.010910f, -0.088260f, 0.041200f, -0.024710f, 0.125620f, -0.136220f, -0.003810f, -0.135960f, 0.187390f, -0.011710f, -0.141230f, 0.178910f, 0.121860f, 0.024670f, -0.064540f, 0.216790f, -0.031790f, 0.128360f, 0.053510f, 0.191370f, 0.237610f, 0.047020f, -0.006070f, -0.188440f, -0.020320f, 0.192820f, 0.167140f, 0.024970f, 0.187670f, 0.196450f, -0.099230f, 0.198710f, 0.148670f, 0.208940f, 0.147330f, -0.095020f, 0.086930f, 0.033820f, -0.113410f, -0.027280f, 0.119150f, 0.072040f, 0.204350f, -0.164360f, -0.177500f, -0.080670f, -0.055450f, -0.109680f, 0.003150f, -0.067200f, 0.165050f, 0.009090f, 0.151110f, 0.173490f, 0.168710f, 0.140850f, -0.188370f, -0.085350f, -0.201140f, -0.131740f, -0.203480f, -0.082760f, 0.209110f, 0.116500f, 0.097370f, -0.082670f, 0.142370f, -0.143310f, -0.091640f, 0.169800f, 0.174560f, -0.042880f, -0.146470f, -0.189450f, -0.126910f, -0.059760f, 0.210260f, -0.012860f, -0.032100f, -0.035050f, -0.053950f, 0.198240f, 0.163260f, -0.100110f, -0.075810f, -0.189910f, -0.168070f, 0.133070f, 0.167700f, 0.136150f, 0.206150f, -0.082520f, -0.128870f, 0.184410f, -0.068850f, -0.169100f, 0.133510f, -0.127300f, -0.165840f, 0.132920f, 0.099250f, -0.044100f, -0.036220f, -0.076980f, 0.020500f, 0.076700f, -0.200760f, -0.076380f, -0.029000f, 0.192090f, -0.113700f, 0.169590f, 0.111780f, 0.141910f, 0.176920f, -0.056020f, 0.182590f, 0.209760f, 0.140060f, -0.057190f, 0.174000f, 0.061550f, 0.066360f, 0.082740f, 0.131980f, -0.211870f, 0.158220f, -0.142630f, 0.215540f, 0.020440f, 0.196450f, -0.142110f, -0.115570f, -0.182330f, -0.030500f, -0.117600f, -0.171540f, 0.053480f, 0.066400f, -0.183000f, 0.111200f, 0.071990f, 0.114720f, 0.032180f, 0.063450f, -0.192250f, 0.200180f, -0.058980f, 0.165780f, -0.102160f, 0.155150f, 0.134270f, 0.036370f, 0.051470f, 0.013240f, -0.014510f, -0.189970f, 0.111510f, -0.000080f, -0.166960f, 0.060660f, -0.045240f, -0.153760f, -0.058360f, 0.185680f, -0.040810f, 0.129410f, -0.023010f, -0.177600f, 0.168320f, 0.190250f, -0.051620f, 0.158520f, 0.106720f, 0.058180f, 0.261310f, 0.115220f, -0.022250f, 0.203050f, 0.004970f, 0.215620f, -0.203920f, 0.250890f, 0.075690f, -0.058880f, -0.124200f, -0.045130f, 0.019560f, 0.062740f, 0.020320f, 0.160750f, -0.067100f, -0.005350f, 0.150170f, 0.170530f, -0.194490f, -0.068520f, 0.076300f, -0.043660f, 0.163410f, 0.099480f, 0.102470f, 0.098980f, -0.200940f, -0.065290f, -0.042410f, 0.158390f, -0.161350f, 0.162060f, -0.178140f, -0.021350f, 0.060310f, -0.058950f, -0.108290f, 0.186590f, -0.095150f, -0.061750f, -0.088030f, 0.141800f, 0.124810f, -0.052750f, 0.126290f, 0.068030f, 0.172440f, 0.114580f, -0.070890f, -0.126790f, 0.131670f, 0.195380f, -0.119130f, -0.047120f, -0.199340f, 0.065420f, -0.156170f, -0.134760f, 0.207650f, -0.060250f, -0.078190f, -0.029580f, 0.117950f, 0.177850f, 0.076200f, 0.035220f, -0.174080f, -0.187050f, -0.000260f, 0.018740f, -0.091900f, 0.086840f, 0.127290f, 0.118570f, -0.101310f, 0.058980f, 0.167180f, -0.017480f, -0.067960f, 0.073730f, -0.055190f, 0.099510f, -0.082180f, -0.193810f, -0.035190f, 0.128360f, -0.164730f, -0.171820f, -0.112210f, 0.052720f, 0.124050f, -0.015810f, 0.161370f, 0.013340f, -0.181890f, -0.107760f, 0.179050f, -0.006580f, 0.092700f, -0.209060f, 0.004770f, -0.024710f, -0.157720f, -0.181380f, 0.119950f, -0.058100f, 0.182460f, 0.097800f, -0.104240f, 0.183340f, 0.095490f, 0.165820f, -0.006520f, 0.209840f, 0.013420f, -0.097530f, -0.171070f, 0.164550f, 0.116900f, -0.118360f, 0.145240f, 0.119530f, 0.049760f, -0.155250f, 0.057120f, 0.052880f, 0.039310f, -0.173910f, -0.110410f, -0.180290f, 0.014970f, 0.032530f, -0.015330f, 0.014910f, -0.152940f, 0.111720f, 0.056340f, 0.048260f, -0.025200f, 0.150570f, -0.159230f, 0.079310f, -0.077990f, 0.085770f, 0.085920f, -0.117260f, -0.208920f, 0.007150f, -0.069880f, -0.146800f, -0.042900f, -0.001740f, -0.087770f, -0.043300f, 0.002920f, -0.148500f, 0.064610f, -0.067670f, 0.236050f, 0.103640f, -0.073120f, 0.019740f, 0.080420f, 0.232200f, -0.020260f, 0.153600f, -0.131800f, 0.188710f, -0.028580f, 0.061070f, 0.011630f, 0.184980f, -0.094510f, 0.005890f, 0.053690f, 0.206240f, 0.032090f, 0.093370f, 0.182570f, -0.165780f, 0.024230f, 0.189430f, -0.105290f, -0.061560f, 0.030120f, -0.194970f, -0.183010f, -0.041270f, 0.117560f, 0.203260f, 0.094650f, -0.178890f, 0.193690f, 0.099430f, 0.055920f, 0.201020f, 0.042470f, -0.209480f, 0.029430f, -0.120020f, -0.194490f, -0.136240f, -0.017570f, 0.163760f, -0.204660f, 0.023370f, 0.066610f, -0.134600f, 0.171100f, -0.011590f, -0.058150f, -0.095830f, 0.195370f, -0.133290f, 0.189560f, 0.144750f, -0.083900f, 0.160670f, -0.115650f, -0.093790f, -0.075980f, 0.127350f, -0.160500f, -0.025640f, 0.038930f, 0.012380f, -0.085860f, -0.130030f, -0.116150f, 0.135480f, 0.190870f, -0.203670f, -0.024950f, 0.140570f, -0.089500f, 0.052830f, 0.000770f, 0.196840f, -0.201160f, -0.093970f, 0.029700f, 0.124210f, 0.209000f, -0.103600f, 0.127910f, 0.124390f, -0.120040f, 0.184220f, 0.100690f, 0.199930f, 0.015590f, 0.150940f, -0.026260f, -0.205740f, 0.089090f, -0.103470f, -0.135660f, -0.088180f, 0.187060f, 0.063840f, 0.161770f, -0.189530f, 0.160350f, -0.185120f, 0.189280f, 0.203610f, 0.024850f, 0.194330f, -0.178540f, 0.177740f, 0.200520f, 0.199930f, -0.070440f, -0.009420f, -0.040340f, 0.119850f, 0.137910f, 0.083640f, 0.214330f, 0.182520f, -0.038900f, 0.062320f, 0.022270f, -0.119060f, -0.197460f, 0.050960f, 0.134100f, -0.060890f, -0.159210f, -0.062710f, 0.051690f, -0.078320f, 0.005750f, 0.253330f, -0.188000f, -0.010160f, -0.153230f, -0.140980f, 0.159400f, -0.023500f, 0.014390f, 0.149090f, -0.141160f, -0.110460f, 0.017970f, -0.130230f, -0.049500f, 0.209020f, -0.205490f, -0.017890f, -0.041750f, 0.148790f, 0.069970f, 0.185080f, -0.147830f, -0.186320f, 0.024740f, -0.168710f, 0.250650f, -0.108410f, -0.194650f, -0.199260f, 0.081590f, 0.177550f, -0.124510f, -0.016590f, 0.140910f, 0.133020f, -0.132160f, -0.035190f, -0.074310f, 0.195200f, 0.178440f, -0.089560f, -0.125690f, -0.113940f, -0.152020f, -0.114110f, -0.117750f, 0.099520f, -0.086770f, -0.157070f, -0.163530f, 0.075660f, 0.124030f, 0.138390f, 0.094070f, 0.021090f, 0.078990f, 0.164620f, -0.038950f, 0.044790f, 0.073270f, 0.089240f, -0.127220f, -0.146380f, 0.184510f, 0.109190f, 0.109780f, -0.042710f, -0.046400f, 0.127430f, 0.136860f, -0.107150f, -0.199990f, 0.149020f, 0.184830f, -0.185180f, 0.160230f, 0.116320f, -0.027140f, 0.014150f, -0.184870f, 0.043000f, -0.205190f, -0.062950f, -0.129820f, 0.046480f, -0.138030f, -0.134430f, -0.078470f, 0.131240f, -0.164720f, -0.091730f, 0.078190f, 0.189020f, 0.152440f, 0.028220f, 0.165440f, 0.026050f, -0.044050f, 0.053200f, 0.151090f, 0.077660f, 0.076320f, -0.046290f, -0.146170f, -0.117260f, -0.061760f, -0.028070f, 0.076220f, 0.027690f, -0.123990f, -0.065970f, 0.093260f, -0.071350f, 0.070310f, 0.021290f, 0.134600f, -0.134490f, -0.170630f, 0.111200f, 0.143900f, -0.175030f, 0.186440f, -0.052480f, 0.066740f, -0.141030f, 0.044490f, 0.193570f, -0.040700f, -0.026400f, -0.083370f, 0.017130f, 0.030840f, 0.095280f, 0.056140f, -0.132010f, 0.117810f, 0.193900f, 0.108850f, 0.148290f, 0.174810f, -0.170250f, -0.171640f, -0.099230f, 0.157360f, -0.157510f, -0.096340f, 0.050820f, -0.045560f, 0.001640f, -0.188040f, -0.178320f, 0.161120f, 0.124690f, 0.095890f, -0.184090f, -0.082700f, 0.034420f, -0.088880f, 0.134560f, 0.011130f, -0.074190f, 0.030780f, 0.179690f, 0.006320f, 0.135940f, -0.066230f, -0.035350f, -0.021950f, -0.181990f, -0.056950f, 0.031860f, -0.134390f, -0.152550f, -0.100470f, -0.160130f, 0.204450f, 0.097190f, 0.059830f, -0.041930f, -0.113300f, -0.052720f, -0.193880f, 0.142280f, 0.002390f, -0.027750f, -0.025900f, 0.090740f, -0.182550f, -0.002640f, -0.007750f, 0.157350f, -0.143630f, 0.188080f, 0.021030f, 0.045990f, 0.161650f, -0.109150f, 0.114320f, -0.074370f, 0.013210f, -0.140390f, -0.091970f, -0.125060f, 0.072680f, 0.013700f, -0.203400f, 0.151550f, 0.179860f, -0.177930f, -0.206880f, 0.160110f, 0.190500f, -0.166680f, 0.044940f, -0.025850f, 0.193470f, -0.082130f, 0.197350f, 0.088620f, 0.183980f, -0.100320f, -0.002610f, 0.085710f, 0.108700f, -0.136540f, -0.042420f, 0.131520f, 0.188530f, 0.074540f, -0.181510f, -0.067060f, -0.002010f, 0.023780f, -0.133730f, -0.178400f, 0.142530f, 0.157310f, -0.178070f, -0.120300f, -0.080540f, -0.113960f, 0.152140f, 0.001600f, -0.077210f, 0.196930f, -0.070430f, 0.157740f, -0.134960f, -0.210340f, -0.205160f, 0.071160f, 0.023870f, 0.116040f, 0.143380f, -0.099830f, 0.128090f, -0.158790f, -0.210130f, 0.091420f, 0.053990f, -0.038680f, 0.129140f, 0.238070f, 0.122650f, 0.002320f, -0.026710f, 0.223530f, 0.205440f, 0.130620f, 0.118370f, -0.148730f, 0.099370f, 0.267550f, 0.140650f, 0.197460f, -0.076890f, 0.145730f, 0.044470f, 0.072810f, 0.057400f, -0.009970f, -0.086070f, 0.206070f, -0.117130f, -0.116810f, -0.026390f, 0.067180f, -0.145840f, 0.281230f, -0.059950f, -0.238870f, -0.044800f, 0.005150f, 0.160050f, 0.147850f, 0.088630f, 0.189630f, 0.097470f, 0.089700f, 0.027010f, -0.203800f, 0.209860f, -0.019270f, 0.003590f, -0.165780f, 0.191210f, 0.188000f, -0.145010f, 0.174380f, 0.120330f, 0.032350f, -0.210710f, 0.188500f, 0.149640f, -0.123930f, -0.091980f, -0.005600f, -0.079770f, 0.108550f, -0.144930f, 0.151970f, 0.041890f, -0.009360f, -0.111190f, 0.120090f, -0.168810f, 0.020200f, 0.149600f, -0.054070f, 0.127100f, -0.163400f, -0.112240f, -0.109700f, -0.168420f, 0.129420f, -0.152510f, 0.175490f, 0.126870f, 0.138820f, -0.047290f, 0.125250f, -0.180150f, -0.184490f, 0.156790f, -0.146060f, 0.209940f, 0.010860f, -0.174210f, -0.110160f, 0.076580f, 0.078140f, 0.199520f, -0.104450f, 0.029270f, -0.206900f, 0.156270f, -0.194050f, 0.024310f, 0.129960f, 0.083000f, 0.097940f, 0.012510f, 0.091350f, -0.181210f, 0.112850f, -0.126680f, -0.172440f, -0.004940f, 0.100670f, 0.129120f, -0.071430f, 0.055470f, -0.145810f, -0.198130f, -0.189660f, -0.216010f, -0.128260f, 0.215550f, 0.229940f, 0.027350f, 0.077510f, -0.199480f, 0.193300f, -0.191640f, 0.266840f, 0.121730f, 0.008660f, -0.206160f, -0.087200f, -0.086730f, 0.093520f, -0.097590f, -0.210310f, -0.084680f, 0.123340f, 0.069830f, 0.046640f, -0.146100f, -0.017350f, -0.055950f, -0.120020f, 0.140250f, 0.066830f, -0.025390f, -0.139890f, 0.187660f, 0.064670f, 0.096690f, 0.168370f, 0.103250f, -0.055270f, 0.108170f, 0.104760f, -0.197650f, 0.058580f, -0.069120f, 0.125250f, -0.107870f, 0.044470f, 0.143360f, 0.094270f, 0.169090f, -0.085010f, 0.073560f, 0.108400f, 0.046980f, -0.173720f, 0.107600f, -0.108580f, -0.176360f, -0.070180f, 0.033580f, 0.124700f, 0.021880f, -0.051310f, -0.161790f, -0.017070f, 0.049770f, 0.024850f, -0.148340f, 0.021680f, -0.080200f, -0.213100f, -0.174580f, -0.060360f, -0.210240f, 0.066760f, 0.059480f, 0.062030f, 0.005540f, 0.189610f, -0.161180f, 0.203220f, -0.159640f, -0.062360f, 0.014610f, 0.085680f, 0.051070f, 0.124820f, -0.125820f, 0.026910f, -0.021210f, 0.046710f, 0.117880f, 0.214220f, -0.084270f, -0.131170f, 0.198530f, 0.197000f, 0.007450f, -0.070960f, 0.186120f, 0.049430f, 0.200130f, 0.090380f, -0.143600f, 0.039640f, -0.069780f, 0.067650f, -0.188380f, 0.041180f, -0.114410f, 0.002290f, 0.189050f, 0.210000f, -0.035430f, -0.207440f, 0.022630f, -0.086360f, -0.060820f, 0.039450f, -0.202680f, -0.189670f, 0.148400f, -0.074690f, 0.169500f, 0.091670f, -0.028650f, 0.018320f, -0.103860f, 0.045680f, -0.006420f, 0.160660f, 0.141740f, 0.183320f, -0.102630f, 0.118040f, 0.100190f, -0.163670f, -0.119890f, 0.077180f, -0.065220f, 0.035910f, 0.147500f, -0.046510f, -0.085580f, -0.139000f, -0.174720f, -0.091750f, 0.204140f, -0.157100f, 0.196670f, 0.114650f, -0.134100f, -0.117340f, -0.197000f, 0.099140f, -0.162390f, 0.200600f, 0.209410f, 0.059740f, -0.148140f, -0.215880f, -0.035390f, 0.112800f, 0.000010f, -0.043680f, 0.011110f, 0.057750f, 0.150260f, -0.058130f, -0.142930f, 0.088490f, -0.191830f, -0.017790f, -0.034930f, -0.089280f, 0.061990f, -0.200750f, -0.098230f, -0.117360f, 0.142770f, 0.033290f, 0.114210f, 0.031620f, -0.181630f, -0.113990f, 0.103780f, -0.033090f, 0.051200f, 0.175570f, -0.004790f, -0.059410f, 0.147130f, 0.057130f, 0.053490f, -0.194560f, 0.056590f, -0.167720f, 0.119810f, -0.143180f, -0.105010f, -0.019320f, -0.111240f, -0.201440f, -0.206890f, 0.202870f, 0.161410f, 0.105000f, -0.029920f, -0.130370f, -0.053070f, -0.054230f, -0.002610f, -0.198690f, -0.210720f, 0.102260f, 0.118510f, 0.155460f, -0.146890f, -0.033610f, 0.197350f, 0.140130f, -0.170490f, -0.040700f, -0.104810f, -0.072680f, -0.107280f, -0.169370f, 0.072730f, 0.145640f, 0.177110f, 0.050360f, -0.146960f, 0.070120f, -0.011740f, 0.170850f, -0.101020f, 0.256230f, -0.102930f, -0.149460f, 0.140760f, -0.101640f, -0.146390f, -0.114480f, -0.148370f, -0.004900f, -0.123510f, -0.095280f, -0.127740f, 0.041730f, -0.153830f, 0.190220f, -0.208770f, 0.070930f, 0.132860f, -0.195420f, -0.135400f, 0.171940f, 0.051120f, -0.036590f, 0.143850f, 0.090100f, -0.185870f, -0.204000f, 0.132190f, -0.072930f, 0.013350f, 0.018930f, 0.036150f, 0.074570f, -0.054520f, 0.013060f, 0.199110f, 0.195280f, 0.073880f, 0.051970f, -0.106470f, -0.205460f, -0.197710f, -0.170830f, 0.165680f, 0.193690f, 0.105600f, -0.160370f, 0.099640f, 0.222110f, -0.019160f, 0.030780f, -0.140260f, 0.140540f, 0.039270f, -0.071050f, -0.194870f, -0.169320f, 0.183720f, -0.161090f, -0.023890f, 0.108190f, -0.183830f, 0.079550f, 0.130120f, -0.066370f, -0.148590f, 0.078820f, 0.180630f, 0.156460f, -0.089410f, 0.170970f, -0.163490f, 0.079280f, 0.135790f, -0.045750f, -0.033210f, -0.082430f, 0.126920f, -0.106200f, -0.207480f, -0.069830f, -0.044080f, 0.203920f, -0.007520f, 0.167990f, -0.156780f, 0.113230f, -0.030610f, -0.186510f, 0.141220f, -0.113420f, -0.167070f, 0.120510f, -0.120510f, 0.053000f, 0.173080f, 0.181880f, 0.080810f, 0.045940f, -0.050880f, -0.077350f, -0.039010f, -0.077870f, 0.080430f, 0.169230f, 0.018920f, 0.017950f, -0.153250f, 0.002460f, 0.137520f, -0.012960f, 0.064580f, -0.131020f, 0.123520f, 0.187560f, -0.067620f, -0.181590f, -0.103340f, 0.192200f, -0.186080f, 0.071120f, 0.070730f, 0.187520f, 0.114590f, 0.005340f, -0.120150f, -0.126900f, -0.164760f, 0.061950f, -0.020070f, 0.173290f, -0.134700f, 0.033540f, -0.169000f, 0.206960f, 0.041200f, 0.159160f, -0.108360f, -0.125480f, 0.065260f, 0.168150f, -0.203720f, -0.138360f, 0.073110f, -0.020860f, -0.125610f, 0.104940f, -0.078890f, 0.047070f, -0.088300f, -0.197480f, -0.205070f, 0.079810f, -0.031740f, 0.184850f, 0.037470f, -0.130080f, -0.102200f, 0.200910f, -0.114750f, -0.107020f, 0.016160f, -0.069120f, -0.102870f, 0.216510f, 0.132450f, 0.005070f, -0.075750f, 0.085300f, -0.062540f, 0.029410f, 0.030170f, 0.194350f, -0.140620f, 0.057860f, 0.038500f, 0.050090f, -0.033970f, 0.044420f, 0.203480f, 0.039180f, -0.202080f, 0.145450f, -0.143090f, 0.145980f, -0.064070f, -0.138510f, -0.011390f, 0.012690f, 0.174950f, 0.012010f, -0.088570f, -0.103520f, -0.004980f, -0.075700f, -0.152330f, -0.167820f, -0.051640f, -0.095680f, 0.159420f, -0.019380f, 0.208590f, 0.005670f, 0.000440f, -0.198890f, -0.073640f, 0.030410f, 0.088920f, -0.180360f, 0.095150f, -0.139320f, -0.153910f, -0.072210f, 0.117210f, -0.037580f, 0.069220f, -0.099550f, -0.070210f, 0.099090f, -0.189630f, -0.136900f, 0.166840f, -0.065780f, -0.201080f, 0.197350f, -0.195970f, -0.036870f, 0.116080f, -0.202760f, -0.106400f, -0.095600f, -0.041200f, 0.055410f, -0.205410f, -0.328310f, -0.058960f, -0.158730f, 0.105570f, -0.089080f, 0.144170f, 0.022920f, -0.193780f, 0.186740f, -0.148540f, -0.196670f, 0.010030f, -0.076530f, -0.084030f, 0.006990f, -0.059260f, 0.242450f, 0.004910f, -0.076330f, 0.102310f, -0.277050f, -0.137220f, 0.094730f, -0.069630f, -0.075740f, -0.105970f, -0.150020f, -0.210730f, -0.170190f, -0.040500f, 0.037200f, 0.175040f, -0.224060f, 0.078480f, -0.042690f, 0.103770f, 0.012560f, 0.165690f, -0.118200f, 0.193530f, 0.096730f, -0.167940f, 0.066840f, -0.204870f, -0.105570f, -0.045770f, -0.128500f, 0.053740f, -0.188100f, 0.130350f, 0.004210f, 0.209910f, -0.080960f, 0.146280f, 0.167290f, 0.192300f, 0.050390f, -0.191480f, -0.067400f, 0.084630f, -0.078840f, -0.020220f, 0.129420f, -0.151770f, -0.145870f, -0.208910f, 0.002830f, -0.089820f, 0.061670f, 0.030630f, -0.009520f, 0.066170f, -0.079860f, -0.167700f, -0.182700f, 0.104900f, 0.093670f, -0.044880f, 0.078910f, -0.167470f, -0.026620f, 0.042270f, -0.147560f, -0.043160f, 0.164200f, 0.139380f, 0.131520f, -0.046520f, -0.026290f, -0.008730f, 0.177150f, 0.035660f, -0.168770f, 0.237520f, -0.163790f, -0.165950f, -0.186790f, -0.004750f, 0.075360f, 0.027660f, 0.003680f, -0.096570f, -0.216160f, -0.113510f, -0.104880f, -0.158740f, -0.206150f, 0.129330f, 0.032050f, -0.038040f, -0.013350f, 0.008880f, 0.175290f, -0.066240f, -0.112720f, 0.111010f, -0.087960f, -0.100360f, -0.049550f, 0.200580f, 0.019780f, -0.021800f, 0.207790f, 0.030860f, -0.132760f, -0.031160f, 0.157730f, 0.039660f, 0.097720f, -0.082930f, 0.191480f, -0.181410f, 0.080640f, -0.144040f, 0.041740f, -0.190070f, -0.159030f, 0.064330f, -0.087150f, 0.047290f, 0.029410f, 0.128080f, -0.071410f, 0.043990f, 0.141950f, -0.183670f, -0.050950f, -0.049250f, 0.005800f, -0.150470f, -0.072770f, -0.166100f, 0.010810f, 0.191570f, 0.016080f, 0.117650f, 0.081610f, 0.122970f, -0.190760f, -0.080780f, -0.201290f, -0.127900f, -0.006720f, 0.048980f, -0.083880f, -0.056620f, 0.144430f, 0.155940f, -0.007640f, 0.177910f, 0.012000f, -0.040250f, 0.088600f, -0.103760f, -0.147340f, -0.150360f, 0.165450f, -0.196020f, -0.049710f, -0.186180f, -0.022590f, 0.137290f, 0.182240f, 0.104360f, 0.046850f, -0.031430f, -0.050000f, 0.199780f, -0.188150f, -0.183590f, -0.068080f, -0.030010f, 0.147810f, 0.181760f, -0.085610f, -0.058060f, 0.174810f, 0.015200f, -0.011700f, -0.178730f, -0.074900f, -0.074100f, 0.014630f, -0.055690f, -0.119730f, -0.191300f, -0.008800f, -0.087800f, -0.044570f, -0.157990f, 0.083540f, -0.151190f, 0.194060f, -0.057700f, -0.076170f, -0.017640f, 0.021560f, 0.001490f, 0.146880f, 0.038120f, 0.183890f, -0.160210f, 0.198100f, 0.176530f, -0.060140f, 0.100750f, -0.126700f, -0.189930f, 0.202350f, -0.041820f, -0.162250f, -0.134120f, 0.194470f, -0.148390f, -0.037540f, -0.016880f, -0.144370f, -0.050470f, -0.009480f, -0.047190f, 0.128590f, 0.066620f, 0.038110f, 0.202580f, 0.138620f, -0.206670f, -0.196590f, 0.145920f, 0.003440f, -0.132860f, -0.055070f, -0.179710f, 0.124350f, -0.136650f, 0.085490f, 0.186320f, -0.158770f, -0.089730f, -0.021900f, 0.075720f, -0.150480f, 0.163970f, -0.122940f, -0.032900f, -0.175190f, 0.162850f, 0.039760f, -0.210660f, 0.183300f, -0.174790f, -0.044080f, 0.192850f, -0.038150f, 0.185100f, -0.088250f, -0.132580f, -0.145550f, -0.005940f, 0.068880f, -0.104020f, -0.213440f, -0.056050f, 0.018890f, 0.112690f, -0.065240f, 0.048040f, -0.041190f, -0.100560f, 0.196240f, 0.138480f, -0.114220f, -0.086300f, -0.144340f, 0.119960f, -0.006630f, -0.086170f, 0.149330f, 0.067020f, 0.198250f, -0.073460f, 0.111230f, 0.046690f, 0.157560f, 0.184390f, 0.204680f, -0.081570f, 0.180930f, 0.051240f, 0.134760f, 0.113520f, 0.254910f, 0.080510f, -0.016160f, -0.100480f, -0.186850f, 0.062360f, -0.184250f, -0.135240f, -0.123780f, -0.129340f, 0.186000f, -0.012300f, 0.180500f, -0.060170f, 0.194710f, 0.034280f, 0.127940f, -0.011040f, 0.150560f, -0.113670f, -0.057900f, 0.010710f, 0.092280f, -0.049490f, -0.023840f, -0.138380f, -0.147970f, 0.094380f, -0.018360f, -0.105840f, -0.034010f, 0.203700f, 0.066890f, -0.200180f, -0.072710f, -0.032210f, 0.013190f, -0.111770f, -0.205510f, -0.186120f, -0.079360f, 0.099650f, 0.070850f, 0.074740f, -0.175260f, -0.038030f, 0.123990f, -0.039570f, -0.063720f, 0.193900f, -0.127510f, 0.001910f, -0.169920f, 0.125860f, 0.194490f, -0.050800f, 0.200420f, 0.055710f, -0.031750f, 0.117650f, -0.153210f, -0.095900f, 0.136640f, -0.055340f, -0.046330f, -0.088420f, -0.125070f, -0.120970f, -0.011580f, 0.123520f, -0.021770f, 0.141250f, 0.172880f, -0.071310f, -0.059400f, 0.067380f, -0.166010f, 0.130510f, -0.014510f, 0.184130f, 0.175880f, 0.046910f, 0.111110f, 0.185660f, -0.005830f, -0.055990f, -0.142590f, -0.021420f, 0.030860f, 0.053580f, 0.052010f, 0.148230f, -0.105300f, -0.042610f, -0.155390f, 0.149330f, -0.150290f, 0.208500f, 0.101420f, -0.077980f, 0.013620f, -0.129320f, 0.103490f, 0.127430f, 0.170390f, 0.127810f, 0.000060f, 0.074090f, -0.147370f, 0.195230f, -0.143440f, 0.001260f, -0.101350f, -0.201710f, 0.151570f, 0.168390f, -0.193290f, -0.134180f, 0.143030f, -0.022990f, -0.091010f, 0.180230f, -0.092070f, -0.149820f, -0.051710f, -0.159150f, -0.140330f, 0.167470f, 0.051980f, -0.039330f, -0.018430f, 0.029850f, -0.191410f, -0.129480f, 0.077850f, -0.053130f, -0.089910f, -0.135140f, 0.182690f, -0.087270f, 0.078500f, 0.132840f, -0.082750f, -0.144470f, 0.104100f, 0.059870f, -0.141130f, -0.043630f, -0.004410f, 0.173390f, 0.134140f, 0.166560f, -0.210290f, -0.032750f, 0.179950f, 0.189770f, 0.060010f, -0.081740f, 0.063600f, -0.154840f, -0.062280f, 0.106250f, 0.139640f, 0.068270f, -0.105800f, 0.031950f, 0.054630f, -0.031470f, 0.000390f, -0.077060f, 0.170040f, -0.186240f, 0.107090f, 0.039880f, 0.127570f, -0.181310f, 0.029910f, -0.045850f, 0.168040f, -0.047510f, 0.079360f, -0.123130f, -0.007150f, -0.082780f, 0.025990f, 0.037030f, -0.050510f, 0.078550f, 0.075180f, 0.094870f, 0.192110f, 0.133900f, 0.004040f, -0.008530f, 0.108470f, 0.128870f, 0.133810f, 0.108860f, 0.037510f, 0.127630f, -0.061930f, 0.116100f, 0.062750f, 0.010880f, -0.127400f, -0.096220f, -0.121250f, -0.156360f, 0.145830f, 0.005320f, 0.023240f, -0.202250f, 0.169620f, 0.017850f, -0.064720f, 0.130560f, 0.063960f, 0.037310f, 0.147010f, 0.068770f, 0.147820f, -0.084900f, 0.183570f, 0.161620f, 0.006970f, 0.021930f, 0.080920f, 0.058580f, -0.126900f, -0.081070f, -0.137270f, -0.119530f, 0.075570f, 0.051400f, 0.135660f, 0.165700f, 0.070640f, -0.069700f, -0.203280f, 0.108840f, -0.009440f, -0.029830f, 0.107660f, 0.087880f, -0.025480f, -0.044340f, -0.179570f, -0.157170f, 0.002850f, 0.161760f, 0.161540f, 0.007000f, 0.095410f, -0.055330f, -0.066850f, -0.185860f, 0.104070f, -0.060540f, -0.167060f, -0.099090f, 0.106680f, -0.111060f, -0.008660f, 0.003210f, 0.163700f, 0.046540f, -0.109970f, 0.131850f, 0.040590f, 0.131820f, 0.087620f, 0.181390f, 0.105540f, -0.060870f, -0.041820f, 0.209760f, 0.152540f, 0.016420f, -0.169900f, 0.060230f, -0.104780f, -0.091030f, 0.185340f, -0.094500f, 0.125790f, -0.139400f, 0.064490f, 0.072380f, 0.098660f, 0.117180f, 0.009580f, 0.134810f, 0.232380f, 0.135490f, -0.155920f, -0.040520f, -0.021550f, -0.207900f, 0.160260f, -0.049080f, -0.064570f, 0.011660f, -0.023450f, 0.115960f, 0.191010f, 0.047020f, -0.154510f, -0.133090f, -0.069180f, -0.005280f, 0.097460f, -0.119520f, -0.057440f, 0.080860f, -0.142890f, 0.051320f, -0.110580f, 0.149070f, -0.052930f, 0.008120f, -0.103730f, 0.147840f, 0.117290f, 0.165130f, -0.134860f, -0.033510f, -0.193640f, 0.178470f, -0.041530f, 0.002520f, 0.191180f, -0.005630f, 0.103530f, 0.171150f, -0.102070f, 0.156600f, -0.094350f, 0.005480f, 0.097610f, 0.017820f, -0.125340f, 0.012220f, 0.192060f, -0.147080f, -0.130580f, -0.087100f, 0.016290f, 0.205090f, 0.001510f, -0.149470f, -0.086720f, -0.078990f, 0.031660f, 0.179790f, -0.010350f, 0.090550f, -0.001040f, -0.087580f, 0.155640f, -0.058970f, 0.045020f, -0.083240f, 0.183250f, -0.055880f, -0.045890f, 0.076000f, -0.047050f, 0.017040f, -0.015530f, -0.173690f, -0.074130f, 0.027790f, 0.053540f, -0.179520f, 0.204400f, -0.154270f, -0.130080f, 0.131920f, 0.189730f, 0.151690f, -0.107430f, -0.141310f, -0.128020f, 0.172600f, 0.005470f, 0.091830f, -0.149600f, 0.164230f, -0.169310f, -0.131100f, 0.083820f, -0.011240f, 0.038900f, 0.063660f, -0.135540f, 0.173570f, 0.046690f, -0.046000f, 0.037050f, -0.004800f, -0.112200f, 0.182030f, -0.121120f, -0.012470f, -0.045820f, 0.096000f, -0.037490f, 0.184800f, -0.195140f, 0.192240f, 0.001070f, 0.039850f, -0.131340f, -0.051660f, 0.100680f, 0.131020f, -0.030470f, 0.183300f, -0.024960f, 0.013030f, 0.000760f, -0.200160f, 0.031850f, -0.035810f, 0.065350f, 0.080650f, -0.001400f, 0.159470f, 0.176740f, -0.070470f, -0.040690f, -0.055550f, -0.106200f, 0.060340f, 0.209490f, 0.076300f, 0.101930f, -0.180420f, -0.166030f, 0.185730f, 0.168080f, 0.043670f, -0.063250f, 0.133130f, 0.144030f, -0.174460f, 0.081630f, -0.149410f, 0.057370f, -0.086990f, 0.124040f, 0.038570f, 0.008370f, 0.184200f, -0.204560f, 0.161650f, 0.072800f, 0.166050f, 0.160390f, 0.026220f, 0.113080f, 0.002960f, 0.155240f, -0.166440f, -0.141740f, -0.140650f, 0.055770f, -0.192340f, -0.204870f, 0.053930f, -0.022580f, -0.067760f, 0.108130f, 0.141770f, 0.116230f, 0.000810f, -0.011260f, -0.171200f, 0.007900f, 0.107540f, 0.127320f, -0.168870f, 0.209870f, -0.028020f, 0.078320f, -0.144040f, 0.111440f, -0.210240f, -0.160260f, 0.009560f, -0.126210f, -0.033560f, -0.170980f, 0.070610f, 0.032690f, 0.138360f, -0.166830f, -0.104550f, -0.108120f, -0.195860f, -0.113580f, -0.059260f, -0.121670f, -0.014200f, -0.058740f, 0.154210f, -0.150810f, -0.014090f, -0.010260f, 0.013500f, -0.061010f, -0.004420f, 0.168570f, 0.105880f, 0.133400f, -0.119150f, -0.102330f, -0.016380f, 0.129220f, 0.074480f, 0.032500f, 0.134410f, 0.128040f, -0.180890f, -0.130860f, -0.068070f, -0.086080f, 0.124000f, 0.073180f, 0.052670f, -0.139920f, 0.170040f, 0.084730f, 0.196360f, -0.027060f, 0.097490f, 0.209750f, -0.166380f, -0.136830f, -0.015930f, 0.157810f, -0.158000f, 0.188210f, -0.204370f, 0.015580f, 0.168770f, -0.067950f, -0.198470f, 0.039010f, 0.141360f, -0.057370f, 0.000270f, -0.050620f, 0.076590f, 0.017860f, 0.186470f, 0.012190f, -0.069700f, 0.060470f, 0.121450f, -0.139220f, 0.208860f, 0.193180f, 0.072830f, 0.149270f, 0.114010f, 0.204860f, -0.084890f, -0.065030f, 0.018530f, 0.083120f, 0.180180f, 0.022520f, 0.028760f, 0.115750f, -0.091780f, -0.204430f, 0.198980f, -0.102290f, 0.038530f, -0.067340f, 0.166780f, -0.083910f, -0.043230f, 0.145890f, -0.106500f, 0.097200f, 0.190810f, 0.185390f, -0.160260f, 0.035360f, -0.073240f, -0.144100f, 0.101900f, 0.177840f, -0.191790f, -0.092600f, 0.113010f, -0.169370f, 0.201030f, 0.097740f, 0.093930f, 0.126140f, 0.096650f, 0.060980f, -0.043240f, -0.151620f, 0.111070f, 0.034300f, -0.047680f, 0.034320f, -0.001880f, -0.123940f, 0.111670f, -0.158330f, -0.107050f, -0.037750f, 0.196510f, 0.003020f, 0.161980f, -0.201940f, -0.010620f, -0.166380f, -0.129790f, 0.128130f, -0.173910f, -0.210780f, -0.134910f, 0.149790f, -0.026920f, -0.083000f, -0.021520f, 0.180210f, 0.132560f, -0.116330f, 0.019700f, -0.009740f, -0.206370f, -0.077260f, 0.011860f, 0.150040f, 0.146680f, 0.150830f, -0.077240f, -0.203170f, 0.111310f, 0.075320f, -0.191680f, -0.028970f, 0.044490f, 0.121470f, -0.033690f, 0.168510f, 0.063840f, -0.039190f, -0.102830f, -0.087660f, 0.124900f, -0.147540f, -0.132130f, 0.155700f, -0.162030f, -0.083590f, -0.024970f, 0.089420f, -0.143900f, -0.175780f, -0.131660f, -0.209690f, 0.185980f, 0.116880f, -0.104290f, 0.190640f, 0.197480f, -0.078570f, -0.136460f, 0.076570f, 0.201930f, 0.103870f, -0.122880f, -0.169000f, -0.090970f, -0.188640f, 0.093430f, 0.010590f, -0.169130f, 0.046020f, 0.162550f, 0.030620f, 0.144140f, 0.005280f, 0.118410f, 0.092890f, -0.043040f, -0.135560f, 0.115900f, -0.179510f, -0.106720f, -0.031040f, -0.033500f, 0.127970f, -0.065540f, 0.113110f, 0.205710f, -0.059620f, 0.124670f, 0.123240f, -0.124120f, -0.007060f, 0.154510f, -0.074280f, -0.100460f, -0.052050f, 0.094570f, -0.046920f, -0.175350f, 0.135260f, 0.015550f, 0.210690f, 0.077440f, -0.014600f, -0.121950f, -0.029170f, -0.210040f, 0.131420f, -0.148440f, -0.092620f, -0.040460f, -0.018110f, -0.111750f, -0.192940f, -0.056190f, 0.154750f, -0.198790f, -0.030260f, 0.170840f, 0.138210f, 0.002590f, -0.146980f, -0.137120f, 0.031600f, 0.056890f, 0.085560f, 0.146520f, -0.037690f, 0.046240f, -0.092880f, 0.202420f, 0.189380f, 0.116120f, 0.157390f, 0.078930f, -0.109740f, -0.051390f, 0.156940f, 0.052780f, 0.122710f, -0.110510f, 0.013950f, -0.188940f, 0.183910f, -0.023980f, 0.013410f, 0.080470f, -0.035000f, -0.034200f, -0.143540f, -0.162110f, -0.021200f, 0.110760f, 0.087070f, -0.192140f, 0.100170f, 0.170510f, 0.157040f, 0.033190f, -0.113020f, -0.125940f, 0.069900f, -0.103330f, -0.105330f, -0.089160f, -0.177560f, 0.156000f, 0.033490f, -0.186000f, -0.021860f, 0.102200f, -0.114580f, -0.041410f, 0.162640f, -0.023870f, 0.138660f, 0.063270f, -0.145940f, -0.117800f, 0.143510f, -0.103050f, 0.125940f, 0.016340f, 0.208050f, 0.106870f, 0.149980f, -0.154270f, -0.126770f, 0.076420f, 0.123970f, 0.202890f, -0.091040f, -0.142020f, -0.027290f, -0.005810f, 0.186890f, -0.005470f, 0.096650f, -0.100520f, -0.006350f, -0.197530f, -0.126210f, 0.112650f, 0.181700f, 0.178970f, 0.008180f, -0.188350f, 0.073800f, 0.142050f, -0.143710f, -0.183130f, 0.173900f, -0.073750f, -0.117040f, -0.025040f, -0.153300f, -0.031560f, 0.037180f, -0.073890f, -0.027500f, 0.035070f, 0.007310f, 0.037360f, 0.097410f, 0.074590f, -0.102160f, 0.182770f, 0.069000f, -0.165400f, 0.100750f, -0.050950f, -0.056420f, 0.043050f, -0.038820f, -0.185700f, 0.185260f, 0.070860f, 0.143380f, -0.125990f, 0.058070f, 0.210860f, 0.103480f, -0.159220f, -0.105550f, -0.057720f, -0.154480f, -0.117960f, 0.031310f, -0.000490f, 0.018260f, 0.133570f, 0.103020f, -0.003160f, 0.054070f, -0.079450f, 0.188330f, 0.173520f, -0.116220f, -0.143510f, 0.181910f, -0.004620f, 0.004110f, 0.100940f, -0.061460f, 0.079020f, 0.031380f, -0.085990f, -0.207960f, 0.059260f, 0.199550f, 0.021630f, 0.194990f, -0.009370f, 0.158250f, -0.053770f, -0.164000f, -0.157880f, -0.145670f, 0.193510f, 0.100220f, 0.065890f, -0.038790f, -0.101200f, 0.021890f, -0.176820f, -0.004800f, -0.131400f, 0.199950f, 0.048650f, 0.096090f, -0.127230f, 0.047030f, 0.003300f, -0.044580f, -0.056320f, 0.153360f, 0.018740f, 0.123550f, -0.063840f, 0.212380f, 0.047770f, 0.139480f, 0.165040f, -0.173560f, -0.119120f, 0.004440f, 0.020260f, 0.184080f, 0.182440f, -0.184580f, 0.130530f, 0.139900f, -0.206480f, 0.098100f, -0.087630f, 0.077460f, -0.039630f, -0.173770f, -0.110740f, 0.006530f, 0.144230f, 0.097370f, 0.018860f, -0.113590f, -0.139190f, 0.135810f, -0.015190f, -0.062380f, 0.154570f, -0.180960f, 0.096640f, -0.116050f, -0.122170f, 0.177600f, -0.146140f, 0.173000f, 0.176540f, -0.131180f, 0.137260f, -0.156410f, 0.126940f, 0.029320f, 0.208220f, 0.164470f, 0.048720f, 0.101030f, -0.149890f, 0.072940f, 0.040100f, -0.061150f, -0.076500f, -0.057580f, 0.119160f, -0.132100f, 0.069590f, 0.069940f, 0.021530f, -0.164320f, 0.126010f, 0.114800f, -0.114620f, 0.044330f, -0.047310f, 0.113100f, -0.090650f, -0.036670f, 0.041790f, 0.114140f, -0.147860f, 0.174050f, -0.039080f, 0.054260f, 0.134430f, 0.029320f, -0.096280f, -0.090800f, 0.154940f, -0.055290f, -0.141330f, -0.063810f, 0.109990f, 0.011760f, -0.000880f, -0.154710f, 0.086290f, 0.015560f, -0.169520f, 0.169450f, 0.021950f, 0.136020f, -0.102290f, 0.005330f, -0.093810f, -0.194680f, -0.207180f, 0.155910f, 0.056100f, 0.102420f, 0.143490f, -0.102340f, 0.071970f, -0.104070f, -0.052090f, 0.137350f, -0.170240f, -0.007130f, -0.141180f, 0.118610f, -0.013450f, -0.115370f, 0.104340f, -0.023730f, -0.077440f, -0.016810f, -0.073650f, 0.033180f, -0.124510f, 0.145840f, 0.059050f, -0.209210f, -0.173270f, 0.081810f, -0.044080f, -0.178460f, -0.196220f, 0.020350f, 0.031070f, -0.017620f, -0.076060f, 0.096910f, 0.033320f, -0.065570f, -0.106130f, 0.114100f, -0.032640f, 0.067500f, 0.096790f, 0.022700f, 0.185100f, -0.159060f, 0.199400f, 0.147410f, -0.037080f, -0.131470f, 0.080620f, 0.116540f, -0.055140f, -0.053880f, -0.175100f, -0.001520f, -0.078880f, -0.083280f, -0.031360f, -0.197050f, -0.176620f, -0.157680f, -0.098210f, 0.137970f, 0.133420f, 0.145870f, -0.205740f, -0.094730f, -0.131520f, 0.029330f, 0.162660f, -0.176890f, -0.095570f, 0.070330f, -0.014570f, 0.081500f, -0.033540f, -0.015690f, -0.050370f, -0.009200f, -0.057560f, -0.124400f, -0.004070f, 0.004810f, 0.074030f, -0.190290f, -0.140640f, -0.009450f, -0.001880f, 0.041870f, -0.088470f, -0.199750f, 0.029710f, 0.000100f, -0.156520f, 0.122190f, 0.172060f, 0.103170f, -0.171720f, -0.153690f, 0.201530f, 0.046930f, 0.022090f, -0.098950f, 0.156260f, 0.122480f, -0.129280f, -0.007580f, -0.065420f, 0.095260f, 0.147600f, 0.000130f, -0.054630f, 0.033830f, 0.009300f, 0.100520f, 0.093690f, 0.050550f, -0.187200f, -0.139480f, -0.190640f, 0.081650f, -0.047360f, 0.182180f, 0.045380f, -0.007670f, 0.136160f, -0.013270f, -0.188490f, -0.083920f, 0.008640f, -0.166900f, -0.137600f, -0.029220f, -0.048840f, 0.143360f, 0.012570f, -0.141000f, -0.045630f, 0.118150f, 0.154400f, 0.093050f, 0.128220f, 0.075410f };
static const float growbox_environment_model_layer_1_biases[32] = { -0.000280f, 0.061050f, 0.000010f, 0.040660f, -0.000030f, 0.001900f, 0.049000f, -0.006760f, 0.003160f, 0.000300f, 0.079080f, -0.045160f, -0.011580f, 0.073050f, -0.026280f, -0.000090f, 0.109460f, 0.000010f, 0.005510f, 0.000000f, -0.000060f, 0.035500f, -0.026450f, 0.000000f, 0.139370f, 0.042440f, 0.034770f, 0.049480f, 0.025810f, 0.016260f, 0.032470f, 0.008430f };
static const float growbox_environment_model_layer_1_weights[1024] = { -0.276160f, -0.234100f, -0.237030f, -0.239350f, -0.297590f, -0.290720f, -0.059880f, -0.073370f, -0.038030f, 0.175260f, -0.186610f, 0.021750f, -0.097530f, -0.152000f, -0.239890f, 0.115460f, 0.277760f, -0.171550f, 0.276090f, 0.128720f, -0.281670f, 0.182890f, -0.192990f, 0.091650f, -0.214650f, -0.009710f, 0.193460f, -0.139630f, -0.017550f, 0.113450f, -0.251640f, -0.198540f, 0.188630f, 0.212350f, -0.135710f, 0.079130f, 0.279210f, -0.190650f, 0.120770f, -0.016270f, 0.014980f, -0.145150f, 0.070700f, 0.061810f, 0.166290f, 0.249800f, -0.092550f, -0.041530f, 0.181660f, 0.003080f, 0.197430f, 0.189430f, -0.108880f, 0.043710f, 0.222050f, -0.174080f, 0.079190f, -0.190450f, 0.316440f, 0.078630f, -0.203710f, -0.023440f, 0.240130f, -0.157460f, 0.019360f, -0.057320f, -0.217250f, 0.231190f, 0.200240f, 0.123080f, -0.078950f, -0.143550f, 0.101410f, 0.283610f, -0.123750f, 0.220450f, 0.228510f, -0.213940f, -0.166970f, -0.155090f, 0.098100f, 0.017290f, -0.212360f, -0.200460f, 0.209540f, -0.227850f, 0.237250f, -0.020040f, 0.210350f, 0.302870f, -0.052050f, -0.190220f, 0.264560f, -0.178410f, 0.303100f, 0.137940f, -0.268620f, 0.298730f, 0.260450f, 0.229230f, 0.059140f, -0.100790f, -0.015190f, 0.182200f, -0.173980f, -0.241560f, 0.327030f, 0.259810f, 0.236320f, -0.214530f, -0.090260f, 0.028510f, -0.195620f, -0.055720f, 0.241780f, 0.031610f, 0.247020f, 0.316210f, 0.066100f, 0.274670f, 0.104370f, 0.262910f, 0.204120f, -0.118920f, 0.180280f, 0.054330f, 0.302480f, 0.146090f, 0.277890f, -0.189590f, -0.098830f, 0.020060f, 0.268180f, -0.114240f, 0.073010f, -0.109050f, -0.014690f, -0.071710f, -0.076140f, 0.122050f, 0.237790f, -0.005380f, -0.160640f, -0.175160f, -0.010670f, 0.249150f, 0.132440f, -0.080740f, 0.269230f, 0.085370f, -0.138640f, 0.153660f, -0.292140f, 0.003840f, 0.298660f, -0.256840f, 0.169170f, -0.196550f, -0.093100f, -0.216420f, -0.034340f, 0.026930f, 0.207360f, 0.203720f, -0.090590f, 0.155240f, 0.073300f, -0.202060f, 0.072870f, -0.134940f, -0.046960f, -0.007460f, 0.013450f, 0.184440f, -0.008290f, 0.286550f, 0.261270f, 0.022820f, -0.165480f, 0.130420f, -0.146930f, -0.167300f, 0.056080f, 0.095110f, -0.263440f, 0.153250f, 0.289790f, 0.154560f, 0.173630f, 0.205010f, -0.156700f, -0.179410f, -0.244330f, -0.137710f, 0.083110f, 0.242070f, -0.204220f, 0.039700f, 0.038100f, 0.179870f, -0.201820f, -0.027740f, 0.270770f, 0.014030f, 0.022640f, 0.097940f, -0.157240f, -0.221120f, 0.297400f, -0.293710f, 0.190400f, -0.089160f, 0.069160f, -0.196000f, 0.273210f, 0.278220f, 0.171770f, -0.252930f, 0.097920f, -0.027720f, -0.251580f, -0.247040f, -0.138700f, 0.208450f, -0.129040f, 0.325830f, -0.142650f, 0.150910f, 0.154190f, -0.190740f, -0.191030f, -0.042190f, 0.263770f, -0.179370f, 0.130100f, 0.110270f, 0.171440f, 0.365710f, 0.053960f, -0.254020f, 0.299250f, 0.039560f, 0.117160f, 0.231890f, 0.144500f, -0.158810f, -0.072120f, -0.191740f, -0.235020f, 0.170720f, -0.162800f, -0.281810f, -0.140570f, 0.168430f, 0.027380f, 0.148860f, 0.135520f, 0.133130f, 0.032600f, 0.227890f, -0.266080f, -0.220100f, -0.097750f, -0.141480f, -0.039930f, 0.270810f, 0.019050f, -0.189970f, 0.073480f, 0.316480f, 0.146220f, 0.202300f, -0.217770f, 0.162270f, 0.265120f, -0.262200f, -0.105470f, 0.104730f, 0.244450f, 0.000480f, 0.059200f, 0.066480f, -0.268170f, -0.154490f, -0.043660f, -0.039650f, -0.185930f, -0.197950f, 0.302550f, 0.301640f, 0.288770f, -0.245470f, 0.191370f, 0.297330f, -0.262780f, -0.040480f, 0.164840f, 0.041620f, 0.054080f, -0.063610f, -0.165080f, -0.212640f, -0.231540f, -0.229490f, -0.000970f, 0.148720f, 0.275640f, -0.033520f, 0.037300f, 0.297990f, 0.007250f, -0.193180f, -0.258460f, 0.079420f, 0.216400f, 0.097440f, 0.019260f, 0.133480f, 0.150770f, -0.046890f, 0.197330f, 0.181920f, -0.080160f, -0.152890f, 0.124760f, -0.180840f, 0.134590f, 0.078710f, 0.234830f, 0.046710f, 0.113950f, -0.048780f, -0.205470f, -0.207010f, -0.283560f, -0.033160f, 0.080780f, 0.061320f, 0.136000f, 0.000750f, -0.207230f, 0.165890f, -0.209420f, 0.093430f, -0.006870f, 0.054580f, 0.291130f, 0.045530f, -0.204390f, 0.219160f, -0.002920f, -0.212160f, -0.248890f, 0.266490f, -0.130890f, -0.252080f, 0.117540f, 0.085670f, 0.057830f, -0.068430f, 0.205320f, -0.238170f, 0.267680f, 0.236130f, -0.015840f, 0.269870f, -0.027140f, -0.123050f, -0.000240f, 0.087710f, -0.008300f, 0.037370f, 0.102610f, -0.140070f, 0.136860f, -0.098900f, -0.058900f, -0.220810f, -0.138980f, -0.109160f, -0.009700f, 0.223990f, -0.302950f, 0.118970f, 0.127050f, -0.004280f, -0.044420f, -0.221970f, -0.063480f, -0.187690f, -0.092750f, -0.247250f, 0.028250f, 0.074720f, 0.107520f, 0.191070f, 0.004870f, -0.220290f, -0.031870f, 0.040510f, 0.236060f, 0.298100f, -0.234520f, 0.255670f, -0.085340f, -0.171120f, -0.273620f, -0.063830f, -0.114810f, -0.264740f, 0.217230f, -0.287580f, 0.123440f, -0.280870f, 0.015270f, -0.218000f, -0.261130f, 0.351950f, -0.021920f, -0.029590f, -0.154130f, -0.038690f, -0.024920f, 0.243900f, -0.034900f, -0.120570f, 0.014130f, 0.272550f, -0.215060f, -0.027500f, -0.317050f, -0.249920f, 0.301000f, -0.121830f, -0.273620f, -0.226180f, -0.032510f, 0.152820f, -0.092260f, -0.188000f, 0.259820f, 0.090690f, 0.107770f, 0.181590f, 0.161940f, -0.161110f, -0.093150f, 0.252980f, 0.255520f, 0.072920f, 0.202270f, 0.067970f, 0.234520f, -0.125000f, -0.038950f, 0.074910f, -0.100510f, 0.272190f, 0.011280f, -0.091760f, 0.252600f, -0.203210f, -0.254970f, -0.244380f, 0.216650f, -0.289640f, 0.299960f, 0.042560f, 0.113260f, -0.135360f, -0.230390f, 0.084180f, 0.126320f, -0.072640f, 0.324490f, 0.030390f, -0.218250f, 0.009600f, 0.047830f, -0.261230f, 0.193870f, -0.229330f, -0.158100f, 0.159770f, 0.152210f, 0.227190f, -0.193230f, 0.173840f, -0.132540f, 0.280840f, -0.288230f, 0.161170f, -0.021310f, 0.130680f, 0.096580f, -0.280100f, 0.271600f, 0.188920f, -0.199220f, -0.035460f, 0.084810f, -0.004580f, 0.297800f, -0.258570f, 0.212960f, -0.289860f, -0.064930f, -0.213950f, 0.090680f, -0.137110f, -0.270730f, 0.044770f, 0.291660f, -0.224510f, 0.112660f, 0.181180f, 0.054760f, 0.075540f, 0.267690f, 0.203150f, 0.117770f, -0.155620f, 0.114990f, 0.194810f, -0.182210f, 0.131210f, -0.026570f, -0.014220f, 0.253730f, 0.169750f, 0.196730f, 0.239710f, -0.278770f, -0.111880f, -0.021710f, 0.108000f, 0.173070f, 0.178690f, 0.146630f, 0.289310f, 0.158060f, -0.179110f, -0.148590f, -0.222000f, -0.223960f, 0.185920f, 0.096990f, 0.027100f, -0.147410f, -0.228560f, -0.127570f, 0.201340f, 0.025140f, -0.145270f, 0.134510f, -0.222100f, 0.067450f, 0.122160f, -0.166090f, 0.299400f, 0.006070f, 0.242560f, -0.091660f, 0.167190f, 0.204740f, -0.215800f, 0.141820f, -0.033530f, 0.190460f, 0.039620f, -0.249280f, -0.132140f, 0.013910f, 0.083500f, -0.057400f, -0.145280f, -0.117790f, 0.085100f, -0.104900f, -0.294530f, -0.237440f, -0.018730f, -0.248870f, -0.192020f, -0.256980f, -0.271800f, 0.134280f, 0.187580f, -0.002280f, 0.120880f, 0.069490f, 0.175720f, -0.016170f, -0.025080f, -0.047990f, -0.174850f, -0.118260f, 0.010450f, -0.268550f, 0.121200f, -0.123230f, -0.022990f, -0.047670f, -0.190910f, -0.099850f, -0.234580f, -0.282550f, 0.169140f, -0.169300f, -0.004930f, 0.040500f, 0.281700f, 0.156290f, 0.063210f, -0.136170f, -0.075780f, 0.229810f, 0.220180f, 0.198040f, -0.239830f, -0.155530f, -0.046140f, 0.137240f, -0.200630f, -0.255320f, 0.182100f, 0.230470f, -0.266810f, 0.159720f, 0.157760f, 0.104250f, 0.290910f, -0.128850f, -0.017800f, 0.214450f, 0.135110f, -0.078830f, 0.123270f, 0.073880f, -0.013850f, -0.129340f, -0.141400f, 0.289360f, 0.259720f, -0.075410f, -0.129970f, -0.101340f, -0.018010f, 0.173760f, 0.079800f, -0.123390f, 0.132260f, 0.055590f, -0.082940f, -0.242070f, 0.130380f, 0.318150f, 0.097400f, -0.273700f, 0.042780f, 0.257740f, -0.274120f, 0.276460f, -0.027890f, -0.291570f, -0.285810f, -0.276870f, 0.136620f, 0.289400f, -0.212980f, 0.173010f, -0.246340f, -0.048690f, 0.335970f, -0.219570f, 0.300600f, 0.236610f, 0.216150f, 0.201340f, -0.215080f, 0.248230f, -0.281490f, 0.076790f, -0.021020f, 0.208760f, 0.176830f, 0.116080f, -0.098710f, -0.066640f, -0.290440f, -0.301320f, -0.305400f, -0.072060f, 0.320650f, -0.137420f, 0.119940f, 0.094220f, 0.227350f, -0.064110f, -0.149560f, 0.331510f, -0.066500f, 0.075160f, -0.213700f, -0.199720f, 0.295070f, -0.023150f, 0.138140f, -0.274750f, -0.150750f, 0.244050f, 0.065720f, 0.143690f, 0.134170f, 0.394720f, -0.140350f, -0.262490f, 0.188870f, 0.177390f, 0.121380f, -0.048490f, -0.095370f, -0.028370f, 0.038360f, -0.256660f, 0.037150f, 0.101720f, 0.003440f, 0.465570f, -0.042650f, 0.178340f, 0.241540f, -0.182470f, 0.316210f, 0.041830f, 0.202390f, 0.268490f, 0.030150f, -0.023000f, -0.288560f, -0.283160f, 0.196380f, 0.006480f, -0.030170f, -0.253860f, -0.127530f, 0.008040f, 0.200820f, 0.270830f, -0.244810f, 0.204160f, 0.160700f, 0.031480f, -0.227130f, 0.107420f, -0.238260f, -0.280710f, -0.107870f, 0.103370f, 0.201460f, 0.097770f, 0.096950f, 0.144360f, 0.151800f, 0.223820f, -0.247850f, 0.010100f, -0.032600f, 0.019170f, 0.037170f, 0.231890f, 0.302980f, 0.136930f, 0.090700f, 0.168160f, -0.259150f, -0.236610f, 0.152490f, -0.143620f, -0.106950f, -0.103060f, -0.043250f, 0.117920f, 0.210610f, 0.048950f, 0.131900f, 0.301670f, -0.267090f, 0.194500f, -0.178830f, 0.280990f, 0.202670f, -0.273100f, 0.137970f, 0.217060f, -0.153700f, 0.114110f, 0.292710f, 0.259400f, 0.194490f, -0.054200f, 0.185280f, -0.013160f, 0.287600f, -0.028450f, 0.217210f, -0.139690f, 0.013000f, -0.128130f, 0.170730f, -0.155760f, -0.181880f, 0.248700f, 0.034060f, 0.105380f, 0.152170f, 0.080150f, 0.072150f, 0.124350f, -0.198820f, -0.184850f, -0.137190f, 0.153430f, -0.114840f, 0.118940f, -0.215390f, 0.022770f, 0.236100f, 0.010380f, -0.112140f, 0.225870f, -0.254680f, -0.100970f, 0.040530f, -0.081650f, -0.166230f, -0.251220f, 0.255330f, 0.254810f, -0.072060f, 0.252840f, -0.210030f, -0.102220f, -0.006430f, -0.133860f, -0.199870f, -0.090880f, 0.299770f, -0.011710f, -0.106470f, 0.153770f, 0.075250f, -0.296790f, -0.180640f, -0.298880f, 0.113880f, -0.111680f, -0.297050f, 0.063230f, -0.236610f, 0.275260f, 0.274800f, 0.101380f, 0.156850f, -0.188660f, -0.089570f, -0.218560f, 0.217220f, -0.213280f, 0.164040f, 0.311890f, -0.089850f, -0.103170f, 0.048320f, 0.341330f, -0.166240f, -0.173500f, 0.342640f, 0.158540f, -0.127640f, 0.291360f, -0.041690f, -0.102350f, -0.301650f, 0.012920f, -0.038500f, -0.172960f, -0.178160f, 0.101480f, 0.042500f, -0.217290f, 0.289890f, -0.204810f, -0.183370f, 0.332650f, -0.064070f, -0.304760f, 0.242490f, -0.299110f, -0.244390f, -0.230350f, -0.101250f, -0.036040f, -0.132010f, 0.025730f, 0.004470f, 0.173390f, 0.069840f, -0.117430f, 0.047010f, -0.145690f, -0.300770f, 0.205670f, 0.291490f, -0.014810f, 0.280410f, 0.235290f, -0.128810f, -0.290150f, 0.176620f, 0.250750f, 0.246790f, 0.230970f, -0.171610f, 0.301880f, -0.138630f, -0.000500f, -0.042700f, 0.060260f, -0.096080f, -0.127590f, -0.138090f, 0.016860f, -0.084450f, -0.014180f, -0.092190f, -0.016730f, -0.214120f, 0.240130f, 0.160560f, -0.081850f, 0.236300f, -0.213190f, 0.016150f, 0.066180f, -0.087080f, -0.197740f, -0.127210f, -0.171600f, 0.295690f, 0.108190f, -0.303420f, 0.447890f, 0.124850f, 0.215840f, 0.163760f, 0.333930f, 0.243720f, 0.303120f, -0.074590f, -0.207110f, -0.109300f, -0.166670f, 0.028510f, -0.258880f, -0.131050f, -0.124940f, 0.071160f, 0.284620f, -0.237770f, 0.003580f, -0.019510f, 0.221830f, 0.100280f, 0.069380f, 0.095170f, -0.139500f, 0.160010f, 0.218920f, -0.256480f, -0.118070f, -0.187780f, 0.036330f, -0.248980f, -0.049670f, -0.093930f, 0.244900f, 0.023100f, 0.178570f, 0.070370f, 0.079040f, 0.122490f, -0.108840f, -0.207820f, 0.261740f, -0.036740f, 0.114300f, 0.087250f, -0.178770f, -0.050710f, 0.303920f, -0.009830f, -0.046530f, -0.077780f, -0.277220f, -0.047520f, -0.052020f, -0.225400f, 0.109130f, 0.046140f, 0.107660f, 0.193770f, 0.022710f, 0.188990f, 0.208020f, -0.284640f, -0.146210f, -0.091190f, -0.188540f, 0.188910f, -0.241370f, -0.232370f, 0.076080f, 0.041200f };
static const float growbox_environment_model_layer_2_biases[10] = { -0.001260f, -0.035980f, -0.051870f, -0.105340f, -0.143360f, -0.048760f, -0.061240f, -0.158160f, -0.089080f, -0.089460f };
static const float growbox_environment_model_layer_2_weights[320] = { -0.003970f, -0.305740f, 0.178440f, -0.104050f, 0.134330f, -0.367180f, 0.023260f, 0.338670f, 0.149080f, 0.369330f, -0.317850f, -0.292620f, -0.237840f, -0.515560f, 0.114110f, -0.335290f, -0.368540f, -0.079390f, 0.138560f, -0.229840f, -0.066730f, -0.170090f, 0.012160f, 0.010560f, -0.226470f, 0.140940f, -0.050990f, -0.182610f, 0.326750f, -0.008350f, -0.341170f, 0.045860f, 0.096380f, -0.395050f, 0.073230f, -0.185590f, -0.313230f, -0.185490f, -0.146960f, 0.184440f, 0.326510f, -0.362520f, -0.100250f, -0.258440f, -0.040780f, 0.195930f, 0.121970f, 0.230030f, 0.113400f, -0.015630f, 0.092950f, 0.160820f, -0.060980f, -0.019110f, -0.037510f, 0.046390f, -0.294260f, -0.097910f, 0.151310f, -0.185490f, -0.292960f, -0.096400f, -0.212200f, 0.209690f, -0.379260f, -0.271350f, -0.164340f, 0.250640f, -0.253350f, -0.300690f, 0.049740f, 0.245820f, -0.163830f, -0.108640f, 0.220630f, -0.189720f, -0.316890f, 0.306490f, 0.164990f, 0.296430f, -0.244570f, -0.194540f, 0.263250f, 0.265360f, 0.277190f, -0.401680f, -0.381200f, -0.409080f, 0.070890f, 0.108860f, -0.021550f, -0.076470f, 0.255800f, -0.014770f, 0.049780f, -0.164350f, -0.356210f, -0.039310f, 0.333790f, -0.260790f, -0.232540f, -0.199250f, -0.153200f, 0.082150f, -0.420340f, -0.336370f, -0.156520f, 0.068130f, -0.337920f, -0.441270f, 0.165840f, -0.264960f, -0.305360f, 0.165660f, 0.220770f, 0.100140f, -0.336840f, 0.279000f, 0.061050f, 0.233030f, -0.254550f, 0.226810f, -0.122740f, -0.279690f, 0.222770f, 0.275040f, -0.114950f, 0.319450f, -0.230730f, 0.367080f, -0.424230f, -0.265460f, -0.216890f, 0.010440f, 0.200980f, -0.337820f, -0.012480f, -0.526180f, 0.028240f, -0.430540f, -0.225570f, 0.201440f, 0.012600f, 0.318310f, 0.223520f, 0.337010f, -0.105440f, 0.102320f, -0.361990f, 0.034530f, 0.335650f, 0.091230f, 0.366590f, 0.082020f, -0.190220f, -0.195290f, -0.318830f, -0.037870f, 0.015180f, 0.180530f, -0.330120f, -0.100590f, -0.307740f, -0.419480f, -0.243490f, 0.242790f, -0.395190f, -0.051840f, -0.227770f, -0.385910f, -0.232340f, -0.182870f, 0.072460f, 0.336600f, -0.242660f, 0.241080f, 0.145270f, 0.105510f, -0.082290f, -0.259240f, -0.199910f, -0.166080f, -0.267940f, 0.126380f, -0.336270f, 0.226950f, -0.356800f, 0.064670f, -0.287060f, -0.172870f, -0.311080f, -0.075540f, 0.241010f, 0.284660f, 0.297190f, 0.174210f, -0.323530f, 0.343380f, 0.184290f, -0.290170f, -0.007380f, -0.172000f, -0.208480f, -0.344090f, 0.368370f, 0.368060f, -0.243560f, -0.145860f, 0.311610f, -0.030200f, -0.081420f, -0.045470f, -0.226840f, -0.249820f, -0.034290f, 0.330930f, -0.055560f, 0.018930f, -0.198790f, -0.195830f, -0.205020f, -0.277600f, -0.370090f, -0.098010f, 0.338000f, 0.204940f, 0.111020f, -0.123520f, 0.043030f, 0.290800f, -0.075140f, 0.194790f, 0.327440f, -0.250220f, -0.149530f, 0.111540f, 0.347450f, 0.204120f, 0.058020f, 0.329730f, 0.325680f, -0.025690f, -0.380320f, -0.226970f, -0.253450f, -0.057260f, -0.320980f, -0.443770f, -0.242670f, -0.134870f, 0.380210f, 0.317550f, -0.222420f, -0.062320f, -0.218100f, -0.092120f, 0.012460f, -0.089170f, -0.333720f, 0.227690f, 0.280610f, -0.012040f, 0.057340f, 0.425020f, -0.356740f, 0.196050f, -0.043520f, -0.004220f, -0.137720f, -0.362060f, 0.289480f, 0.178830f, 0.067020f, 0.320710f, -0.336110f, 0.175230f, 0.164180f, -0.463430f, -0.250730f, 0.116860f, 0.363400f, -0.081330f, -0.030790f, -0.206440f, 0.200270f, -0.122300f, 0.325320f, -0.274160f, 0.281010f, -0.177220f, -0.065050f, -0.313450f, -0.091500f, 0.015180f, 0.186900f, -0.339730f, 0.066040f, -0.284270f, -0.341440f, 0.337390f, -0.000070f, -0.354600f, -0.348170f, 0.198750f, -0.189210f, 0.182240f, -0.361110f, -0.013820f, -0.268720f, -0.020620f, 0.271010f, -0.256540f, -0.071800f, 0.141290f, -0.052650f, -0.022280f, -0.253960f, -0.084230f, -0.008120f, 0.127400f };
static float growbox_environment_model_buf1[103];
static float growbox_environment_model_buf2[103];
static const EmlNetLayer growbox_environment_model_layers[3] = {
{ 32, 103, growbox_environment_model_layer_0_weights, growbox_environment_model_layer_0_biases, EmlNetActivationRelu },
{ 32, 32, growbox_environment_model_layer_1_weights, growbox_environment_model_layer_1_biases, EmlNetActivationRelu },
{ 10, 32, growbox_environment_model_layer_2_weights, growbox_environment_model_layer_2_biases, EmlNetActivationLogistic } };
static EmlNet growbox_environment_model = { 3, growbox_environment_model_layers, growbox_environment_model_buf1, growbox_environment_model_buf2, 103 };

    int32_t
    growbox_environment_model_predict(const float *features, int32_t n_features)
    {
        return eml_net_predict(&growbox_environment_model, features, n_features);
    }


    int32_t
    growbox_environment_model_regress(const float *features, int32_t n_features, float *out, int32_t out_length)
    {
        return eml_net_regress(&growbox_environment_model, features, n_features, out, out_length);
    }


    float
    growbox_environment_model_regress1(const float *features, int32_t n_features)
    {
        return eml_net_regress1(&growbox_environment_model, features, n_features);
    }

namespace generated_model {

inline constexpr std::size_t kInputCount = 103U;
inline constexpr std::size_t kOutputCount = 10U;
inline constexpr char kSchemaHash[] = "160a87b17bef";
inline constexpr char kModelVersion[] = "environment-mlp-v1-v2-full-e74f14b74c07";
inline constexpr char kWeightHash[] = "e74f14b74c07";

inline bool infer(const float* features, float* outputs) {
    if (features == nullptr || outputs == nullptr) {
        return false;
    }
    return growbox_environment_model_regress(
        features,
        static_cast<int32_t>(kInputCount),
        outputs,
        static_cast<int32_t>(kOutputCount)) == EmlOk;
}

}  // namespace generated_model
