// Generated by python -m tools.ml.pipeline. Do not edit.
#pragma once

#include <cstddef>
#include <eml_net.h>

static const float growbox_environment_model_layer_0_biases[32] = { -0.011050f, 0.001940f, 0.000000f, 0.031870f, 0.008020f, 0.000000f, 0.000000f, 0.010260f, -0.004340f, 0.016440f, 0.000000f, 0.000000f, 0.000000f, -0.001110f, 0.000810f, 0.002480f, 0.000000f, 0.004050f, 0.000000f, 0.000000f, 0.022910f, 0.010480f, -0.008400f, 0.003530f, 0.011210f, 0.003920f, 0.000000f, -0.002640f, -0.003460f, 0.020270f, -0.008850f, 0.010580f };
static const float growbox_environment_model_layer_0_weights[4096] = { 0.183840f, -0.001960f, 0.033510f, -0.121390f, 0.195660f, -0.003260f, 0.013790f, -0.108350f, 0.095500f, -0.120620f, 0.020160f, -0.086430f, 0.046870f, 0.072850f, -0.145210f, -0.188660f, -0.120750f, 0.137640f, -0.106240f, 0.077970f, 0.111350f, 0.105580f, 0.073380f, -0.123570f, -0.095610f, 0.184620f, -0.143980f, -0.176010f, 0.026120f, 0.143330f, -0.075920f, -0.063720f, -0.139130f, -0.001250f, -0.124610f, -0.063280f, 0.027990f, 0.095030f, -0.155880f, -0.119510f, -0.190980f, 0.074590f, 0.002440f, -0.020620f, -0.185420f, 0.143830f, 0.107980f, -0.055700f, -0.037900f, -0.008650f, -0.054930f, -0.080050f, 0.207440f, -0.026860f, 0.176500f, 0.183790f, -0.110700f, -0.153300f, 0.054990f, -0.150210f, 0.175950f, -0.019220f, 0.086380f, 0.176260f, 0.005090f, 0.066100f, -0.070220f, 0.156000f, -0.190350f, -0.140730f, 0.034130f, -0.083530f, -0.070730f, -0.158950f, 0.007250f, -0.123300f, 0.135310f, -0.183750f, -0.179050f, -0.170740f, 0.172920f, -0.191200f, 0.031260f, -0.059040f, 0.123030f, -0.011100f, -0.057770f, 0.052960f, -0.153150f, 0.125210f, -0.172650f, 0.119710f, 0.140870f, 0.168920f, -0.077620f, 0.149890f, 0.114910f, -0.114750f, -0.122240f, 0.167220f, 0.107150f, -0.168400f, -0.059220f, -0.074220f, 0.139530f, -0.062930f, -0.135250f, -0.095630f, -0.072800f, 0.048720f, 0.010090f, -0.005910f, -0.142050f, -0.080260f, 0.005230f, -0.073290f, 0.168350f, 0.171060f, -0.153270f, -0.007040f, 0.189630f, 0.137620f, 0.063260f, -0.025020f, 0.123660f, 0.086190f, 0.105140f, 0.075030f, -0.096870f, 0.127520f, -0.012040f, 0.157870f, -0.021420f, -0.184510f, -0.175220f, 0.057940f, 0.179990f, -0.038600f, 0.033910f, -0.157950f, -0.120570f, -0.093140f, 0.165520f, -0.002780f, 0.077710f, -0.156380f, 0.061900f, 0.089880f, 0.187420f, 0.081170f, -0.145560f, -0.044420f, 0.076810f, -0.110210f, 0.024150f, 0.145660f, -0.173090f, 0.173780f, 0.068630f, 0.194230f, -0.033340f, 0.048770f, -0.051390f, -0.020380f, -0.160000f, -0.061270f, 0.166420f, 0.045260f, -0.030600f, 0.145420f, 0.147000f, -0.140350f, -0.060540f, -0.067870f, -0.118650f, 0.080680f, 0.051260f, 0.136640f, 0.134140f, -0.186450f, -0.135460f, 0.125080f, 0.154580f, 0.073000f, 0.171370f, 0.091520f, -0.148310f, 0.021210f, -0.125950f, 0.063880f, -0.042430f, 0.005280f, -0.094700f, 0.170620f, -0.014460f, 0.005910f, 0.172910f, -0.125680f, 0.115060f, 0.143150f, 0.049080f, -0.057070f, -0.042640f, -0.152520f, -0.060330f, -0.173690f, 0.033640f, 0.170880f, -0.156470f, 0.036620f, 0.148140f, 0.185600f, 0.069540f, 0.185360f, 0.170860f, 0.156940f, 0.088570f, 0.136480f, 0.160820f, 0.113040f, -0.095410f, 0.054330f, -0.004700f, 0.165850f, -0.112530f, 0.134780f, -0.060910f, -0.143880f, 0.148710f, -0.147690f, -0.124600f, -0.024140f, 0.118280f, 0.140690f, -0.190310f, 0.017720f, -0.000550f, -0.172270f, 0.143660f, 0.034630f, 0.035700f, 0.160020f, -0.080450f, -0.114480f, 0.048760f, 0.087820f, -0.137830f, -0.140140f, 0.053390f, -0.190550f, -0.137250f, 0.077640f, 0.174700f, -0.007120f, 0.021730f, -0.026400f, 0.101010f, -0.020280f, 0.060550f, -0.120700f, 0.135300f, 0.112850f, -0.120060f, -0.057660f, -0.167450f, 0.008010f, -0.052900f, -0.151240f, -0.184180f, -0.188550f, 0.139550f, -0.116540f, -0.005480f, -0.114610f, -0.070470f, -0.156420f, -0.030440f, 0.198580f, -0.044250f, -0.132430f, 0.051200f, 0.155510f, -0.048950f, 0.129940f, -0.061400f, -0.172280f, 0.021120f, 0.155400f, 0.114790f, 0.122830f, 0.090760f, -0.050010f, 0.008970f, -0.036620f, -0.027450f, 0.008820f, -0.178110f, -0.164400f, 0.102960f, 0.026580f, 0.108600f, -0.091020f, -0.057330f, -0.136730f, 0.172580f, 0.033680f, 0.046270f, -0.147450f, -0.147300f, -0.080990f, -0.054730f, -0.013090f, -0.036400f, 0.044370f, -0.059650f, 0.077810f, -0.042150f, 0.113440f, 0.105040f, 0.057460f, 0.131870f, -0.041590f, -0.031180f, 0.091830f, 0.153900f, 0.139010f, 0.130780f, 0.086020f, -0.045780f, -0.036960f, -0.193320f, -0.176280f, 0.148990f, 0.096320f, -0.139990f, -0.123210f, -0.134300f, 0.118530f, 0.018120f, 0.147440f, -0.096090f, 0.064980f, -0.022150f, -0.001750f, 0.007940f, 0.140190f, 0.078850f, 0.055420f, 0.090040f, 0.077740f, 0.124870f, -0.086030f, -0.009030f, -0.123440f, -0.013550f, 0.087170f, -0.104310f, -0.073280f, -0.109660f, -0.106020f, 0.019640f, -0.088200f, -0.147950f, -0.052670f, -0.149590f, -0.140780f, -0.048740f, 0.126940f, 0.047440f, 0.010610f, -0.014030f, -0.004200f, -0.067580f, -0.038370f, 0.072930f, 0.174100f, 0.202010f, -0.106900f, -0.138570f, 0.167370f, -0.018070f, -0.117530f, 0.084060f, 0.180770f, -0.011190f, 0.043750f, -0.184640f, 0.063630f, -0.014320f, 0.031800f, -0.037850f, -0.172870f, 0.046470f, -0.083070f, 0.021860f, -0.185660f, -0.174980f, 0.003290f, 0.040550f, 0.069250f, -0.097310f, 0.061570f, -0.051320f, 0.107500f, -0.119090f, 0.186190f, -0.131800f, -0.046720f, -0.067790f, -0.127100f, -0.176970f, -0.018680f, 0.100470f, 0.136000f, 0.074320f, -0.063550f, 0.087630f, -0.117530f, -0.037240f, 0.187840f, 0.170650f, -0.096720f, 0.052230f, 0.178250f, -0.185870f, -0.131410f, 0.106080f, 0.019820f, -0.130710f, 0.063040f, 0.109720f, -0.008000f, -0.134780f, -0.097230f, -0.002630f, -0.051910f, 0.156640f, 0.193330f, 0.057480f, 0.165770f, -0.069550f, -0.143590f, 0.131940f, -0.026360f, 0.076090f, -0.049360f, 0.086220f, -0.070650f, -0.101120f, 0.070270f, -0.174440f, -0.023580f, 0.138950f, 0.106110f, -0.178430f, -0.134290f, 0.063780f, -0.013000f, -0.050000f, 0.019910f, -0.111460f, -0.099400f, 0.070280f, -0.053680f, 0.086880f, -0.101960f, 0.102840f, -0.189330f, 0.044670f, 0.060080f, 0.012320f, 0.080830f, -0.113850f, 0.056410f, 0.105630f, -0.014230f, 0.095720f, 0.056690f, 0.019740f, 0.089550f, -0.050340f, -0.048400f, 0.039500f, 0.192350f, 0.148790f, 0.032400f, -0.000230f, 0.040240f, -0.083960f, -0.162220f, 0.192160f, -0.062880f, -0.050760f, 0.176110f, 0.021900f, -0.145940f, -0.175100f, -0.162060f, -0.138900f, -0.006670f, 0.123480f, -0.043740f, 0.105080f, -0.142100f, -0.071900f, 0.068440f, -0.160430f, -0.092530f, -0.152200f, 0.062880f, -0.100190f, -0.019140f, -0.139540f, -0.140350f, -0.177480f, 0.169480f, 0.018330f, -0.085370f, 0.115930f, -0.000310f, -0.084810f, 0.046800f, -0.022700f, 0.115390f, -0.125130f, -0.038980f, -0.139400f, 0.177830f, -0.010860f, -0.140500f, 0.164340f, 0.111940f, 0.043580f, -0.076000f, 0.145210f, -0.024570f, 0.123720f, 0.047040f, 0.175930f, 0.179170f, 0.040890f, -0.042600f, -0.178770f, 0.002810f, 0.168220f, 0.155470f, 0.022940f, 0.191590f, 0.184180f, -0.091150f, 0.182530f, 0.141860f, 0.187670f, 0.144720f, -0.087280f, 0.079850f, 0.031060f, -0.105000f, -0.025510f, 0.111040f, 0.066180f, 0.191180f, -0.150980f, -0.163050f, -0.059620f, -0.042720f, -0.104930f, 0.005220f, -0.055970f, 0.155460f, 0.008350f, 0.138610f, 0.155990f, 0.166910f, 0.124230f, -0.167210f, -0.086690f, -0.183110f, -0.121010f, -0.167710f, -0.072220f, 0.192080f, 0.107010f, 0.094710f, -0.080250f, 0.140240f, -0.131640f, -0.084180f, 0.155970f, 0.159430f, -0.039870f, -0.133020f, -0.174020f, -0.113150f, -0.054890f, 0.193130f, 0.002460f, -0.021480f, -0.036410f, -0.047180f, 0.188140f, 0.153690f, -0.091960f, -0.069950f, -0.177840f, -0.142470f, 0.117190f, 0.159830f, 0.120750f, 0.191310f, -0.075800f, -0.104480f, 0.171670f, -0.063240f, -0.155320f, 0.126360f, -0.118810f, -0.142750f, 0.122100f, 0.091160f, -0.040510f, -0.033440f, -0.069990f, 0.019990f, 0.070460f, -0.182170f, -0.070160f, -0.026640f, 0.188070f, -0.098050f, 0.153180f, 0.104660f, 0.134900f, 0.165780f, -0.051460f, 0.166900f, 0.189220f, 0.137380f, -0.056710f, 0.166260f, 0.049600f, 0.036500f, 0.076150f, 0.123050f, -0.182010f, 0.145700f, -0.131220f, 0.187750f, 0.014700f, 0.189460f, -0.130530f, -0.106160f, -0.167490f, -0.063370f, -0.122610f, -0.151700f, 0.049020f, 0.050160f, -0.168100f, 0.102150f, 0.087320f, 0.089120f, -0.024000f, 0.062720f, -0.171080f, 0.182220f, -0.054030f, 0.113650f, -0.095780f, 0.105470f, 0.117010f, 0.054840f, 0.041050f, -0.012710f, -0.013170f, -0.173830f, 0.115220f, 0.000290f, -0.153570f, 0.045130f, -0.045400f, -0.132780f, -0.053600f, 0.170550f, -0.037480f, 0.083540f, -0.035570f, -0.157500f, 0.154510f, 0.163560f, -0.047420f, 0.145610f, 0.118050f, 0.036440f, 0.186350f, 0.110290f, -0.015070f, 0.184260f, 0.004710f, 0.159160f, -0.189100f, 0.192870f, 0.063860f, -0.033170f, -0.117970f, -0.039670f, 0.017960f, 0.070970f, 0.020940f, 0.147660f, -0.061640f, -0.001320f, 0.136150f, 0.165980f, -0.178650f, -0.062940f, 0.070090f, -0.040280f, 0.150820f, 0.092510f, 0.094120f, 0.093020f, -0.184580f, -0.059980f, -0.027820f, 0.151590f, -0.150780f, 0.150870f, -0.159180f, -0.016470f, 0.055400f, -0.055000f, -0.102680f, 0.179800f, -0.091400f, -0.050590f, -0.083680f, 0.132200f, 0.114640f, -0.037090f, 0.119390f, 0.062490f, 0.158390f, 0.109220f, -0.066850f, -0.109110f, 0.120940f, 0.179460f, -0.109430f, -0.043340f, -0.181940f, 0.061230f, -0.143450f, -0.123180f, 0.190740f, -0.055340f, -0.063750f, -0.020930f, 0.105860f, 0.164960f, 0.073060f, 0.035370f, -0.159910f, -0.171710f, -0.000380f, 0.024220f, -0.088830f, 0.082850f, 0.112650f, 0.110850f, -0.093060f, 0.064780f, 0.153660f, -0.016060f, -0.062430f, 0.070350f, -0.052560f, 0.097730f, -0.075490f, -0.178030f, -0.032330f, 0.117740f, -0.151790f, -0.156890f, -0.103070f, 0.051000f, 0.113950f, -0.014520f, 0.157070f, 0.017490f, -0.167510f, -0.098310f, 0.167490f, -0.002780f, 0.085150f, -0.191830f, 0.000930f, -0.017220f, -0.148610f, -0.161390f, 0.103650f, -0.077970f, 0.167750f, 0.090680f, -0.082960f, 0.168760f, 0.087500f, 0.141890f, -0.009810f, 0.201330f, 0.012320f, -0.089590f, -0.157140f, 0.115810f, 0.093000f, -0.102900f, 0.133310f, 0.098630f, 0.045710f, -0.142600f, 0.073000f, 0.031840f, -0.017640f, -0.155240f, -0.096180f, -0.167630f, 0.013890f, -0.008850f, -0.015520f, -0.023620f, -0.146440f, 0.123570f, 0.045840f, 0.019350f, -0.023000f, 0.139110f, -0.133140f, 0.073200f, -0.071840f, 0.068340f, 0.074920f, -0.099360f, -0.191910f, 0.006570f, -0.064190f, -0.170170f, -0.053810f, 0.003940f, -0.080720f, -0.051210f, 0.002680f, -0.136400f, 0.078710f, -0.078980f, 0.163190f, 0.099590f, -0.061770f, 0.015870f, 0.074010f, 0.174480f, -0.020170f, 0.103280f, -0.126850f, 0.193780f, -0.030210f, 0.057520f, 0.010680f, 0.174950f, -0.088640f, 0.005410f, 0.049320f, 0.189930f, 0.029290f, 0.089860f, 0.167700f, -0.152280f, 0.022260f, 0.173830f, -0.097200f, -0.055610f, 0.027670f, -0.176350f, -0.168110f, -0.037900f, 0.116090f, 0.188450f, 0.086540f, -0.163540f, 0.179520f, 0.092990f, 0.051370f, 0.184140f, 0.035560f, -0.188410f, 0.025800f, -0.104830f, -0.182430f, -0.123470f, -0.016140f, 0.160530f, -0.187900f, 0.021460f, 0.061190f, -0.121160f, 0.155410f, -0.004610f, -0.053410f, -0.088020f, 0.179460f, -0.122560f, 0.173640f, 0.133840f, -0.077070f, 0.150040f, -0.106230f, -0.086150f, -0.061450f, 0.121980f, -0.147840f, -0.022930f, 0.038630f, 0.014480f, -0.078870f, -0.119280f, -0.109900f, 0.129630f, 0.171780f, -0.182140f, -0.028120f, 0.131060f, -0.082210f, 0.064610f, 0.003230f, 0.180810f, -0.184780f, -0.081730f, 0.025420f, 0.121630f, 0.191980f, -0.095170f, 0.117490f, 0.113300f, -0.110750f, 0.170450f, 0.092490f, 0.187040f, 0.014320f, 0.138650f, -0.013040f, -0.182040f, 0.079390f, -0.093490f, -0.119770f, -0.077430f, 0.171830f, 0.058400f, 0.145140f, -0.165920f, 0.143290f, -0.164800f, 0.166760f, 0.162520f, 0.022980f, 0.181680f, -0.150940f, 0.163630f, 0.183980f, 0.173740f, -0.068890f, 0.001090f, -0.037050f, 0.110090f, 0.126680f, 0.041380f, 0.182350f, 0.173500f, -0.035840f, 0.046600f, 0.020460f, -0.109370f, -0.159510f, 0.030950f, 0.069210f, -0.051250f, -0.140140f, -0.059230f, 0.047620f, -0.110840f, 0.002880f, 0.196390f, -0.179080f, 0.012520f, -0.147080f, -0.154540f, 0.146570f, -0.020380f, 0.026080f, 0.137310f, -0.129880f, -0.112050f, 0.012710f, -0.110970f, -0.045470f, 0.191990f, -0.188750f, -0.051870f, -0.052870f, 0.142250f, 0.064160f, 0.159070f, -0.135790f, -0.171150f, 0.043060f, -0.172060f, 0.176360f, -0.095000f, -0.173090f, -0.185410f, 0.075090f, 0.123930f, -0.116680f, -0.052560f, 0.124010f, 0.143420f, -0.126610f, -0.030380f, -0.068260f, 0.195390f, 0.166430f, -0.082270f, -0.115450f, -0.100070f, -0.141510f, -0.097290f, -0.108160f, 0.091410f, -0.079700f, -0.145230f, -0.150690f, 0.070730f, 0.113930f, 0.130510f, 0.086410f, 0.019370f, 0.083640f, 0.158160f, -0.038230f, 0.042700f, 0.072140f, 0.085540f, -0.116860f, -0.134700f, 0.166020f, 0.108470f, 0.096840f, -0.033990f, -0.047510f, 0.118890f, 0.125720f, -0.082630f, -0.181150f, 0.136880f, 0.169780f, -0.165610f, 0.145310f, 0.114160f, -0.024930f, 0.013000f, -0.169810f, 0.038540f, -0.188960f, -0.056700f, -0.119250f, 0.045970f, -0.126790f, -0.123480f, -0.061510f, 0.127290f, -0.153690f, -0.082750f, 0.076660f, 0.177070f, 0.140030f, 0.025660f, 0.148510f, 0.031810f, -0.044280f, 0.053900f, 0.118110f, 0.041600f, 0.070260f, -0.015280f, -0.156820f, -0.107710f, -0.056730f, -0.009500f, 0.110980f, 0.028340f, -0.113890f, -0.060600f, 0.085670f, -0.052500f, 0.046600f, 0.031630f, 0.123550f, -0.090490f, -0.156730f, 0.102140f, 0.141050f, -0.123220f, 0.164240f, -0.059730f, 0.063990f, -0.130940f, 0.040800f, 0.142130f, -0.040670f, -0.053200f, -0.108660f, 0.002060f, 0.028600f, 0.086500f, 0.051580f, -0.121660f, 0.108920f, 0.178160f, 0.099980f, 0.135000f, 0.159940f, -0.156030f, -0.157660f, -0.091150f, 0.144550f, -0.146640f, -0.089060f, 0.046710f, -0.041850f, 0.000360f, -0.172730f, -0.163800f, 0.148750f, 0.113060f, 0.085210f, -0.168630f, -0.075770f, 0.031520f, -0.081640f, 0.121810f, 0.010140f, -0.069990f, 0.028160f, 0.166320f, 0.005890f, 0.123710f, -0.060840f, -0.032190f, -0.019860f, -0.167230f, -0.052320f, 0.027980f, -0.124090f, -0.139970f, -0.092290f, -0.147090f, 0.187800f, 0.088780f, 0.054710f, -0.038390f, -0.104070f, -0.049100f, -0.178090f, 0.130690f, 0.002520f, -0.026570f, -0.025530f, 0.084270f, -0.167580f, -0.002510f, -0.007120f, 0.142910f, -0.131980f, 0.172320f, 0.019440f, 0.042700f, 0.148480f, -0.100440f, 0.105010f, -0.068380f, 0.012220f, -0.128950f, -0.084480f, -0.115020f, 0.066680f, 0.012620f, -0.186840f, 0.139210f, 0.165210f, -0.163720f, -0.190130f, 0.147100f, 0.174980f, -0.153210f, 0.041280f, -0.023740f, 0.177790f, -0.075630f, 0.180890f, 0.081450f, 0.169010f, -0.092180f, -0.002390f, 0.078460f, 0.099830f, -0.125700f, -0.038980f, 0.120970f, 0.171890f, 0.068470f, -0.166720f, -0.062840f, -0.000830f, 0.022200f, -0.122860f, -0.161100f, 0.132000f, 0.145350f, -0.163570f, -0.110500f, -0.073980f, -0.109690f, 0.138040f, 0.001660f, -0.070930f, 0.181220f, -0.064690f, 0.144890f, -0.121860f, -0.192440f, -0.190730f, 0.062630f, 0.022410f, 0.106330f, 0.131720f, -0.091810f, 0.117470f, -0.151070f, -0.193920f, 0.086380f, 0.042680f, -0.064080f, 0.118930f, 0.208220f, 0.135550f, 0.002850f, -0.024950f, 0.196750f, 0.182710f, 0.134790f, 0.108730f, -0.136620f, 0.091270f, 0.177350f, 0.104440f, 0.192100f, -0.070820f, 0.118160f, 0.040850f, 0.066880f, 0.083250f, -0.035120f, -0.165700f, 0.189210f, -0.100610f, -0.111740f, -0.023890f, 0.011640f, -0.137440f, 0.186210f, -0.065280f, -0.177420f, -0.041470f, 0.004530f, 0.147020f, 0.135150f, 0.082100f, 0.174290f, 0.089530f, 0.084650f, 0.026020f, -0.186750f, 0.192770f, -0.017700f, 0.003300f, -0.154480f, 0.174580f, 0.173320f, -0.133210f, 0.160740f, 0.110530f, 0.029720f, -0.192340f, 0.174090f, 0.134890f, -0.115310f, -0.084240f, -0.005350f, -0.073270f, 0.098830f, -0.133330f, 0.135770f, 0.037180f, -0.007100f, -0.113510f, 0.073710f, -0.154820f, 0.019110f, 0.159350f, -0.049470f, 0.116380f, -0.160060f, -0.104970f, -0.086230f, -0.154710f, 0.118880f, -0.140090f, 0.101760f, 0.091960f, 0.136230f, -0.043610f, 0.098920f, -0.165480f, -0.169470f, 0.179560f, -0.156480f, 0.108560f, 0.011450f, -0.150860f, -0.103750f, 0.070610f, 0.011460f, 0.180790f, -0.158750f, 0.016170f, -0.157480f, 0.128560f, -0.186110f, 0.022580f, 0.122140f, 0.088790f, 0.090680f, 0.011070f, 0.115580f, -0.146370f, 0.118490f, -0.116370f, -0.158390f, -0.004540f, 0.036350f, 0.090100f, -0.063010f, 0.050850f, -0.134220f, -0.181990f, -0.174210f, -0.163180f, -0.108220f, 0.157440f, 0.188480f, 0.034650f, 0.066690f, -0.182880f, 0.152010f, -0.179480f, 0.186010f, 0.098580f, 0.035390f, -0.189620f, -0.080040f, -0.079660f, 0.085480f, -0.089170f, -0.193150f, -0.077790f, 0.113790f, 0.063970f, 0.043150f, -0.134200f, -0.015940f, -0.051390f, -0.112250f, 0.128150f, 0.061280f, -0.023330f, -0.128910f, 0.172370f, 0.059410f, 0.089570f, 0.154210f, 0.094120f, -0.051490f, 0.099580f, 0.096080f, -0.181550f, 0.053650f, -0.063580f, 0.113480f, -0.098960f, 0.041720f, 0.132110f, 0.072460f, 0.155350f, -0.076360f, 0.071860f, 0.098860f, 0.043100f, -0.178030f, 0.089730f, -0.097290f, -0.162000f, -0.064460f, 0.030850f, 0.102960f, 0.016010f, -0.045290f, -0.148660f, -0.025160f, 0.045720f, 0.022830f, -0.132200f, 0.003780f, -0.097440f, -0.185620f, -0.158620f, -0.056500f, -0.193080f, 0.042160f, 0.053880f, 0.046950f, 0.005690f, 0.180800f, -0.161990f, 0.162060f, -0.146620f, -0.074380f, 0.039980f, 0.079450f, 0.046490f, 0.110660f, -0.126110f, 0.039760f, -0.019480f, 0.042910f, 0.108280f, 0.111340f, -0.101700f, -0.122730f, 0.182150f, 0.156470f, 0.006840f, -0.065180f, 0.205900f, 0.016230f, 0.104970f, 0.071150f, -0.121970f, 0.035440f, -0.063820f, 0.023030f, -0.173340f, -0.034130f, -0.113480f, 0.044010f, 0.173450f, 0.192320f, -0.032540f, -0.190780f, 0.021910f, -0.079350f, -0.055880f, 0.035790f, -0.186930f, -0.173690f, 0.136310f, -0.068610f, 0.155690f, 0.081750f, -0.026830f, 0.016710f, -0.095410f, 0.040800f, -0.005900f, 0.147580f, 0.131230f, 0.167260f, -0.096710f, 0.108450f, 0.092390f, -0.150290f, -0.110120f, 0.070070f, -0.059910f, 0.031230f, 0.135260f, -0.041400f, -0.097230f, -0.166480f, -0.160360f, -0.057070f, 0.199800f, -0.143520f, 0.180650f, 0.112440f, -0.102120f, -0.093020f, -0.180960f, 0.091070f, -0.149170f, 0.160800f, 0.174810f, 0.063720f, -0.136120f, -0.187290f, -0.032500f, 0.103610f, 0.034440f, -0.024130f, -0.054520f, 0.052950f, 0.147550f, -0.057360f, -0.131360f, 0.028190f, -0.179630f, -0.072580f, -0.065180f, -0.074820f, 0.056280f, -0.185510f, -0.090230f, -0.107090f, 0.131440f, 0.030590f, 0.104910f, 0.028400f, -0.166700f, -0.104380f, 0.095320f, -0.030400f, 0.047030f, 0.160380f, -0.004970f, -0.054520f, 0.135150f, 0.052450f, 0.049130f, -0.178710f, 0.052710f, -0.154320f, 0.108650f, -0.131240f, -0.096220f, -0.017810f, -0.102180f, -0.186670f, -0.190100f, 0.185520f, 0.148130f, 0.096620f, -0.041160f, -0.171460f, -0.048570f, -0.039200f, 0.016290f, -0.184880f, -0.193560f, 0.078400f, 0.095530f, 0.156680f, -0.134920f, -0.030870f, 0.181280f, 0.082400f, -0.178700f, -0.021770f, -0.096390f, -0.088240f, -0.098540f, -0.155580f, 0.098830f, 0.106690f, 0.068750f, 0.066010f, -0.125980f, 0.058680f, -0.010860f, 0.083410f, -0.096220f, 0.179640f, -0.104830f, -0.114340f, 0.128570f, -0.095310f, -0.134450f, -0.104830f, -0.135460f, -0.004670f, -0.113460f, -0.087940f, -0.118500f, 0.038900f, -0.141300f, 0.174730f, -0.191770f, 0.062610f, 0.121030f, -0.178990f, -0.124380f, 0.156670f, 0.046960f, -0.033610f, 0.133430f, 0.081480f, -0.174420f, -0.186820f, 0.121800f, -0.067110f, 0.012260f, 0.014840f, 0.033110f, 0.065840f, -0.050370f, 0.013000f, 0.171600f, 0.132970f, 0.068170f, 0.067430f, -0.091530f, -0.183070f, -0.181610f, -0.177410f, 0.146310f, 0.190260f, 0.097000f, -0.147310f, 0.091530f, 0.172770f, -0.038630f, 0.039470f, -0.128920f, 0.124320f, 0.036080f, -0.065260f, -0.157090f, -0.164440f, 0.105830f, -0.137290f, -0.014340f, 0.094320f, -0.168860f, 0.014640f, 0.119390f, -0.102210f, -0.158490f, 0.091440f, 0.165530f, 0.136810f, -0.082100f, 0.158500f, -0.148180f, 0.073490f, 0.124740f, -0.047120f, -0.034060f, -0.073830f, 0.116590f, -0.097550f, -0.190580f, -0.070450f, -0.042750f, 0.188180f, -0.006910f, 0.151760f, -0.144010f, 0.104010f, -0.025120f, -0.176210f, 0.117980f, -0.100880f, -0.152280f, 0.109800f, -0.110690f, 0.039870f, 0.158960f, 0.161540f, 0.071510f, 0.047600f, -0.048090f, -0.073700f, -0.035820f, -0.070700f, 0.073870f, 0.155680f, 0.017380f, 0.015700f, -0.140710f, 0.002940f, 0.126320f, -0.011900f, 0.059320f, -0.122950f, 0.111740f, 0.172660f, -0.062120f, -0.166590f, -0.094920f, 0.176540f, -0.169650f, 0.065180f, 0.062500f, 0.171970f, 0.105700f, 0.004400f, -0.110360f, -0.119760f, -0.151350f, 0.054230f, -0.019030f, 0.160000f, -0.125820f, 0.004400f, -0.155070f, 0.172530f, 0.047270f, 0.146210f, -0.099790f, -0.126890f, 0.061100f, 0.154730f, -0.187130f, -0.127100f, 0.067160f, -0.057780f, -0.132220f, 0.101500f, -0.072580f, 0.030720f, -0.081110f, -0.181390f, -0.178560f, 0.052630f, -0.080720f, 0.169210f, 0.034150f, -0.124140f, -0.093700f, 0.146300f, -0.105470f, -0.152170f, 0.012850f, -0.046840f, -0.094400f, 0.166980f, 0.121870f, -0.014650f, -0.056410f, 0.078870f, -0.057720f, 0.001220f, 0.016850f, 0.178920f, -0.129170f, 0.053150f, 0.035360f, 0.001180f, -0.048510f, 0.045920f, 0.186770f, 0.013620f, -0.185630f, 0.133610f, -0.121700f, 0.099500f, -0.120410f, -0.120020f, -0.010820f, 0.006840f, 0.160900f, -0.034220f, -0.081410f, -0.152040f, -0.002670f, -0.048660f, -0.151020f, -0.159820f, -0.047380f, -0.066070f, 0.156410f, -0.017170f, 0.191550f, 0.013660f, -0.001250f, -0.168020f, -0.067650f, 0.027940f, 0.081680f, -0.180130f, 0.082090f, -0.124390f, -0.141410f, -0.065090f, 0.107670f, -0.034520f, 0.087290f, -0.086270f, -0.086990f, 0.091350f, -0.164210f, -0.124460f, 0.153280f, -0.073810f, -0.187960f, 0.179930f, -0.189140f, -0.019630f, 0.088330f, -0.101620f, -0.097740f, -0.132920f, -0.026580f, 0.056870f, -0.188680f, -0.164930f, -0.003020f, -0.136260f, 0.096970f, -0.081830f, 0.132430f, -0.042260f, -0.190300f, 0.171380f, -0.136450f, -0.150340f, 0.009210f, -0.070300f, -0.048980f, 0.079950f, -0.004000f, 0.113680f, 0.011040f, -0.067000f, 0.093970f, -0.155810f, -0.127840f, 0.028520f, -0.083750f, -0.043750f, -0.125300f, -0.131330f, -0.193570f, -0.124530f, -0.044140f, 0.033560f, 0.160530f, -0.173540f, 0.096180f, -0.028890f, 0.095320f, 0.011540f, 0.152200f, -0.101530f, 0.167700f, 0.088600f, -0.154300f, 0.090210f, -0.188190f, -0.096970f, -0.025340f, -0.076430f, 0.078280f, -0.190890f, 0.126830f, 0.005790f, 0.193040f, -0.072330f, 0.131860f, 0.169980f, 0.173210f, 0.035490f, -0.178100f, -0.062430f, 0.077760f, -0.065000f, -0.017150f, 0.118820f, -0.139410f, -0.134630f, -0.194150f, 0.005170f, -0.082500f, 0.056650f, 0.028140f, -0.009250f, 0.059830f, -0.073030f, -0.154040f, -0.168280f, 0.096360f, 0.086040f, -0.038230f, 0.072090f, -0.154290f, -0.021370f, 0.040710f, -0.134970f, -0.039640f, 0.148970f, 0.127390f, 0.126870f, -0.042160f, -0.023420f, -0.035210f, 0.151730f, 0.032920f, -0.091290f, 0.191730f, -0.150460f, -0.152440f, -0.092710f, 0.096720f, 0.075910f, 0.025400f, 0.003380f, -0.088710f, -0.116980f, -0.104030f, -0.082070f, -0.145850f, -0.104020f, 0.118800f, 0.029440f, -0.014380f, 0.113350f, 0.013620f, 0.134690f, -0.056160f, -0.101910f, 0.101900f, -0.095410f, -0.093410f, -0.060560f, 0.106400f, -0.017920f, -0.018580f, 0.187410f, 0.028350f, -0.117310f, -0.027870f, 0.144890f, 0.036430f, 0.070320f, -0.095430f, 0.176500f, -0.166630f, 0.074070f, -0.132310f, 0.039940f, -0.165710f, -0.146080f, 0.059090f, -0.091070f, 0.043440f, 0.027010f, 0.111910f, -0.076970f, 0.039490f, 0.143200f, -0.168710f, -0.046750f, -0.045240f, 0.013350f, -0.138220f, -0.062280f, -0.152490f, 0.008760f, 0.130060f, 0.021550f, 0.108070f, 0.097210f, 0.086910f, -0.175220f, -0.074200f, -0.121090f, -0.065380f, -0.003800f, 0.044990f, -0.077050f, -0.052010f, 0.146780f, 0.124120f, -0.008580f, 0.163380f, 0.071830f, -0.036970f, 0.081380f, -0.088740f, -0.057610f, -0.064090f, 0.102600f, -0.177970f, -0.045880f, -0.171020f, -0.005100f, 0.122860f, 0.166880f, 0.092540f, 0.008350f, -0.029020f, -0.051050f, 0.183540f, -0.175850f, -0.166900f, -0.062460f, -0.027610f, 0.132660f, 0.166630f, -0.078590f, -0.053340f, 0.160570f, 0.013960f, -0.017640f, -0.167120f, -0.067920f, -0.068090f, 0.010820f, -0.051150f, -0.109980f, -0.174010f, -0.012490f, -0.090460f, -0.040410f, -0.145170f, 0.075910f, -0.138850f, 0.170810f, -0.053020f, -0.079420f, -0.016460f, 0.022910f, 0.000280f, 0.133770f, 0.035030f, 0.178100f, -0.143450f, 0.181980f, 0.162140f, -0.051650f, 0.090830f, -0.113780f, -0.174460f, 0.185870f, -0.038410f, -0.151170f, -0.124090f, 0.179210f, -0.136310f, -0.034900f, -0.015500f, -0.132610f, -0.044820f, -0.006080f, -0.047020f, 0.117330f, 0.064360f, 0.036110f, 0.186090f, 0.124910f, -0.189840f, -0.181090f, 0.129130f, 0.004130f, -0.122190f, -0.055750f, -0.165050f, 0.111170f, -0.123770f, 0.078590f, 0.171100f, -0.148980f, -0.082750f, -0.020060f, 0.069550f, -0.138220f, 0.150620f, -0.119880f, -0.033180f, -0.160040f, 0.149570f, 0.033880f, -0.193510f, 0.168370f, -0.158820f, -0.044940f, 0.167250f, -0.034500f, 0.169980f, -0.081900f, -0.121760f, -0.141210f, -0.005470f, 0.053740f, -0.095800f, -0.192920f, -0.052320f, -0.008470f, 0.103660f, -0.074680f, 0.053240f, -0.037480f, -0.092580f, 0.164850f, 0.125540f, -0.104460f, -0.079280f, -0.132580f, 0.110190f, -0.041150f, -0.093990f, 0.141810f, 0.061460f, 0.169140f, -0.067480f, 0.102170f, 0.052000f, 0.122550f, 0.119640f, 0.190780f, -0.075070f, 0.162200f, 0.047200f, 0.086040f, 0.104210f, 0.186620f, 0.072870f, 0.001050f, -0.092290f, -0.171630f, 0.057280f, -0.169240f, -0.124220f, -0.113700f, -0.118810f, 0.170850f, -0.011290f, 0.165800f, -0.055270f, 0.178860f, 0.031490f, 0.117520f, -0.010140f, 0.138300f, -0.104410f, -0.053180f, 0.009840f, 0.084770f, -0.045460f, -0.021900f, -0.127110f, -0.135920f, 0.086690f, -0.016860f, -0.097220f, -0.031240f, 0.187110f, 0.061440f, -0.183870f, -0.066780f, -0.030360f, 0.012260f, -0.102670f, -0.184240f, -0.169330f, -0.072890f, 0.091540f, 0.066730f, 0.068150f, -0.159140f, -0.034940f, 0.113890f, -0.036340f, -0.058770f, 0.178240f, -0.116930f, 0.001750f, -0.155790f, 0.115610f, 0.178650f, -0.044660f, 0.185740f, 0.050050f, -0.028760f, 0.109610f, -0.140220f, -0.088090f, 0.125250f, -0.050940f, -0.040300f, -0.082380f, -0.114260f, -0.111330f, -0.010590f, 0.113460f, -0.018720f, 0.130200f, 0.158800f, -0.065510f, -0.054100f, 0.061730f, -0.151960f, 0.119880f, -0.013320f, 0.169140f, 0.161490f, 0.043130f, 0.102110f, 0.170540f, -0.005280f, -0.051430f, -0.130970f, -0.019140f, 0.028840f, 0.048930f, 0.047870f, 0.136580f, -0.096560f, -0.039140f, -0.142790f, 0.137140f, -0.137440f, 0.191180f, 0.093320f, -0.072750f, 0.012750f, -0.118790f, 0.098280f, 0.117810f, 0.156510f, 0.117400f, 0.001090f, 0.067680f, -0.133700f, 0.179330f, -0.131760f, 0.001150f, -0.093220f, -0.185210f, 0.139500f, 0.154670f, -0.177100f, -0.123260f, 0.131380f, -0.018730f, -0.082530f, 0.164730f, -0.084220f, -0.136500f, -0.047070f, -0.146190f, -0.129160f, 0.153470f, 0.049790f, -0.037030f, -0.015800f, 0.021330f, -0.174790f, -0.118930f, 0.087830f, -0.044630f, -0.082590f, -0.124140f, 0.173080f, -0.082380f, 0.080460f, 0.122020f, -0.076010f, -0.132710f, 0.094990f, 0.055420f, -0.128240f, -0.040080f, -0.001890f, 0.159270f, 0.123220f, 0.165210f, -0.187860f, -0.034690f, 0.167250f, 0.180010f, 0.057080f, -0.075080f, 0.057060f, -0.143790f, -0.046430f, 0.093160f, 0.133690f, 0.057430f, -0.096300f, 0.029340f, 0.066040f, -0.024960f, 0.000360f, -0.070790f, 0.161250f, -0.173220f, 0.106560f, 0.036630f, 0.117180f, -0.166540f, 0.026930f, -0.041740f, 0.155490f, -0.043640f, 0.074920f, -0.113100f, -0.006570f, -0.064900f, 0.029040f, 0.029950f, -0.044700f, 0.077800f, 0.070970f, 0.087140f, 0.175090f, 0.121050f, 0.013600f, -0.012170f, 0.104940f, 0.110780f, 0.119340f, 0.100020f, 0.043380f, 0.121970f, -0.056820f, 0.106600f, 0.058260f, 0.007160f, -0.111450f, -0.088380f, -0.111370f, -0.143630f, 0.126250f, 0.001950f, 0.024010f, -0.185790f, 0.155490f, 0.016400f, -0.059450f, 0.133140f, 0.059230f, 0.020160f, 0.137720f, 0.066400f, 0.137170f, -0.077960f, 0.161200f, 0.148300f, 0.006540f, 0.016730f, 0.080740f, 0.053340f, -0.118030f, -0.074460f, -0.126190f, -0.109050f, 0.069440f, 0.047200f, 0.123950f, 0.151980f, 0.065310f, -0.064030f, -0.186730f, 0.099970f, -0.010790f, -0.028270f, 0.099260f, 0.080720f, -0.024070f, -0.040730f, -0.164940f, -0.143120f, 0.001580f, 0.145340f, 0.148670f, 0.006670f, 0.087510f, -0.050820f, -0.063690f, -0.170730f, 0.093370f, -0.055910f, -0.152260f, -0.091250f, 0.092830f, -0.101990f, -0.010840f, 0.004750f, 0.150440f, 0.042710f, -0.104100f, 0.120760f, 0.037430f, 0.121090f, 0.080480f, 0.166620f, 0.089980f, -0.058870f, -0.037510f, 0.192650f, 0.137500f, 0.015080f, -0.156060f, 0.057200f, -0.100650f, -0.093580f, 0.170810f, -0.086790f, 0.114720f, -0.128020f, 0.051700f, 0.066470f, 0.081220f, 0.107340f, 0.011980f, 0.122960f, 0.187640f, 0.124600f, -0.158230f, -0.028390f, -0.019440f, -0.191180f, 0.131560f, -0.046800f, -0.058930f, 0.010710f, -0.021540f, 0.106520f, 0.140660f, 0.028350f, -0.137490f, -0.122360f, -0.076710f, -0.004850f, 0.089530f, -0.100940f, -0.074920f, 0.024700f, -0.128510f, 0.046980f, -0.105740f, 0.137070f, -0.086210f, 0.007380f, -0.142780f, 0.134480f, 0.123470f, 0.140630f, -0.121930f, -0.030790f, -0.146000f, 0.171950f, -0.038150f, 0.002310f, 0.185870f, -0.009520f, 0.111530f, 0.157210f, -0.093760f, 0.143840f, -0.087780f, 0.005840f, 0.092150f, 0.016370f, -0.111080f, 0.011230f, 0.176420f, -0.112190f, -0.109470f, -0.088410f, 0.018490f, 0.199590f, 0.005310f, -0.137300f, -0.082290f, -0.076020f, 0.049350f, 0.156310f, 0.001070f, 0.083170f, -0.000960f, -0.080450f, 0.142960f, -0.054170f, 0.041350f, -0.076460f, 0.168330f, -0.051330f, -0.042150f, 0.069810f, -0.043220f, 0.015650f, -0.014260f, -0.159550f, -0.068090f, 0.025530f, 0.049180f, -0.164900f, 0.187750f, -0.141710f, -0.119490f, 0.121180f, 0.174270f, 0.139330f, -0.098680f, -0.129800f, -0.117600f, 0.158540f, 0.005030f, 0.084350f, -0.137410f, 0.150750f, -0.155520f, -0.120430f, 0.077600f, -0.010110f, 0.035730f, 0.058480f, -0.124260f, 0.159430f, 0.043220f, -0.042260f, 0.034030f, -0.004410f, -0.103070f, 0.167270f, -0.111220f, -0.011450f, -0.042070f, 0.088190f, -0.034430f, 0.170140f, -0.179140f, 0.176380f, 0.001040f, 0.036860f, -0.120640f, -0.047450f, 0.092360f, 0.120350f, -0.027590f, 0.168190f, -0.022700f, 0.011970f, 0.000700f, -0.183860f, 0.029260f, -0.032900f, 0.060030f, 0.074080f, -0.001290f, 0.146480f, 0.162350f, -0.064730f, -0.037370f, -0.051030f, -0.097550f, 0.055430f, 0.192430f, 0.070080f, 0.093630f, -0.165720f, -0.152510f, 0.170600f, 0.154390f, 0.040110f, -0.058100f, 0.122290f, 0.132300f, -0.160250f, 0.074980f, -0.137240f, 0.052700f, -0.079900f, 0.113940f, 0.035430f, 0.007690f, 0.169200f, -0.187900f, 0.148480f, 0.066870f, 0.152530f, 0.147330f, 0.024090f, 0.103870f, 0.002720f, 0.142600f, -0.152890f, -0.130200f, -0.129200f, 0.051230f, -0.176680f, -0.188180f, 0.049540f, -0.020740f, -0.062240f, 0.099320f, 0.130230f, 0.106760f, 0.000740f, -0.010340f, -0.157260f, 0.007260f, 0.098780f, 0.116950f, -0.155120f, 0.192780f, -0.025740f, 0.071940f, -0.132310f, 0.102360f, -0.193120f, -0.147210f, 0.008780f, -0.115930f, -0.030820f, -0.157060f, 0.064860f, 0.030020f, 0.127090f, -0.153240f, -0.096030f, -0.099320f, -0.179910f, -0.104330f, -0.054440f, -0.111760f, -0.013050f, -0.053950f, 0.141660f, -0.138530f, -0.012940f, -0.009430f, 0.012400f, -0.056040f, -0.004060f, 0.154850f, 0.097250f, 0.122540f, -0.111360f, -0.098600f, -0.015020f, 0.120200f, 0.071060f, 0.029920f, 0.123420f, 0.115980f, -0.167130f, -0.117820f, -0.062520f, -0.079070f, 0.113900f, 0.060180f, 0.045490f, -0.127200f, 0.156170f, 0.075880f, 0.180370f, -0.024860f, 0.094740f, 0.190010f, -0.163620f, -0.124720f, -0.013270f, 0.144950f, -0.145110f, 0.165280f, -0.188160f, 0.007670f, 0.153300f, -0.057760f, -0.182820f, 0.034420f, 0.129860f, -0.052530f, 0.000970f, -0.046470f, 0.070340f, 0.015820f, 0.171040f, 0.011780f, -0.064020f, 0.055540f, 0.111560f, -0.130000f, 0.190970f, 0.177830f, 0.066890f, 0.136510f, 0.104720f, 0.188170f, -0.076550f, -0.060660f, 0.013820f, 0.076620f, 0.165830f, 0.020630f, 0.026420f, 0.104040f, -0.084420f, -0.189940f, 0.182350f, -0.092610f, 0.034080f, -0.066790f, 0.153230f, -0.076900f, -0.037220f, 0.134080f, -0.097870f, 0.087180f, 0.174470f, 0.171960f, -0.147210f, 0.032480f, -0.067280f, -0.139440f, 0.090670f, 0.164490f, -0.176190f, -0.087250f, 0.103800f, -0.155570f, 0.188700f, 0.086430f, 0.075620f, 0.116720f, 0.089830f, 0.055630f, -0.039690f, -0.147000f, 0.101640f, 0.023950f, -0.044990f, 0.035730f, -0.007900f, -0.138850f, 0.102730f, -0.144770f, -0.085510f, -0.034320f, 0.180300f, -0.007920f, 0.145020f, -0.176820f, -0.009760f, -0.152830f, -0.119220f, 0.082360f, -0.174110f, -0.188020f, -0.124030f, 0.126440f, -0.024720f, -0.076240f, 0.000430f, 0.148330f, 0.067920f, -0.102270f, 0.023610f, -0.011360f, -0.189420f, -0.110090f, 0.008840f, 0.100410f, 0.129280f, 0.159710f, -0.076470f, -0.185700f, 0.102240f, 0.086150f, -0.171650f, -0.026610f, 0.040870f, 0.116980f, -0.033300f, 0.163720f, 0.058640f, -0.036000f, -0.094450f, -0.081090f, 0.115240f, -0.134330f, -0.121370f, 0.145050f, -0.148840f, -0.076780f, -0.011090f, 0.087780f, -0.136640f, -0.159530f, -0.114880f, -0.190570f, 0.170840f, 0.105870f, -0.097830f, 0.185780f, 0.176790f, -0.066600f, -0.126890f, 0.070730f, 0.185490f, 0.106380f, -0.109960f, -0.155240f, -0.083560f, -0.170480f, 0.083990f, 0.017170f, -0.155360f, 0.042280f, 0.149310f, 0.028010f, 0.133120f, 0.004960f, 0.108760f, 0.086320f, -0.039530f, -0.124520f, 0.112820f, -0.160310f, -0.100190f, -0.026960f, -0.026500f, 0.119250f, -0.060200f, 0.102620f, 0.185640f, -0.048740f, 0.111970f, 0.117250f, -0.114200f, -0.006480f, 0.141930f, -0.067630f, -0.092130f, -0.047810f, 0.086870f, -0.042940f, -0.161130f, 0.124610f, 0.014280f, 0.193530f, 0.071130f, -0.013430f, -0.111990f, -0.026770f, -0.192930f, 0.120810f, -0.136360f, -0.085080f, -0.036700f, -0.016490f, -0.102840f, -0.177130f, -0.051360f, 0.142180f, -0.182600f, -0.027910f, 0.156770f, 0.127370f, 0.002270f, -0.134740f, -0.126030f, 0.029030f, 0.052250f, 0.078820f, 0.134630f, -0.034620f, 0.042470f, -0.085250f, 0.185900f, 0.174070f, 0.106660f, 0.144570f, 0.072510f, -0.100810f, -0.047210f, 0.144160f, 0.048480f, 0.112750f, -0.101510f, 0.012820f, -0.173410f, 0.169000f, -0.022070f, 0.012340f, 0.074000f, -0.032130f, -0.031420f, -0.131870f, -0.148970f, -0.019350f, 0.101690f, 0.080070f, -0.176560f, 0.092020f, 0.156620f, 0.144490f, 0.030540f, -0.103820f, -0.115680f, 0.064270f, -0.094950f, -0.096600f, -0.081900f, -0.163100f, 0.143290f, 0.030760f, -0.170840f, -0.020060f, 0.093880f, -0.105220f, -0.038040f, 0.149390f, -0.021750f, 0.127450f, 0.058050f, -0.134020f, -0.108110f, 0.131850f, -0.094660f, 0.115650f, 0.014940f, 0.191260f, 0.098120f, 0.137870f, -0.152760f, -0.114500f, 0.070190f, 0.145740f, 0.194390f, -0.083620f, -0.130450f, -0.014810f, -0.009680f, 0.188100f, -0.005030f, 0.088770f, -0.092340f, -0.006950f, -0.180640f, -0.113450f, 0.103470f, 0.170960f, 0.164400f, 0.007520f, -0.150100f, 0.078270f, 0.122080f, -0.128480f, -0.157010f, 0.163660f, -0.067740f, -0.110150f, -0.026460f, -0.120550f, -0.037840f, 0.044740f, -0.068030f, -0.030380f, 0.032240f, 0.003690f, 0.036050f, 0.089550f, 0.068470f, -0.096960f, 0.167550f, 0.063430f, -0.151930f, 0.092550f, -0.046800f, -0.058720f, 0.036600f, -0.034780f, -0.170600f, 0.167550f, 0.065090f, 0.131700f, -0.114010f, 0.048930f, 0.183880f, 0.095590f, -0.146300f, -0.097780f, -0.052990f, -0.149350f, -0.108360f, 0.019310f, -0.000700f, 0.019880f, 0.122310f, 0.093080f, -0.002900f, 0.049650f, -0.072170f, 0.173010f, 0.159380f, -0.107370f, -0.132040f, 0.167450f, -0.004250f, 0.003770f, 0.092720f, -0.058580f, 0.071700f, 0.029160f, -0.078990f, -0.191730f, 0.054430f, 0.183300f, 0.020950f, 0.177990f, -0.011860f, 0.145600f, -0.049070f, -0.150860f, -0.145020f, -0.136150f, 0.177740f, 0.089780f, 0.060220f, -0.034480f, -0.093110f, 0.014940f, -0.162390f, -0.007460f, -0.118950f, 0.183740f, 0.044640f, 0.085120f, -0.117200f, 0.043250f, 0.003030f, -0.040950f, -0.051730f, 0.133910f, 0.014250f, 0.114370f, -0.058660f, 0.192440f, 0.043880f, 0.128120f, 0.153330f, -0.163880f, -0.119310f, 0.004620f, 0.018560f, 0.168250f, 0.167610f, -0.177060f, 0.119880f, 0.118980f, -0.189910f, 0.093250f, -0.081250f, 0.045330f, -0.036250f, -0.174730f, -0.092860f, 0.006360f, 0.132270f, 0.073790f, 0.015660f, -0.103940f, -0.127860f, 0.124750f, -0.013950f, -0.092070f, 0.127180f, -0.161780f, 0.088670f, -0.119780f, -0.112220f, 0.163140f, -0.125410f, 0.136730f, 0.112570f, -0.117730f, 0.125950f, -0.147870f, 0.116740f, -0.010700f, 0.191200f, 0.103560f, 0.043480f, 0.108520f, -0.137680f, 0.067000f, 0.036830f, -0.056170f, -0.070270f, -0.052890f, 0.109450f, -0.121340f, 0.063920f, 0.064250f, 0.019780f, -0.150930f, 0.115750f, 0.105450f, -0.105290f, 0.040720f, -0.043460f, 0.103890f, -0.083270f, -0.033690f, 0.038390f, 0.104850f, -0.135820f, 0.159880f, -0.035900f, 0.049850f, 0.123480f, 0.026940f, -0.088430f, -0.083400f, 0.142320f, -0.050780f, -0.130870f, -0.058410f, 0.101030f, 0.015380f, 0.000670f, -0.142110f, 0.079260f, 0.015900f, -0.156570f, 0.157780f, 0.020160f, 0.124940f, -0.093960f, 0.004780f, -0.086040f, -0.178620f, -0.190310f, 0.143460f, 0.051530f, 0.094080f, 0.134020f, -0.092180f, 0.065140f, -0.095250f, -0.046320f, 0.126820f, -0.156380f, -0.006710f, -0.129900f, 0.111340f, -0.013810f, -0.105160f, 0.095590f, -0.021750f, -0.071130f, -0.014380f, -0.067300f, 0.030480f, -0.114370f, 0.134340f, 0.054050f, -0.191670f, -0.159160f, 0.075150f, -0.040490f, -0.163960f, -0.180210f, 0.018750f, 0.028540f, -0.016130f, -0.069870f, 0.089020f, 0.031140f, -0.059820f, -0.097730f, 0.104900f, -0.029620f, 0.062140f, 0.088900f, 0.020810f, 0.169990f, -0.145530f, 0.182830f, 0.135600f, -0.035480f, -0.120390f, 0.074050f, 0.110960f, -0.049810f, -0.049490f, -0.160840f, -0.000150f, -0.073010f, -0.074430f, -0.028800f, -0.181000f, -0.162230f, -0.144960f, -0.090140f, 0.127080f, 0.122550f, 0.134540f, -0.188980f, -0.087010f, -0.117880f, 0.028400f, 0.148530f, -0.162090f, -0.086500f, 0.065260f, -0.013380f, 0.074660f, -0.031270f, -0.011990f, -0.047460f, -0.007090f, -0.058190f, -0.113390f, -0.003740f, 0.020290f, 0.072130f, -0.174800f, -0.129180f, -0.003540f, -0.003950f, 0.046570f, -0.081260f, -0.183480f, 0.027290f, -0.000460f, -0.143370f, 0.113410f, 0.158050f, 0.096680f, -0.157730f, -0.141170f, 0.196170f, 0.048330f, 0.016120f, -0.089170f, 0.149150f, 0.114400f, -0.118750f, -0.008280f, -0.061770f, 0.097470f, 0.131190f, 0.005190f, -0.056090f, 0.032230f, 0.008540f, 0.109070f, 0.090060f, 0.046430f, -0.171950f, -0.122780f, -0.177410f, 0.083710f, -0.043500f, 0.167340f, 0.041690f, -0.007610f, 0.125440f, -0.010850f, -0.173140f, -0.074840f, 0.007930f, -0.153310f, -0.114160f, -0.021190f, -0.049110f, 0.133500f, 0.017360f, -0.127280f, -0.041910f, 0.107240f, 0.139870f, 0.096070f, 0.113040f, 0.074980f, 0.124810f, 0.173750f, 0.132510f, 0.122600f, 0.027900f, 0.084900f, -0.027740f, -0.187830f, -0.062770f, 0.060150f, 0.118490f, -0.129140f, -0.066440f, -0.175860f, -0.035800f, -0.099780f, -0.191400f, -0.155570f, 0.066770f, -0.162770f, -0.081580f, 0.138270f, 0.001460f, 0.157240f, 0.104070f, -0.166140f, -0.044470f, -0.167330f, -0.035270f, 0.104170f, 0.006820f, -0.126230f, 0.002590f, -0.172360f, -0.006040f, -0.162730f, -0.019400f, 0.149230f, -0.040090f, -0.016120f, 0.173040f, 0.176880f, -0.157540f, 0.002270f, -0.072300f, 0.150320f, 0.014250f, -0.167230f, 0.185340f, -0.067810f, -0.024820f, -0.073190f, 0.015500f, 0.028080f, -0.032290f, -0.132760f, 0.172700f, -0.050850f, 0.192130f, 0.178660f, 0.170760f, -0.114720f, -0.011580f, -0.190650f, -0.159310f, -0.086990f, 0.114060f, 0.175940f, -0.004560f, 0.135570f, 0.065940f, 0.053680f, -0.130360f, 0.155770f, 0.060780f, -0.092550f, -0.114130f, 0.191090f, 0.134960f, 0.156470f, 0.081280f, 0.193430f, 0.188450f, 0.057090f, -0.178910f, 0.138300f, -0.042930f, -0.151040f, -0.187430f, -0.037240f, -0.013200f, -0.003900f, 0.183010f, 0.134100f, -0.110140f, -0.180100f, 0.050640f, -0.163020f, 0.063530f, -0.136190f, 0.116380f, 0.126820f, -0.017890f, 0.144600f, 0.131680f, 0.104500f, 0.109300f, 0.059250f, -0.180950f, 0.160060f, 0.028670f, 0.180590f, -0.178240f, -0.183590f, 0.021720f, -0.131560f, 0.142660f, 0.088130f, -0.098730f, -0.180480f, -0.175650f, -0.134100f, -0.152390f, 0.097040f, -0.021880f, 0.139810f, 0.153400f, 0.159330f, 0.085050f, -0.098310f, 0.124690f, 0.040570f, -0.180790f, 0.004770f, 0.107430f, 0.100100f, 0.004320f, 0.185760f, -0.059270f, -0.167380f, -0.044800f, -0.069500f, -0.167380f, 0.013430f, 0.193510f, 0.014270f, -0.101370f, 0.077590f, 0.215780f, 0.062800f, -0.071370f, 0.131480f, -0.012010f, -0.152980f, -0.106520f, 0.000350f, -0.053040f, -0.130740f, -0.141960f, 0.057340f, 0.011110f, 0.120190f, 0.054670f, -0.058490f, 0.097890f, -0.034820f, 0.140220f, 0.192550f, -0.165090f, -0.161200f, 0.076390f, -0.097760f, 0.026750f, 0.185630f, 0.055460f, -0.094600f, -0.171930f, 0.065970f, 0.134610f, 0.179030f, 0.031390f, -0.121130f, 0.175060f, -0.046960f, -0.119150f, 0.040340f, -0.099580f, -0.187460f, 0.024020f, -0.016340f, 0.123040f, -0.036100f, -0.189450f, 0.023240f, -0.089280f, 0.099820f, 0.110770f, 0.058800f, 0.062580f, 0.131310f, 0.022710f, 0.164540f, 0.193400f, -0.023410f, -0.090350f, 0.073680f, 0.147460f, -0.184160f, -0.086000f, -0.086830f, 0.006620f, -0.147720f, 0.189320f, 0.033770f, -0.166560f, -0.123470f, -0.180700f, -0.019670f, -0.164040f, 0.049150f, -0.027610f, -0.139270f, -0.186210f, 0.073270f, -0.107830f, 0.040310f, -0.143010f, 0.040570f, 0.122420f, -0.132210f, -0.071140f, 0.032340f, 0.132380f, 0.152090f, -0.126330f, -0.070940f, -0.025380f, 0.053160f, 0.090700f, 0.072430f, -0.150500f, -0.004070f, 0.025110f, 0.026690f, -0.073570f, -0.072740f, -0.025960f, -0.131470f, 0.092410f, -0.098210f, -0.153080f, -0.013700f, 0.040470f, 0.087990f, 0.026130f, -0.119530f, 0.168110f, -0.017130f, 0.120350f, -0.026170f, 0.018150f, -0.083140f, 0.001440f, 0.184190f, 0.138970f, 0.065750f, 0.119080f, 0.017180f, 0.119220f, -0.041580f, -0.172120f, -0.076400f, 0.181000f, -0.057760f, 0.108360f, -0.075770f, 0.118430f, -0.033020f, -0.190960f, 0.093790f, 0.074830f, -0.002330f, 0.133680f, 0.176640f, 0.031110f, 0.097980f, 0.187960f, -0.131330f, -0.067810f, -0.078500f, -0.086990f, -0.095240f, -0.023260f, -0.066510f, -0.022350f, 0.185840f, -0.160770f, 0.003670f, 0.016630f, -0.024560f, 0.056010f, -0.080870f, -0.127910f, -0.090520f, 0.147060f, -0.182430f, -0.161800f, -0.156690f, 0.083140f, -0.136480f, 0.080000f, -0.133160f, -0.115230f, 0.034460f, 0.099570f, 0.164140f, 0.058880f, 0.047580f, -0.070740f, 0.017410f, -0.007880f, 0.193250f, -0.076380f, 0.035770f, 0.147160f, -0.037420f, -0.056550f, 0.036880f, -0.183340f, -0.186310f, -0.188260f, -0.136070f, 0.061360f, 0.153370f, 0.172360f, -0.128580f, 0.078850f, -0.055670f, -0.189380f, 0.064780f, -0.088160f, -0.168180f, 0.161230f, -0.058230f, 0.108230f, 0.164060f, -0.084170f, 0.100350f, 0.167800f, -0.024910f, -0.116970f, 0.153010f, 0.169050f, 0.141450f, 0.025720f, -0.001490f, -0.045650f, 0.039080f, 0.000540f, -0.065280f, 0.001430f, 0.193360f, -0.164900f, 0.018780f, -0.073910f, -0.043870f, 0.140260f, 0.138290f, 0.043430f, -0.011440f, 0.074680f, -0.180000f, -0.182600f, -0.049800f, -0.160550f, -0.104130f, -0.071720f, 0.075490f, 0.162790f, 0.119260f, 0.002850f, -0.167890f, -0.131460f, -0.129720f, 0.159430f, -0.018380f, -0.104860f, -0.078630f, 0.071660f, -0.042500f, 0.079220f, -0.106720f, 0.031910f, 0.020220f, 0.064650f, -0.052720f, -0.037560f, 0.071750f, 0.190010f, 0.151340f, 0.030030f, -0.024390f, -0.017880f, -0.035060f, -0.172040f, 0.146050f, -0.106620f, 0.058300f, 0.189070f, 0.061620f, -0.138530f, 0.083520f, -0.042170f, 0.136320f, 0.058810f, 0.109480f, 0.136680f, 0.194370f, -0.134970f, -0.158890f, 0.131920f, -0.062390f, -0.009450f, 0.160170f, 0.099020f, -0.062040f, -0.054140f, 0.043790f, -0.017390f, -0.001580f, 0.166740f, 0.097890f, 0.154510f, 0.065900f, 0.028150f, 0.128710f, -0.108600f, -0.122700f, -0.161350f, -0.188470f, 0.187910f, -0.003350f, -0.086150f, -0.154670f, 0.180830f, -0.102060f, -0.123170f, 0.178440f, -0.132630f, 0.110860f, 0.079040f, -0.020800f, 0.009710f, -0.158520f, 0.126970f, 0.142950f, -0.078620f, -0.076580f, -0.148430f, 0.151020f, 0.190090f, 0.058680f, -0.128710f, 0.053310f, 0.083360f, -0.128070f, -0.100730f, -0.022920f, -0.041290f, 0.005670f, 0.073250f, -0.059830f, 0.106260f, 0.037670f, -0.023470f, 0.167220f, -0.194960f, 0.116200f, 0.115140f, 0.181390f, -0.053570f, 0.042390f, 0.030550f, 0.142930f, -0.186630f, 0.005780f, -0.020560f, -0.162580f, 0.091700f, -0.138180f, -0.178430f, 0.103810f, -0.045970f, 0.094560f, -0.142510f, -0.190600f, -0.078230f, -0.057890f, 0.107720f, -0.008260f, 0.118130f, 0.064250f, -0.138250f, -0.101240f, -0.127690f, -0.059370f, 0.142980f, 0.024240f, 0.081180f, -0.008490f, 0.140420f, -0.059940f, -0.107790f, 0.184320f, 0.085020f, -0.168340f, 0.161160f, 0.076840f, 0.147310f, 0.030420f, -0.124690f, -0.003700f, 0.115460f, -0.061460f, 0.091280f, 0.069540f, -0.042970f, -0.034280f, -0.170730f, 0.133650f, 0.046730f, -0.103370f, 0.066340f, 0.026490f, -0.054990f, -0.050030f, 0.151940f, -0.110250f, -0.022360f, 0.120150f, 0.064680f, 0.149080f, -0.165050f, 0.052840f, 0.169150f, 0.103850f, -0.106400f, 0.114980f, -0.050890f, 0.137980f, 0.089680f, -0.053400f, -0.108270f, 0.176250f, 0.074480f, -0.115790f, -0.093810f, 0.098910f, 0.035680f, 0.173120f, -0.165080f, 0.105940f, 0.145520f, -0.119340f, 0.171830f, -0.101160f, 0.067090f, 0.150810f, -0.022090f, -0.079940f, 0.096180f, -0.137430f, -0.158640f, 0.070370f, -0.018980f, -0.191180f, 0.191450f, -0.174790f, 0.178190f, -0.059670f, -0.075570f, 0.034060f, 0.068580f, 0.176400f, 0.130280f, 0.026710f, 0.169380f, -0.079510f, -0.103180f, 0.187630f, -0.053080f, -0.177530f, 0.039610f, 0.118810f, -0.036700f, -0.119980f, -0.192690f, 0.049420f, 0.143380f, -0.175100f, -0.184990f, -0.043960f, -0.040000f, 0.123260f, 0.160770f, -0.109680f, -0.094030f, -0.156750f, 0.104240f, -0.156950f, 0.078530f, -0.120500f, 0.093550f, -0.181130f, -0.099120f, 0.160260f, -0.093740f, 0.113540f, 0.180240f, -0.032510f, -0.024050f, -0.076020f, -0.048290f, 0.059070f, -0.126560f, 0.128010f, 0.179590f, -0.122070f, 0.100730f, -0.023320f, 0.002740f, -0.175470f, 0.153530f, -0.108560f, 0.177620f, -0.185750f, -0.093170f, -0.096150f, -0.026420f, 0.123230f, 0.058890f, -0.019300f, 0.154800f, -0.174300f, 0.140580f, -0.192210f, 0.125690f, 0.179520f, 0.092420f, -0.018850f, 0.016850f, 0.013750f, 0.109500f, 0.108470f, 0.159470f, -0.180880f, 0.076780f, 0.054850f, -0.049270f, 0.173210f, -0.076770f, 0.186460f, -0.139800f, 0.130530f, 0.070880f, 0.128050f, -0.183400f, 0.072030f, 0.144720f, -0.032390f, -0.014800f, 0.164620f, 0.182250f, 0.153650f, -0.130500f, -0.119430f, 0.007590f, -0.136780f, -0.006240f, 0.074300f, -0.156930f, -0.098790f, 0.178550f, 0.017290f, 0.029590f, 0.088100f, -0.079880f, 0.121450f, 0.160480f, 0.096030f, -0.104050f, 0.054140f, -0.141910f, 0.052990f, -0.054900f, -0.032400f, -0.150530f, -0.103030f, -0.151400f, -0.133290f, -0.132020f, -0.101520f, -0.079200f, 0.009650f, -0.043090f, 0.148730f, -0.004310f, 0.024540f, 0.099450f, -0.024880f, -0.171330f, -0.103820f, 0.171890f, 0.168810f, -0.000880f, -0.191350f, -0.104060f, -0.135150f, 0.113320f, 0.059290f, 0.020720f, -0.142780f, 0.094380f, 0.054290f, 0.133250f, -0.044180f, 0.108390f, 0.000030f, 0.121610f, -0.005440f, -0.083240f, -0.154950f, 0.095650f, -0.104090f, -0.077930f, -0.099640f, -0.028780f, 0.144470f, -0.051870f, -0.123130f, -0.159200f, 0.076420f, -0.145670f, 0.170270f, -0.001120f, 0.090980f, 0.099600f, -0.082260f, 0.041790f, 0.079590f, 0.033810f, 0.051580f, 0.038640f, 0.068890f, 0.129950f, -0.181580f, -0.184210f, -0.065860f, 0.129060f, 0.118830f, -0.184140f, 0.061060f, -0.102070f, -0.093940f, 0.033730f, 0.175480f, 0.114620f, 0.157350f, 0.190510f, -0.137010f, 0.076070f, 0.121390f, -0.091100f, 0.070190f, 0.014520f, -0.026590f, -0.122230f, 0.161230f, 0.070300f, 0.127460f, -0.041370f, 0.081450f, -0.036130f, -0.045380f, 0.098290f, 0.109760f, 0.169910f, 0.123690f, -0.025900f, -0.051740f, -0.091940f, -0.185820f, -0.025260f, 0.178620f, 0.166210f, 0.056040f, -0.184210f, 0.179910f, 0.034080f, 0.139970f };
static const float growbox_environment_model_layer_1_biases[32] = { 0.003430f, 0.003840f, 0.014010f, -0.004960f, 0.021230f, 0.002650f, 0.000000f, 0.000000f, -0.001320f, 0.001130f, 0.028280f, 0.010090f, 0.023100f, -0.005520f, 0.000660f, 0.000000f, 0.012410f, 0.003370f, -0.008600f, 0.004750f, 0.010830f, 0.014460f, 0.029950f, 0.000000f, 0.000000f, -0.004380f, -0.006010f, -0.008420f, 0.003490f, 0.000010f, 0.036440f, 0.000000f };
static const float growbox_environment_model_layer_1_weights[1024] = { -0.276100f, -0.217830f, -0.235860f, -0.227570f, -0.296520f, -0.290710f, -0.051130f, -0.071930f, -0.026230f, 0.175630f, -0.176460f, 0.021960f, -0.096640f, -0.139850f, -0.237180f, 0.115460f, 0.276780f, -0.171650f, 0.274100f, 0.130290f, -0.280720f, 0.177920f, -0.184220f, 0.091650f, -0.230940f, -0.021410f, 0.175350f, -0.160280f, -0.021640f, 0.123130f, -0.256950f, -0.203390f, 0.188720f, 0.204170f, -0.135490f, 0.067300f, 0.279400f, -0.190630f, 0.074370f, -0.012050f, -0.021940f, -0.145210f, 0.021700f, 0.068740f, 0.169950f, 0.192090f, -0.091480f, -0.041490f, 0.140650f, 0.003140f, 0.195830f, 0.189430f, -0.108810f, 0.036510f, 0.224760f, -0.174080f, 0.058570f, -0.180380f, 0.291750f, 0.050380f, -0.192890f, -0.036700f, 0.212820f, -0.157300f, 0.019360f, -0.057400f, -0.217250f, 0.231130f, 0.200240f, 0.123080f, -0.078980f, -0.143540f, 0.101390f, 0.283610f, -0.123800f, 0.220490f, 0.228510f, -0.214010f, -0.166970f, -0.155090f, 0.098010f, 0.017290f, -0.212360f, -0.200460f, 0.209540f, -0.227890f, 0.237230f, -0.020040f, 0.210340f, 0.302910f, -0.052020f, -0.190180f, 0.264570f, -0.178420f, 0.303090f, 0.137970f, -0.267050f, 0.244290f, 0.267710f, 0.185690f, 0.069670f, -0.099070f, -0.024460f, 0.181140f, -0.161980f, -0.241480f, 0.309780f, 0.289280f, 0.251420f, -0.250960f, -0.082810f, 0.028530f, -0.259860f, -0.053870f, 0.235650f, 0.032850f, 0.250510f, 0.296210f, 0.092600f, 0.274670f, 0.031220f, 0.239380f, 0.210000f, -0.123040f, 0.157250f, 0.043590f, 0.318270f, 0.146930f, 0.282820f, -0.152510f, -0.082910f, 0.040700f, 0.291810f, -0.111570f, 0.059380f, -0.105980f, -0.018840f, -0.071080f, -0.055400f, 0.133440f, 0.270870f, -0.011350f, -0.155030f, -0.175160f, 0.009210f, 0.253950f, 0.119820f, -0.077890f, 0.279580f, 0.105070f, -0.099470f, 0.153660f, -0.301260f, -0.011770f, 0.252960f, -0.297440f, 0.179780f, -0.188610f, -0.074940f, -0.220920f, -0.034340f, 0.023640f, 0.207360f, 0.201390f, -0.090590f, 0.155240f, 0.073380f, -0.202420f, 0.073850f, -0.134940f, -0.047840f, -0.005810f, 0.013490f, 0.183590f, -0.008000f, 0.286550f, 0.258770f, 0.022820f, -0.165480f, 0.130420f, -0.146930f, -0.168200f, 0.056590f, 0.095110f, -0.266410f, 0.152130f, 0.291270f, 0.155590f, 0.172330f, 0.204480f, -0.155780f, -0.179120f, -0.244330f, -0.137750f, 0.083110f, 0.242030f, -0.204220f, 0.039700f, 0.038090f, 0.179870f, -0.201820f, -0.027740f, 0.270760f, 0.014060f, 0.022640f, 0.097920f, -0.157230f, -0.221120f, 0.297360f, -0.293710f, 0.190400f, -0.089160f, 0.069160f, -0.196020f, 0.273210f, 0.278220f, 0.171760f, -0.252920f, 0.097950f, -0.027700f, -0.251570f, -0.247050f, -0.138690f, 0.208470f, -0.126980f, 0.231920f, -0.135100f, 0.079050f, 0.164350f, -0.190730f, -0.217570f, -0.044600f, 0.255270f, -0.179030f, 0.093470f, 0.150550f, 0.188180f, 0.299440f, 0.063630f, -0.254020f, 0.222360f, 0.042410f, 0.112600f, 0.233720f, 0.148660f, -0.174150f, -0.055160f, -0.191740f, -0.299450f, 0.163390f, -0.127830f, -0.257340f, -0.152400f, 0.138950f, 0.055990f, 0.158150f, 0.135750f, 0.117240f, 0.033930f, 0.215210f, -0.263380f, -0.219640f, -0.130530f, -0.139850f, -0.059700f, 0.270630f, -0.012850f, -0.177140f, 0.078330f, 0.280340f, 0.151510f, 0.202380f, -0.241560f, 0.162380f, 0.261840f, -0.262200f, -0.104280f, 0.102080f, 0.253250f, 0.000480f, 0.043340f, 0.070830f, -0.275390f, -0.162600f, -0.035420f, -0.048770f, -0.195250f, -0.194220f, 0.304200f, 0.303160f, 0.295500f, -0.247710f, 0.200660f, 0.299220f, -0.262130f, -0.040480f, 0.164510f, 0.041630f, 0.065970f, -0.060420f, -0.155240f, -0.216500f, -0.231510f, -0.229490f, 0.002840f, 0.150310f, 0.270600f, -0.033340f, 0.040670f, 0.303040f, 0.018120f, -0.193180f, -0.258180f, 0.077380f, 0.213970f, 0.097910f, 0.020190f, 0.132720f, 0.165190f, -0.046770f, 0.197330f, 0.181920f, -0.080160f, -0.152890f, 0.124760f, -0.180840f, 0.134590f, 0.078710f, 0.234830f, 0.046710f, 0.113950f, -0.048780f, -0.205470f, -0.207010f, -0.283560f, -0.033160f, 0.080780f, 0.061320f, 0.136000f, 0.000750f, -0.207230f, 0.165890f, -0.209420f, 0.093430f, -0.006870f, 0.054580f, 0.291130f, 0.045530f, -0.204390f, 0.219160f, -0.002920f, -0.212160f, -0.248890f, 0.266490f, -0.130890f, -0.252080f, 0.117540f, 0.085670f, 0.057830f, -0.068430f, 0.205320f, -0.238170f, 0.267680f, 0.236130f, -0.015840f, 0.269870f, -0.027140f, -0.123050f, -0.000240f, 0.087710f, -0.008300f, 0.037370f, 0.102610f, -0.140070f, 0.136860f, -0.098900f, -0.058900f, -0.220810f, -0.138980f, -0.109160f, -0.009700f, 0.223990f, -0.302950f, 0.118970f, 0.127050f, -0.004280f, -0.044420f, -0.221970f, -0.063480f, -0.187690f, -0.092750f, -0.247250f, 0.028250f, 0.074720f, 0.107520f, 0.191070f, 0.004870f, -0.220290f, -0.031870f, 0.040510f, 0.236060f, 0.298100f, -0.234520f, 0.255670f, -0.085340f, -0.171120f, -0.273620f, -0.063830f, -0.114810f, -0.264740f, 0.217230f, -0.287580f, 0.123440f, -0.280870f, 0.015270f, -0.218000f, -0.261120f, 0.296420f, -0.021730f, -0.072180f, -0.153910f, -0.039510f, -0.028160f, 0.245930f, -0.017820f, -0.120610f, -0.023290f, 0.304380f, -0.208490f, -0.069390f, -0.304830f, -0.249910f, 0.200890f, -0.121700f, -0.275280f, -0.226180f, -0.032310f, 0.112960f, -0.077830f, -0.188000f, 0.127510f, 0.043330f, 0.090620f, 0.141330f, 0.114570f, -0.171550f, -0.106990f, 0.243700f, 0.255720f, 0.077240f, 0.202550f, 0.059620f, 0.234920f, -0.125090f, -0.059520f, 0.080370f, -0.099570f, 0.272100f, -0.011030f, -0.076030f, 0.258780f, -0.226060f, -0.252000f, -0.244380f, 0.164970f, -0.289470f, 0.297300f, 0.042570f, 0.113240f, -0.157590f, -0.224810f, 0.084180f, 0.095900f, -0.077660f, 0.298600f, -0.004570f, -0.212870f, 0.020660f, 0.028820f, -0.252350f, 0.195130f, -0.228320f, -0.154800f, 0.159860f, 0.156420f, 0.227520f, -0.191600f, 0.173700f, -0.130280f, 0.280920f, -0.282580f, 0.163620f, -0.016310f, 0.131890f, 0.097800f, -0.280090f, 0.274770f, 0.189790f, -0.201460f, -0.034890f, 0.086840f, -0.001270f, 0.304910f, -0.258570f, 0.206960f, -0.295300f, -0.068390f, -0.217200f, 0.088330f, -0.137030f, -0.263320f, 0.043100f, 0.291660f, -0.224550f, 0.112660f, 0.181140f, 0.054760f, 0.075540f, 0.267680f, 0.203150f, 0.117780f, -0.155620f, 0.114970f, 0.194820f, -0.182210f, 0.131190f, -0.026570f, -0.014220f, 0.253680f, 0.169750f, 0.196730f, 0.239710f, -0.278770f, -0.111900f, -0.021720f, 0.108000f, 0.173050f, 0.178690f, 0.146660f, 0.289330f, 0.158060f, -0.179110f, -0.148580f, -0.221990f, -0.222250f, 0.112130f, 0.103450f, -0.035530f, -0.138270f, -0.226940f, -0.152440f, 0.202240f, 0.024290f, -0.145340f, 0.105390f, -0.193620f, 0.081070f, 0.070080f, -0.159340f, 0.299450f, -0.069140f, 0.243910f, -0.098000f, 0.167260f, 0.209870f, -0.239190f, 0.154210f, -0.033530f, 0.141320f, 0.038200f, -0.221970f, -0.113410f, 0.007760f, 0.068980f, -0.036490f, -0.137710f, -0.117790f, 0.085100f, -0.104900f, -0.294530f, -0.237440f, -0.018730f, -0.248870f, -0.192020f, -0.256980f, -0.271800f, 0.134280f, 0.187580f, -0.002280f, 0.120880f, 0.069490f, 0.175720f, -0.016170f, -0.025080f, -0.047990f, -0.174850f, -0.118260f, 0.010450f, -0.268550f, 0.121200f, -0.123230f, -0.022990f, -0.047670f, -0.190910f, -0.099850f, -0.234580f, -0.282550f, 0.169140f, -0.169300f, -0.004930f, 0.040500f, 0.281700f, 0.156290f, 0.063210f, -0.136170f, -0.075780f, 0.229810f, 0.220180f, 0.198040f, -0.239830f, -0.155530f, -0.046140f, 0.137240f, -0.200630f, -0.255320f, 0.182100f, 0.230470f, -0.266810f, 0.159720f, 0.157760f, 0.104250f, 0.290910f, -0.128850f, -0.017800f, 0.214450f, 0.135110f, -0.078830f, 0.123270f, 0.073880f, -0.013850f, -0.126990f, -0.161940f, 0.299830f, 0.241190f, -0.060310f, -0.128720f, -0.113140f, -0.017490f, 0.171480f, 0.080420f, -0.119690f, 0.149110f, 0.073660f, -0.106210f, -0.237860f, 0.130420f, 0.301520f, 0.100530f, -0.279880f, 0.045670f, 0.264180f, -0.272070f, 0.298470f, -0.027890f, -0.303980f, -0.287110f, -0.273670f, 0.138420f, 0.292740f, -0.217960f, 0.197000f, -0.243260f, -0.046940f, 0.258830f, -0.212600f, 0.245320f, 0.247670f, 0.216580f, 0.150980f, -0.214740f, 0.236730f, -0.281610f, 0.003650f, 0.022410f, 0.235260f, 0.091360f, 0.134490f, -0.098680f, -0.168070f, -0.287940f, -0.308740f, -0.305400f, -0.068290f, 0.300290f, -0.098340f, 0.119940f, -0.043400f, 0.182360f, -0.086060f, -0.187140f, 0.300010f, -0.098590f, 0.068480f, -0.222100f, -0.198470f, 0.228110f, -0.018430f, 0.081600f, -0.268320f, -0.152820f, 0.177140f, 0.074680f, 0.133390f, 0.134800f, 0.288400f, -0.076210f, -0.239110f, 0.076810f, 0.207860f, 0.121440f, -0.217670f, -0.094280f, -0.035870f, 0.041960f, -0.251950f, -0.014210f, 0.152610f, 0.003440f, 0.242530f, -0.115890f, 0.102460f, 0.127080f, -0.228090f, 0.295290f, -0.002360f, 0.189640f, 0.270230f, 0.064490f, -0.019070f, -0.256140f, -0.275980f, 0.196540f, 0.022200f, -0.029780f, -0.236130f, -0.127540f, 0.021680f, 0.204430f, 0.284230f, -0.221490f, 0.213940f, 0.160700f, 0.049040f, -0.226000f, 0.103890f, -0.238160f, -0.277380f, -0.098870f, 0.126510f, 0.201460f, 0.041540f, 0.050460f, 0.095640f, 0.102100f, 0.195650f, -0.240700f, 0.004110f, -0.054270f, 0.020400f, 0.039030f, 0.236680f, 0.302150f, 0.143270f, 0.092000f, 0.168080f, -0.259140f, -0.235650f, 0.152750f, -0.135130f, -0.105290f, -0.096600f, -0.045560f, 0.118010f, 0.210610f, 0.051460f, 0.132940f, 0.297930f, -0.265780f, 0.196530f, -0.175370f, 0.290440f, 0.202670f, -0.273210f, 0.135520f, 0.213820f, -0.155160f, 0.114100f, 0.292650f, 0.268920f, 0.194570f, -0.053580f, 0.184680f, -0.010770f, 0.285250f, -0.024570f, 0.218300f, -0.140050f, 0.012980f, -0.129000f, 0.170730f, -0.151630f, -0.179350f, 0.253730f, 0.033050f, 0.105550f, 0.152170f, 0.080460f, 0.072290f, 0.122400f, -0.198820f, -0.182020f, -0.134990f, 0.157130f, -0.114840f, 0.118560f, -0.216150f, 0.022390f, 0.236240f, 0.010950f, -0.112530f, 0.232400f, -0.254070f, -0.100970f, 0.040550f, -0.081650f, -0.166220f, -0.251220f, 0.255330f, 0.254790f, -0.072060f, 0.252820f, -0.210030f, -0.102230f, -0.006430f, -0.133860f, -0.199880f, -0.090880f, 0.299770f, -0.011700f, -0.106470f, 0.153770f, 0.075250f, -0.296790f, -0.180630f, -0.298870f, 0.113880f, -0.111670f, -0.297050f, 0.063220f, -0.236620f, 0.275270f, 0.274800f, 0.101370f, 0.156850f, -0.186810f, -0.173210f, -0.210970f, 0.144990f, -0.201440f, 0.163210f, 0.228440f, -0.079490f, -0.125730f, 0.048730f, 0.232390f, -0.097430f, -0.143290f, 0.210460f, 0.189120f, -0.127560f, 0.116310f, -0.039770f, -0.113410f, -0.298400f, 0.019090f, -0.089130f, -0.122360f, -0.178160f, -0.089840f, -0.005300f, -0.273680f, 0.201590f, -0.230530f, -0.208010f, 0.299050f, -0.065450f, -0.304760f, 0.242470f, -0.298830f, -0.244440f, -0.229870f, -0.101250f, -0.036050f, -0.132010f, 0.026280f, 0.004470f, 0.174160f, 0.069610f, -0.117010f, 0.046280f, -0.145680f, -0.300770f, 0.205670f, 0.291780f, -0.015230f, 0.280410f, 0.234960f, -0.128810f, -0.288670f, 0.176620f, 0.250740f, 0.246670f, 0.230850f, -0.171600f, 0.301620f, -0.138630f, 0.000060f, -0.042690f, 0.064520f, -0.115480f, -0.112880f, -0.165160f, 0.039990f, -0.082760f, -0.043070f, -0.086520f, -0.000200f, -0.214000f, 0.200330f, 0.208890f, -0.040500f, 0.177830f, -0.192010f, 0.016190f, -0.040050f, -0.082340f, -0.210500f, -0.125830f, -0.162610f, 0.265740f, 0.172820f, -0.303420f, 0.267430f, 0.044860f, 0.135840f, 0.057570f, 0.285580f, 0.242330f, 0.294420f, -0.093080f, -0.205930f, -0.076530f, -0.161120f, 0.045630f, -0.249270f, -0.129510f, -0.143940f, 0.074060f, 0.274590f, -0.237570f, 0.005910f, -0.015470f, 0.238380f, 0.091720f, 0.070970f, 0.095170f, -0.130070f, 0.161640f, 0.212460f, -0.255650f, -0.113890f, -0.179120f, 0.056230f, -0.248980f, -0.041860f, -0.094390f, 0.211700f, -0.007570f, 0.193700f, 0.079510f, 0.076590f, 0.123710f, -0.105470f, -0.233740f, 0.276250f, -0.062000f, 0.135740f, 0.088930f, -0.200730f, -0.047090f, 0.299570f, -0.008420f, -0.044730f, -0.048300f, -0.252010f, -0.080520f, -0.039900f, -0.225320f, 0.083140f, 0.048590f, 0.096450f, 0.200490f, 0.035620f, 0.188300f, 0.243770f, -0.284640f, -0.178380f, -0.096730f, -0.194250f, 0.176590f, -0.235560f, -0.234410f, 0.106190f, 0.044210f };
static const float growbox_environment_model_layer_2_biases[15] = { -0.033440f, -0.016810f, -0.030120f, -0.009160f, -0.022370f, -0.032420f, -0.025330f, -0.034350f, -0.030160f, -0.041000f, -0.036780f, -0.033340f, -0.030790f, -0.028170f, -0.026900f };
static const float growbox_environment_model_layer_2_weights[480] = { -0.004510f, -0.289560f, 0.168060f, -0.098800f, 0.126530f, -0.347870f, 0.021420f, 0.319340f, 0.140180f, 0.348210f, -0.288710f, -0.248830f, -0.191810f, -0.334240f, 0.231310f, -0.254580f, -0.300950f, 0.078110f, 0.205880f, -0.142970f, -0.064040f, -0.161470f, 0.010460f, 0.009080f, -0.215310f, 0.131960f, -0.049270f, -0.173680f, 0.308260f, -0.008670f, -0.262720f, 0.061270f, 0.113110f, -0.293090f, 0.159310f, -0.131900f, -0.264940f, -0.075570f, -0.089430f, 0.221050f, 0.301170f, -0.349280f, -0.100570f, -0.249180f, -0.043400f, 0.173940f, 0.111640f, 0.207540f, 0.104090f, -0.021790f, 0.076960f, 0.143660f, -0.069040f, -0.027800f, -0.049060f, 0.031450f, -0.289150f, -0.103120f, 0.134150f, -0.184050f, -0.296850f, -0.082790f, -0.181800f, 0.221810f, -0.270390f, -0.253020f, -0.125160f, 0.339910f, -0.192060f, -0.240210f, 0.035180f, 0.222430f, -0.163590f, -0.100390f, 0.202560f, -0.179370f, -0.299440f, 0.290570f, 0.156610f, 0.280590f, -0.190960f, -0.170100f, 0.263770f, 0.295920f, 0.302370f, -0.345640f, -0.343910f, -0.343290f, 0.092630f, 0.128250f, -0.020320f, -0.072240f, 0.241910f, -0.013930f, 0.047200f, -0.155290f, -0.336630f, -0.037030f, 0.315640f, -0.246420f, -0.208440f, -0.163040f, -0.090370f, 0.224300f, -0.208780f, -0.272640f, -0.072840f, 0.289270f, -0.206150f, -0.303440f, 0.113000f, -0.243300f, -0.282480f, 0.181590f, 0.223330f, 0.100360f, -0.310920f, 0.280370f, 0.067870f, 0.230850f, -0.258010f, 0.205540f, -0.131640f, -0.269890f, 0.200160f, 0.243840f, -0.121340f, 0.284980f, -0.233050f, 0.325940f, -0.364820f, -0.245050f, -0.180110f, 0.083670f, 0.317250f, -0.265070f, 0.044670f, -0.328970f, 0.113480f, -0.321260f, -0.212600f, 0.193240f, 0.014900f, 0.302870f, 0.217110f, 0.322410f, -0.096650f, 0.102380f, -0.338280f, 0.036780f, 0.306620f, 0.082740f, 0.337230f, 0.074290f, -0.186220f, -0.194430f, -0.309030f, -0.046620f, 0.004920f, 0.157440f, -0.325260f, -0.107670f, -0.290240f, -0.363110f, -0.196550f, 0.208970f, -0.359330f, 0.002440f, -0.192550f, -0.343470f, -0.233020f, -0.182820f, 0.054040f, 0.305530f, -0.246850f, 0.211760f, 0.122830f, 0.086100f, -0.088970f, -0.255940f, -0.200600f, -0.159460f, -0.262870f, 0.115580f, -0.323830f, 0.203530f, -0.345840f, 0.049550f, -0.281680f, -0.177800f, -0.307760f, -0.083500f, 0.215580f, 0.260170f, 0.271590f, 0.157460f, -0.309860f, 0.318000f, 0.170710f, -0.279280f, -0.013570f, -0.168000f, -0.204190f, -0.331470f, 0.339770f, 0.340450f, -0.237120f, -0.144210f, 0.288300f, -0.034240f, -0.118840f, -0.030180f, -0.192890f, -0.180410f, 0.043830f, 0.327830f, -0.021450f, 0.109060f, -0.142290f, -0.138920f, -0.182120f, -0.256220f, -0.341860f, -0.079350f, 0.336460f, 0.204090f, 0.113620f, -0.099290f, 0.052730f, 0.287190f, -0.071030f, 0.184140f, 0.309530f, -0.236530f, -0.141350f, 0.105440f, 0.328450f, 0.192960f, 0.054850f, 0.311700f, 0.262430f, -0.029840f, -0.331560f, -0.135300f, -0.104860f, -0.061170f, -0.253050f, -0.250240f, -0.152180f, -0.051610f, 0.326530f, 0.303210f, -0.207960f, 0.007090f, -0.177780f, -0.071920f, 0.017990f, -0.055810f, -0.300650f, 0.226460f, 0.209050f, -0.037770f, 0.048610f, 0.331650f, -0.325740f, 0.124860f, -0.040850f, 0.022250f, -0.123130f, -0.334510f, 0.252120f, 0.164860f, 0.078410f, 0.316210f, -0.259770f, 0.144970f, 0.180140f, -0.359320f, -0.200000f, 0.147280f, 0.276010f, -0.078810f, -0.030530f, -0.181590f, 0.195970f, -0.109540f, 0.311810f, -0.250570f, 0.271500f, -0.161980f, -0.058370f, -0.298880f, -0.079730f, 0.047430f, 0.209990f, -0.318030f, 0.074030f, -0.228010f, -0.304750f, 0.337360f, 0.012800f, -0.321690f, -0.302370f, 0.266640f, -0.060360f, 0.189180f, -0.299520f, 0.122200f, -0.188920f, 0.041400f, 0.227920f, -0.254050f, -0.079460f, 0.143830f, -0.056640f, -0.026110f, -0.241950f, -0.085010f, -0.008790f, 0.115900f, 0.122140f, -0.049490f, -0.151380f, -0.214100f, 0.341430f, -0.256650f, 0.167570f, -0.240360f, -0.289200f, 0.066210f, -0.278480f, 0.341390f, -0.075370f, -0.314080f, -0.318770f, 0.095370f, -0.138830f, 0.184090f, -0.126720f, 0.116840f, -0.247890f, 0.253170f, -0.336040f, -0.280890f, -0.275790f, 0.093950f, -0.130600f, 0.135430f, 0.279020f, -0.013190f, -0.001720f, 0.335270f, -0.080320f, 0.270760f, 0.190110f, 0.100410f, 0.356420f, 0.045550f, 0.064850f, -0.100820f, 0.215910f, -0.071430f, 0.143700f, 0.158240f, -0.352600f, 0.297200f, -0.086030f, 0.072920f, -0.111930f, 0.204080f, -0.050270f, 0.176330f, -0.104940f, 0.327850f, -0.083140f, -0.083740f, 0.197050f, -0.190290f, 0.181840f, 0.290930f, 0.253430f, 0.250590f, 0.184990f, 0.083080f, 0.048280f, -0.128200f, 0.185360f, -0.140480f, -0.185770f, -0.197500f, -0.281380f, 0.337830f, -0.281270f, 0.304250f, 0.246270f, 0.009310f, 0.334370f, -0.207150f, 0.329710f, -0.267500f, 0.144360f, 0.215400f, 0.174020f, -0.251240f, 0.320890f, 0.322420f, -0.081750f, 0.203880f, -0.139670f, -0.217030f, 0.205710f, 0.325250f, 0.032990f, -0.231570f, 0.253460f, -0.059890f, 0.170390f, -0.229830f, -0.263700f, 0.314490f, 0.307270f, -0.160350f, 0.088190f, -0.163800f, -0.219920f, -0.266990f, 0.206810f, -0.243890f, -0.172960f, 0.104840f, 0.128430f, -0.090330f, 0.256450f, -0.307100f, -0.010490f, 0.355520f, -0.353230f, -0.345000f, 0.187040f, -0.335820f, 0.079090f, -0.006310f, -0.119720f, -0.293920f, -0.303940f, 0.130300f, -0.234080f, 0.277820f, -0.060880f, 0.178260f, -0.155210f, -0.248500f, -0.171340f, -0.194960f, -0.142540f, -0.301210f, -0.066070f, -0.296020f, 0.131980f, -0.057540f, 0.068770f, -0.101780f, 0.121950f, 0.113490f, -0.359330f, 0.122580f, -0.207920f, -0.109970f, 0.104970f, 0.334120f, 0.348510f, 0.223630f, 0.296470f, -0.079530f, -0.036520f, 0.228300f, -0.088580f, -0.091340f, -0.187680f, 0.277470f };
static float growbox_environment_model_buf1[128];
static float growbox_environment_model_buf2[128];
static const EmlNetLayer growbox_environment_model_layers[3] = {
{ 32, 128, growbox_environment_model_layer_0_weights, growbox_environment_model_layer_0_biases, EmlNetActivationRelu },
{ 32, 32, growbox_environment_model_layer_1_weights, growbox_environment_model_layer_1_biases, EmlNetActivationRelu },
{ 15, 32, growbox_environment_model_layer_2_weights, growbox_environment_model_layer_2_biases, EmlNetActivationLogistic } };
static EmlNet growbox_environment_model = { 3, growbox_environment_model_layers, growbox_environment_model_buf1, growbox_environment_model_buf2, 128 };

    int32_t
    growbox_environment_model_predict(const float *features, int32_t n_features)
    {
        return eml_net_predict(&growbox_environment_model, features, n_features);
    }


    int32_t
    growbox_environment_model_regress(const float *features, int32_t n_features, float *out, int32_t out_length)
    {
        return eml_net_regress(&growbox_environment_model, features, n_features, out, out_length);
    }


    float
    growbox_environment_model_regress1(const float *features, int32_t n_features)
    {
        return eml_net_regress1(&growbox_environment_model, features, n_features);
    }

namespace generated_model {

inline constexpr std::size_t kInputCount = 128U;
inline constexpr std::size_t kOutputCount = 15U;
inline constexpr char kSchemaHash[] = "5768273a73ac";
inline constexpr char kModelVersion[] = "environment-mlp-untrained-placeholder";
inline constexpr char kWeightHash[] = "aafb7ea9a7c0";

inline bool infer(const float* features, float* outputs) {
    if (features == nullptr || outputs == nullptr) {
        return false;
    }
    return growbox_environment_model_regress(
        features,
        static_cast<int32_t>(kInputCount),
        outputs,
        static_cast<int32_t>(kOutputCount)) == EmlOk;
}

}  // namespace generated_model
