// Generated by python -m tools.ml.pipeline. Do not edit.
#pragma once

#include <cstddef>
#include <eml_net.h>

static const float growbox_environment_model_layer_0_biases[32] = { -0.008300f, 0.017060f, -0.002670f, 0.110320f, 0.039070f, -0.000360f, -0.000300f, 0.023810f, 0.012470f, 0.047860f, 0.000130f, 0.000000f, 0.000000f, 0.028870f, 0.010730f, 0.025580f, -0.009750f, 0.011610f, 0.000640f, 0.000000f, 0.098160f, 0.033800f, 0.003930f, 0.038440f, 0.046660f, 0.037610f, -0.000130f, 0.016020f, -0.002420f, 0.082070f, 0.011690f, 0.055930f };
static const float growbox_environment_model_layer_0_weights[4096] = { 0.186860f, 0.008330f, 0.031480f, -0.077020f, 0.209470f, -0.003440f, 0.013600f, -0.110820f, 0.108940f, -0.089390f, 0.020230f, -0.086430f, 0.046870f, 0.078980f, -0.140260f, -0.182860f, -0.126780f, 0.150870f, -0.105920f, 0.077970f, 0.139230f, 0.116850f, 0.090650f, -0.127030f, -0.058920f, 0.199970f, -0.144040f, -0.178960f, 0.026900f, 0.171510f, -0.060650f, -0.028420f, -0.133540f, 0.006600f, -0.126830f, -0.009420f, 0.056970f, 0.094830f, -0.156070f, -0.115480f, -0.182930f, 0.108570f, 0.002520f, -0.020620f, -0.185420f, 0.157660f, 0.110820f, -0.041810f, -0.045410f, 0.003250f, -0.054520f, -0.080050f, 0.252360f, -0.007730f, 0.179060f, 0.178240f, -0.069640f, -0.140650f, 0.054890f, -0.152100f, 0.176560f, 0.017280f, 0.097320f, 0.212450f, 0.005580f, 0.068620f, -0.071060f, 0.172240f, -0.183560f, -0.140790f, 0.034070f, -0.081750f, -0.068800f, -0.150220f, 0.007270f, -0.123300f, 0.135310f, -0.175410f, -0.177040f, -0.167000f, 0.170010f, -0.189420f, 0.031440f, -0.059040f, 0.137340f, -0.004850f, -0.057280f, 0.054280f, -0.146650f, 0.129550f, -0.172670f, 0.123770f, 0.139610f, 0.178770f, -0.078580f, 0.159360f, 0.117600f, -0.100130f, -0.124900f, 0.241550f, 0.135650f, -0.168720f, -0.059520f, -0.058640f, 0.154560f, -0.033450f, -0.135130f, -0.095630f, -0.072800f, 0.080410f, 0.020400f, 0.017770f, -0.151560f, -0.073680f, 0.005870f, -0.073290f, 0.246390f, 0.192720f, -0.142240f, 0.031600f, 0.219660f, 0.170700f, 0.063120f, -0.004870f, 0.124710f, 0.149330f, 0.124760f, 0.117190f, -0.094210f, 0.142090f, -0.014660f, 0.234700f, 0.008200f, -0.184800f, -0.175610f, 0.068760f, 0.196120f, -0.005660f, 0.034040f, -0.157950f, -0.120570f, -0.067440f, 0.174440f, 0.017460f, 0.068130f, -0.147580f, 0.062540f, 0.089880f, 0.252620f, 0.103760f, -0.129550f, -0.015230f, 0.116240f, -0.077380f, 0.024020f, 0.159040f, -0.172810f, 0.231540f, 0.090710f, 0.237470f, -0.049930f, 0.070360f, -0.046810f, 0.064590f, -0.100690f, -0.061270f, 0.166120f, 0.078540f, -0.032880f, 0.174190f, 0.147130f, -0.140350f, -0.060540f, -0.044940f, -0.099370f, 0.096850f, 0.041740f, 0.132270f, 0.134780f, -0.186450f, -0.072360f, 0.160580f, 0.131310f, 0.103860f, 0.209000f, 0.121370f, -0.148310f, 0.020720f, -0.132820f, 0.108610f, -0.035800f, 0.038600f, -0.093750f, 0.174160f, -0.015590f, 0.034200f, 0.183300f, -0.125820f, 0.114940f, 0.151000f, 0.055100f, -0.054690f, -0.042590f, -0.152520f, -0.060330f, -0.157490f, 0.037640f, 0.181460f, -0.159190f, 0.035140f, 0.148400f, 0.185600f, 0.102270f, 0.194840f, 0.173050f, 0.180730f, 0.092460f, 0.148430f, 0.160760f, 0.128180f, -0.093720f, 0.081590f, 0.002070f, 0.174800f, -0.115510f, 0.161300f, -0.060840f, -0.122630f, 0.155270f, -0.147690f, -0.124600f, -0.033980f, 0.112760f, 0.205810f, -0.190310f, 0.017720f, -0.000550f, -0.162920f, 0.147260f, 0.030060f, 0.026230f, 0.179830f, -0.080530f, -0.114480f, 0.059460f, 0.085060f, -0.125230f, -0.170790f, 0.086880f, -0.185620f, -0.137250f, 0.057940f, 0.168630f, -0.015090f, 0.019200f, 0.026640f, 0.108060f, -0.012530f, 0.058440f, -0.069400f, 0.154170f, 0.112690f, -0.120250f, -0.066980f, -0.150480f, 0.053540f, -0.052830f, -0.151240f, -0.184180f, -0.199730f, 0.147210f, -0.117460f, -0.012520f, -0.093450f, -0.070190f, -0.156420f, -0.022770f, 0.210150f, -0.016540f, -0.156530f, 0.114990f, 0.171630f, -0.049030f, 0.106070f, -0.059660f, -0.150960f, 0.045940f, 0.199020f, 0.117500f, 0.134910f, 0.090110f, 0.001400f, 0.037480f, -0.036760f, -0.027630f, 0.010100f, -0.164150f, -0.136150f, 0.103030f, 0.026580f, 0.108600f, -0.103520f, -0.057590f, -0.127500f, 0.166960f, 0.043420f, 0.046470f, -0.147450f, -0.144590f, -0.068410f, -0.039840f, -0.012450f, 0.015570f, 0.068980f, -0.059720f, 0.058660f, -0.041850f, 0.131580f, 0.132960f, 0.084910f, 0.132710f, -0.040470f, -0.031490f, 0.098360f, 0.156090f, 0.138980f, 0.130760f, 0.087500f, -0.044360f, -0.035040f, -0.193310f, -0.176280f, 0.148990f, 0.100470f, -0.139540f, -0.121000f, -0.135240f, 0.118750f, 0.018190f, 0.147440f, -0.088300f, 0.066710f, -0.021480f, 0.003060f, 0.009420f, 0.143240f, 0.078840f, 0.058620f, 0.090160f, 0.083680f, 0.126190f, -0.083030f, -0.005970f, -0.109040f, -0.016110f, 0.164070f, -0.072200f, -0.073610f, -0.109770f, -0.091060f, 0.035330f, -0.057030f, -0.147830f, -0.052670f, -0.149590f, -0.111560f, -0.039420f, 0.149640f, 0.037750f, 0.018200f, -0.013400f, -0.004200f, 0.006910f, -0.014830f, 0.083180f, 0.204500f, 0.237220f, -0.074280f, -0.138700f, 0.183630f, -0.016750f, -0.056700f, 0.104270f, 0.225100f, -0.001180f, 0.060900f, -0.192640f, 0.116680f, 0.000810f, 0.031500f, -0.038150f, -0.139460f, 0.062060f, -0.102170f, 0.021860f, -0.185660f, -0.174980f, 0.089350f, 0.039730f, 0.098650f, -0.106220f, 0.036130f, -0.050750f, 0.107500f, -0.020850f, 0.200310f, -0.147140f, 0.052780f, -0.107200f, -0.097490f, -0.177130f, 0.055320f, 0.099230f, 0.202070f, 0.071930f, -0.070050f, 0.087250f, -0.136100f, -0.044000f, 0.229590f, 0.135440f, -0.096720f, 0.051930f, 0.127270f, -0.137070f, -0.070560f, 0.106200f, 0.019820f, -0.130710f, 0.074890f, 0.092110f, -0.032340f, -0.144170f, -0.050200f, -0.002180f, -0.051910f, 0.188050f, 0.190220f, 0.125910f, 0.108730f, -0.015860f, -0.137770f, 0.131800f, -0.018590f, 0.088720f, -0.010220f, 0.101730f, -0.004410f, -0.103240f, 0.081580f, -0.174840f, 0.005240f, 0.180100f, 0.105750f, -0.178350f, -0.118630f, 0.054770f, -0.026950f, -0.050000f, 0.019910f, -0.111460f, -0.090550f, 0.072970f, -0.044140f, 0.086870f, -0.106720f, 0.103670f, -0.189330f, 0.049350f, 0.077950f, 0.003350f, 0.093390f, -0.083330f, 0.060280f, 0.105500f, -0.015570f, 0.096870f, 0.080570f, 0.043710f, 0.065700f, -0.051270f, -0.038120f, 0.038440f, 0.240840f, 0.181590f, 0.032240f, -0.000390f, 0.057770f, -0.085230f, -0.150140f, 0.192220f, -0.062880f, -0.050760f, 0.190300f, 0.029860f, -0.129900f, -0.179970f, -0.164500f, -0.138540f, -0.006670f, 0.160050f, -0.021280f, 0.095150f, -0.123230f, -0.052540f, 0.084970f, -0.160510f, -0.085350f, -0.152670f, 0.091140f, -0.097200f, -0.004620f, -0.138440f, -0.134840f, -0.178820f, 0.209320f, 0.036240f, -0.085560f, 0.115780f, 0.005930f, -0.076350f, 0.062300f, -0.022640f, 0.115390f, -0.125130f, -0.024980f, -0.134410f, 0.190800f, -0.015740f, -0.136110f, 0.164660f, 0.111940f, 0.081170f, -0.063740f, 0.150260f, -0.007990f, 0.144440f, 0.063970f, 0.175840f, 0.186810f, 0.043590f, -0.010210f, -0.166090f, 0.025490f, 0.166140f, 0.167960f, 0.022580f, 0.217270f, 0.222550f, -0.091520f, 0.182610f, 0.165520f, 0.179430f, 0.117580f, -0.087280f, 0.079850f, 0.031060f, -0.093560f, -0.023150f, 0.128170f, 0.066170f, 0.177040f, -0.150710f, -0.163050f, -0.053100f, -0.033100f, -0.112640f, 0.050380f, -0.038330f, 0.173980f, 0.008210f, 0.146600f, 0.154620f, 0.194080f, 0.156810f, -0.197600f, -0.076690f, -0.198280f, -0.121500f, -0.156490f, -0.057380f, 0.191720f, 0.107100f, 0.098860f, -0.088530f, 0.102440f, -0.131640f, -0.084180f, 0.155970f, 0.193530f, -0.045850f, -0.135830f, -0.174020f, -0.122450f, -0.054060f, 0.193130f, 0.003990f, -0.012530f, -0.035460f, -0.010290f, 0.184570f, 0.151510f, -0.092090f, -0.038080f, -0.170450f, -0.117270f, 0.132650f, 0.103300f, 0.145610f, 0.200550f, -0.077290f, -0.054800f, 0.209140f, -0.063600f, -0.155710f, 0.145880f, -0.122470f, -0.129460f, 0.122220f, 0.091160f, -0.040510f, -0.005570f, -0.073480f, 0.042240f, 0.060700f, -0.179980f, -0.069420f, -0.026640f, 0.217210f, -0.082730f, 0.142990f, 0.117440f, 0.170120f, 0.174210f, -0.051590f, 0.164690f, 0.190740f, 0.167100f, -0.041020f, 0.166280f, 0.052950f, 0.043860f, 0.075100f, 0.160200f, -0.174480f, 0.145500f, -0.131310f, 0.187630f, 0.028420f, 0.207960f, -0.130470f, -0.106160f, -0.167490f, -0.049210f, -0.118800f, -0.145500f, 0.041840f, 0.056800f, -0.167780f, 0.102150f, 0.113540f, 0.093560f, -0.006090f, 0.080000f, -0.148750f, 0.200880f, -0.054120f, 0.120940f, -0.093770f, 0.134810f, 0.135520f, 0.076760f, 0.043300f, -0.007980f, -0.014890f, -0.132540f, 0.132380f, 0.000120f, -0.153770f, 0.052350f, -0.037100f, -0.115380f, -0.053540f, 0.170550f, -0.037480f, 0.098770f, -0.030450f, -0.146150f, 0.149630f, 0.166940f, -0.047140f, 0.145610f, 0.158510f, 0.048410f, 0.190040f, 0.125720f, 0.003060f, 0.200170f, 0.004640f, 0.169260f, -0.188520f, 0.224130f, 0.072200f, -0.008020f, -0.119820f, -0.038650f, 0.017990f, 0.126290f, 0.067200f, 0.147310f, -0.062020f, 0.013200f, 0.140180f, 0.184010f, -0.178650f, -0.062940f, 0.070090f, -0.037420f, 0.159030f, 0.101860f, 0.084670f, 0.099370f, -0.183960f, -0.059980f, -0.021040f, 0.174650f, -0.156770f, 0.132230f, -0.104180f, -0.009760f, 0.055260f, -0.074950f, -0.095550f, 0.198320f, -0.075060f, -0.040100f, -0.086780f, 0.144760f, 0.115130f, 0.014610f, 0.171630f, 0.062130f, 0.158010f, 0.144380f, -0.072530f, -0.121700f, 0.121070f, 0.179460f, -0.109430f, -0.038130f, -0.173700f, 0.078930f, -0.143460f, -0.136030f, 0.191480f, -0.055340f, -0.039400f, 0.008790f, 0.070130f, 0.185500f, 0.089500f, 0.045000f, -0.159910f, -0.166770f, -0.003670f, 0.043680f, -0.089090f, 0.074340f, 0.128530f, 0.126920f, -0.099210f, 0.065520f, 0.128440f, -0.016420f, -0.062730f, 0.074400f, -0.034580f, 0.091390f, -0.075360f, -0.178030f, -0.032330f, 0.159510f, -0.148690f, -0.145410f, -0.103080f, 0.046440f, 0.113640f, -0.014520f, 0.197320f, -0.005140f, -0.131570f, -0.033230f, 0.137760f, 0.017080f, 0.085020f, -0.150180f, 0.002100f, 0.016370f, -0.126530f, -0.152700f, 0.098460f, -0.064000f, 0.165600f, 0.132030f, -0.062630f, 0.168580f, 0.087300f, 0.155500f, -0.001860f, 0.212750f, 0.012370f, -0.089590f, -0.157140f, 0.134360f, 0.099780f, -0.089030f, 0.128430f, 0.096320f, 0.046030f, -0.142600f, 0.118040f, 0.048100f, -0.021960f, -0.135380f, -0.088400f, -0.149940f, 0.013810f, 0.005540f, -0.015030f, 0.006150f, -0.144760f, 0.149160f, 0.045990f, 0.023280f, -0.024720f, 0.179560f, -0.120000f, 0.073030f, -0.072000f, 0.070670f, 0.084990f, -0.079460f, -0.191830f, 0.006570f, -0.064190f, -0.159310f, -0.048360f, 0.009900f, -0.085600f, -0.043240f, 0.003000f, -0.136400f, 0.110250f, -0.064980f, 0.175280f, 0.104180f, -0.039040f, 0.028420f, 0.073940f, 0.180150f, -0.019320f, 0.130950f, -0.119090f, 0.218290f, -0.000130f, 0.080130f, 0.005880f, 0.178220f, -0.111300f, 0.005050f, 0.048930f, 0.177150f, 0.039720f, 0.107780f, 0.167830f, -0.152280f, 0.022260f, 0.188270f, -0.093270f, -0.048850f, 0.027660f, -0.165280f, -0.168110f, -0.037900f, 0.118140f, 0.164910f, 0.133660f, -0.142340f, 0.193420f, 0.108390f, 0.051230f, 0.189140f, 0.036870f, -0.167570f, 0.062220f, -0.087000f, -0.148760f, -0.114990f, -0.022040f, 0.147820f, -0.251980f, 0.021460f, 0.060890f, -0.159640f, 0.176950f, -0.001860f, -0.053290f, -0.088020f, 0.179460f, -0.083770f, 0.154540f, 0.098270f, -0.077080f, 0.163500f, -0.106370f, -0.086150f, -0.069910f, 0.087400f, -0.076800f, -0.009810f, 0.018290f, 0.005600f, -0.078870f, -0.077060f, -0.110160f, 0.141140f, 0.185180f, -0.195730f, -0.026380f, 0.139270f, -0.081450f, 0.083860f, 0.024270f, 0.180450f, -0.184780f, -0.067360f, 0.026440f, 0.092770f, 0.192110f, -0.095170f, 0.117490f, 0.116030f, -0.117750f, 0.183870f, 0.092480f, 0.173110f, 0.014630f, 0.138650f, -0.014830f, -0.171920f, 0.092320f, -0.044980f, -0.120700f, -0.056000f, 0.171690f, 0.077380f, 0.145840f, -0.142490f, 0.165620f, -0.185850f, 0.170390f, 0.172310f, 0.019780f, 0.214910f, -0.147140f, 0.163450f, 0.183830f, 0.167010f, -0.051410f, 0.016950f, -0.037010f, 0.110090f, 0.126680f, 0.048720f, 0.185280f, 0.176240f, -0.040720f, 0.055430f, 0.020870f, -0.109370f, -0.144650f, 0.032540f, 0.095420f, -0.036220f, -0.111960f, -0.039890f, 0.047590f, -0.105550f, 0.002660f, 0.223740f, -0.153500f, 0.031680f, -0.146270f, -0.147750f, 0.145720f, 0.022060f, 0.046790f, 0.137130f, -0.130030f, -0.103680f, 0.019410f, -0.092120f, -0.045410f, 0.191990f, -0.188750f, -0.038730f, -0.049490f, 0.156350f, 0.059290f, 0.163270f, -0.135430f, -0.171150f, 0.083670f, -0.156520f, 0.176210f, -0.084720f, -0.153420f, -0.171250f, 0.075030f, 0.130790f, -0.116860f, -0.022400f, 0.130030f, 0.169670f, -0.123620f, -0.022190f, -0.067720f, 0.202220f, 0.173470f, -0.082590f, -0.115450f, -0.085600f, -0.145100f, -0.136890f, -0.108030f, 0.091410f, -0.079700f, -0.119180f, -0.157610f, 0.081870f, 0.113920f, 0.109310f, 0.086720f, 0.019370f, 0.096050f, 0.162090f, -0.030870f, 0.109920f, 0.040400f, 0.102340f, -0.116980f, -0.090740f, 0.167060f, 0.132750f, 0.105670f, -0.066420f, -0.050590f, 0.134550f, 0.126720f, -0.065240f, -0.167800f, 0.136880f, 0.169780f, -0.159760f, 0.149500f, 0.094490f, -0.024800f, 0.013000f, -0.169810f, 0.037240f, -0.198560f, -0.054380f, -0.119260f, 0.034880f, -0.126390f, -0.123480f, -0.084790f, 0.138630f, -0.141920f, -0.054500f, 0.078970f, 0.190700f, 0.139890f, 0.038020f, 0.154200f, 0.040620f, -0.029680f, 0.031330f, 0.127160f, 0.065430f, 0.067640f, 0.017000f, -0.188790f, -0.107710f, -0.057120f, -0.099260f, 0.151540f, 0.167360f, -0.113890f, -0.060600f, 0.085670f, -0.098780f, 0.043870f, -0.029900f, 0.113800f, -0.012200f, -0.156730f, 0.102140f, 0.070900f, -0.130780f, 0.258650f, -0.225240f, 0.207300f, -0.150980f, 0.040800f, 0.054270f, -0.043600f, -0.070830f, -0.074210f, 0.102390f, 0.027960f, 0.086860f, 0.051460f, -0.120800f, 0.107450f, 0.178140f, 0.099970f, 0.134980f, 0.161100f, -0.156250f, -0.157660f, -0.091150f, 0.144550f, -0.145060f, -0.088920f, 0.046590f, -0.041910f, 0.000140f, -0.172730f, -0.163800f, 0.150960f, 0.112430f, 0.087040f, -0.165680f, -0.077310f, 0.032930f, -0.081640f, 0.124180f, 0.010370f, -0.068210f, 0.028670f, 0.167260f, 0.005980f, 0.123720f, -0.060920f, -0.031620f, -0.020010f, -0.167230f, -0.052320f, 0.028070f, -0.123920f, -0.140080f, -0.092280f, -0.147090f, 0.187800f, 0.089620f, 0.054500f, -0.038170f, -0.104190f, -0.049230f, -0.178080f, 0.130690f, 0.003570f, -0.026440f, -0.025480f, 0.085060f, -0.168230f, -0.002280f, -0.007120f, 0.143950f, -0.132040f, 0.172910f, 0.019120f, 0.042800f, 0.148400f, -0.100410f, 0.104990f, -0.068170f, 0.012060f, -0.128950f, -0.084480f, -0.115270f, 0.066950f, 0.012980f, -0.186840f, 0.139210f, 0.165210f, -0.163880f, -0.190160f, 0.147000f, 0.174950f, -0.152940f, 0.041280f, -0.023740f, 0.177850f, -0.075620f, 0.181330f, 0.081020f, 0.169370f, -0.092140f, -0.002390f, 0.078330f, 0.099860f, -0.125580f, -0.038870f, 0.121460f, 0.173260f, 0.070770f, -0.166840f, -0.057910f, 0.002930f, 0.022180f, -0.122880f, -0.158300f, 0.131630f, 0.146450f, -0.163560f, -0.110500f, -0.073980f, -0.105390f, 0.138230f, 0.003930f, -0.071820f, 0.179930f, -0.064650f, 0.144890f, -0.117450f, -0.190280f, -0.193690f, 0.067120f, 0.022620f, 0.107980f, 0.131710f, -0.089930f, 0.117260f, -0.148220f, -0.194380f, 0.085960f, 0.065950f, -0.050350f, 0.116280f, 0.237510f, 0.082580f, 0.002490f, -0.024860f, 0.185180f, 0.205890f, 0.126740f, 0.108850f, -0.136620f, 0.091270f, 0.249640f, 0.101830f, 0.198970f, -0.070840f, 0.125980f, 0.041660f, 0.066880f, 0.194460f, -0.049180f, -0.104910f, 0.284150f, -0.146720f, -0.087080f, -0.024020f, 0.104790f, -0.135920f, 0.274340f, -0.052120f, -0.160330f, -0.041120f, 0.004550f, 0.146810f, 0.136890f, 0.080790f, 0.174280f, 0.089530f, 0.084040f, 0.027350f, -0.185620f, 0.192770f, -0.017700f, 0.003300f, -0.153570f, 0.175250f, 0.173560f, -0.133210f, 0.161640f, 0.110540f, 0.029720f, -0.188450f, 0.174070f, 0.137280f, -0.113910f, -0.084190f, -0.004440f, -0.073280f, 0.100280f, -0.133170f, 0.138780f, 0.037780f, -0.004380f, -0.107020f, 0.089080f, -0.156230f, 0.090800f, 0.201670f, -0.049740f, 0.116090f, -0.137150f, -0.095370f, -0.064450f, -0.154580f, 0.118880f, -0.140090f, 0.115650f, 0.106600f, 0.166310f, -0.050440f, 0.100600f, -0.164910f, -0.169470f, 0.237230f, -0.132860f, 0.112440f, 0.052690f, -0.110700f, -0.066460f, 0.070490f, 0.013760f, 0.180870f, -0.106560f, 0.044610f, -0.123840f, 0.127410f, -0.171830f, 0.019930f, 0.146690f, 0.046780f, 0.090320f, 0.011160f, 0.109450f, -0.088300f, 0.088630f, -0.116240f, -0.158390f, -0.004540f, 0.036220f, 0.094360f, -0.043980f, 0.050830f, -0.125640f, -0.182230f, -0.174210f, -0.126320f, -0.134850f, 0.248660f, 0.299470f, 0.032270f, 0.125390f, -0.182880f, 0.192370f, -0.177240f, 0.255640f, 0.180870f, 0.044980f, -0.189680f, -0.079550f, -0.079650f, 0.086020f, -0.089740f, -0.193150f, -0.077790f, 0.114640f, 0.064750f, 0.041560f, -0.134200f, -0.015940f, -0.051390f, -0.111260f, 0.128670f, 0.062470f, -0.023330f, -0.129610f, 0.172370f, 0.059410f, 0.091720f, 0.153760f, 0.094890f, -0.047050f, 0.097820f, 0.097550f, -0.181550f, 0.055610f, -0.063500f, 0.115340f, -0.097790f, 0.041220f, 0.132200f, 0.070500f, 0.154830f, -0.061290f, 0.070730f, 0.098750f, 0.043020f, -0.183170f, 0.096830f, -0.086840f, -0.161990f, -0.064460f, 0.030850f, 0.105400f, 0.013430f, -0.048930f, -0.149820f, -0.018690f, 0.045790f, 0.022830f, -0.120240f, 0.006040f, -0.088260f, -0.192240f, -0.148870f, -0.055140f, -0.193090f, 0.046560f, 0.055670f, 0.057150f, 0.007410f, 0.194600f, -0.173120f, 0.182630f, -0.147970f, -0.002960f, 0.060850f, 0.079090f, 0.046190f, 0.116230f, -0.105830f, 0.067340f, -0.019350f, 0.042910f, 0.108280f, 0.130670f, -0.072300f, -0.099110f, 0.172400f, 0.163860f, 0.007650f, -0.065180f, 0.275260f, 0.032980f, 0.127400f, 0.099530f, -0.088590f, 0.074270f, -0.063950f, 0.039680f, -0.168870f, 0.023950f, -0.088230f, 0.107480f, 0.173410f, 0.193100f, -0.032550f, -0.189760f, 0.022330f, -0.079360f, -0.055900f, 0.036770f, -0.187050f, -0.173860f, 0.136310f, -0.068610f, 0.155690f, 0.084040f, -0.025780f, 0.018050f, -0.095510f, 0.040350f, -0.005890f, 0.147580f, 0.135130f, 0.167310f, -0.096970f, 0.111940f, 0.091500f, -0.148910f, -0.110120f, 0.071930f, -0.059670f, 0.033610f, 0.135820f, -0.040380f, -0.140500f, -0.142440f, -0.164180f, 0.032720f, 0.246970f, -0.143520f, 0.180350f, 0.121480f, -0.062070f, -0.052130f, -0.180960f, 0.091070f, -0.149170f, 0.097190f, 0.198090f, 0.072190f, -0.136150f, -0.177170f, -0.032220f, 0.103610f, 0.029340f, 0.022950f, -0.026670f, 0.019740f, 0.214930f, -0.016460f, -0.131490f, -0.007330f, -0.181180f, -0.060090f, -0.050730f, 0.001910f, 0.055450f, -0.185070f, -0.090230f, -0.105180f, 0.132450f, 0.030590f, 0.104900f, 0.028680f, -0.165980f, -0.104040f, 0.095320f, -0.030400f, 0.047030f, 0.159230f, -0.004210f, -0.054400f, 0.135150f, 0.052490f, 0.049130f, -0.178710f, 0.052170f, -0.153510f, 0.109590f, -0.130850f, -0.094800f, -0.016790f, -0.102180f, -0.187220f, -0.189980f, 0.185990f, 0.149080f, 0.097320f, -0.045700f, -0.174920f, -0.048030f, 0.032410f, 0.048330f, -0.185240f, -0.193860f, 0.065080f, 0.110370f, 0.226070f, -0.134920f, -0.030870f, 0.181280f, 0.089910f, -0.187690f, -0.020100f, -0.106130f, -0.055240f, -0.097850f, -0.155580f, 0.157280f, 0.137380f, 0.076060f, -0.004440f, -0.056070f, 0.055750f, -0.010990f, 0.069980f, -0.095340f, 0.215240f, -0.114020f, -0.038940f, 0.129330f, -0.095610f, -0.134570f, -0.101040f, -0.134600f, -0.004700f, -0.113480f, -0.090320f, -0.117660f, 0.044300f, -0.141300f, 0.174730f, -0.191770f, 0.061190f, 0.120060f, -0.180130f, -0.124740f, 0.159750f, 0.047000f, -0.033610f, 0.133900f, 0.082520f, -0.171640f, -0.193460f, 0.128010f, -0.067440f, 0.012250f, 0.012490f, 0.032920f, 0.066750f, -0.049960f, 0.017970f, 0.173050f, 0.142450f, 0.058710f, 0.108470f, -0.111230f, -0.183070f, -0.181530f, -0.160170f, 0.160820f, 0.143450f, 0.097000f, -0.147310f, 0.091530f, 0.221300f, -0.027410f, 0.051980f, -0.128940f, 0.099970f, 0.036850f, -0.065260f, -0.100180f, -0.167010f, 0.150250f, 0.005880f, -0.069760f, 0.150910f, -0.168990f, 0.104110f, 0.123150f, -0.041360f, -0.135440f, 0.064460f, 0.164540f, 0.136880f, -0.083050f, 0.163290f, -0.152020f, 0.073490f, 0.124750f, -0.046530f, -0.031140f, -0.078090f, 0.116590f, -0.097550f, -0.190580f, -0.063560f, -0.041770f, 0.188820f, -0.006910f, 0.150150f, -0.143920f, 0.104010f, -0.014780f, -0.177680f, 0.124350f, -0.083340f, -0.158590f, 0.116750f, -0.110710f, 0.052320f, 0.159830f, 0.170960f, 0.075300f, 0.046680f, -0.047090f, -0.073160f, -0.036280f, -0.069020f, 0.070390f, 0.155680f, 0.017390f, 0.015540f, -0.139550f, 0.000230f, 0.126320f, -0.011900f, 0.059320f, -0.118570f, 0.111470f, 0.172360f, -0.062120f, -0.167930f, -0.094900f, 0.176540f, -0.166190f, 0.064080f, 0.066950f, 0.181590f, 0.100910f, 0.007600f, -0.110380f, -0.112760f, -0.150880f, 0.058210f, -0.017880f, 0.157900f, -0.127000f, 0.001330f, -0.155110f, 0.171850f, 0.048960f, 0.146210f, -0.099790f, -0.120330f, 0.055620f, 0.153000f, -0.187130f, -0.127100f, 0.067160f, -0.048390f, -0.122550f, 0.116570f, -0.072590f, 0.027860f, -0.081180f, -0.181390f, -0.151430f, 0.050400f, -0.089180f, 0.190670f, 0.019240f, -0.119930f, -0.093700f, 0.158750f, -0.105520f, -0.143670f, 0.007990f, -0.038930f, -0.094420f, 0.166870f, 0.121870f, -0.014700f, -0.056390f, 0.078870f, -0.057720f, 0.001610f, 0.016570f, 0.178570f, -0.129170f, 0.053150f, 0.035360f, 0.001810f, -0.048270f, 0.046300f, 0.186770f, 0.013280f, -0.185630f, 0.133610f, -0.120760f, 0.099400f, -0.120910f, -0.118870f, -0.011780f, 0.006960f, 0.160900f, -0.033420f, -0.081410f, -0.151790f, -0.003020f, -0.048840f, -0.146830f, -0.148800f, -0.049830f, 0.007140f, 0.186950f, -0.017450f, 0.191280f, 0.022080f, 0.013500f, -0.131900f, -0.067530f, 0.027940f, 0.081680f, -0.160870f, 0.086820f, -0.106130f, -0.150770f, -0.054410f, 0.108210f, -0.034520f, 0.144830f, -0.062660f, -0.076010f, 0.104220f, -0.122510f, -0.097270f, 0.153170f, -0.066400f, -0.187740f, 0.228140f, -0.173440f, 0.025950f, 0.090660f, -0.093310f, -0.099650f, -0.093000f, -0.010910f, 0.056650f, -0.188860f, -0.153410f, 0.003130f, -0.127330f, 0.097030f, -0.081830f, 0.132430f, -0.012300f, -0.186910f, 0.186260f, -0.142180f, -0.151620f, 0.009620f, -0.070300f, 0.000880f, 0.091990f, -0.004110f, 0.147480f, 0.015830f, -0.048220f, 0.093900f, -0.132570f, -0.127040f, 0.064750f, -0.077770f, -0.028100f, -0.122680f, -0.123430f, -0.196520f, -0.077540f, -0.040960f, 0.033390f, 0.160370f, -0.182490f, 0.114550f, 0.007480f, 0.095390f, 0.011540f, 0.152200f, -0.087610f, 0.165830f, 0.095100f, -0.160480f, 0.108150f, -0.187840f, -0.096970f, 0.022580f, -0.062740f, 0.104300f, -0.202390f, 0.156020f, 0.018140f, 0.192960f, -0.063960f, 0.131740f, 0.208290f, 0.179770f, 0.084730f, -0.177180f, -0.061760f, 0.076840f, -0.052060f, -0.017230f, 0.118780f, -0.139460f, -0.135690f, -0.188540f, 0.010140f, -0.082480f, 0.056650f, 0.028140f, -0.001330f, 0.061380f, -0.071500f, -0.156340f, -0.165980f, 0.096510f, 0.086040f, -0.026350f, 0.073650f, -0.146670f, -0.013550f, 0.044990f, -0.128860f, -0.039680f, 0.155860f, 0.128370f, 0.138670f, -0.037720f, -0.016720f, -0.031400f, 0.158330f, 0.031920f, -0.056570f, 0.205490f, -0.150620f, -0.152550f, -0.086610f, 0.104600f, 0.090570f, 0.025470f, 0.003380f, -0.088710f, -0.107160f, -0.100710f, -0.072100f, -0.149940f, -0.099620f, 0.119050f, 0.029440f, 0.015490f, 0.122870f, 0.021320f, 0.148610f, -0.037430f, -0.085860f, 0.101840f, -0.090190f, -0.093330f, -0.034750f, 0.117210f, 0.002630f, 0.028040f, 0.156630f, 0.023900f, -0.209170f, -0.166870f, 0.144530f, 0.036510f, 0.144580f, -0.153680f, -0.077280f, -0.166630f, 0.074070f, -0.132310f, 0.426460f, -0.205290f, -0.110240f, 0.059090f, -0.228970f, 0.044660f, 0.027010f, 0.400690f, -0.142360f, -0.033490f, 0.647120f, -0.609600f, -0.028120f, -0.045370f, 0.432150f, -0.126850f, 0.094190f, -0.246080f, -0.259220f, 0.157130f, 0.058180f, 0.105390f, 0.128630f, 0.025970f, -0.175020f, -0.074200f, -0.217320f, 0.014150f, 0.077100f, 0.045120f, -0.077050f, -0.052010f, 0.004310f, 0.121690f, -0.050350f, 0.163370f, 0.154540f, -0.037030f, 0.081380f, -0.264370f, -0.115390f, 0.159520f, 0.030390f, 0.025040f, 0.014250f, -0.171020f, -0.134640f, 0.123730f, 0.173140f, 0.277150f, 0.078570f, -0.044430f, -0.053130f, 0.174720f, -0.192860f, -0.334920f, -0.062460f, -0.027610f, 0.023120f, 0.248830f, -0.064390f, -0.053340f, 0.160570f, 0.013960f, -0.039410f, -0.189460f, -0.146330f, -0.068090f, 0.052900f, -0.051150f, -0.109980f, -0.236150f, -0.053520f, 0.105240f, -0.097910f, -0.183100f, 0.078380f, -0.138850f, 0.228790f, -0.053750f, -0.085080f, -0.017630f, 0.086630f, 0.000440f, 0.142700f, 0.035330f, 0.244790f, -0.051990f, 0.181980f, 0.161840f, -0.014410f, 0.069330f, -0.168950f, -0.174460f, 0.185870f, -0.038410f, -0.174640f, -0.103630f, 0.165990f, -0.136310f, -0.087590f, -0.014830f, -0.132610f, -0.180910f, 0.041330f, -0.109980f, 0.154810f, 0.088520f, 0.044750f, 0.185940f, 0.123990f, -0.189290f, -0.233520f, 0.123990f, -0.122950f, -0.109770f, -0.063280f, -0.166630f, 0.137650f, -0.173710f, 0.078590f, 0.170720f, -0.291360f, -0.033010f, 0.163230f, 0.069550f, -0.138220f, 0.150620f, -0.205690f, -0.073760f, -0.277720f, 0.140010f, 0.151580f, -0.193510f, 0.168370f, -0.300650f, -0.053700f, 0.287540f, -0.341970f, 0.369430f, -0.150960f, -0.121760f, -0.266010f, -0.005160f, -0.011010f, -0.084860f, -0.080770f, -0.051660f, -0.008680f, 0.103310f, -0.072160f, 0.054410f, -0.037480f, -0.092580f, 0.161970f, 0.128850f, -0.103300f, -0.079280f, -0.132580f, 0.110190f, -0.048990f, -0.093440f, 0.139190f, 0.061460f, 0.171480f, -0.067480f, 0.102170f, 0.040030f, 0.123070f, 0.126170f, 0.184930f, -0.065450f, 0.163480f, 0.047090f, 0.079950f, 0.104370f, 0.184290f, 0.078940f, 0.000500f, -0.092290f, -0.171630f, 0.057280f, -0.169240f, -0.124220f, -0.113700f, -0.118810f, 0.170850f, -0.011290f, 0.165800f, -0.055270f, 0.178860f, 0.031490f, 0.117520f, -0.010140f, 0.138300f, -0.104410f, -0.053180f, 0.009840f, 0.084770f, -0.045460f, -0.021900f, -0.127110f, -0.135920f, 0.086690f, -0.016860f, -0.097220f, -0.031240f, 0.187110f, 0.061440f, -0.183870f, -0.066780f, -0.030810f, 0.009240f, -0.102870f, -0.172470f, -0.161440f, -0.072900f, 0.091520f, 0.071380f, 0.067830f, -0.159780f, -0.034920f, 0.113890f, -0.036340f, -0.052990f, 0.180400f, -0.113380f, 0.000590f, -0.156400f, 0.115700f, 0.178650f, -0.034960f, 0.192230f, 0.047170f, -0.022080f, 0.112260f, -0.137090f, -0.088120f, 0.130070f, -0.048550f, -0.032610f, -0.082270f, -0.115510f, -0.111670f, -0.011540f, 0.113400f, -0.015760f, 0.132410f, 0.158790f, -0.065510f, -0.052680f, 0.061390f, -0.152430f, 0.119890f, -0.013320f, 0.169140f, 0.163120f, 0.044050f, 0.103000f, 0.170250f, -0.005710f, -0.051400f, -0.130970f, -0.016660f, 0.030500f, 0.047910f, 0.050060f, 0.136930f, -0.095730f, -0.039150f, -0.141380f, 0.137880f, -0.135610f, 0.191060f, 0.092610f, -0.070690f, 0.014750f, -0.119150f, 0.103920f, 0.117410f, 0.156450f, 0.117370f, 0.002090f, 0.069990f, -0.131270f, 0.179340f, -0.131760f, 0.001150f, -0.086610f, -0.184590f, 0.142570f, 0.153700f, -0.176220f, -0.123230f, 0.131380f, -0.006300f, -0.082280f, 0.168980f, -0.076460f, -0.136560f, -0.042610f, -0.146210f, -0.124300f, 0.153780f, 0.058800f, -0.034050f, -0.010130f, 0.024340f, -0.161100f, -0.120060f, 0.132390f, -0.018590f, -0.082760f, -0.124280f, 0.188400f, -0.077870f, 0.094490f, 0.122090f, -0.076010f, -0.132710f, 0.107360f, 0.060470f, -0.108270f, -0.044960f, -0.002070f, 0.159660f, 0.123220f, 0.202210f, -0.172600f, -0.035130f, 0.192670f, 0.202130f, 0.081020f, -0.075150f, 0.060920f, -0.144600f, -0.014240f, 0.108220f, 0.155710f, 0.058720f, -0.090750f, 0.027870f, 0.103510f, -0.013150f, 0.000130f, -0.070940f, 0.166130f, -0.163050f, 0.122650f, 0.036690f, 0.117180f, -0.166540f, 0.043700f, -0.037610f, 0.166420f, -0.048520f, 0.080550f, -0.112800f, -0.006570f, -0.023680f, 0.039890f, 0.040240f, -0.028070f, 0.093880f, 0.086900f, 0.087070f, 0.186370f, 0.122250f, 0.046590f, -0.002210f, 0.129500f, 0.108710f, 0.110860f, 0.099920f, 0.070250f, 0.158030f, -0.057170f, 0.106690f, 0.070040f, -0.005780f, -0.132670f, -0.088380f, -0.111370f, -0.143630f, 0.146230f, 0.008910f, 0.018640f, -0.185790f, 0.148940f, 0.017230f, -0.059450f, 0.142540f, 0.085880f, -0.005770f, 0.133290f, 0.076540f, 0.120650f, -0.078090f, 0.181690f, 0.154540f, 0.021970f, 0.007750f, 0.043790f, 0.053730f, -0.117850f, -0.074500f, -0.123740f, -0.107020f, 0.069430f, 0.047190f, 0.124150f, 0.151810f, 0.065870f, -0.064020f, -0.186730f, 0.099970f, -0.011030f, -0.027790f, 0.099060f, 0.080550f, -0.023940f, -0.040690f, -0.164940f, -0.143650f, 0.002940f, 0.144970f, 0.147790f, 0.008970f, 0.087560f, -0.050820f, -0.064190f, -0.170650f, 0.093880f, -0.055570f, -0.152500f, -0.091300f, 0.092740f, -0.102000f, -0.010160f, 0.005140f, 0.150440f, 0.042710f, -0.103950f, 0.120860f, 0.037710f, 0.121090f, 0.080480f, 0.166620f, 0.090190f, -0.058700f, -0.037400f, 0.192590f, 0.137590f, 0.015090f, -0.156060f, 0.057910f, -0.100300f, -0.093650f, 0.170730f, -0.086450f, 0.114800f, -0.128030f, 0.051830f, 0.066540f, 0.081680f, 0.107270f, 0.012360f, 0.122870f, 0.187660f, 0.124590f, -0.157490f, -0.027540f, -0.019440f, -0.191180f, 0.131840f, -0.046960f, -0.058980f, 0.010710f, -0.021540f, 0.106520f, 0.140730f, 0.028430f, -0.137290f, -0.122390f, -0.076770f, -0.004830f, 0.089530f, -0.100820f, -0.074270f, 0.024140f, -0.128740f, 0.047490f, -0.105820f, 0.137070f, -0.086270f, 0.007420f, -0.142560f, 0.134380f, 0.123220f, 0.143370f, -0.106820f, -0.033460f, -0.067540f, 0.203010f, -0.038510f, 0.002010f, 0.199410f, 0.007290f, 0.142960f, 0.157340f, -0.093760f, 0.143840f, -0.057790f, 0.015770f, 0.115240f, 0.006610f, -0.103520f, 0.011860f, 0.176420f, -0.036940f, -0.086150f, -0.076080f, 0.053400f, 0.235040f, 0.039000f, -0.137430f, -0.063630f, -0.074980f, 0.111150f, 0.176840f, 0.046420f, 0.077760f, -0.013470f, -0.080560f, 0.153280f, -0.035210f, 0.041350f, -0.076460f, 0.172750f, -0.057170f, -0.038900f, 0.069810f, -0.043220f, 0.015650f, -0.016610f, -0.155660f, -0.060380f, 0.025530f, 0.055060f, -0.164900f, 0.187750f, -0.119590f, -0.105630f, 0.101430f, 0.156510f, 0.151440f, -0.108740f, -0.129800f, -0.122460f, 0.162320f, 0.014520f, 0.077450f, -0.129760f, 0.151040f, -0.156000f, -0.120550f, 0.079650f, -0.011020f, 0.035730f, 0.058460f, -0.124170f, 0.160520f, 0.044530f, -0.042250f, 0.034030f, -0.004410f, -0.100720f, 0.167730f, -0.110270f, -0.011940f, -0.041750f, 0.088180f, -0.034430f, 0.175380f, -0.179140f, 0.176930f, 0.003700f, 0.035570f, -0.119280f, -0.047450f, 0.094950f, 0.120470f, -0.024900f, 0.167670f, -0.019790f, 0.011970f, 0.000700f, -0.183860f, 0.029260f, -0.032900f, 0.060030f, 0.074080f, -0.001290f, 0.146480f, 0.162350f, -0.064730f, -0.037370f, -0.051030f, -0.097550f, 0.055430f, 0.192430f, 0.070080f, 0.093630f, -0.165720f, -0.152510f, 0.170600f, 0.154390f, 0.040110f, -0.058100f, 0.122290f, 0.132300f, -0.160250f, 0.074980f, -0.137240f, 0.052700f, -0.079900f, 0.113940f, 0.035580f, 0.007500f, 0.169190f, -0.188490f, 0.147520f, 0.066860f, 0.152530f, 0.147550f, 0.024140f, 0.102680f, 0.002720f, 0.142600f, -0.152890f, -0.128630f, -0.129280f, 0.051300f, -0.176680f, -0.188680f, 0.049540f, -0.020740f, -0.061210f, 0.098850f, 0.130370f, 0.108770f, -0.001310f, -0.010210f, -0.157260f, 0.009290f, 0.098980f, 0.117650f, -0.155350f, 0.191730f, -0.025740f, 0.071940f, -0.132310f, 0.102360f, -0.193120f, -0.147210f, 0.008780f, -0.115930f, -0.030820f, -0.157060f, 0.064860f, 0.030020f, 0.127090f, -0.153240f, -0.096030f, -0.099320f, -0.179910f, -0.104330f, -0.054440f, -0.111760f, -0.013050f, -0.053950f, 0.141660f, -0.138530f, -0.012940f, -0.009430f, 0.012400f, -0.056040f, -0.004060f, 0.154850f, 0.097250f, 0.122540f, -0.108960f, -0.092860f, -0.016340f, 0.130600f, 0.071040f, 0.029800f, 0.123310f, 0.118550f, -0.163160f, -0.114960f, -0.062510f, -0.079070f, 0.113900f, 0.073610f, 0.046870f, -0.124980f, 0.152830f, 0.074890f, 0.180460f, -0.024860f, 0.105920f, 0.189260f, -0.159780f, -0.111510f, -0.015070f, 0.151170f, -0.145120f, 0.174300f, -0.188880f, 0.015970f, 0.155630f, -0.055100f, -0.182370f, 0.035950f, 0.129720f, -0.048920f, 0.002600f, -0.046500f, 0.070300f, 0.016420f, 0.171600f, 0.014590f, -0.064020f, 0.055540f, 0.111560f, -0.127390f, 0.191520f, 0.178240f, 0.065630f, 0.136890f, 0.104740f, 0.188170f, -0.074730f, -0.060200f, 0.013840f, 0.076850f, 0.168110f, 0.021630f, 0.026420f, 0.104030f, -0.084630f, -0.188690f, 0.182820f, -0.090660f, 0.032030f, -0.066050f, 0.152770f, -0.067020f, -0.031060f, 0.134050f, -0.097940f, 0.089940f, 0.175680f, 0.174920f, -0.147200f, 0.032480f, -0.067280f, -0.138210f, 0.092510f, 0.166880f, -0.176540f, -0.087720f, 0.103850f, -0.155570f, 0.195220f, 0.091320f, 0.073870f, 0.117980f, 0.093530f, 0.058620f, -0.039700f, -0.145860f, 0.101310f, 0.028670f, -0.045290f, 0.040520f, -0.006360f, -0.128200f, 0.102000f, -0.100190f, -0.061430f, -0.034470f, 0.180160f, 0.001410f, 0.151650f, -0.156430f, -0.009700f, -0.152830f, -0.119220f, 0.092930f, -0.172100f, -0.173460f, -0.128780f, 0.131590f, -0.024330f, -0.076240f, 0.037510f, 0.166630f, 0.068180f, -0.094680f, 0.049700f, 0.003030f, -0.189490f, -0.107690f, 0.009040f, 0.130560f, 0.137410f, 0.184590f, -0.072050f, -0.178850f, 0.100940f, 0.123720f, -0.156050f, -0.026770f, 0.040730f, 0.125200f, -0.027360f, 0.177280f, 0.058690f, -0.036000f, -0.094450f, -0.059140f, 0.117850f, -0.119760f, -0.127020f, 0.147720f, -0.148500f, -0.076780f, 0.033670f, 0.098380f, -0.133350f, -0.135930f, -0.101460f, -0.174500f, 0.170760f, 0.119920f, -0.097790f, 0.219850f, 0.186240f, -0.046910f, -0.094410f, 0.050760f, 0.179760f, 0.122330f, -0.129210f, -0.155240f, -0.083940f, -0.179870f, 0.087830f, 0.038490f, -0.155230f, 0.042280f, 0.149310f, 0.082680f, 0.124440f, 0.005260f, 0.099010f, 0.102620f, -0.039440f, -0.124520f, 0.164110f, -0.168730f, -0.074490f, -0.020090f, -0.024970f, 0.111440f, -0.060330f, 0.126930f, 0.187240f, -0.014290f, 0.115340f, 0.128090f, -0.113320f, -0.006870f, 0.141630f, -0.067340f, -0.094100f, -0.047810f, 0.086860f, -0.043300f, -0.160530f, 0.124650f, 0.014280f, 0.193530f, 0.071130f, -0.010540f, -0.112400f, -0.026790f, -0.193020f, 0.120930f, -0.136350f, -0.085080f, -0.033280f, -0.017070f, -0.101380f, -0.174880f, -0.053490f, 0.142540f, -0.182610f, -0.024900f, 0.156700f, 0.129430f, 0.001940f, -0.134100f, -0.125780f, 0.028870f, 0.052180f, 0.079240f, 0.134380f, -0.034620f, 0.042470f, -0.085500f, 0.186150f, 0.174710f, 0.106660f, 0.144570f, 0.072510f, -0.100290f, -0.047270f, 0.144170f, 0.048290f, 0.113070f, -0.101510f, 0.012820f, -0.172730f, 0.168910f, -0.021440f, 0.012250f, 0.074320f, -0.032030f, -0.031420f, -0.131690f, -0.148950f, -0.018810f, 0.101860f, 0.080740f, -0.176410f, 0.091730f, 0.156600f, 0.144670f, 0.030290f, -0.103820f, -0.115680f, 0.064120f, -0.094840f, -0.096510f, -0.081900f, -0.163100f, 0.143290f, 0.031720f, -0.171000f, -0.020210f, 0.093740f, -0.105090f, -0.038030f, 0.149390f, -0.020890f, 0.127400f, 0.058140f, -0.133730f, -0.108380f, 0.131580f, -0.094660f, 0.116380f, 0.015110f, 0.191790f, 0.097960f, 0.137710f, -0.150010f, -0.099390f, 0.067520f, 0.224190f, 0.225440f, -0.083980f, -0.130750f, -0.001260f, 0.007130f, 0.219530f, -0.004900f, 0.088770f, -0.092340f, 0.023040f, -0.170710f, -0.090350f, 0.093720f, 0.178510f, 0.165030f, 0.007520f, -0.074850f, 0.101590f, 0.134410f, -0.093560f, -0.121560f, 0.197350f, -0.067870f, -0.091490f, -0.025420f, -0.058740f, -0.017300f, 0.090080f, -0.074020f, -0.023590f, 0.025970f, 0.017130f, 0.037530f, 0.089190f, 0.068470f, -0.093150f, 0.184870f, 0.068970f, -0.151930f, 0.092550f, -0.046800f, -0.065190f, 0.035660f, -0.031390f, -0.170600f, 0.174870f, 0.065320f, 0.131700f, -0.092410f, 0.052820f, 0.192180f, 0.091340f, -0.131870f, -0.093640f, -0.052990f, -0.148960f, -0.108340f, 0.037210f, 0.006980f, 0.039820f, 0.120970f, 0.093890f, -0.003430f, 0.051720f, -0.072630f, 0.172990f, 0.159380f, -0.107150f, -0.129960f, 0.168150f, -0.004250f, 0.003770f, 0.092720f, -0.058290f, 0.072270f, 0.029960f, -0.078990f, -0.191330f, 0.054440f, 0.183300f, 0.025620f, 0.178310f, -0.010300f, 0.147890f, -0.049070f, -0.148920f, -0.145020f, -0.134320f, 0.177730f, 0.093080f, 0.061110f, -0.031030f, -0.093110f, 0.014940f, -0.162390f, -0.007460f, -0.118950f, 0.183740f, 0.044640f, 0.085120f, -0.117200f, 0.043250f, 0.003030f, -0.040950f, -0.051730f, 0.133910f, 0.014250f, 0.114370f, -0.058660f, 0.192440f, 0.043880f, 0.128120f, 0.153330f, -0.163880f, -0.119310f, 0.004620f, 0.018560f, 0.168250f, 0.167610f, -0.177060f, 0.119880f, 0.118980f, -0.189910f, 0.093250f, -0.081160f, 0.045490f, -0.036270f, -0.174280f, -0.092650f, 0.006360f, 0.131890f, 0.073720f, 0.015570f, -0.103880f, -0.127860f, 0.124750f, -0.013950f, -0.091630f, 0.127200f, -0.161560f, 0.088670f, -0.120040f, -0.112220f, 0.163140f, -0.125940f, 0.136960f, 0.112430f, -0.117810f, 0.125890f, -0.147700f, 0.116740f, -0.010560f, 0.191510f, 0.103120f, 0.043230f, 0.108360f, -0.137680f, 0.067000f, 0.036830f, -0.056170f, -0.070270f, -0.052890f, 0.109450f, -0.121340f, 0.063920f, 0.064250f, 0.019780f, -0.150930f, 0.115750f, 0.105450f, -0.105290f, 0.040720f, -0.043460f, 0.103890f, -0.083270f, -0.033690f, 0.038390f, 0.104850f, -0.135820f, 0.159880f, -0.035900f, 0.049850f, 0.123480f, 0.026940f, -0.088430f, -0.083400f, 0.142320f, -0.050780f, -0.126420f, -0.056380f, 0.099970f, 0.024770f, 0.001760f, -0.142150f, 0.079210f, 0.015160f, -0.153020f, 0.165950f, 0.020200f, 0.124940f, -0.093960f, 0.005690f, -0.085950f, -0.173590f, -0.191470f, 0.148150f, 0.051560f, 0.094080f, 0.145430f, -0.091610f, 0.076600f, -0.092620f, -0.036630f, 0.133530f, -0.156400f, -0.008190f, -0.130970f, 0.122130f, -0.005770f, -0.092060f, 0.097190f, -0.020590f, -0.071320f, -0.012290f, -0.067160f, 0.030460f, -0.114390f, 0.134400f, 0.054830f, -0.189680f, -0.159150f, 0.075150f, -0.040490f, -0.163000f, -0.180670f, 0.020670f, 0.028250f, -0.015120f, -0.069860f, 0.089020f, 0.034870f, -0.060170f, -0.095220f, 0.106880f, -0.027610f, 0.064270f, 0.088900f, 0.020820f, 0.169600f, -0.142330f, 0.185230f, 0.138890f, -0.036210f, -0.116830f, 0.074110f, 0.119050f, -0.044130f, -0.049520f, -0.160860f, 0.004570f, -0.072160f, -0.073460f, -0.028780f, -0.181000f, -0.162230f, -0.140440f, -0.088700f, 0.132190f, 0.121570f, 0.133220f, -0.188940f, -0.087010f, -0.106270f, 0.030720f, 0.148030f, -0.152110f, -0.084620f, 0.071560f, -0.013400f, 0.077210f, -0.031240f, -0.003340f, -0.043510f, -0.002290f, -0.056340f, -0.104130f, -0.005730f, 0.062590f, 0.086190f, -0.174960f, -0.129400f, -0.004630f, 0.008460f, 0.074880f, -0.081210f, -0.183480f, 0.027290f, 0.005790f, -0.138210f, 0.121820f, 0.153170f, 0.108750f, -0.157400f, -0.141170f, 0.227220f, 0.061650f, 0.032330f, -0.094880f, 0.182260f, 0.128100f, -0.118830f, -0.010310f, -0.061080f, 0.126090f, 0.143600f, 0.041670f, -0.052270f, 0.040870f, 0.006640f, 0.150410f, 0.105990f, 0.046260f, -0.172090f, -0.116010f, -0.168060f, 0.100750f, -0.043430f, 0.167340f, 0.041690f, 0.005800f, 0.131060f, 0.001030f, -0.178020f, -0.070350f, 0.008240f, -0.153310f, -0.077530f, -0.009030f, -0.039800f, 0.149960f, 0.037810f, -0.109960f, -0.042000f, 0.114930f, 0.140200f, 0.127900f, 0.125310f, 0.099390f, 0.142060f, 0.189750f, 0.132430f, 0.111150f, 0.006520f, 0.084540f, -0.028130f, -0.176030f, -0.067440f, 0.045350f, 0.118610f, -0.129140f, -0.066440f, -0.107440f, -0.028780f, -0.087770f, -0.191410f, -0.170730f, 0.066460f, -0.162770f, -0.026760f, 0.110970f, 0.012610f, 0.250770f, 0.053450f, -0.152410f, -0.044610f, -0.112180f, -0.034100f, 0.138090f, 0.019730f, -0.141490f, 0.002520f, -0.171660f, -0.006010f, -0.161500f, -0.017970f, 0.149220f, -0.040100f, -0.014050f, 0.172110f, 0.176050f, -0.157540f, 0.002270f, -0.072300f, 0.153380f, 0.015220f, -0.165510f, 0.185170f, -0.069220f, -0.024810f, -0.073190f, 0.019920f, 0.028500f, -0.034610f, -0.128330f, 0.170410f, -0.049930f, 0.192120f, 0.181170f, 0.170770f, -0.112830f, -0.012270f, -0.190790f, -0.159420f, -0.086910f, 0.114100f, 0.176260f, -0.004350f, 0.135570f, 0.065940f, 0.054250f, -0.130430f, 0.155510f, 0.060780f, -0.092550f, -0.114130f, 0.191920f, 0.135250f, 0.157060f, 0.081220f, 0.193100f, 0.188450f, 0.057090f, -0.177450f, 0.138280f, -0.043150f, -0.149380f, -0.188030f, -0.036610f, -0.013200f, -0.003140f, 0.183060f, 0.134960f, -0.109950f, -0.179890f, 0.050660f, -0.162970f, 0.063540f, -0.136080f, 0.116110f, 0.126810f, -0.017900f, 0.144620f, 0.131830f, 0.104360f, 0.109300f, 0.059250f, -0.180950f, 0.160770f, 0.028600f, 0.180470f, -0.178280f, -0.183670f, 0.021720f, -0.131560f, 0.143220f, 0.087950f, -0.098390f, -0.179660f, -0.176030f, -0.133880f, -0.152400f, 0.097680f, -0.021840f, 0.140290f, 0.153570f, 0.159230f, 0.087800f, -0.083190f, 0.122020f, 0.119030f, -0.149730f, 0.004420f, 0.107130f, 0.113640f, 0.021130f, 0.217190f, -0.059140f, -0.167380f, -0.044800f, -0.039510f, -0.157450f, 0.036520f, 0.183750f, 0.021830f, -0.100740f, 0.077590f, 0.291030f, 0.086110f, -0.059040f, 0.166400f, 0.023440f, -0.119290f, -0.106650f, 0.019010f, -0.052010f, -0.068940f, -0.121430f, 0.102690f, 0.011110f, 0.120200f, 0.054670f, -0.052790f, 0.105200f, -0.034820f, 0.140220f, 0.194960f, -0.164670f, -0.151270f, 0.076390f, -0.097760f, 0.026750f, 0.178320f, 0.059980f, -0.090460f, -0.171930f, 0.067860f, 0.134530f, 0.179030f, 0.037910f, -0.118140f, 0.170820f, -0.057220f, -0.109470f, 0.040190f, -0.099580f, -0.196630f, 0.024020f, -0.015510f, 0.122810f, -0.020320f, -0.190100f, 0.023190f, -0.089110f, 0.103980f, 0.113930f, 0.058800f, 0.062580f, 0.131890f, 0.022670f, 0.166890f, 0.193400f, -0.023410f, -0.090350f, 0.072740f, 0.148010f, -0.183380f, -0.086490f, -0.086130f, 0.006670f, -0.147720f, 0.191370f, 0.036210f, -0.167940f, -0.125460f, -0.176990f, -0.018990f, -0.164040f, 0.047570f, -0.027620f, -0.137820f, -0.186300f, 0.075840f, -0.107830f, 0.040310f, -0.143010f, 0.040570f, 0.122420f, -0.132210f, -0.071140f, 0.032340f, 0.132380f, 0.152090f, -0.126330f, -0.070940f, -0.025380f, 0.053160f, 0.090700f, 0.072430f, -0.150500f, -0.004070f, 0.025110f, 0.026690f, -0.073570f, -0.072740f, -0.025960f, -0.131470f, 0.092410f, -0.098210f, -0.153080f, -0.013700f, 0.040470f, 0.087990f, 0.026130f, -0.119530f, 0.168420f, -0.017040f, 0.120360f, -0.026200f, 0.017400f, -0.083140f, 0.001440f, 0.182660f, 0.139810f, 0.067000f, 0.119080f, 0.017180f, 0.119220f, -0.042230f, -0.172230f, -0.076590f, 0.180990f, -0.056700f, 0.108360f, -0.075770f, 0.116830f, -0.032940f, -0.189090f, 0.091090f, 0.076380f, -0.002690f, 0.133640f, 0.175650f, 0.031230f, 0.097550f, 0.188320f, -0.130340f, -0.067810f, -0.078500f, -0.086990f, -0.095240f, -0.023260f, -0.066510f, -0.022350f, 0.185840f, -0.160770f, 0.003670f, 0.016630f, -0.024560f, 0.056010f, -0.080870f, -0.127910f, -0.090520f, 0.147060f, -0.182430f, -0.161800f, -0.156690f, 0.083140f, -0.136480f, 0.080000f, -0.133160f, -0.115230f, 0.034460f, 0.099570f, 0.164140f, 0.058880f, 0.047580f, -0.070740f, 0.017410f, -0.005630f, 0.196750f, -0.075300f, 0.044710f, 0.152140f, -0.037480f, -0.056580f, 0.041000f, -0.184280f, -0.187340f, -0.188230f, -0.136070f, 0.061360f, 0.162320f, 0.171670f, -0.124140f, 0.077680f, -0.057540f, -0.189240f, 0.064780f, -0.077590f, -0.165540f, 0.161500f, -0.042230f, 0.109300f, 0.170370f, -0.084200f, 0.107360f, 0.168080f, -0.013820f, -0.111930f, 0.150930f, 0.170020f, 0.142010f, 0.026130f, 0.000410f, -0.044760f, 0.039060f, 0.000530f, -0.064460f, 0.001020f, 0.192290f, -0.164890f, 0.018780f, -0.073910f, -0.040970f, 0.139890f, 0.139200f, 0.043140f, -0.012070f, 0.074730f, -0.180000f, -0.180260f, -0.049490f, -0.159930f, -0.098730f, -0.071810f, 0.077230f, 0.162780f, 0.121870f, 0.003040f, -0.164700f, -0.129610f, -0.131510f, 0.160010f, -0.016370f, -0.105100f, -0.070290f, 0.076420f, -0.042530f, 0.079190f, -0.104470f, 0.032810f, 0.021160f, 0.064650f, -0.052720f, -0.037560f, 0.075780f, 0.190900f, 0.154550f, 0.029050f, -0.025120f, -0.017790f, -0.035060f, -0.164440f, 0.149300f, -0.106450f, 0.065000f, 0.191400f, 0.065390f, -0.138540f, 0.086770f, -0.042320f, 0.143240f, 0.060980f, 0.111220f, 0.137050f, 0.202190f, -0.135860f, -0.119020f, 0.150940f, -0.062560f, -0.009600f, 0.169910f, 0.106410f, -0.049410f, -0.054070f, 0.043790f, -0.017390f, 0.012210f, 0.172530f, 0.114070f, 0.149630f, 0.068240f, 0.028560f, 0.128710f, -0.070330f, -0.109520f, -0.154370f, -0.164400f, 0.206630f, 0.018130f, -0.086200f, -0.145730f, 0.179920f, -0.068650f, -0.109290f, 0.200440f, -0.131860f, 0.120950f, 0.077970f, 0.019070f, 0.027150f, -0.158720f, 0.126820f, 0.151310f, -0.069240f, -0.059590f, -0.148380f, 0.151020f, 0.190090f, 0.072860f, -0.124530f, 0.068740f, 0.078480f, -0.124310f, -0.100400f, -0.022920f, 0.000850f, 0.017510f, 0.077980f, -0.040820f, 0.125010f, 0.056710f, -0.023540f, 0.175420f, -0.194650f, 0.149610f, 0.126910f, 0.208420f, -0.054360f, 0.044470f, 0.031360f, 0.169850f, -0.151400f, 0.005780f, -0.020560f, -0.142890f, 0.090220f, -0.159320f, -0.178310f, 0.103810f, -0.045970f, 0.075730f, -0.150160f, -0.166890f, -0.078240f, -0.070660f, 0.108030f, -0.008260f, 0.105990f, 0.080740f, -0.125560f, -0.062160f, -0.108640f, -0.028740f, 0.142850f, 0.019840f, 0.078330f, 0.010110f, 0.169700f, -0.069680f, -0.108070f, 0.184740f, 0.084930f, -0.166380f, 0.162910f, 0.076840f, 0.147300f, 0.031270f, -0.124330f, -0.003170f, 0.115470f, -0.061460f, 0.091280f, 0.069640f, -0.043080f, -0.033260f, -0.170910f, 0.133510f, 0.046760f, -0.103370f, 0.067910f, 0.027480f, -0.055790f, -0.049480f, 0.153030f, -0.109310f, -0.022360f, 0.119980f, 0.064770f, 0.150290f, -0.164670f, 0.054020f, 0.169140f, 0.103840f, -0.106400f, 0.115470f, -0.050570f, 0.137980f, 0.089680f, -0.053280f, -0.108250f, 0.176290f, 0.074480f, -0.115790f, -0.093810f, 0.099170f, 0.035680f, 0.173240f, -0.165150f, 0.105920f, 0.145530f, -0.119340f, 0.172140f, -0.100980f, 0.067130f, 0.151250f, -0.021820f, -0.079670f, 0.096180f, -0.137300f, -0.158660f, 0.070770f, -0.018740f, -0.191180f, 0.191570f, -0.174910f, 0.178160f, -0.059400f, -0.075720f, 0.034060f, 0.068580f, 0.176010f, 0.130600f, 0.026950f, 0.169380f, -0.079510f, -0.103180f, 0.187470f, -0.053130f, -0.177640f, 0.039580f, 0.119110f, -0.036700f, -0.119980f, -0.192820f, 0.049450f, 0.144200f, -0.175310f, -0.184360f, -0.043820f, -0.040000f, 0.123190f, 0.160880f, -0.109290f, -0.093560f, -0.156440f, 0.106980f, -0.141830f, 0.075860f, -0.042040f, 0.124600f, -0.181490f, -0.099410f, 0.173800f, -0.076940f, 0.144970f, 0.180360f, -0.032510f, -0.024050f, -0.046040f, -0.038370f, 0.082160f, -0.136320f, 0.135560f, 0.180220f, -0.122070f, 0.175970f, -0.000000f, 0.015080f, -0.140550f, 0.188990f, -0.074870f, 0.177480f, -0.167090f, -0.092140f, -0.034340f, -0.005890f, 0.168580f, 0.047520f, -0.027200f, 0.158620f, -0.158700f, 0.168300f, -0.192210f, 0.125690f, 0.189370f, 0.096200f, -0.014440f, 0.016850f, 0.013750f, 0.109500f, 0.094730f, 0.149500f, -0.174870f, 0.076770f, 0.050910f, -0.049560f, 0.173210f, -0.070970f, 0.200050f, -0.159940f, 0.119710f, 0.085740f, 0.127770f, -0.183400f, 0.058700f, 0.146300f, -0.030330f, -0.017630f, 0.172990f, 0.181240f, 0.153740f, -0.130350f, -0.114550f, 0.011250f, -0.136780f, -0.006250f, 0.075460f, -0.155730f, -0.094580f, 0.178550f, 0.017290f, 0.029590f, 0.087360f, -0.079640f, 0.122880f, 0.159990f, 0.097010f, -0.104060f, 0.054140f, -0.137370f, 0.055330f, -0.057170f, -0.035130f, -0.146350f, -0.102240f, -0.151400f, -0.135560f, -0.131900f, -0.099450f, -0.079520f, 0.014950f, -0.043090f, 0.148730f, -0.004310f, 0.024540f, 0.099450f, -0.024880f, -0.171330f, -0.103820f, 0.171890f, 0.168810f, -0.000880f, -0.191350f, -0.104060f, -0.135150f, 0.113320f, 0.059290f, 0.020720f, -0.142780f, 0.094380f, 0.054290f, 0.133250f, -0.044180f, 0.108390f, 0.000030f, 0.121610f, -0.005440f, -0.083240f, -0.154950f, 0.095650f, -0.104090f, -0.077930f, -0.099640f, -0.028960f, 0.144570f, -0.051850f, -0.121950f, -0.157190f, 0.076420f, -0.145670f, 0.171640f, -0.001740f, 0.090410f, 0.099600f, -0.082260f, 0.041790f, 0.079130f, 0.033860f, 0.052380f, 0.038640f, 0.068140f, 0.129990f, -0.181580f, -0.184340f, -0.064750f, 0.127190f, 0.119260f, -0.183970f, 0.061380f, -0.102070f, -0.094090f, 0.033290f, 0.175160f, 0.114030f, 0.156660f, 0.190510f, -0.137010f, 0.076070f, 0.121390f, -0.091100f, 0.070190f, 0.014520f, -0.026590f, -0.122230f, 0.161230f, 0.070300f, 0.127460f, -0.041370f, 0.081450f, -0.036130f, -0.045380f, 0.098290f, 0.109760f, 0.169910f, 0.123690f, -0.025900f, -0.051740f, -0.091940f, -0.185820f, -0.025260f, 0.178620f, 0.166210f, 0.056040f, -0.184210f, 0.179910f, 0.034080f, 0.139970f };
static const float growbox_environment_model_layer_1_biases[32] = { 0.001920f, -0.023590f, 0.054450f, 0.021870f, 0.045670f, -0.002830f, 0.000290f, -0.006680f, 0.028380f, 0.000000f, 0.093590f, 0.019230f, 0.057450f, -0.010130f, 0.000240f, 0.014920f, 0.026840f, 0.026930f, -0.017210f, -0.000040f, 0.012000f, 0.039940f, 0.062170f, -0.000070f, 0.000000f, 0.000900f, 0.009290f, 0.010320f, 0.024930f, -0.018790f, 0.105440f, -0.000040f };
static const float growbox_environment_model_layer_1_weights[1024] = { -0.276170f, -0.218390f, -0.245610f, -0.228000f, -0.302180f, -0.290710f, -0.051110f, -0.072220f, -0.026570f, 0.175220f, -0.167640f, 0.026450f, -0.091500f, -0.140880f, -0.237240f, 0.119880f, 0.291170f, -0.175420f, 0.278910f, 0.128720f, -0.287270f, 0.172490f, -0.175860f, 0.091630f, -0.230940f, -0.019690f, 0.180390f, -0.152690f, -0.014400f, 0.122810f, -0.259930f, -0.203400f, 0.188520f, 0.202210f, -0.159210f, 0.071340f, 0.279870f, -0.190580f, 0.074370f, -0.012130f, -0.039210f, -0.145210f, 0.035850f, 0.077950f, 0.182280f, 0.192090f, -0.091480f, -0.041440f, 0.154310f, -0.014280f, 0.210030f, 0.189430f, -0.106500f, 0.028770f, 0.222570f, -0.174080f, 0.058570f, -0.182170f, 0.293920f, 0.060500f, -0.184120f, -0.036730f, 0.204250f, -0.157300f, 0.019360f, -0.057510f, -0.217920f, 0.232560f, 0.199590f, 0.122970f, -0.078980f, -0.143520f, 0.102070f, 0.283610f, -0.119680f, 0.219580f, 0.228810f, -0.214020f, -0.166970f, -0.155330f, 0.099120f, 0.016440f, -0.210510f, -0.200460f, 0.205630f, -0.230540f, 0.242450f, -0.020040f, 0.210340f, 0.303100f, -0.050270f, -0.188940f, 0.265330f, -0.178420f, 0.301570f, 0.137970f, -0.268090f, 0.175600f, 0.324400f, 0.267180f, 0.109800f, -0.107790f, -0.024310f, 0.165360f, -0.099340f, -0.241640f, 0.439830f, 0.202020f, 0.293780f, -0.249130f, -0.082850f, 0.098880f, -0.242290f, -0.027550f, 0.236990f, 0.031590f, 0.232840f, 0.308520f, 0.181210f, 0.274620f, 0.031220f, 0.323470f, 0.365030f, -0.103930f, 0.144310f, 0.002270f, 0.373810f, 0.146880f, 0.280880f, -0.199170f, -0.060200f, 0.055170f, 0.409740f, -0.118720f, 0.059580f, -0.113350f, 0.018420f, -0.071720f, -0.013150f, 0.158850f, 0.410720f, -0.014670f, -0.155270f, -0.177470f, 0.057790f, 0.262520f, 0.121780f, -0.080730f, 0.326650f, 0.122640f, 0.012980f, 0.153590f, -0.301260f, -0.016320f, 0.305370f, -0.299840f, 0.196590f, -0.212890f, 0.040760f, -0.220950f, -0.034300f, 0.023420f, 0.206510f, 0.201520f, -0.091660f, 0.155240f, 0.073380f, -0.202420f, 0.073070f, -0.134940f, -0.046780f, -0.004230f, 0.013230f, 0.183600f, -0.008000f, 0.286590f, 0.260350f, 0.022610f, -0.165250f, 0.130420f, -0.146770f, -0.168070f, 0.055790f, 0.095110f, -0.266410f, 0.151420f, 0.289560f, 0.156550f, 0.173800f, 0.204480f, -0.155720f, -0.179120f, -0.244330f, -0.137750f, 0.083070f, 0.242050f, -0.204200f, 0.039700f, 0.038090f, 0.179870f, -0.201860f, -0.027740f, 0.270760f, 0.014040f, 0.022660f, 0.097920f, -0.157230f, -0.221110f, 0.297350f, -0.293740f, 0.190410f, -0.089160f, 0.069230f, -0.195990f, 0.273130f, 0.278220f, 0.171760f, -0.252890f, 0.097980f, -0.027700f, -0.251580f, -0.247050f, -0.138700f, 0.208470f, -0.127150f, 0.212120f, -0.161030f, 0.102210f, 0.189940f, -0.192090f, -0.217480f, -0.047120f, 0.206230f, -0.179430f, 0.186770f, 0.265600f, 0.254210f, 0.303010f, 0.063590f, -0.272340f, 0.274360f, 0.019220f, 0.122400f, 0.231830f, 0.171040f, -0.165510f, -0.046670f, -0.191750f, -0.299450f, 0.093440f, -0.219890f, -0.189180f, -0.067070f, 0.132030f, 0.120080f, 0.158130f, 0.135540f, 0.117520f, 0.059470f, 0.227290f, -0.260600f, -0.220450f, -0.130530f, -0.139710f, -0.048350f, 0.270630f, -0.006660f, -0.204480f, 0.059040f, 0.280660f, 0.151520f, 0.201860f, -0.274300f, 0.170520f, 0.252460f, -0.262210f, -0.116970f, 0.104900f, 0.253000f, 0.000480f, 0.043340f, 0.078370f, -0.264880f, -0.166590f, -0.054860f, -0.052140f, -0.198310f, -0.194230f, 0.303200f, 0.260870f, 0.361200f, -0.206420f, 0.153240f, 0.293710f, -0.262090f, -0.045870f, 0.220840f, 0.041620f, 0.153720f, -0.073140f, -0.194580f, -0.214780f, -0.231510f, -0.181910f, 0.039370f, 0.208930f, 0.252960f, -0.033550f, 0.005900f, 0.330100f, 0.041360f, -0.193210f, -0.258180f, 0.113170f, 0.235760f, 0.133160f, 0.053660f, 0.106670f, 0.213760f, -0.046810f, 0.197330f, 0.181920f, -0.080150f, -0.152890f, 0.124770f, -0.180840f, 0.134590f, 0.078710f, 0.234840f, 0.046710f, 0.113950f, -0.048790f, -0.205470f, -0.207010f, -0.283560f, -0.033170f, 0.080780f, 0.061330f, 0.136010f, 0.000750f, -0.207240f, 0.165880f, -0.209390f, 0.093430f, -0.006870f, 0.054580f, 0.291140f, 0.045530f, -0.204400f, 0.219160f, -0.002920f, -0.212160f, -0.248890f, 0.266490f, -0.130890f, -0.252080f, 0.117540f, 0.085670f, 0.057830f, -0.068430f, 0.205320f, -0.238170f, 0.267680f, 0.236130f, -0.015840f, 0.269870f, -0.027140f, -0.123050f, -0.000240f, 0.087710f, -0.008300f, 0.037370f, 0.102610f, -0.140070f, 0.136860f, -0.098900f, -0.058900f, -0.220810f, -0.138980f, -0.109160f, -0.009700f, 0.223990f, -0.302950f, 0.118970f, 0.127050f, -0.004280f, -0.044420f, -0.221970f, -0.063480f, -0.187690f, -0.092750f, -0.247250f, 0.028250f, 0.074720f, 0.107520f, 0.191070f, 0.004870f, -0.220290f, -0.031870f, 0.040510f, 0.236060f, 0.298100f, -0.234520f, 0.255670f, -0.085340f, -0.171120f, -0.273620f, -0.063830f, -0.114810f, -0.264740f, 0.217230f, -0.287580f, 0.123440f, -0.280870f, 0.015270f, -0.218000f, -0.261110f, 0.285590f, -0.110290f, -0.053310f, -0.202420f, -0.040250f, -0.028150f, 0.241390f, -0.090320f, -0.120610f, 0.086760f, 0.408630f, -0.186890f, -0.067710f, -0.304830f, -0.249300f, 0.298460f, -0.179620f, -0.262850f, -0.226180f, -0.062300f, 0.075360f, -0.073820f, -0.188000f, 0.127510f, -0.004750f, 0.021920f, 0.243830f, 0.209750f, -0.174570f, -0.131070f, 0.243680f, 0.255630f, 0.077230f, 0.237390f, 0.054300f, 0.251540f, -0.125070f, -0.059520f, 0.080370f, -0.066350f, 0.272100f, -0.035280f, -0.106050f, 0.258620f, -0.226100f, -0.251990f, -0.242010f, 0.139630f, -0.267290f, 0.292390f, 0.042560f, 0.106410f, -0.153820f, -0.196590f, 0.084180f, 0.095900f, -0.065490f, 0.326180f, -0.031410f, -0.238290f, 0.019280f, 0.041690f, -0.252350f, 0.194280f, -0.229470f, -0.199300f, 0.159340f, 0.207320f, 0.226300f, -0.191600f, 0.170810f, -0.163450f, 0.280790f, -0.277430f, 0.189810f, 0.049100f, 0.132260f, 0.097800f, -0.294490f, 0.289220f, 0.149280f, -0.176820f, -0.035450f, 0.113630f, -0.015870f, 0.322160f, -0.258570f, 0.206960f, -0.312010f, -0.062380f, -0.210110f, 0.093810f, -0.137430f, -0.259710f, 0.043100f, 0.291660f, -0.224550f, 0.114480f, 0.180390f, 0.055150f, 0.075540f, 0.267680f, 0.203150f, 0.119400f, -0.155620f, 0.113140f, 0.193540f, -0.182330f, 0.130680f, -0.026570f, -0.014100f, 0.253000f, 0.171370f, 0.196710f, 0.239710f, -0.277950f, -0.110550f, -0.022220f, 0.108000f, 0.173050f, 0.179540f, 0.147640f, 0.286970f, 0.156780f, -0.179110f, -0.147150f, -0.221990f, -0.223520f, 0.093980f, 0.184520f, -0.015390f, -0.120140f, -0.229810f, -0.152430f, 0.198280f, 0.088280f, -0.145350f, 0.114240f, -0.257550f, 0.061300f, 0.067960f, -0.159480f, 0.307740f, -0.122070f, 0.291420f, -0.113800f, 0.167190f, 0.181110f, -0.226550f, 0.202100f, -0.033550f, 0.141320f, 0.065370f, -0.168890f, -0.144110f, -0.029150f, 0.055340f, -0.005750f, -0.137730f, -0.117790f, 0.085100f, -0.105020f, -0.294520f, -0.237440f, -0.018720f, -0.248870f, -0.192020f, -0.257070f, -0.271800f, 0.134330f, 0.187680f, -0.002210f, 0.120880f, 0.069490f, 0.175720f, -0.016050f, -0.025140f, -0.047990f, -0.174850f, -0.118180f, 0.010450f, -0.268600f, 0.121200f, -0.123230f, -0.023000f, -0.047700f, -0.190860f, -0.099770f, -0.234580f, -0.282540f, 0.169140f, -0.169300f, -0.004930f, 0.040500f, 0.281700f, 0.156290f, 0.063210f, -0.136170f, -0.075780f, 0.229810f, 0.220180f, 0.198040f, -0.239830f, -0.155530f, -0.046140f, 0.137240f, -0.200630f, -0.255320f, 0.182100f, 0.230470f, -0.266810f, 0.159720f, 0.157760f, 0.104250f, 0.290910f, -0.128850f, -0.017800f, 0.214450f, 0.135110f, -0.078830f, 0.123270f, 0.073880f, -0.013850f, -0.127030f, -0.221440f, 0.288000f, 0.279710f, -0.064810f, -0.136240f, -0.112840f, -0.032010f, 0.146350f, 0.079810f, 0.041230f, 0.306570f, 0.157190f, -0.106220f, -0.238040f, 0.182740f, 0.479880f, 0.117560f, -0.300980f, 0.042760f, 0.346840f, -0.192960f, 0.258600f, -0.027940f, -0.303980f, -0.311970f, -0.350490f, 0.266960f, 0.440950f, -0.249880f, 0.349060f, -0.243300f, -0.047500f, 0.233450f, -0.168000f, 0.259210f, 0.298990f, 0.211990f, 0.151170f, -0.218310f, 0.262490f, -0.281610f, 0.009360f, 0.012510f, 0.271420f, 0.091370f, 0.134360f, -0.086870f, -0.172230f, -0.261130f, -0.320980f, -0.305400f, -0.018130f, 0.345210f, -0.104520f, 0.119920f, -0.043400f, 0.196360f, -0.059800f, -0.191940f, 0.290160f, -0.113920f, 0.139030f, -0.222110f, -0.198720f, 0.211770f, 0.096590f, 0.099930f, -0.280900f, -0.153300f, 0.177290f, 0.069530f, 0.218900f, 0.133900f, 0.297370f, -0.143750f, -0.290390f, 0.073910f, 0.207610f, 0.153350f, -0.271730f, -0.015340f, -0.069710f, 0.038350f, -0.286610f, 0.019720f, 0.178950f, 0.003410f, 0.242530f, -0.074010f, 0.148080f, 0.089490f, -0.260100f, 0.280070f, 0.045150f, 0.189600f, 0.270250f, 0.039770f, -0.219240f, -0.215070f, -0.329440f, 0.192650f, 0.022260f, -0.036670f, -0.391430f, -0.127550f, 0.221590f, 0.397790f, 0.378250f, -0.219800f, 0.214030f, 0.180920f, 0.264430f, -0.349050f, 0.153450f, -0.238250f, -0.255070f, -0.140240f, 0.095760f, 0.201440f, 0.041540f, -0.006950f, 0.008140f, 0.265920f, 0.375530f, -0.244620f, -0.010970f, -0.054280f, 0.019570f, 0.019370f, 0.409940f, 0.294820f, 0.257720f, 0.087720f, 0.168280f, -0.262170f, -0.087200f, 0.152480f, -0.257840f, -0.284990f, -0.087080f, -0.047200f, 0.117970f, 0.250050f, -0.076890f, 0.238490f, 0.257030f, -0.267080f, 0.249050f, -0.100230f, 0.333680f, 0.202630f, -0.273210f, 0.239490f, 0.383930f, -0.294290f, -0.035690f, 0.271060f, 0.359490f, 0.194540f, -0.054240f, 0.178780f, -0.060660f, 0.305470f, 0.006680f, 0.216820f, -0.140050f, 0.011980f, -0.160290f, 0.170730f, -0.117720f, -0.185240f, 0.297560f, 0.033700f, 0.105440f, 0.143010f, 0.088630f, 0.028110f, 0.145250f, -0.198810f, -0.181980f, -0.164760f, 0.184390f, -0.114840f, 0.118560f, -0.209820f, 0.068910f, 0.240930f, 0.010680f, -0.113800f, 0.207900f, -0.254070f, -0.100970f, 0.040540f, -0.081710f, -0.166200f, -0.251220f, 0.255330f, 0.254790f, -0.072060f, 0.252770f, -0.210030f, -0.102200f, -0.006410f, -0.133840f, -0.199880f, -0.090880f, 0.299770f, -0.011680f, -0.106500f, 0.153770f, 0.075250f, -0.296750f, -0.180620f, -0.298920f, 0.113880f, -0.111670f, -0.297050f, 0.063220f, -0.236600f, 0.275290f, 0.274800f, 0.101350f, 0.156850f, -0.187760f, -0.193030f, -0.290430f, 0.193320f, -0.241540f, 0.159620f, 0.228540f, -0.086540f, -0.205960f, 0.047950f, 0.385000f, -0.003490f, -0.116270f, 0.210780f, 0.188760f, -0.110600f, 0.196050f, -0.102290f, -0.088690f, -0.301710f, -0.001320f, -0.110520f, -0.146220f, -0.178180f, -0.089840f, -0.040670f, -0.329280f, 0.310600f, -0.133520f, -0.220260f, 0.290640f, -0.065480f, -0.304750f, 0.242250f, -0.296420f, -0.246290f, -0.228870f, -0.101250f, -0.036050f, -0.132030f, 0.028540f, 0.004470f, 0.171300f, 0.070440f, -0.116350f, 0.046380f, -0.145680f, -0.301020f, 0.206460f, 0.293850f, -0.018420f, 0.280410f, 0.236660f, -0.126690f, -0.288890f, 0.176620f, 0.250740f, 0.246590f, 0.229680f, -0.171330f, 0.301360f, -0.138970f, 0.003030f, -0.042690f, 0.062500f, -0.179940f, -0.033020f, -0.093480f, 0.040770f, -0.091570f, -0.042860f, -0.099590f, 0.068110f, -0.214250f, 0.368510f, 0.208070f, -0.006780f, 0.176150f, -0.192090f, 0.077640f, 0.017770f, -0.028750f, -0.233150f, -0.127250f, -0.201470f, 0.291700f, 0.266930f, -0.303450f, 0.267430f, 0.081190f, 0.199490f, 0.124480f, 0.339360f, 0.201670f, 0.401160f, -0.093130f, -0.206650f, -0.100620f, -0.134700f, 0.074530f, -0.193620f, -0.133630f, -0.143890f, 0.068560f, 0.327910f, -0.237790f, 0.035060f, -0.111570f, 0.281670f, 0.090180f, 0.070660f, 0.109150f, -0.161280f, 0.161940f, 0.220850f, -0.256480f, -0.155040f, -0.210330f, 0.173390f, -0.249000f, -0.041860f, -0.040390f, 0.352620f, -0.040920f, 0.139850f, 0.065880f, 0.074450f, 0.123690f, -0.106920f, -0.270240f, 0.383650f, -0.016530f, 0.242580f, 0.082940f, -0.200600f, -0.057990f, 0.361720f, -0.009990f, 0.024240f, -0.062230f, -0.177650f, -0.082690f, -0.040370f, -0.219360f, 0.038200f, 0.098500f, 0.083310f, 0.193720f, 0.049390f, 0.227100f, 0.335220f, -0.284660f, -0.178380f, -0.096260f, -0.150290f, 0.159160f, -0.242310f, -0.261540f, 0.235910f, 0.044160f };
static const float growbox_environment_model_layer_2_biases[15] = { -0.050720f, -0.033890f, -0.019470f, -0.026010f, 0.018180f, -0.087410f, -0.043170f, -0.087440f, -0.079720f, -0.137020f, -0.120600f, -0.093270f, -0.075620f, -0.047860f, -0.048260f };
static const float growbox_environment_model_layer_2_weights[480] = { -0.003250f, -0.289420f, 0.167290f, -0.099190f, 0.125950f, -0.348160f, 0.021450f, 0.319220f, 0.140150f, 0.348040f, -0.289140f, -0.248950f, -0.191940f, -0.334240f, 0.231240f, -0.248750f, -0.294350f, 0.076380f, 0.204810f, -0.133750f, -0.065450f, -0.161930f, 0.008930f, 0.007400f, -0.218790f, 0.129070f, -0.051150f, -0.175500f, 0.307780f, -0.009230f, -0.447060f, -0.002580f, 0.161240f, -0.348120f, 0.430350f, -0.187730f, -0.293480f, -0.142880f, -0.152550f, 0.101330f, 0.214290f, -0.422000f, -0.157730f, -0.275980f, -0.073640f, -0.002510f, 0.054330f, 0.224130f, 0.186710f, 0.063690f, 0.045420f, 0.127450f, -0.107500f, -0.065610f, -0.120390f, -0.021920f, -0.332970f, -0.138180f, 0.120290f, -0.200150f, -0.573350f, -0.195800f, -0.189130f, 0.217560f, -0.183630f, -0.283410f, -0.138060f, 0.303490f, -0.225190f, -0.304940f, -0.013020f, 0.183730f, -0.194150f, -0.113450f, 0.187650f, -0.176580f, -0.299860f, 0.290290f, 0.158500f, 0.280260f, -0.190850f, -0.169960f, 0.263970f, 0.296060f, 0.302580f, -0.345580f, -0.343730f, -0.343110f, 0.092750f, 0.128420f, -0.020350f, -0.072250f, 0.241880f, -0.013930f, 0.047230f, -0.155310f, -0.336640f, -0.037040f, 0.315630f, -0.246430f, -0.208450f, -0.163050f, -0.090380f, 0.224290f, -0.208790f, -0.271920f, -0.072170f, 0.289320f, -0.206070f, -0.303670f, 0.112940f, -0.243340f, -0.282550f, 0.181520f, 0.223220f, 0.100260f, -0.310990f, 0.280310f, 0.067830f, 0.230810f, -0.400370f, 0.127260f, -0.059260f, -0.362850f, 0.318540f, 0.186950f, -0.143750f, 0.221800f, -0.290270f, 0.213720f, -0.448980f, -0.313200f, -0.231020f, 0.059140f, 0.290610f, -0.264880f, 0.044720f, -0.328780f, 0.113370f, -0.321090f, -0.212390f, 0.193410f, 0.015100f, 0.303040f, 0.217340f, 0.322600f, -0.096470f, 0.102530f, -0.338100f, 0.036970f, 0.438820f, 0.188050f, 0.409970f, 0.073310f, -0.141000f, -0.264450f, -0.345520f, -0.133280f, -0.080020f, -0.002570f, -0.434620f, -0.209250f, -0.364670f, -0.397760f, -0.235900f, 0.510210f, -0.329690f, -0.103920f, -0.152880f, -0.525080f, -0.302900f, -0.214720f, -0.026810f, 0.227800f, -0.392650f, 0.100610f, 0.027330f, 0.013490f, -0.123910f, -0.292970f, -0.155490f, -0.079360f, -0.366650f, 0.246760f, -0.456820f, 0.156190f, -0.368430f, -0.009110f, -0.338940f, -0.284380f, -0.388130f, -0.153610f, 0.159290f, 0.236580f, 0.245400f, 0.159510f, -0.307970f, 0.322520f, 0.169390f, -0.276160f, -0.012250f, -0.165340f, -0.200920f, -0.328720f, 0.343600f, 0.342120f, -0.234130f, -0.141110f, 0.291360f, -0.031490f, -0.118850f, -0.030160f, -0.192880f, -0.180410f, 0.043830f, 0.327850f, -0.021430f, 0.109090f, -0.142270f, -0.138890f, -0.182110f, -0.256200f, -0.341840f, -0.079320f, 0.336480f, 0.202530f, 0.132340f, -0.092960f, 0.059950f, 0.375290f, -0.071940f, 0.182750f, 0.308360f, -0.237510f, -0.142690f, 0.104050f, 0.327080f, 0.191700f, 0.054400f, 0.310820f, 0.515110f, -0.130800f, -0.413900f, -0.123330f, -0.308720f, -0.094140f, -0.267160f, -0.287900f, -0.187280f, -0.118630f, 0.275080f, 0.257870f, -0.239790f, -0.010180f, -0.194720f, -0.281710f, 0.001340f, -0.026530f, -0.317940f, 0.315300f, 0.185860f, -0.046840f, 0.022540f, 0.306920f, -0.373490f, 0.087450f, -0.068740f, -0.000110f, -0.131570f, -0.344410f, 0.207890f, 0.221690f, 0.072950f, 0.343370f, -0.241140f, 0.142140f, 0.179310f, -0.361030f, -0.202820f, 0.142780f, 0.270330f, -0.081630f, -0.033020f, -0.181690f, 0.195420f, -0.109300f, 0.311870f, -0.250310f, 0.271330f, -0.161630f, -0.058070f, -0.298660f, -0.079430f, 0.047690f, 0.210340f, -0.317740f, 0.074310f, -0.227800f, -0.304500f, 0.337600f, -0.139960f, -0.433910f, -0.325090f, 0.262070f, 0.018260f, 0.147430f, -0.317450f, 0.074100f, -0.233790f, -0.044780f, 0.160260f, -0.306070f, -0.121570f, 0.125370f, -0.076620f, -0.070580f, -0.193250f, -0.041320f, -0.026940f, 0.214690f, 0.075310f, -0.072060f, -0.207200f, -0.267900f, 0.238580f, -0.329710f, 0.104090f, -0.288490f, -0.310350f, 0.041430f, -0.405760f, 0.352920f, -0.055590f, -0.272600f, -0.193490f, 0.002490f, -0.181930f, 0.075510f, -0.229650f, -0.078850f, -0.394850f, 0.129900f, -0.430490f, -0.324090f, -0.323520f, 0.093950f, -0.130600f, 0.135420f, 0.279020f, -0.013190f, -0.001720f, 0.335270f, -0.080320f, 0.270760f, 0.190110f, 0.100410f, 0.356420f, 0.045550f, 0.064840f, -0.100820f, 0.215910f, -0.071430f, 0.143700f, 0.158240f, -0.352600f, 0.297200f, -0.086030f, 0.072920f, -0.111930f, 0.204080f, -0.050270f, 0.176330f, -0.104940f, 0.327850f, -0.083140f, -0.159770f, 0.231740f, -0.158810f, 0.176210f, 0.401540f, 0.247090f, 0.246880f, 0.177790f, 0.075550f, 0.035370f, -0.137790f, 0.177640f, -0.147450f, -0.187860f, -0.200880f, -0.478300f, 0.529430f, -0.323890f, 0.327980f, 0.367920f, -0.007310f, 0.323730f, -0.226910f, 0.308230f, -0.302350f, 0.116120f, 0.191960f, 0.153790f, -0.258290f, 0.310740f, 0.574870f, -0.036390f, 0.210690f, -0.142450f, -0.288410f, 0.199290f, 0.320920f, 0.025020f, -0.240130f, 0.236550f, -0.069950f, 0.158090f, -0.236340f, -0.267330f, 0.310400f, 0.466360f, -0.111350f, -0.046190f, -0.098780f, -0.246710f, -0.347180f, 0.169080f, -0.338230f, -0.263740f, -0.065930f, -0.002650f, -0.199710f, 0.169130f, -0.345710f, -0.052840f, 0.354500f, -0.352820f, -0.344910f, 0.186590f, -0.334330f, 0.078800f, -0.006500f, -0.119920f, -0.294140f, -0.304270f, 0.129930f, -0.234300f, 0.277600f, -0.061000f, 0.178110f, -0.193270f, -0.214060f, -0.139780f, -0.152250f, 0.029020f, -0.426890f, -0.125990f, -0.445280f, -0.011210f, -0.329040f, -0.130730f, -0.271860f, -0.008010f, 0.054010f, -0.425210f, 0.122580f, -0.207920f, -0.109970f, 0.104970f, 0.334120f, 0.348510f, 0.223630f, 0.296470f, -0.079530f, -0.036520f, 0.228300f, -0.088580f, -0.091340f, -0.187680f, 0.277470f };
static float growbox_environment_model_buf1[128];
static float growbox_environment_model_buf2[128];
static const EmlNetLayer growbox_environment_model_layers[3] = {
{ 32, 128, growbox_environment_model_layer_0_weights, growbox_environment_model_layer_0_biases, EmlNetActivationRelu },
{ 32, 32, growbox_environment_model_layer_1_weights, growbox_environment_model_layer_1_biases, EmlNetActivationRelu },
{ 15, 32, growbox_environment_model_layer_2_weights, growbox_environment_model_layer_2_biases, EmlNetActivationLogistic } };
static EmlNet growbox_environment_model = { 3, growbox_environment_model_layers, growbox_environment_model_buf1, growbox_environment_model_buf2, 128 };

    int32_t
    growbox_environment_model_predict(const float *features, int32_t n_features)
    {
        return eml_net_predict(&growbox_environment_model, features, n_features);
    }


    int32_t
    growbox_environment_model_regress(const float *features, int32_t n_features, float *out, int32_t out_length)
    {
        return eml_net_regress(&growbox_environment_model, features, n_features, out, out_length);
    }


    float
    growbox_environment_model_regress1(const float *features, int32_t n_features)
    {
        return eml_net_regress1(&growbox_environment_model, features, n_features);
    }

namespace generated_model {

inline constexpr std::size_t kInputCount = 128U;
inline constexpr std::size_t kOutputCount = 15U;
inline constexpr char kSchemaHash[] = "5768273a73ac";
inline constexpr char kModelVersion[] = "environment-mlp-v1-full-ac0f719b75f9";
inline constexpr char kWeightHash[] = "ac0f719b75f9";

inline bool infer(const float* features, float* outputs) {
    if (features == nullptr || outputs == nullptr) {
        return false;
    }
    return growbox_environment_model_regress(
        features,
        static_cast<int32_t>(kInputCount),
        outputs,
        static_cast<int32_t>(kOutputCount)) == EmlOk;
}

}  // namespace generated_model
