// Generated by python -m tools.ml.pipeline. Do not edit.
#pragma once

#include <cstddef>
#include <eml_net.h>

static const float growbox_environment_model_layer_0_biases[32] = { -0.009230f, 0.013370f, -0.002180f, 0.000300f, -0.012620f, 0.004990f, 0.000000f, -0.003440f, 0.004250f, 0.000000f, 0.000000f, 0.000000f, 0.000000f, 0.000000f, -0.003720f, -0.001970f, 0.000210f, -0.014000f, -0.001740f, 0.000000f, -0.010930f, 0.011800f, 0.026220f, -0.007590f, 0.011320f, 0.016890f, -0.000440f, 0.029400f, -0.007490f, 0.013250f, -0.001260f, 0.018240f };
static const float growbox_environment_model_layer_0_weights[1280] = { 0.277770f, 0.002910f, 0.048800f, -0.205580f, 0.278640f, -0.002040f, 0.020550f, -0.171200f, 0.147850f, -0.193180f, 0.030060f, -0.128840f, 0.069860f, 0.109420f, -0.219620f, -0.284250f, -0.179890f, 0.193930f, -0.159280f, 0.116230f, 0.141700f, 0.155510f, 0.130240f, -0.190890f, -0.144090f, 0.282330f, -0.214880f, -0.243290f, 0.037980f, 0.204300f, -0.106740f, -0.094360f, -0.201910f, 0.004400f, -0.186820f, -0.124280f, 0.026150f, 0.144630f, -0.232380f, -0.189720f, -0.278140f, 0.095760f, 0.003630f, -0.030740f, -0.276400f, 0.215520f, 0.157370f, -0.086410f, -0.056380f, -0.025380f, -0.082700f, -0.119330f, 0.281060f, -0.043460f, 0.286790f, 0.266070f, -0.168930f, -0.222680f, 0.081770f, -0.203290f, 0.261620f, -0.038480f, 0.135210f, 0.264030f, 0.008140f, 0.100580f, -0.105100f, 0.224410f, -0.288500f, -0.208800f, 0.050880f, -0.127810f, -0.103490f, -0.241100f, 0.010810f, -0.183810f, 0.201710f, -0.273630f, -0.268010f, -0.255450f, 0.257840f, -0.288410f, 0.046270f, -0.088010f, 0.175740f, -0.016710f, -0.078690f, 0.076280f, -0.229590f, 0.188770f, -0.257420f, 0.184590f, 0.209200f, 0.249260f, -0.113770f, 0.224670f, 0.184490f, -0.167370f, -0.183420f, 0.203440f, 0.142530f, -0.249170f, -0.088290f, -0.127210f, 0.215750f, -0.117450f, -0.201630f, -0.142550f, -0.108520f, 0.074060f, 0.011820f, -0.013270f, -0.211730f, -0.132030f, 0.006800f, -0.109260f, 0.212250f, 0.245180f, -0.204440f, -0.018700f, 0.271430f, 0.206650f, 0.094160f, -0.019810f, 0.186320f, 0.106650f, 0.168380f, 0.104160f, -0.133310f, 0.195580f, -0.019160f, 0.188920f, -0.051350f, -0.272240f, -0.261200f, 0.069180f, 0.276770f, -0.081500f, 0.050560f, -0.235460f, -0.179740f, -0.137220f, 0.242970f, -0.008870f, 0.115990f, -0.247460f, 0.091320f, 0.133990f, 0.239920f, 0.112120f, -0.189710f, -0.075140f, 0.105920f, -0.159440f, 0.035750f, 0.239040f, -0.257200f, 0.237510f, 0.114050f, 0.284000f, -0.039470f, 0.077760f, -0.077670f, -0.070820f, -0.256820f, -0.088920f, 0.248080f, 0.053250f, -0.037900f, 0.194280f, 0.219140f, -0.209220f, -0.090250f, -0.099460f, -0.180120f, 0.115820f, 0.076440f, 0.191440f, 0.199220f, -0.277950f, -0.240340f, 0.178490f, 0.257430f, 0.097260f, 0.244910f, 0.136870f, -0.221310f, 0.049770f, -0.186460f, 0.079470f, -0.058220f, 0.005610f, -0.144550f, 0.266300f, -0.023320f, -0.008480f, 0.241200f, -0.182790f, 0.171520f, 0.204210f, 0.079840f, -0.093570f, -0.063560f, -0.227370f, -0.089940f, -0.258270f, 0.046210f, 0.251450f, -0.233150f, 0.038660f, 0.219100f, 0.276680f, 0.082090f, 0.281300f, 0.283820f, 0.225620f, 0.138950f, 0.219070f, 0.239290f, 0.198630f, -0.147800f, 0.081900f, -0.002370f, 0.258710f, -0.171020f, 0.210740f, -0.092770f, -0.234180f, 0.206000f, -0.215720f, -0.185750f, -0.044180f, 0.183100f, 0.195890f, -0.283690f, 0.026410f, -0.000810f, -0.256600f, 0.209360f, 0.048180f, 0.053300f, 0.222070f, -0.121570f, -0.170660f, 0.045740f, 0.133000f, -0.176280f, -0.219150f, 0.084100f, -0.271900f, -0.205050f, 0.145390f, 0.258210f, -0.011060f, 0.037480f, -0.031090f, 0.150130f, -0.018690f, 0.088080f, -0.204780f, 0.182800f, 0.173210f, -0.178970f, -0.097700f, -0.242050f, -0.000380f, -0.078860f, -0.225460f, -0.274560f, -0.280060f, 0.203860f, -0.177210f, -0.007960f, -0.187860f, -0.106710f, -0.233170f, -0.073200f, 0.298720f, -0.034080f, -0.207010f, 0.079120f, 0.245260f, -0.073410f, 0.224340f, -0.095970f, -0.258810f, 0.037520f, 0.241550f, 0.170600f, 0.194120f, 0.133120f, -0.103080f, -0.006020f, -0.049660f, -0.040920f, 0.000370f, -0.258150f, -0.259260f, 0.153490f, 0.039620f, 0.161880f, -0.134430f, -0.089530f, -0.207430f, 0.257490f, 0.032800f, 0.067230f, -0.219800f, -0.249140f, -0.119430f, -0.049450f, -0.029920f, -0.053330f, 0.078300f, -0.089360f, 0.146410f, -0.066260f, 0.165400f, 0.163030f, 0.094570f, 0.189310f, -0.049550f, -0.048510f, 0.133190f, 0.215940f, 0.212220f, 0.194960f, 0.123480f, -0.063500f, -0.057170f, -0.288190f, -0.262780f, 0.222100f, 0.143710f, -0.212610f, -0.185550f, -0.200100f, 0.162940f, 0.025280f, 0.219790f, -0.156930f, 0.106590f, -0.006340f, -0.010400f, 0.021190f, 0.224600f, 0.117100f, 0.111250f, 0.127150f, 0.126240f, 0.186130f, -0.112350f, -0.004740f, -0.175770f, -0.022370f, 0.084400f, -0.177510f, -0.105850f, -0.163470f, -0.176010f, 0.038980f, -0.155040f, -0.220560f, -0.078520f, -0.223000f, -0.208360f, -0.077850f, 0.183610f, 0.070930f, -0.001680f, -0.022660f, -0.006250f, -0.144170f, -0.062430f, 0.143430f, 0.247250f, 0.292320f, -0.152530f, -0.206570f, 0.277200f, -0.027860f, -0.191920f, 0.136770f, 0.268930f, -0.002860f, 0.062490f, -0.275250f, 0.054800f, -0.031790f, 0.047490f, -0.056420f, -0.268840f, 0.075670f, -0.146300f, 0.032580f, -0.276760f, -0.260850f, 0.006490f, 0.059530f, 0.100040f, -0.145060f, 0.086410f, -0.076510f, 0.160250f, -0.208740f, 0.262620f, -0.184530f, -0.076400f, -0.114070f, -0.194880f, -0.263820f, -0.025040f, 0.154790f, 0.175340f, 0.119520f, -0.108010f, 0.134980f, -0.175040f, -0.055540f, 0.256880f, 0.247520f, -0.144140f, 0.077860f, 0.260060f, -0.276840f, -0.208750f, 0.158130f, 0.029550f, -0.194850f, 0.095610f, 0.162510f, -0.013010f, -0.200920f, -0.148530f, -0.003960f, -0.077380f, 0.216510f, 0.282590f, 0.094220f, 0.242050f, -0.112530f, -0.214630f, 0.196670f, -0.035020f, 0.118280f, -0.088700f, 0.129570f, -0.114150f, -0.137430f, 0.101890f, -0.260050f, -0.064410f, 0.201520f, 0.158200f, -0.265990f, -0.208300f, 0.101550f, -0.033860f, -0.074540f, 0.029680f, -0.166150f, -0.146810f, 0.105470f, -0.082530f, 0.129510f, -0.157440f, 0.153300f, -0.282230f, 0.044080f, 0.077230f, 0.024880f, 0.116910f, -0.178660f, 0.078310f, 0.157470f, -0.020780f, 0.147820f, 0.066160f, 0.037280f, 0.124410f, -0.068630f, -0.073260f, 0.058750f, 0.263590f, 0.215170f, 0.048540f, -0.000340f, 0.051820f, -0.122590f, -0.253410f, 0.286450f, -0.093730f, -0.075660f, 0.263400f, 0.031860f, -0.219530f, -0.261030f, -0.245040f, -0.207190f, -0.009940f, 0.167860f, -0.072740f, 0.163550f, -0.214400f, -0.114280f, 0.099690f, -0.239190f, -0.134860f, -0.225550f, 0.080690f, -0.142600f, -0.034760f, -0.200670f, -0.208850f, -0.264830f, 0.227200f, 0.019120f, -0.126440f, 0.172820f, -0.008980f, -0.122610f, 0.056810f, -0.033840f, 0.172010f, -0.186530f, -0.057060f, -0.209080f, 0.262830f, -0.016270f, -0.214960f, 0.244750f, 0.166870f, 0.044730f, -0.119210f, 0.227190f, -0.040890f, 0.176530f, 0.069080f, 0.262140f, 0.273740f, 0.063440f, -0.076800f, -0.260620f, -0.001340f, 0.263830f, 0.229290f, 0.034130f, 0.257000f, 0.268490f, -0.135680f, 0.272090f, 0.203470f, 0.286270f, 0.201740f, -0.130110f, 0.119030f, 0.046310f, -0.155300f, -0.037620f, 0.163060f, 0.098620f, 0.279410f, -0.225120f, -0.243050f, -0.111060f, -0.075260f, -0.149150f, 0.003890f, -0.091980f, 0.226300f, 0.012420f, 0.207920f, 0.237420f, 0.231860f, 0.192550f, -0.257130f, -0.117780f, -0.273860f, -0.180580f, -0.278600f, -0.114790f, 0.286850f, 0.159530f, 0.132990f, -0.112810f, 0.194940f, -0.196240f, -0.125480f, 0.232500f, 0.239020f, -0.059160f, -0.200770f, -0.259350f, -0.175340f, -0.081940f, 0.287910f, -0.018610f, -0.042960f, -0.045280f, -0.074480f, 0.273060f, 0.225570f, -0.137140f, -0.100410f, -0.260870f, -0.228710f, 0.181990f, 0.231440f, 0.179690f, 0.288710f, -0.113280f, -0.176460f, 0.246960f, -0.091850f, -0.231540f, 0.179370f, -0.171450f, -0.227080f, 0.182010f, 0.135900f, -0.060380f, -0.049600f, -0.105410f, 0.026460f, 0.105240f, -0.282170f, -0.104770f, -0.039710f, 0.256410f, -0.148990f, 0.246630f, 0.147270f, 0.195200f, 0.248730f, -0.076710f, 0.263330f, 0.281930f, 0.196900f, -0.077850f, 0.249590f, 0.082930f, 0.052580f, 0.113500f, 0.157970f, -0.277260f, 0.217300f, -0.195620f, 0.271620f, 0.025640f, 0.269390f, -0.194590f, -0.158260f, -0.249670f, -0.093620f, -0.183150f, -0.228360f, 0.073090f, 0.071020f, -0.250590f, 0.152270f, 0.111210f, 0.124230f, -0.029150f, 0.090650f, -0.263720f, 0.268000f, -0.080550f, 0.171410f, -0.140160f, 0.141630f, 0.181950f, 0.073620f, 0.061290f, -0.008280f, -0.021180f, -0.282590f, 0.154330f, 0.004780f, -0.228930f, 0.056280f, -0.060960f, -0.210160f, -0.079910f, 0.254250f, -0.055880f, 0.125360f, -0.057190f, -0.238250f, 0.230570f, 0.228290f, -0.071900f, 0.217060f, 0.150550f, 0.055670f, 0.306320f, 0.156100f, -0.018870f, 0.287910f, 0.006600f, 0.265960f, -0.285910f, 0.283300f, 0.100780f, -0.041980f, -0.170120f, -0.060060f, 0.026780f, 0.086210f, 0.024530f, 0.220960f, -0.091880f, -0.007330f, 0.206520f, 0.233510f, -0.266320f, -0.093820f, 0.104480f, -0.059790f, 0.219820f, 0.136020f, 0.140310f, 0.133730f, -0.275150f, -0.089410f, -0.059670f, 0.218390f, -0.216810f, 0.220750f, -0.241180f, -0.026410f, 0.082580f, -0.074650f, -0.148280f, 0.258940f, -0.131860f, -0.081900f, -0.122960f, 0.202260f, 0.168720f, -0.072230f, 0.166550f, 0.094160f, 0.236120f, 0.153450f, -0.096430f, -0.173610f, 0.180290f, 0.267530f, -0.163130f, -0.064520f, -0.272960f, 0.087800f, -0.214050f, -0.191790f, 0.282600f, -0.082490f, -0.117500f, -0.032380f, 0.177620f, 0.238040f, 0.104170f, 0.051110f, -0.238380f, -0.242310f, -0.004220f, 0.039370f, -0.130300f, 0.128850f, 0.174220f, 0.162510f, -0.138770f, 0.080760f, 0.228800f, -0.023910f, -0.093060f, 0.100870f, -0.075550f, 0.136260f, -0.112530f, -0.265380f, -0.048190f, 0.175770f, -0.225560f, -0.235320f, -0.153660f, 0.072040f, 0.169820f, -0.021650f, 0.220750f, 0.018460f, -0.248730f, -0.147680f, 0.245160f, -0.008940f, 0.126940f, -0.285990f, 0.006460f, -0.033590f, -0.216030f, -0.248140f, 0.161380f, -0.115490f, 0.249560f, 0.111210f, -0.132080f, 0.252510f, 0.130440f, 0.202920f, -0.010590f, 0.287720f, 0.018370f, -0.133550f, -0.234250f, 0.173470f, 0.137370f, -0.155900f, 0.198710f, 0.141360f, 0.067720f, -0.212580f, 0.088670f, 0.041910f, -0.014670f, -0.235780f, -0.149920f, -0.250290f, 0.020610f, -0.006000f, -0.022480f, -0.047710f, -0.211720f, 0.180060f, 0.066840f, 0.038000f, -0.035980f, 0.183730f, -0.215260f, 0.114050f, -0.107100f, 0.091100f, 0.119550f, -0.160170f, -0.286080f, 0.009790f, -0.095690f, -0.252870f, -0.084590f, 0.002760f, -0.120360f, -0.090690f, 0.002340f, -0.203340f, 0.092760f, -0.114640f, 0.271550f, 0.138900f, -0.090640f, 0.036170f, 0.109890f, 0.286490f, -0.033940f, 0.148310f, -0.181720f, 0.298050f, -0.039400f, 0.083900f, 0.015860f, 0.253310f, -0.129690f, 0.008210f, 0.073520f, 0.282380f, 0.044070f, 0.127850f, 0.250000f, -0.227010f, 0.033180f, 0.259390f, -0.144250f, -0.084320f, 0.041240f, -0.267290f, -0.250660f, -0.056500f, 0.160770f, 0.278630f, 0.130190f, -0.245120f, 0.265560f, 0.136620f, 0.076550f, 0.275940f, 0.057980f, -0.286640f, 0.040340f, -0.163920f, -0.275550f, -0.173180f, -0.026240f, 0.224530f, -0.292860f, 0.036990f, 0.091210f, -0.187750f, 0.238540f, -0.015870f, -0.079620f, -0.131220f, 0.267530f, -0.182520f, 0.255840f, 0.196230f, -0.114680f, 0.206010f, -0.160100f, -0.128430f, -0.114960f, 0.186190f, -0.193560f, -0.042700f, 0.064640f, 0.033840f, -0.118010f, -0.148650f, -0.166530f, 0.198760f, 0.260100f, -0.260640f, -0.034410f, 0.193030f, -0.122660f, 0.072360f, 0.000550f, 0.269700f, -0.275450f, -0.128840f, 0.040780f, 0.170090f, 0.286190f, -0.141870f, 0.175150f, 0.170320f, -0.164550f, 0.252190f, 0.137890f, 0.273210f, 0.021270f, 0.206690f, -0.036410f, -0.281310f, 0.123000f, -0.141960f, -0.185320f, -0.120140f, 0.256140f, 0.088560f, 0.221250f, -0.258890f, 0.219460f, -0.252850f, 0.257920f, 0.240480f, 0.034240f, 0.243350f, -0.231580f, 0.243980f, 0.274260f, 0.250270f, -0.098870f, -0.012500f, -0.055240f, 0.164110f, 0.188840f, 0.062680f, 0.271330f, 0.256490f, -0.053420f, 0.065500f, 0.030480f, -0.163030f, -0.257580f, 0.036770f, 0.110160f, -0.079430f, -0.218250f, -0.091930f, 0.070990f, -0.162920f, 0.007690f, 0.275940f, -0.259310f, 0.009680f, -0.210990f, -0.231390f, 0.218460f, -0.054930f, 0.032600f, 0.204740f, -0.193610f, -0.174750f, 0.022170f, -0.177940f, -0.067780f, 0.286210f, -0.281370f, -0.076340f, -0.079350f, 0.210300f, 0.095650f, 0.233630f, -0.202440f, -0.255130f, 0.046600f, -0.263980f, 0.269760f, -0.144530f, -0.266910f, -0.279030f, 0.111930f, 0.187400f, -0.170630f, -0.093520f, 0.190960f, 0.205730f, -0.186090f, -0.040590f, -0.102980f, 0.267470f, 0.237160f, -0.119750f, -0.172110f, -0.158070f, -0.205810f, -0.156260f, -0.161230f, 0.136270f, -0.118810f, -0.215070f, -0.226110f, 0.102490f, 0.169910f, 0.181560f, 0.127800f, 0.028870f, 0.101740f, 0.232420f, -0.038350f, 0.056880f, 0.106450f, 0.131550f, -0.174470f, -0.183760f, 0.248540f, 0.157440f, 0.149370f, -0.047960f, -0.069930f, 0.182050f, 0.186340f, -0.146550f, -0.281170f, 0.207210f, 0.253090f, -0.255290f, 0.222440f, 0.159280f, -0.037160f, 0.019380f, -0.253140f, 0.058880f, -0.283110f, -0.087340f, -0.177540f, 0.055380f, -0.189840f, -0.184070f, -0.113000f, 0.186240f, -0.210430f, -0.129990f, 0.114500f, 0.269850f, 0.208470f, 0.055980f, 0.221740f, 0.041530f, -0.059860f, 0.083700f, 0.178770f, 0.064210f, 0.104340f, -0.032270f, -0.235190f, -0.159680f, -0.084570f, -0.017880f, 0.166650f, 0.037700f, -0.169770f, -0.090340f, 0.127700f, -0.078100f, 0.069320f, 0.046230f, 0.184200f, -0.140620f, -0.233960f, 0.152270f, 0.200580f, -0.181440f, 0.250130f, -0.089540f, 0.092020f, -0.192780f, 0.060750f, 0.219700f, -0.057080f, -0.081500f, -0.158250f, -0.000560f, 0.037640f, 0.135660f, 0.075980f, -0.182070f, 0.155580f, 0.268190f, 0.149040f, 0.198920f, 0.240910f, -0.233130f, -0.235030f, -0.135870f, 0.215480f, -0.218580f, -0.135080f, 0.068580f, -0.062270f, -0.006960f, -0.258280f, -0.244170f, 0.216130f, 0.173730f, 0.140520f, -0.255220f, -0.106400f, 0.056530f, -0.121880f, 0.197180f, 0.011190f, -0.099400f, 0.042430f, 0.256850f, 0.010230f, 0.183430f, -0.090690f, -0.048430f, -0.029640f, -0.249290f, -0.078000f, 0.041320f, -0.184660f, -0.208880f, -0.137570f, -0.219260f, 0.279960f, 0.132360f, 0.081550f, -0.057940f, -0.155150f, -0.071930f, -0.265480f, 0.194820f, -0.001610f, -0.034570f, -0.035140f, 0.121690f, -0.260290f, -0.011490f, -0.010610f, 0.210630f, -0.195860f, 0.263560f, 0.024700f, 0.067480f, 0.220510f, -0.150000f, 0.156740f, -0.102030f, 0.017840f, -0.192230f, -0.125930f, -0.171480f, 0.099760f, 0.018760f, -0.278520f, 0.207520f, 0.246280f, -0.244050f, -0.283420f, 0.218940f, 0.260850f, -0.228250f, 0.061540f, -0.035400f, 0.265330f, -0.112810f, 0.269650f, 0.121730f, 0.252570f, -0.137050f, -0.003570f, 0.117300f, 0.148280f, -0.188330f, -0.057580f, 0.180130f, 0.246100f, 0.104110f, -0.248340f, -0.096000f, -0.003790f, 0.035610f, -0.183160f, -0.240870f, 0.201550f, 0.215490f, -0.243840f, -0.164730f, -0.110290f, -0.163420f, 0.206240f, 0.001890f, -0.105320f, 0.264820f, -0.096440f, 0.216000f, -0.180130f, -0.286720f, -0.278400f, 0.091780f, 0.042820f, 0.171800f, 0.195920f, -0.128230f, 0.169800f, -0.237710f, -0.278890f, 0.133860f, 0.075930f, -0.098370f, 0.177210f, 0.277080f, 0.194390f, 0.004440f, -0.037200f, 0.284360f, 0.279230f, 0.179640f, 0.162080f, -0.203660f, 0.136060f, 0.264870f, 0.154710f, 0.283050f, -0.105580f, 0.172170f, 0.060890f, 0.099700f, 0.095630f, -0.065080f, -0.237460f, 0.276080f, -0.161080f, -0.171750f, -0.035610f, 0.019760f, -0.199850f, 0.253610f, -0.088600f, -0.277400f };
static const float growbox_environment_model_layer_1_biases[32] = { 0.000000f, 0.000270f, 0.000000f, 0.027740f, -0.001430f, 0.011750f, 0.009730f, 0.000000f, 0.008800f, -0.000540f, 0.024330f, -0.001050f, -0.014200f, 0.006740f, 0.016400f, 0.019640f, 0.003560f, 0.012080f, 0.007090f, 0.000000f, 0.000000f, 0.044830f, -0.003620f, 0.000000f, -0.001260f, 0.000030f, 0.009350f, 0.031390f, -0.013820f, -0.000040f, 0.022030f, 0.000000f };
static const float growbox_environment_model_layer_1_weights[1024] = { -0.276160f, -0.217900f, -0.237030f, -0.219440f, -0.297460f, -0.289400f, -0.050500f, -0.071930f, -0.021770f, 0.174900f, -0.177990f, 0.021110f, -0.097980f, -0.139850f, -0.232390f, 0.114440f, 0.274820f, -0.169880f, 0.280260f, 0.128720f, -0.281670f, 0.175680f, -0.187610f, 0.091650f, -0.231010f, -0.021240f, 0.175540f, -0.152440f, -0.021980f, 0.123120f, -0.259150f, -0.203390f, 0.188630f, 0.205590f, -0.135720f, 0.087090f, 0.277460f, -0.182800f, 0.079430f, -0.012050f, -0.013330f, -0.145650f, 0.041050f, 0.067610f, 0.161010f, 0.195900f, -0.081140f, -0.030930f, 0.142760f, 0.011720f, 0.201360f, 0.189430f, -0.108880f, 0.068620f, 0.222320f, -0.174080f, 0.057270f, -0.180180f, 0.298270f, 0.071860f, -0.202600f, -0.036720f, 0.224660f, -0.157300f, 0.019360f, -0.057410f, -0.217250f, 0.231170f, 0.200230f, 0.123100f, -0.078950f, -0.143540f, 0.101390f, 0.283610f, -0.123760f, 0.220480f, 0.228480f, -0.213990f, -0.166940f, -0.155050f, 0.098020f, 0.017310f, -0.212360f, -0.200460f, 0.209540f, -0.227790f, 0.237230f, -0.020040f, 0.210340f, 0.302910f, -0.051990f, -0.190130f, 0.264540f, -0.178420f, 0.303150f, 0.137970f, -0.268590f, 0.240980f, 0.260440f, 0.186480f, 0.059140f, -0.100980f, -0.024430f, 0.181140f, -0.163740f, -0.241640f, 0.296720f, 0.286930f, 0.240070f, -0.247360f, -0.082880f, 0.028600f, -0.263940f, -0.055720f, 0.240500f, 0.031610f, 0.247030f, 0.290560f, 0.077910f, 0.274670f, 0.031210f, 0.242640f, 0.214180f, -0.120810f, 0.157060f, 0.043580f, 0.303440f, 0.146930f, 0.278140f, -0.157500f, -0.098830f, 0.062150f, 0.266430f, -0.107900f, 0.065720f, -0.105980f, -0.014790f, -0.072190f, -0.071760f, 0.122380f, 0.235520f, -0.000630f, -0.145510f, -0.163870f, -0.000370f, 0.255990f, 0.134290f, -0.080740f, 0.269270f, 0.115630f, -0.135430f, 0.153660f, -0.301730f, -0.005830f, 0.267730f, -0.272340f, 0.167590f, -0.188650f, -0.100660f, -0.220920f, -0.034340f, 0.023500f, 0.207360f, 0.202330f, -0.090500f, 0.155670f, 0.073860f, -0.202420f, 0.073910f, -0.134940f, -0.047320f, -0.005810f, 0.012890f, 0.183920f, -0.007320f, 0.287540f, 0.258880f, 0.023200f, -0.165220f, 0.130420f, -0.146930f, -0.166840f, 0.056450f, 0.095110f, -0.266430f, 0.152130f, 0.291420f, 0.156710f, 0.171880f, 0.204470f, -0.154700f, -0.179120f, -0.244330f, -0.137750f, 0.083110f, 0.242030f, -0.204220f, 0.039700f, 0.038090f, 0.179870f, -0.201820f, -0.027740f, 0.270760f, 0.014060f, 0.022640f, 0.097920f, -0.157230f, -0.221120f, 0.297360f, -0.293710f, 0.190400f, -0.089160f, 0.069160f, -0.196020f, 0.273210f, 0.278220f, 0.171760f, -0.252920f, 0.097950f, -0.027700f, -0.251570f, -0.247050f, -0.138690f, 0.208470f, -0.128960f, 0.230510f, -0.142650f, 0.081430f, 0.154060f, -0.191290f, -0.217670f, -0.044600f, 0.254930f, -0.179430f, 0.082010f, 0.144540f, 0.177070f, 0.302650f, 0.062950f, -0.253730f, 0.215500f, 0.039660f, 0.115670f, 0.231890f, 0.144530f, -0.179140f, -0.069730f, -0.191740f, -0.299570f, 0.165520f, -0.124680f, -0.254640f, -0.155930f, 0.138950f, 0.037690f, 0.158150f, 0.135600f, 0.115690f, 0.032600f, 0.226000f, -0.265190f, -0.217280f, -0.127390f, -0.139850f, -0.056660f, 0.270340f, -0.013930f, -0.177890f, 0.072430f, 0.282410f, 0.158930f, 0.206620f, -0.242960f, 0.165600f, 0.268710f, -0.262200f, -0.105460f, 0.104860f, 0.248540f, 0.000480f, 0.043320f, 0.071270f, -0.274230f, -0.152290f, -0.036910f, -0.048770f, -0.192720f, -0.194220f, 0.302550f, 0.300160f, 0.288770f, -0.246550f, 0.191370f, 0.297330f, -0.262130f, -0.040480f, 0.163810f, 0.041620f, 0.054650f, -0.063630f, -0.165080f, -0.214120f, -0.231520f, -0.229490f, -0.001380f, 0.148720f, 0.275640f, -0.033520f, 0.037300f, 0.297680f, 0.006080f, -0.193180f, -0.258180f, 0.080270f, 0.217770f, 0.098870f, 0.019140f, 0.132720f, 0.151260f, -0.046770f, 0.197330f, 0.181920f, -0.080160f, -0.152890f, 0.124760f, -0.180840f, 0.134590f, 0.078710f, 0.234830f, 0.046710f, 0.113950f, -0.048780f, -0.205470f, -0.207010f, -0.283560f, -0.033160f, 0.080780f, 0.061320f, 0.136000f, 0.000750f, -0.207230f, 0.165890f, -0.209420f, 0.093430f, -0.006870f, 0.054580f, 0.291130f, 0.045530f, -0.204390f, 0.219160f, -0.002920f, -0.212160f, -0.248890f, 0.266490f, -0.130890f, -0.252080f, 0.117540f, 0.085670f, 0.057830f, -0.068430f, 0.205320f, -0.238170f, 0.267680f, 0.236130f, -0.015840f, 0.269870f, -0.027140f, -0.123050f, -0.000240f, 0.087710f, -0.008300f, 0.037370f, 0.102610f, -0.140070f, 0.136860f, -0.098900f, -0.058900f, -0.220810f, -0.138980f, -0.109160f, -0.009700f, 0.223990f, -0.302950f, 0.118970f, 0.127050f, -0.004280f, -0.044420f, -0.221970f, -0.063480f, -0.187690f, -0.092750f, -0.247250f, 0.028250f, 0.074720f, 0.107520f, 0.191070f, 0.004870f, -0.220290f, -0.031870f, 0.040510f, 0.236060f, 0.298100f, -0.234520f, 0.255670f, -0.085340f, -0.171120f, -0.273620f, -0.063830f, -0.114810f, -0.264740f, 0.217230f, -0.287580f, 0.123440f, -0.280870f, 0.015270f, -0.218000f, -0.261130f, 0.296390f, -0.021930f, -0.072060f, -0.154130f, -0.039520f, -0.028160f, 0.245930f, -0.017810f, -0.120610f, -0.023660f, 0.304140f, -0.208910f, -0.069320f, -0.304830f, -0.249910f, 0.200670f, -0.121830f, -0.275170f, -0.226180f, -0.032490f, 0.112690f, -0.078320f, -0.188000f, 0.127510f, 0.043380f, 0.090730f, 0.141550f, 0.114470f, -0.171550f, -0.107580f, 0.243700f, 0.255630f, 0.077170f, 0.202270f, 0.060480f, 0.234860f, -0.124920f, -0.059450f, 0.080370f, -0.099500f, 0.272100f, -0.011400f, -0.076090f, 0.258180f, -0.225700f, -0.251580f, -0.244240f, 0.164890f, -0.289420f, 0.297890f, 0.042560f, 0.113280f, -0.157630f, -0.225750f, 0.084180f, 0.095900f, -0.077610f, 0.298650f, -0.003840f, -0.212880f, 0.020660f, 0.028500f, -0.252350f, 0.193900f, -0.229220f, -0.158100f, 0.160940f, 0.152200f, 0.226980f, -0.191550f, 0.173700f, -0.130240f, 0.280690f, -0.287870f, 0.161070f, -0.021130f, 0.132630f, 0.097770f, -0.280210f, 0.271590f, 0.188820f, -0.199500f, -0.035460f, 0.084820f, -0.004370f, 0.299380f, -0.258570f, 0.206870f, -0.294130f, -0.066950f, -0.216240f, 0.086950f, -0.137040f, -0.270810f, 0.043100f, 0.291660f, -0.224560f, 0.112660f, 0.181200f, 0.054750f, 0.075560f, 0.267690f, 0.203150f, 0.117800f, -0.155620f, 0.115000f, 0.194820f, -0.182230f, 0.131190f, -0.026540f, -0.014200f, 0.253700f, 0.169760f, 0.196750f, 0.239710f, -0.278770f, -0.111850f, -0.021720f, 0.108000f, 0.173050f, 0.178690f, 0.146680f, 0.289390f, 0.158040f, -0.179110f, -0.148550f, -0.221990f, -0.223950f, 0.108270f, 0.096990f, -0.014780f, -0.146420f, -0.222220f, -0.146710f, 0.202240f, 0.030260f, -0.145500f, 0.101880f, -0.198570f, 0.062710f, 0.074660f, -0.147070f, 0.309370f, -0.072810f, 0.249430f, -0.085170f, 0.167190f, 0.204760f, -0.230340f, 0.139740f, -0.033530f, 0.141110f, 0.040650f, -0.214800f, -0.091990f, 0.000610f, 0.068970f, -0.039860f, -0.137710f, -0.117790f, 0.085090f, -0.104900f, -0.294490f, -0.237450f, -0.018700f, -0.248830f, -0.192020f, -0.256990f, -0.271800f, 0.134340f, 0.187580f, -0.002320f, 0.120900f, 0.069520f, 0.175800f, -0.016140f, -0.025070f, -0.048000f, -0.174850f, -0.118260f, 0.010590f, -0.268550f, 0.121200f, -0.123230f, -0.022990f, -0.047610f, -0.190850f, -0.099900f, -0.234580f, -0.282470f, 0.169140f, -0.169300f, -0.004930f, 0.040500f, 0.281700f, 0.156290f, 0.063210f, -0.136170f, -0.075780f, 0.229810f, 0.220180f, 0.198040f, -0.239830f, -0.155530f, -0.046140f, 0.137240f, -0.200630f, -0.255320f, 0.182100f, 0.230470f, -0.266810f, 0.159720f, 0.157760f, 0.104250f, 0.290910f, -0.128850f, -0.017800f, 0.214450f, 0.135110f, -0.078830f, 0.123270f, 0.073880f, -0.013850f, -0.129290f, -0.164730f, 0.289360f, 0.250790f, -0.076000f, -0.127470f, -0.110520f, -0.017490f, 0.172870f, 0.079560f, -0.132960f, 0.142140f, 0.053900f, -0.099850f, -0.233980f, 0.134970f, 0.294380f, 0.100020f, -0.272500f, 0.042780f, 0.257770f, -0.270630f, 0.276160f, -0.027890f, -0.304350f, -0.284200f, -0.268150f, 0.151130f, 0.286540f, -0.217970f, 0.177680f, -0.243260f, -0.048430f, 0.255130f, -0.219570f, 0.274920f, 0.234620f, 0.228550f, 0.164490f, -0.214740f, 0.240770f, -0.282010f, 0.017490f, 0.018290f, 0.204250f, 0.105110f, 0.151830f, -0.070430f, -0.166620f, -0.276640f, -0.299440f, -0.305400f, -0.072000f, 0.350930f, -0.118310f, 0.119940f, -0.044430f, 0.185580f, -0.069780f, -0.150920f, 0.282340f, -0.098630f, 0.082310f, -0.222100f, -0.199540f, 0.229240f, -0.023160f, 0.095740f, -0.277390f, -0.146220f, 0.182910f, 0.074680f, 0.138770f, 0.133460f, 0.296760f, -0.081780f, -0.254620f, 0.082740f, 0.213380f, 0.134040f, -0.219890f, -0.088710f, -0.034380f, 0.038360f, -0.256620f, 0.014160f, 0.141740f, 0.003440f, 0.241350f, -0.115390f, 0.110190f, 0.147790f, -0.240250f, 0.295260f, -0.002920f, 0.189640f, 0.268670f, 0.063800f, -0.023000f, -0.248090f, -0.284570f, 0.198490f, 0.024170f, -0.029780f, -0.232960f, -0.127890f, 0.024210f, 0.200890f, 0.271990f, -0.218420f, 0.216890f, 0.165480f, 0.046390f, -0.224030f, 0.106510f, -0.238260f, -0.280690f, -0.085970f, 0.117920f, 0.201460f, 0.040820f, 0.052140f, 0.100290f, 0.110880f, 0.189480f, -0.240710f, -0.000840f, -0.054270f, 0.019170f, 0.037400f, 0.231890f, 0.322270f, 0.134530f, 0.098830f, 0.175730f, -0.259140f, -0.230530f, 0.151840f, -0.127410f, -0.107490f, -0.112680f, -0.038810f, 0.129930f, 0.223520f, 0.052900f, 0.140280f, 0.307010f, -0.267090f, 0.194500f, -0.148820f, 0.278530f, 0.202670f, -0.273900f, 0.138040f, 0.225870f, -0.131590f, 0.104300f, 0.292600f, 0.274950f, 0.194570f, -0.054200f, 0.183610f, -0.013160f, 0.319660f, -0.030110f, 0.230410f, -0.129380f, 0.012980f, -0.116530f, 0.170050f, -0.130330f, -0.182330f, 0.233620f, 0.039960f, 0.125510f, 0.172060f, 0.083050f, 0.086130f, 0.134910f, -0.198820f, -0.184850f, -0.091600f, 0.148780f, -0.114840f, 0.117200f, -0.214890f, 0.034520f, 0.273910f, -0.004050f, -0.112590f, 0.249610f, -0.254070f, -0.100970f, 0.040540f, -0.081650f, -0.166130f, -0.251170f, 0.255350f, 0.254800f, -0.072060f, 0.252860f, -0.210030f, -0.102220f, -0.006430f, -0.133880f, -0.199880f, -0.090830f, 0.299770f, -0.011700f, -0.106450f, 0.153820f, 0.075250f, -0.296790f, -0.180620f, -0.298880f, 0.113880f, -0.111670f, -0.297050f, 0.063220f, -0.236550f, 0.275280f, 0.274800f, 0.101390f, 0.156850f, -0.188410f, -0.173440f, -0.218570f, 0.180990f, -0.215480f, 0.176000f, 0.239150f, -0.079490f, -0.113280f, 0.047150f, 0.247410f, -0.104030f, -0.172950f, 0.222160f, 0.207350f, -0.105090f, 0.112500f, -0.026670f, -0.100450f, -0.301650f, 0.012980f, -0.041040f, -0.144310f, -0.178160f, -0.091560f, -0.003380f, -0.261300f, 0.244870f, -0.248400f, -0.208060f, 0.303740f, -0.065450f, -0.304760f, 0.242640f, -0.299110f, -0.236340f, -0.230700f, -0.099580f, -0.035370f, -0.132010f, 0.029800f, 0.004250f, 0.175140f, 0.069710f, -0.118310f, 0.046870f, -0.140580f, -0.301410f, 0.205510f, 0.293550f, -0.009640f, 0.280410f, 0.235290f, -0.128700f, -0.291380f, 0.176620f, 0.250560f, 0.246800f, 0.231580f, -0.164910f, 0.301220f, -0.138630f, 0.000310f, -0.042690f, 0.060500f, -0.119530f, -0.127600f, -0.140470f, 0.014730f, -0.075690f, -0.034920f, -0.086520f, 0.004670f, -0.214630f, 0.199090f, 0.198740f, -0.079380f, 0.191700f, -0.181450f, 0.035930f, -0.047690f, -0.076540f, -0.199560f, -0.127210f, -0.171570f, 0.301520f, 0.139220f, -0.303420f, 0.265700f, 0.050180f, 0.150740f, 0.087300f, 0.268350f, 0.242280f, 0.279520f, -0.093080f, -0.206920f, -0.078680f, -0.166670f, 0.060030f, -0.260800f, -0.123980f, -0.136920f, 0.074060f, 0.276190f, -0.237900f, 0.008240f, -0.018640f, 0.217050f, 0.100780f, 0.078150f, 0.110640f, -0.129860f, 0.166800f, 0.217510f, -0.256480f, -0.118060f, -0.152070f, 0.039170f, -0.248980f, -0.042440f, -0.091990f, 0.222270f, 0.012660f, 0.183790f, 0.079470f, 0.077610f, 0.123710f, -0.108730f, -0.235880f, 0.261730f, -0.019270f, 0.111530f, 0.101680f, -0.188750f, -0.047090f, 0.316470f, -0.010920f, -0.041040f, -0.060990f, -0.292200f, -0.068310f, -0.018730f, -0.202700f, 0.073710f, 0.062100f, 0.115070f, 0.193770f, 0.022740f, 0.229800f, 0.210620f, -0.284640f, -0.180140f, -0.093390f, -0.177760f, 0.228980f, -0.257470f, -0.234460f, 0.094710f, 0.044210f };
static const float growbox_environment_model_layer_2_biases[4] = { -0.037740f, -0.050280f, -0.056050f, -0.038100f };
static const float growbox_environment_model_layer_2_weights[128] = { -0.004290f, -0.330240f, 0.192740f, -0.112400f, 0.139210f, -0.402140f, 0.017220f, 0.362000f, 0.161030f, 0.398930f, -0.328810f, -0.283340f, -0.260910f, -0.431830f, 0.200180f, -0.327840f, -0.345720f, 0.088020f, 0.231510f, -0.164240f, -0.081040f, -0.197870f, -0.011000f, 0.001600f, -0.246500f, 0.145850f, -0.069600f, -0.201190f, 0.352930f, -0.009020f, -0.293290f, 0.073900f, 0.117290f, -0.356540f, 0.150110f, -0.159150f, -0.297890f, -0.078010f, -0.094920f, 0.261730f, 0.344550f, -0.407650f, -0.134350f, -0.290010f, -0.043790f, 0.211510f, 0.131540f, 0.248380f, 0.113270f, -0.026160f, 0.086410f, 0.167050f, -0.092620f, -0.056350f, -0.085030f, 0.023730f, -0.329240f, -0.122810f, 0.133250f, -0.212330f, -0.336180f, -0.095620f, -0.206600f, 0.254660f, -0.306090f, -0.285140f, -0.129570f, 0.393020f, -0.218800f, -0.268420f, 0.056350f, 0.258540f, -0.185860f, -0.118090f, 0.240260f, -0.214690f, -0.341850f, 0.332370f, 0.178830f, 0.320840f, -0.217730f, -0.194010f, 0.301870f, 0.338550f, 0.332840f, -0.412780f, -0.421850f, -0.404890f, 0.077690f, 0.106470f, -0.070360f, -0.113730f, 0.276400f, -0.015920f, 0.053930f, -0.177440f, -0.384530f, -0.042340f, 0.360560f, -0.281580f, -0.238160f, -0.186290f, -0.103260f, 0.256280f, -0.240830f, -0.319410f, -0.096510f, 0.325160f, -0.248440f, -0.373470f, 0.095840f, -0.297390f, -0.331590f, 0.199070f, 0.239970f, 0.108360f, -0.355260f, 0.320350f, 0.077540f, 0.263770f, -0.316420f, 0.180030f, -0.212740f, -0.350160f, 0.242940f, 0.298590f, -0.123060f, 0.347140f };
static float growbox_environment_model_buf1[40];
static float growbox_environment_model_buf2[40];
static const EmlNetLayer growbox_environment_model_layers[3] = {
{ 32, 40, growbox_environment_model_layer_0_weights, growbox_environment_model_layer_0_biases, EmlNetActivationRelu },
{ 32, 32, growbox_environment_model_layer_1_weights, growbox_environment_model_layer_1_biases, EmlNetActivationRelu },
{ 4, 32, growbox_environment_model_layer_2_weights, growbox_environment_model_layer_2_biases, EmlNetActivationLogistic } };
static EmlNet growbox_environment_model = { 3, growbox_environment_model_layers, growbox_environment_model_buf1, growbox_environment_model_buf2, 40 };

    int32_t
    growbox_environment_model_predict(const float *features, int32_t n_features)
    {
        return eml_net_predict(&growbox_environment_model, features, n_features);
    }


    int32_t
    growbox_environment_model_regress(const float *features, int32_t n_features, float *out, int32_t out_length)
    {
        return eml_net_regress(&growbox_environment_model, features, n_features, out, out_length);
    }


    float
    growbox_environment_model_regress1(const float *features, int32_t n_features)
    {
        return eml_net_regress1(&growbox_environment_model, features, n_features);
    }

namespace generated_model {

inline constexpr std::size_t kInputCount = 40U;
inline constexpr std::size_t kOutputCount = 4U;
inline constexpr char kSchemaHash[] = "843401551234";
inline constexpr char kModelVersion[] = "environment-mlp-v1-quick-d9e7790d6b99";
inline constexpr char kWeightHash[] = "d9e7790d6b99";

inline bool infer(const float* features, float* outputs) {
    if (features == nullptr || outputs == nullptr) {
        return false;
    }
    return growbox_environment_model_regress(
        features,
        static_cast<int32_t>(kInputCount),
        outputs,
        static_cast<int32_t>(kOutputCount)) == EmlOk;
}

}  // namespace generated_model
